<GAP_2023_3_13_0_18_53_44_131>
<Potential label="GAP_2023_3_13_0_18_53_44_131" init_args="IP GAP label=GAP_2023_3_13_0_18_53_44_131"/>
<GAP_params label="GAP_2023_3_13_0_18_53_44_131" gap_version="1657795613">
  <GAP_data do_core="F">
    <e0 Z="1" value=".00000000000000000E+000"/>
    <e0 Z="2" value=".00000000000000000E+000"/>
    <e0 Z="3" value=".00000000000000000E+000"/>
    <e0 Z="4" value=".00000000000000000E+000"/>
    <e0 Z="5" value=".00000000000000000E+000"/>
    <e0 Z="6" value=".00000000000000000E+000"/>
    <e0 Z="7" value=".00000000000000000E+000"/>
    <e0 Z="8" value="-303.44000150320039"/>
    <e0 Z="9" value=".00000000000000000E+000"/>
    <e0 Z="10" value=".00000000000000000E+000"/>
    <e0 Z="11" value=".00000000000000000E+000"/>
    <e0 Z="12" value=".00000000000000000E+000"/>
    <e0 Z="13" value="-303.44000150320039"/>
    <e0 Z="14" value=".00000000000000000E+000"/>
    <e0 Z="15" value=".00000000000000000E+000"/>
    <e0 Z="16" value=".00000000000000000E+000"/>
    <e0 Z="17" value=".00000000000000000E+000"/>
    <e0 Z="18" value=".00000000000000000E+000"/>
    <e0 Z="19" value=".00000000000000000E+000"/>
    <e0 Z="20" value=".00000000000000000E+000"/>
    <e0 Z="21" value=".00000000000000000E+000"/>
    <e0 Z="22" value=".00000000000000000E+000"/>
    <e0 Z="23" value=".00000000000000000E+000"/>
    <e0 Z="24" value=".00000000000000000E+000"/>
    <e0 Z="25" value=".00000000000000000E+000"/>
    <e0 Z="26" value=".00000000000000000E+000"/>
    <e0 Z="27" value=".00000000000000000E+000"/>
    <e0 Z="28" value=".00000000000000000E+000"/>
    <e0 Z="29" value=".00000000000000000E+000"/>
    <e0 Z="30" value=".00000000000000000E+000"/>
    <e0 Z="31" value=".00000000000000000E+000"/>
    <e0 Z="32" value=".00000000000000000E+000"/>
    <e0 Z="33" value=".00000000000000000E+000"/>
    <e0 Z="34" value=".00000000000000000E+000"/>
    <e0 Z="35" value=".00000000000000000E+000"/>
    <e0 Z="36" value=".00000000000000000E+000"/>
    <e0 Z="37" value=".00000000000000000E+000"/>
    <e0 Z="38" value=".00000000000000000E+000"/>
    <e0 Z="39" value=".00000000000000000E+000"/>
    <e0 Z="40" value=".00000000000000000E+000"/>
    <e0 Z="41" value=".00000000000000000E+000"/>
    <e0 Z="42" value=".00000000000000000E+000"/>
    <e0 Z="43" value=".00000000000000000E+000"/>
    <e0 Z="44" value=".00000000000000000E+000"/>
    <e0 Z="45" value=".00000000000000000E+000"/>
    <e0 Z="46" value=".00000000000000000E+000"/>
    <e0 Z="47" value=".00000000000000000E+000"/>
    <e0 Z="48" value=".00000000000000000E+000"/>
    <e0 Z="49" value=".00000000000000000E+000"/>
    <e0 Z="50" value=".00000000000000000E+000"/>
    <e0 Z="51" value=".00000000000000000E+000"/>
    <e0 Z="52" value=".00000000000000000E+000"/>
    <e0 Z="53" value=".00000000000000000E+000"/>
    <e0 Z="54" value=".00000000000000000E+000"/>
    <e0 Z="55" value=".00000000000000000E+000"/>
    <e0 Z="56" value=".00000000000000000E+000"/>
    <e0 Z="57" value=".00000000000000000E+000"/>
    <e0 Z="58" value=".00000000000000000E+000"/>
    <e0 Z="59" value=".00000000000000000E+000"/>
    <e0 Z="60" value=".00000000000000000E+000"/>
    <e0 Z="61" value=".00000000000000000E+000"/>
    <e0 Z="62" value=".00000000000000000E+000"/>
    <e0 Z="63" value=".00000000000000000E+000"/>
    <e0 Z="64" value=".00000000000000000E+000"/>
    <e0 Z="65" value=".00000000000000000E+000"/>
    <e0 Z="66" value=".00000000000000000E+000"/>
    <e0 Z="67" value=".00000000000000000E+000"/>
    <e0 Z="68" value=".00000000000000000E+000"/>
    <e0 Z="69" value=".00000000000000000E+000"/>
    <e0 Z="70" value=".00000000000000000E+000"/>
    <e0 Z="71" value=".00000000000000000E+000"/>
    <e0 Z="72" value=".00000000000000000E+000"/>
    <e0 Z="73" value=".00000000000000000E+000"/>
    <e0 Z="74" value=".00000000000000000E+000"/>
    <e0 Z="75" value=".00000000000000000E+000"/>
    <e0 Z="76" value=".00000000000000000E+000"/>
    <e0 Z="77" value=".00000000000000000E+000"/>
    <e0 Z="78" value=".00000000000000000E+000"/>
    <e0 Z="79" value=".00000000000000000E+000"/>
    <e0 Z="80" value=".00000000000000000E+000"/>
    <e0 Z="81" value=".00000000000000000E+000"/>
    <e0 Z="82" value=".00000000000000000E+000"/>
    <e0 Z="83" value=".00000000000000000E+000"/>
    <e0 Z="84" value=".00000000000000000E+000"/>
    <e0 Z="85" value=".00000000000000000E+000"/>
    <e0 Z="86" value=".00000000000000000E+000"/>
    <e0 Z="87" value=".00000000000000000E+000"/>
    <e0 Z="88" value=".00000000000000000E+000"/>
    <e0 Z="89" value=".00000000000000000E+000"/>
    <e0 Z="90" value=".00000000000000000E+000"/>
    <e0 Z="91" value=".00000000000000000E+000"/>
    <e0 Z="92" value=".00000000000000000E+000"/>
    <e0 Z="93" value=".00000000000000000E+000"/>
    <e0 Z="94" value=".00000000000000000E+000"/>
    <e0 Z="95" value=".00000000000000000E+000"/>
    <e0 Z="96" value=".00000000000000000E+000"/>
    <e0 Z="97" value=".00000000000000000E+000"/>
    <e0 Z="98" value=".00000000000000000E+000"/>
    <e0 Z="99" value=".00000000000000000E+000"/>
    <e0 Z="100" value=".00000000000000000E+000"/>
    <e0 Z="101" value=".00000000000000000E+000"/>
    <e0 Z="102" value=".00000000000000000E+000"/>
    <e0 Z="103" value=".00000000000000000E+000"/>
    <e0 Z="104" value=".00000000000000000E+000"/>
    <e0 Z="105" value=".00000000000000000E+000"/>
    <e0 Z="106" value=".00000000000000000E+000"/>
    <e0 Z="107" value=".00000000000000000E+000"/>
    <e0 Z="108" value=".00000000000000000E+000"/>
    <e0 Z="109" value=".00000000000000000E+000"/>
    <e0 Z="110" value=".00000000000000000E+000"/>
    <e0 Z="111" value=".00000000000000000E+000"/>
    <e0 Z="112" value=".00000000000000000E+000"/>
    <e0 Z="113" value=".00000000000000000E+000"/>
    <e0 Z="114" value=".00000000000000000E+000"/>
    <e0 Z="115" value=".00000000000000000E+000"/>
    <e0 Z="116" value=".00000000000000000E+000"/>
    <e0 Z="117" value=".00000000000000000E+000"/>
    <e0 Z="118" value=".00000000000000000E+000"/>
  </GAP_data>
  <gpSparse label="GAP_2023_3_13_0_18_53_44_131" n_coordinate="5" fitted="T">
    <gpCoordinates label="GAP_2023_3_13_0_18_53_44_1311" dimensions="1" signal_variance="1.0000000000000000" signal_mean=".00000000000000000E+000" sparsified="T" n_permutations="2" covariance_type="1" n_sparseX="20" sparseX_filename="GAP.xml.sparseX.GAP_2023_3_13_0_18_53_44_1311" sparseX_md5sum="5a39834bd20e62f87604b5797975d9d0">
      <theta>  0.10000000000000000E+001 </theta>
      <descriptor> distance_Nb order=2 n_sparse=20 cutoff=4.5 cutoff_transition_width=1.0 compact_clusters covariance_type=ard_se theta_uniform=1.0 sparse_method=uniform f0=0.0               delta=1.0 Z={8 8 }</descriptor>
      <permutation i="1">1  </permutation>
      <permutation i="2">1  </permutation>
      <sparseX i="1" alpha="24591.290358789873" sparseCutoff="1.0000000000000000"/>
      <sparseX i="2" alpha="9026.5960300783554" sparseCutoff=".32660740912811570E-002"/>
      <sparseX i="3" alpha="30429.099021124624" sparseCutoff=".70330543826576419"/>
      <sparseX i="4" alpha="39176.953627536001" sparseCutoff=".51692201905339963E-001"/>
      <sparseX i="5" alpha="4278.7607228247125" sparseCutoff="1.0000000000000000"/>
      <sparseX i="6" alpha="23567.441605313052" sparseCutoff=".87023414499775542"/>
      <sparseX i="7" alpha="-26599.046041264468" sparseCutoff=".42861304834389946"/>
      <sparseX i="8" alpha="-26359.117587513138" sparseCutoff="1.0000000000000000"/>
      <sparseX i="9" alpha="-25880.078300600162" sparseCutoff="1.0000000000000000"/>
      <sparseX i="10" alpha="-717.40341285369664" sparseCutoff=".15895364976856741"/>
      <sparseX i="11" alpha="-14276.829031821115" sparseCutoff=".48880583882699086"/>
      <sparseX i="12" alpha="18535.986504403983" sparseCutoff="1.0000000000000000"/>
      <sparseX i="13" alpha="-21995.201302532423" sparseCutoff=".99323237991574365"/>
      <sparseX i="14" alpha="13014.406169014715" sparseCutoff="1.0000000000000000"/>
      <sparseX i="15" alpha="-908.52122364815341" sparseCutoff="1.0000000000000000"/>
      <sparseX i="16" alpha="26199.645973767449" sparseCutoff="1.0000000000000000"/>
      <sparseX i="17" alpha="-25294.132075733174" sparseCutoff="1.0000000000000000"/>
      <sparseX i="18" alpha="-33280.886388559513" sparseCutoff="1.0000000000000000"/>
      <sparseX i="19" alpha="16905.738837706987" sparseCutoff="1.0000000000000000"/>
      <sparseX i="20" alpha="4579.3435731004465" sparseCutoff="1.0000000000000000"/>
    </gpCoordinates>
    <gpCoordinates label="GAP_2023_3_13_0_18_53_44_1312" dimensions="1" signal_variance="1.0000000000000000" signal_mean=".00000000000000000E+000" sparsified="T" n_permutations="1" covariance_type="1" n_sparseX="20" sparseX_filename="GAP.xml.sparseX.GAP_2023_3_13_0_18_53_44_1312" sparseX_md5sum="7f1c09df7e558f664f3c1676e1666308">
      <theta>  0.10000000000000000E+001 </theta>
      <descriptor> distance_Nb order=2 n_sparse=20 cutoff=4.5 cutoff_transition_width=1.0 compact_clusters covariance_type=ard_se theta_uniform=1.0 sparse_method=uniform f0=0.0               delta=1.0 Z={8 13 }</descriptor>
      <permutation i="1">1  </permutation>
      <sparseX i="1" alpha="-15686.577969692522" sparseCutoff="1.0000000000000000"/>
      <sparseX i="2" alpha="13745.439805296461" sparseCutoff="1.0000000000000000"/>
      <sparseX i="3" alpha="32950.317291084415" sparseCutoff="1.0000000000000000"/>
      <sparseX i="4" alpha="-2833.4949389348531" sparseCutoff=".93642329772744393E-001"/>
      <sparseX i="5" alpha="640.36437246743708" sparseCutoff=".74419362547960022"/>
      <sparseX i="6" alpha="-5327.4443077808592" sparseCutoff=".98218030139135171"/>
      <sparseX i="7" alpha="17725.597527325186" sparseCutoff="1.0000000000000000"/>
      <sparseX i="8" alpha="-12009.885348531496" sparseCutoff="1.0000000000000000"/>
      <sparseX i="9" alpha="11091.266043568477" sparseCutoff=".54751149653160169"/>
      <sparseX i="10" alpha="-5182.7640569381156" sparseCutoff=".22038133058081455"/>
      <sparseX i="11" alpha="9955.9429090132526" sparseCutoff="1.0000000000000000"/>
      <sparseX i="12" alpha="1329.7179303133139" sparseCutoff=".27028047407960387E-002"/>
      <sparseX i="13" alpha="-10851.956127484205" sparseCutoff=".89706882717968961"/>
      <sparseX i="14" alpha="-12615.526933851435" sparseCutoff="1.0000000000000000"/>
      <sparseX i="15" alpha="-28680.933593587150" sparseCutoff="1.0000000000000000"/>
      <sparseX i="16" alpha="-32534.396648402395" sparseCutoff="1.0000000000000000"/>
      <sparseX i="17" alpha="1670.3038981849515" sparseCutoff="1.0000000000000000"/>
      <sparseX i="18" alpha="4546.2592191924396" sparseCutoff="1.0000000000000000"/>
      <sparseX i="19" alpha="6975.4526585308822" sparseCutoff="1.0000000000000000"/>
      <sparseX i="20" alpha="23788.868506950545" sparseCutoff="1.0000000000000000"/>
    </gpCoordinates>
    <gpCoordinates label="GAP_2023_3_13_0_18_53_44_1313" dimensions="1" signal_variance="1.0000000000000000" signal_mean=".00000000000000000E+000" sparsified="T" n_permutations="2" covariance_type="1" n_sparseX="20" sparseX_filename="GAP.xml.sparseX.GAP_2023_3_13_0_18_53_44_1313" sparseX_md5sum="ab1baf9fe7b94959a7eeeac16fb1a4bd">
      <theta>  0.10000000000000000E+001 </theta>
      <descriptor> distance_Nb order=2 n_sparse=20 cutoff=4.5 cutoff_transition_width=1.0 compact_clusters covariance_type=ard_se theta_uniform=1.0 sparse_method=uniform f0=0.0               delta=1.0 Z={13 13 }</descriptor>
      <permutation i="1">1  </permutation>
      <permutation i="2">1  </permutation>
      <sparseX i="1" alpha="2005.8432692012200" sparseCutoff=".66146466747517230"/>
      <sparseX i="2" alpha="-994.24773413849721" sparseCutoff="1.0000000000000000"/>
      <sparseX i="3" alpha="559.93678821739002" sparseCutoff="1.0000000000000000"/>
      <sparseX i="4" alpha="-1618.8573173249101" sparseCutoff="1.0000000000000000"/>
      <sparseX i="5" alpha="2281.6816673148837" sparseCutoff="1.0000000000000000"/>
      <sparseX i="6" alpha="1905.0758518343011" sparseCutoff="1.0000000000000000"/>
      <sparseX i="7" alpha="-1781.6191832408249" sparseCutoff="1.0000000000000000"/>
      <sparseX i="8" alpha="-1298.1134952676628" sparseCutoff=".96852714080984703"/>
      <sparseX i="9" alpha="2320.0087397679540" sparseCutoff="1.0000000000000000"/>
      <sparseX i="10" alpha="-1705.4742678243115" sparseCutoff="1.0000000000000000"/>
      <sparseX i="11" alpha="1836.9343327997728" sparseCutoff=".85621546002613713"/>
      <sparseX i="12" alpha="1494.3963829281608" sparseCutoff=".39977791423977949E-002"/>
      <sparseX i="13" alpha="-372.83730527113886" sparseCutoff="1.0000000000000000"/>
      <sparseX i="14" alpha="-798.93245955605948" sparseCutoff=".52084059315909637"/>
      <sparseX i="15" alpha="534.03771544793528" sparseCutoff="1.0000000000000000"/>
      <sparseX i="16" alpha="2802.6944013704006" sparseCutoff=".90982661174979773E-002"/>
      <sparseX i="17" alpha="-3095.9482269918376" sparseCutoff=".35164559717876648"/>
      <sparseX i="18" alpha="2202.0931477917616" sparseCutoff=".15303632760632313"/>
      <sparseX i="19" alpha="-5482.3457561635514" sparseCutoff="1.0000000000000000"/>
      <sparseX i="20" alpha="3853.4828748525993" sparseCutoff="1.0000000000000000"/>
    </gpCoordinates>
    <gpCoordinates label="GAP_2023_3_13_0_18_53_44_1314" dimensions="681" signal_variance=".50000000000000000" signal_mean=".00000000000000000E+000" sparsified="T" n_permutations="1" covariance_type="2" zeta="4.0000000000000000" n_sparseX="1000" sparseX_filename="GAP.xml.sparseX.GAP_2023_3_13_0_18_53_44_1314" sparseX_md5sum="a93348775f3288f41884832394d7539a">
      <descriptor> soap n_sparse=1000 n_max=8 l_max=4 cutoff=3.5 cutoff_transition_width=0.5 atom_sigma=0.4                  covariance_type=dot_product zeta=4 sparse_method=cur_points delta=0.5 n_species=2 Z=8 species_Z={8 13 }</descriptor>
      <permutation i="1">1  </permutation>
      <sparseX i="1" alpha="12517.678963009032" sparseCutoff="1.0000000000000000"/>
      <sparseX i="2" alpha="-263.38963015790830" sparseCutoff="1.0000000000000000"/>
      <sparseX i="3" alpha="2072.4321973775491" sparseCutoff="1.0000000000000000"/>
      <sparseX i="4" alpha="-2025.7007294819648" sparseCutoff="1.0000000000000000"/>
      <sparseX i="5" alpha="-1126.0149215023973" sparseCutoff="1.0000000000000000"/>
      <sparseX i="6" alpha="5951.7648201752017" sparseCutoff="1.0000000000000000"/>
      <sparseX i="7" alpha="8789.7275705422780" sparseCutoff="1.0000000000000000"/>
      <sparseX i="8" alpha="15289.555743503950" sparseCutoff="1.0000000000000000"/>
      <sparseX i="9" alpha="-1132.7388749217623" sparseCutoff="1.0000000000000000"/>
      <sparseX i="10" alpha="10278.178083775912" sparseCutoff="1.0000000000000000"/>
      <sparseX i="11" alpha="3987.5945957900553" sparseCutoff="1.0000000000000000"/>
      <sparseX i="12" alpha="-222.83130944895839" sparseCutoff="1.0000000000000000"/>
      <sparseX i="13" alpha="-163.41455789627966" sparseCutoff="1.0000000000000000"/>
      <sparseX i="14" alpha="-45.622566003812203" sparseCutoff="1.0000000000000000"/>
      <sparseX i="15" alpha="-11317.528547059062" sparseCutoff="1.0000000000000000"/>
      <sparseX i="16" alpha="16050.242856838020" sparseCutoff="1.0000000000000000"/>
      <sparseX i="17" alpha="-8887.2060783779598" sparseCutoff="1.0000000000000000"/>
      <sparseX i="18" alpha="863.98441064078781" sparseCutoff="1.0000000000000000"/>
      <sparseX i="19" alpha="2870.3080903247892" sparseCutoff="1.0000000000000000"/>
      <sparseX i="20" alpha="-6585.5520895540139" sparseCutoff="1.0000000000000000"/>
      <sparseX i="21" alpha="-12406.101476523274" sparseCutoff="1.0000000000000000"/>
      <sparseX i="22" alpha="-1903.9835373937858" sparseCutoff="1.0000000000000000"/>
      <sparseX i="23" alpha="-18778.415588559354" sparseCutoff="1.0000000000000000"/>
      <sparseX i="24" alpha="-208.00037895458087" sparseCutoff="1.0000000000000000"/>
      <sparseX i="25" alpha="15276.241934983453" sparseCutoff="1.0000000000000000"/>
      <sparseX i="26" alpha="30013.487648045630" sparseCutoff="1.0000000000000000"/>
      <sparseX i="27" alpha="-278.76144949879023" sparseCutoff="1.0000000000000000"/>
      <sparseX i="28" alpha="-14794.478912343206" sparseCutoff="1.0000000000000000"/>
      <sparseX i="29" alpha="5247.7742973420509" sparseCutoff="1.0000000000000000"/>
      <sparseX i="30" alpha="-9018.2726226140076" sparseCutoff="1.0000000000000000"/>
      <sparseX i="31" alpha="7418.4853788956671" sparseCutoff="1.0000000000000000"/>
      <sparseX i="32" alpha="18475.374823109531" sparseCutoff="1.0000000000000000"/>
      <sparseX i="33" alpha="9197.7594161087491" sparseCutoff="1.0000000000000000"/>
      <sparseX i="34" alpha="-814.98881741563775" sparseCutoff="1.0000000000000000"/>
      <sparseX i="35" alpha="-101.52788944165238" sparseCutoff="1.0000000000000000"/>
      <sparseX i="36" alpha="-9471.8568982041525" sparseCutoff="1.0000000000000000"/>
      <sparseX i="37" alpha="3893.7589982272334" sparseCutoff="1.0000000000000000"/>
      <sparseX i="38" alpha="-501.66492821110251" sparseCutoff="1.0000000000000000"/>
      <sparseX i="39" alpha="-2720.4289022965149" sparseCutoff="1.0000000000000000"/>
      <sparseX i="40" alpha="3962.7206583845791" sparseCutoff="1.0000000000000000"/>
      <sparseX i="41" alpha="-25345.685292950671" sparseCutoff="1.0000000000000000"/>
      <sparseX i="42" alpha="1410.9602166434622" sparseCutoff="1.0000000000000000"/>
      <sparseX i="43" alpha="12875.910762874471" sparseCutoff="1.0000000000000000"/>
      <sparseX i="44" alpha="416.67663190095175" sparseCutoff="1.0000000000000000"/>
      <sparseX i="45" alpha="-6168.3360330275791" sparseCutoff="1.0000000000000000"/>
      <sparseX i="46" alpha="-1582.8990584676035" sparseCutoff="1.0000000000000000"/>
      <sparseX i="47" alpha="-1483.5677681595141" sparseCutoff="1.0000000000000000"/>
      <sparseX i="48" alpha="-22.233320973020557" sparseCutoff="1.0000000000000000"/>
      <sparseX i="49" alpha="-4883.3700808049707" sparseCutoff="1.0000000000000000"/>
      <sparseX i="50" alpha="4572.1671410730987" sparseCutoff="1.0000000000000000"/>
      <sparseX i="51" alpha="1650.4999022373702" sparseCutoff="1.0000000000000000"/>
      <sparseX i="52" alpha="-30065.293714788822" sparseCutoff="1.0000000000000000"/>
      <sparseX i="53" alpha="1411.7838612719704" sparseCutoff="1.0000000000000000"/>
      <sparseX i="54" alpha="-3595.3732461688214" sparseCutoff="1.0000000000000000"/>
      <sparseX i="55" alpha="-3928.2853308186936" sparseCutoff="1.0000000000000000"/>
      <sparseX i="56" alpha="-14773.259130725815" sparseCutoff="1.0000000000000000"/>
      <sparseX i="57" alpha="-7465.4320957957616" sparseCutoff="1.0000000000000000"/>
      <sparseX i="58" alpha="1098.7125587158100" sparseCutoff="1.0000000000000000"/>
      <sparseX i="59" alpha="1689.2284684761257" sparseCutoff="1.0000000000000000"/>
      <sparseX i="60" alpha="1528.3252569816977" sparseCutoff="1.0000000000000000"/>
      <sparseX i="61" alpha="-1125.3829304282124" sparseCutoff="1.0000000000000000"/>
      <sparseX i="62" alpha="-1428.4821455123863" sparseCutoff="1.0000000000000000"/>
      <sparseX i="63" alpha="2228.4635510014818" sparseCutoff="1.0000000000000000"/>
      <sparseX i="64" alpha="1120.5370052285211" sparseCutoff="1.0000000000000000"/>
      <sparseX i="65" alpha="2183.4876974042240" sparseCutoff="1.0000000000000000"/>
      <sparseX i="66" alpha="-366.01457183568772" sparseCutoff="1.0000000000000000"/>
      <sparseX i="67" alpha="-487.06606062552885" sparseCutoff="1.0000000000000000"/>
      <sparseX i="68" alpha="144.78295382940684" sparseCutoff="1.0000000000000000"/>
      <sparseX i="69" alpha="767.60087404688920" sparseCutoff="1.0000000000000000"/>
      <sparseX i="70" alpha="-335.56291897639011" sparseCutoff="1.0000000000000000"/>
      <sparseX i="71" alpha="-89.731908473115041" sparseCutoff="1.0000000000000000"/>
      <sparseX i="72" alpha="-1291.4485559129971" sparseCutoff="1.0000000000000000"/>
      <sparseX i="73" alpha="-193.69893075641630" sparseCutoff="1.0000000000000000"/>
      <sparseX i="74" alpha="2139.9392756214570" sparseCutoff="1.0000000000000000"/>
      <sparseX i="75" alpha="-5953.2594186735778" sparseCutoff="1.0000000000000000"/>
      <sparseX i="76" alpha="-118.87390190497955" sparseCutoff="1.0000000000000000"/>
      <sparseX i="77" alpha="5485.9563074072385" sparseCutoff="1.0000000000000000"/>
      <sparseX i="78" alpha="-358.15218793650513" sparseCutoff="1.0000000000000000"/>
      <sparseX i="79" alpha="1493.5718513914285" sparseCutoff="1.0000000000000000"/>
      <sparseX i="80" alpha="-120.29570143206902" sparseCutoff="1.0000000000000000"/>
      <sparseX i="81" alpha="111.28189730820422" sparseCutoff="1.0000000000000000"/>
      <sparseX i="82" alpha="-3706.7227192616947" sparseCutoff="1.0000000000000000"/>
      <sparseX i="83" alpha="1269.9131778811950" sparseCutoff="1.0000000000000000"/>
      <sparseX i="84" alpha="229.75997056108832" sparseCutoff="1.0000000000000000"/>
      <sparseX i="85" alpha="-1510.1606319565474" sparseCutoff="1.0000000000000000"/>
      <sparseX i="86" alpha="-2275.8164728533943" sparseCutoff="1.0000000000000000"/>
      <sparseX i="87" alpha="-1626.0714661681618" sparseCutoff="1.0000000000000000"/>
      <sparseX i="88" alpha="-1550.7990626802912" sparseCutoff="1.0000000000000000"/>
      <sparseX i="89" alpha="-3625.7156040309519" sparseCutoff="1.0000000000000000"/>
      <sparseX i="90" alpha="865.71183802768803" sparseCutoff="1.0000000000000000"/>
      <sparseX i="91" alpha="-336.13015590249421" sparseCutoff="1.0000000000000000"/>
      <sparseX i="92" alpha="826.56132370421540" sparseCutoff="1.0000000000000000"/>
      <sparseX i="93" alpha="312.10782963149404" sparseCutoff="1.0000000000000000"/>
      <sparseX i="94" alpha="4558.7641696402106" sparseCutoff="1.0000000000000000"/>
      <sparseX i="95" alpha="-1515.1240218493967" sparseCutoff="1.0000000000000000"/>
      <sparseX i="96" alpha="1718.1137226636365" sparseCutoff="1.0000000000000000"/>
      <sparseX i="97" alpha="-3674.2549278959568" sparseCutoff="1.0000000000000000"/>
      <sparseX i="98" alpha="148.27565634335775" sparseCutoff="1.0000000000000000"/>
      <sparseX i="99" alpha="-17.154768534701493" sparseCutoff="1.0000000000000000"/>
      <sparseX i="100" alpha="3552.8360421097150" sparseCutoff="1.0000000000000000"/>
      <sparseX i="101" alpha="-171.26895826462646" sparseCutoff="1.0000000000000000"/>
      <sparseX i="102" alpha="278.81706884222314" sparseCutoff="1.0000000000000000"/>
      <sparseX i="103" alpha="-571.86733979178018" sparseCutoff="1.0000000000000000"/>
      <sparseX i="104" alpha="-512.00314411798513" sparseCutoff="1.0000000000000000"/>
      <sparseX i="105" alpha="247.75386322129958" sparseCutoff="1.0000000000000000"/>
      <sparseX i="106" alpha="-1197.9991961373701" sparseCutoff="1.0000000000000000"/>
      <sparseX i="107" alpha="960.71499203941573" sparseCutoff="1.0000000000000000"/>
      <sparseX i="108" alpha="1050.8812798025176" sparseCutoff="1.0000000000000000"/>
      <sparseX i="109" alpha="-335.10035716880128" sparseCutoff="1.0000000000000000"/>
      <sparseX i="110" alpha="-2335.6452203793715" sparseCutoff="1.0000000000000000"/>
      <sparseX i="111" alpha="1340.6813495620565" sparseCutoff="1.0000000000000000"/>
      <sparseX i="112" alpha="-3464.0541034547591" sparseCutoff="1.0000000000000000"/>
      <sparseX i="113" alpha="-1007.0898373907100" sparseCutoff="1.0000000000000000"/>
      <sparseX i="114" alpha="3954.1707033355297" sparseCutoff="1.0000000000000000"/>
      <sparseX i="115" alpha="-798.75124604147118" sparseCutoff="1.0000000000000000"/>
      <sparseX i="116" alpha="-1951.3212772250270" sparseCutoff="1.0000000000000000"/>
      <sparseX i="117" alpha="-345.09765207223649" sparseCutoff="1.0000000000000000"/>
      <sparseX i="118" alpha="978.80314396870847" sparseCutoff="1.0000000000000000"/>
      <sparseX i="119" alpha="-407.66149023226063" sparseCutoff="1.0000000000000000"/>
      <sparseX i="120" alpha="2860.3893857476010" sparseCutoff="1.0000000000000000"/>
      <sparseX i="121" alpha="363.34969894102045" sparseCutoff="1.0000000000000000"/>
      <sparseX i="122" alpha="5744.4440496098387" sparseCutoff="1.0000000000000000"/>
      <sparseX i="123" alpha="-1831.6964887793047" sparseCutoff="1.0000000000000000"/>
      <sparseX i="124" alpha="530.31983802819411" sparseCutoff="1.0000000000000000"/>
      <sparseX i="125" alpha="-1353.2546605627406" sparseCutoff="1.0000000000000000"/>
      <sparseX i="126" alpha="1728.2018475082255" sparseCutoff="1.0000000000000000"/>
      <sparseX i="127" alpha="2719.1206871955869" sparseCutoff="1.0000000000000000"/>
      <sparseX i="128" alpha="-2012.4969270291363" sparseCutoff="1.0000000000000000"/>
      <sparseX i="129" alpha="-2051.5817066676291" sparseCutoff="1.0000000000000000"/>
      <sparseX i="130" alpha="-4091.1607051400979" sparseCutoff="1.0000000000000000"/>
      <sparseX i="131" alpha="230.80371550916252" sparseCutoff="1.0000000000000000"/>
      <sparseX i="132" alpha="272.86608501654842" sparseCutoff="1.0000000000000000"/>
      <sparseX i="133" alpha="115.77312873281102" sparseCutoff="1.0000000000000000"/>
      <sparseX i="134" alpha="737.81193614365725" sparseCutoff="1.0000000000000000"/>
      <sparseX i="135" alpha="10.133345845021825" sparseCutoff="1.0000000000000000"/>
      <sparseX i="136" alpha="-3117.8480929770203" sparseCutoff="1.0000000000000000"/>
      <sparseX i="137" alpha="-763.99727284397329" sparseCutoff="1.0000000000000000"/>
      <sparseX i="138" alpha="896.09786774764405" sparseCutoff="1.0000000000000000"/>
      <sparseX i="139" alpha="76.079152124066340" sparseCutoff="1.0000000000000000"/>
      <sparseX i="140" alpha="404.69877724651639" sparseCutoff="1.0000000000000000"/>
      <sparseX i="141" alpha="-175.14385104157995" sparseCutoff="1.0000000000000000"/>
      <sparseX i="142" alpha="2455.3264504276090" sparseCutoff="1.0000000000000000"/>
      <sparseX i="143" alpha="1211.0635545943430" sparseCutoff="1.0000000000000000"/>
      <sparseX i="144" alpha="-46.361787441023054" sparseCutoff="1.0000000000000000"/>
      <sparseX i="145" alpha="210.87108056334131" sparseCutoff="1.0000000000000000"/>
      <sparseX i="146" alpha="453.66702562268398" sparseCutoff="1.0000000000000000"/>
      <sparseX i="147" alpha="1703.7494986136608" sparseCutoff="1.0000000000000000"/>
      <sparseX i="148" alpha="-1755.1365580325394" sparseCutoff="1.0000000000000000"/>
      <sparseX i="149" alpha="1194.6347472488087" sparseCutoff="1.0000000000000000"/>
      <sparseX i="150" alpha="-1142.2278704209132" sparseCutoff="1.0000000000000000"/>
      <sparseX i="151" alpha="59.288238590844095" sparseCutoff="1.0000000000000000"/>
      <sparseX i="152" alpha="-39.468146899878917" sparseCutoff="1.0000000000000000"/>
      <sparseX i="153" alpha="1035.5216127263245" sparseCutoff="1.0000000000000000"/>
      <sparseX i="154" alpha="276.91640042146844" sparseCutoff="1.0000000000000000"/>
      <sparseX i="155" alpha="-1917.1779503642181" sparseCutoff="1.0000000000000000"/>
      <sparseX i="156" alpha="1999.0079024006304" sparseCutoff="1.0000000000000000"/>
      <sparseX i="157" alpha="525.77790754311320" sparseCutoff="1.0000000000000000"/>
      <sparseX i="158" alpha="367.59443743898606" sparseCutoff="1.0000000000000000"/>
      <sparseX i="159" alpha="-250.63902131510397" sparseCutoff="1.0000000000000000"/>
      <sparseX i="160" alpha="-973.15419637082118" sparseCutoff="1.0000000000000000"/>
      <sparseX i="161" alpha="-1052.4144454331640" sparseCutoff="1.0000000000000000"/>
      <sparseX i="162" alpha="3158.0541413287901" sparseCutoff="1.0000000000000000"/>
      <sparseX i="163" alpha="1818.7284104081482" sparseCutoff="1.0000000000000000"/>
      <sparseX i="164" alpha="-1310.3809776192154" sparseCutoff="1.0000000000000000"/>
      <sparseX i="165" alpha="-605.71740881627898" sparseCutoff="1.0000000000000000"/>
      <sparseX i="166" alpha="550.84161243600863" sparseCutoff="1.0000000000000000"/>
      <sparseX i="167" alpha="80.984781217766027" sparseCutoff="1.0000000000000000"/>
      <sparseX i="168" alpha="-708.67120013367617" sparseCutoff="1.0000000000000000"/>
      <sparseX i="169" alpha="101.25039668882280" sparseCutoff="1.0000000000000000"/>
      <sparseX i="170" alpha="-700.71640434417361" sparseCutoff="1.0000000000000000"/>
      <sparseX i="171" alpha="-1809.0651644411250" sparseCutoff="1.0000000000000000"/>
      <sparseX i="172" alpha="-3324.4103924974052" sparseCutoff="1.0000000000000000"/>
      <sparseX i="173" alpha="-2577.1515040500576" sparseCutoff="1.0000000000000000"/>
      <sparseX i="174" alpha="-3510.0481840317311" sparseCutoff="1.0000000000000000"/>
      <sparseX i="175" alpha="-832.23157984428303" sparseCutoff="1.0000000000000000"/>
      <sparseX i="176" alpha="-290.83424528621748" sparseCutoff="1.0000000000000000"/>
      <sparseX i="177" alpha="-552.68007866288792" sparseCutoff="1.0000000000000000"/>
      <sparseX i="178" alpha="-1401.9183692474553" sparseCutoff="1.0000000000000000"/>
      <sparseX i="179" alpha="-543.20232952470360" sparseCutoff="1.0000000000000000"/>
      <sparseX i="180" alpha="1901.7246716253792" sparseCutoff="1.0000000000000000"/>
      <sparseX i="181" alpha="1691.0699495166175" sparseCutoff="1.0000000000000000"/>
      <sparseX i="182" alpha="2739.8426781345593" sparseCutoff="1.0000000000000000"/>
      <sparseX i="183" alpha="1575.8321362486847" sparseCutoff="1.0000000000000000"/>
      <sparseX i="184" alpha="-879.28690238019624" sparseCutoff="1.0000000000000000"/>
      <sparseX i="185" alpha="-977.05211826866764" sparseCutoff="1.0000000000000000"/>
      <sparseX i="186" alpha="-2149.2521026366035" sparseCutoff="1.0000000000000000"/>
      <sparseX i="187" alpha="-26.761255184879033" sparseCutoff="1.0000000000000000"/>
      <sparseX i="188" alpha="-1715.4349206518866" sparseCutoff="1.0000000000000000"/>
      <sparseX i="189" alpha="-705.97590913120450" sparseCutoff="1.0000000000000000"/>
      <sparseX i="190" alpha="393.01617231214607" sparseCutoff="1.0000000000000000"/>
      <sparseX i="191" alpha="-538.47641964801278" sparseCutoff="1.0000000000000000"/>
      <sparseX i="192" alpha="-1600.3234282995684" sparseCutoff="1.0000000000000000"/>
      <sparseX i="193" alpha="8615.2252487096121" sparseCutoff="1.0000000000000000"/>
      <sparseX i="194" alpha="2488.5358887034054" sparseCutoff="1.0000000000000000"/>
      <sparseX i="195" alpha="163.65928869130533" sparseCutoff="1.0000000000000000"/>
      <sparseX i="196" alpha="-1041.9744967271265" sparseCutoff="1.0000000000000000"/>
      <sparseX i="197" alpha="1183.4668865306119" sparseCutoff="1.0000000000000000"/>
      <sparseX i="198" alpha="280.85765548113733" sparseCutoff="1.0000000000000000"/>
      <sparseX i="199" alpha="-2027.7512326640901" sparseCutoff="1.0000000000000000"/>
      <sparseX i="200" alpha="39.223278633084796" sparseCutoff="1.0000000000000000"/>
      <sparseX i="201" alpha="-1444.4023735292935" sparseCutoff="1.0000000000000000"/>
      <sparseX i="202" alpha="-898.05495278291369" sparseCutoff="1.0000000000000000"/>
      <sparseX i="203" alpha="-668.81210682955520" sparseCutoff="1.0000000000000000"/>
      <sparseX i="204" alpha="319.22213360713090" sparseCutoff="1.0000000000000000"/>
      <sparseX i="205" alpha="5148.0829834849092" sparseCutoff="1.0000000000000000"/>
      <sparseX i="206" alpha="1172.0811650090004" sparseCutoff="1.0000000000000000"/>
      <sparseX i="207" alpha="801.55780201162918" sparseCutoff="1.0000000000000000"/>
      <sparseX i="208" alpha="674.07348756507497" sparseCutoff="1.0000000000000000"/>
      <sparseX i="209" alpha="343.25416959062727" sparseCutoff="1.0000000000000000"/>
      <sparseX i="210" alpha="-54.781476557806826" sparseCutoff="1.0000000000000000"/>
      <sparseX i="211" alpha="-1424.3486996002102" sparseCutoff="1.0000000000000000"/>
      <sparseX i="212" alpha="-4020.0625104557871" sparseCutoff="1.0000000000000000"/>
      <sparseX i="213" alpha="-5054.3197710484828" sparseCutoff="1.0000000000000000"/>
      <sparseX i="214" alpha="233.76749061974837" sparseCutoff="1.0000000000000000"/>
      <sparseX i="215" alpha="-1778.6946410415644" sparseCutoff="1.0000000000000000"/>
      <sparseX i="216" alpha="-1452.4533929682366" sparseCutoff="1.0000000000000000"/>
      <sparseX i="217" alpha="1938.9531160799222" sparseCutoff="1.0000000000000000"/>
      <sparseX i="218" alpha="-1975.8609898545878" sparseCutoff="1.0000000000000000"/>
      <sparseX i="219" alpha="169.00992780467914" sparseCutoff="1.0000000000000000"/>
      <sparseX i="220" alpha="2408.5900698419605" sparseCutoff="1.0000000000000000"/>
      <sparseX i="221" alpha="-3334.9937691269124" sparseCutoff="1.0000000000000000"/>
      <sparseX i="222" alpha="814.68922622965306" sparseCutoff="1.0000000000000000"/>
      <sparseX i="223" alpha="1819.8377513765588" sparseCutoff="1.0000000000000000"/>
      <sparseX i="224" alpha="-4899.2612680329576" sparseCutoff="1.0000000000000000"/>
      <sparseX i="225" alpha="414.18557046232343" sparseCutoff="1.0000000000000000"/>
      <sparseX i="226" alpha="-2042.4481062894095" sparseCutoff="1.0000000000000000"/>
      <sparseX i="227" alpha="-270.19357169638567" sparseCutoff="1.0000000000000000"/>
      <sparseX i="228" alpha="-5085.9600469839552" sparseCutoff="1.0000000000000000"/>
      <sparseX i="229" alpha="2183.1831553134452" sparseCutoff="1.0000000000000000"/>
      <sparseX i="230" alpha="4532.7514905955813" sparseCutoff="1.0000000000000000"/>
      <sparseX i="231" alpha="-1996.6748059291788" sparseCutoff="1.0000000000000000"/>
      <sparseX i="232" alpha="-186.75038225795021" sparseCutoff="1.0000000000000000"/>
      <sparseX i="233" alpha="164.74626514356407" sparseCutoff="1.0000000000000000"/>
      <sparseX i="234" alpha="-242.19995028901150" sparseCutoff="1.0000000000000000"/>
      <sparseX i="235" alpha="-663.86266610003020" sparseCutoff="1.0000000000000000"/>
      <sparseX i="236" alpha="-154.72038386039557" sparseCutoff="1.0000000000000000"/>
      <sparseX i="237" alpha="-2397.8598051719582" sparseCutoff="1.0000000000000000"/>
      <sparseX i="238" alpha="-85.803599184730160" sparseCutoff="1.0000000000000000"/>
      <sparseX i="239" alpha="1112.2870088653476" sparseCutoff="1.0000000000000000"/>
      <sparseX i="240" alpha="-2687.3764997305943" sparseCutoff="1.0000000000000000"/>
      <sparseX i="241" alpha="-1895.4605239190553" sparseCutoff="1.0000000000000000"/>
      <sparseX i="242" alpha="-5414.3308064336297" sparseCutoff="1.0000000000000000"/>
      <sparseX i="243" alpha="-294.12570117270366" sparseCutoff="1.0000000000000000"/>
      <sparseX i="244" alpha="-46.835469338301024" sparseCutoff="1.0000000000000000"/>
      <sparseX i="245" alpha="2193.4368151662338" sparseCutoff="1.0000000000000000"/>
      <sparseX i="246" alpha="409.60100100685128" sparseCutoff="1.0000000000000000"/>
      <sparseX i="247" alpha="-841.52189882009009" sparseCutoff="1.0000000000000000"/>
      <sparseX i="248" alpha="232.43163206181080" sparseCutoff="1.0000000000000000"/>
      <sparseX i="249" alpha="-2317.9024877775446" sparseCutoff="1.0000000000000000"/>
      <sparseX i="250" alpha="-259.49432992772159" sparseCutoff="1.0000000000000000"/>
      <sparseX i="251" alpha="-2361.3949397570700" sparseCutoff="1.0000000000000000"/>
      <sparseX i="252" alpha="-1528.0323062076668" sparseCutoff="1.0000000000000000"/>
      <sparseX i="253" alpha="707.15755909445284" sparseCutoff="1.0000000000000000"/>
      <sparseX i="254" alpha="671.51851468535301" sparseCutoff="1.0000000000000000"/>
      <sparseX i="255" alpha="-214.67011182249595" sparseCutoff="1.0000000000000000"/>
      <sparseX i="256" alpha="2588.9559524010392" sparseCutoff="1.0000000000000000"/>
      <sparseX i="257" alpha="-569.90334549707757" sparseCutoff="1.0000000000000000"/>
      <sparseX i="258" alpha="-1051.7463501986499" sparseCutoff="1.0000000000000000"/>
      <sparseX i="259" alpha="3848.4142383252279" sparseCutoff="1.0000000000000000"/>
      <sparseX i="260" alpha="646.25665635499126" sparseCutoff="1.0000000000000000"/>
      <sparseX i="261" alpha="-460.89801947677415" sparseCutoff="1.0000000000000000"/>
      <sparseX i="262" alpha="229.62519995202859" sparseCutoff="1.0000000000000000"/>
      <sparseX i="263" alpha="133.09619345552321" sparseCutoff="1.0000000000000000"/>
      <sparseX i="264" alpha="-1386.2747772502098" sparseCutoff="1.0000000000000000"/>
      <sparseX i="265" alpha="-863.49259073789972" sparseCutoff="1.0000000000000000"/>
      <sparseX i="266" alpha="-557.55500440172216" sparseCutoff="1.0000000000000000"/>
      <sparseX i="267" alpha="-2383.5986637392643" sparseCutoff="1.0000000000000000"/>
      <sparseX i="268" alpha="-495.02965532361696" sparseCutoff="1.0000000000000000"/>
      <sparseX i="269" alpha="-1384.8466014857008" sparseCutoff="1.0000000000000000"/>
      <sparseX i="270" alpha="-2140.6346134215064" sparseCutoff="1.0000000000000000"/>
      <sparseX i="271" alpha="-460.89080211225121" sparseCutoff="1.0000000000000000"/>
      <sparseX i="272" alpha="341.59270781765588" sparseCutoff="1.0000000000000000"/>
      <sparseX i="273" alpha="-550.36521168382581" sparseCutoff="1.0000000000000000"/>
      <sparseX i="274" alpha="-520.07613636745384" sparseCutoff="1.0000000000000000"/>
      <sparseX i="275" alpha="-1370.3318593310748" sparseCutoff="1.0000000000000000"/>
      <sparseX i="276" alpha="1267.5951259784044" sparseCutoff="1.0000000000000000"/>
      <sparseX i="277" alpha="-624.82315977231804" sparseCutoff="1.0000000000000000"/>
      <sparseX i="278" alpha="19.806933494487936" sparseCutoff="1.0000000000000000"/>
      <sparseX i="279" alpha="-433.91935625737500" sparseCutoff="1.0000000000000000"/>
      <sparseX i="280" alpha="961.15240196872242" sparseCutoff="1.0000000000000000"/>
      <sparseX i="281" alpha="2678.5770366628417" sparseCutoff="1.0000000000000000"/>
      <sparseX i="282" alpha="-1262.6140454857907" sparseCutoff="1.0000000000000000"/>
      <sparseX i="283" alpha="971.28325187706275" sparseCutoff="1.0000000000000000"/>
      <sparseX i="284" alpha="241.17289956062476" sparseCutoff="1.0000000000000000"/>
      <sparseX i="285" alpha="319.82646927312123" sparseCutoff="1.0000000000000000"/>
      <sparseX i="286" alpha="917.70541100420860" sparseCutoff="1.0000000000000000"/>
      <sparseX i="287" alpha="-7.2074108562976624" sparseCutoff="1.0000000000000000"/>
      <sparseX i="288" alpha="532.48154960676891" sparseCutoff="1.0000000000000000"/>
      <sparseX i="289" alpha="-28.159770796537423" sparseCutoff="1.0000000000000000"/>
      <sparseX i="290" alpha="-170.77799219705378" sparseCutoff="1.0000000000000000"/>
      <sparseX i="291" alpha="43.473664814906087" sparseCutoff="1.0000000000000000"/>
      <sparseX i="292" alpha="451.95188558950036" sparseCutoff="1.0000000000000000"/>
      <sparseX i="293" alpha="1510.2695970809348" sparseCutoff="1.0000000000000000"/>
      <sparseX i="294" alpha="-5257.5311408261923" sparseCutoff="1.0000000000000000"/>
      <sparseX i="295" alpha="58.552751957705098" sparseCutoff="1.0000000000000000"/>
      <sparseX i="296" alpha="2361.7309709462315" sparseCutoff="1.0000000000000000"/>
      <sparseX i="297" alpha="1004.9067195924437" sparseCutoff="1.0000000000000000"/>
      <sparseX i="298" alpha="-1187.2680583762617" sparseCutoff="1.0000000000000000"/>
      <sparseX i="299" alpha="-279.25442304448791" sparseCutoff="1.0000000000000000"/>
      <sparseX i="300" alpha="-380.69616917530732" sparseCutoff="1.0000000000000000"/>
      <sparseX i="301" alpha="-1915.3847613051225" sparseCutoff="1.0000000000000000"/>
      <sparseX i="302" alpha="1390.1699059522844" sparseCutoff="1.0000000000000000"/>
      <sparseX i="303" alpha="-745.52317891692928" sparseCutoff="1.0000000000000000"/>
      <sparseX i="304" alpha="-964.36898852979527" sparseCutoff="1.0000000000000000"/>
      <sparseX i="305" alpha="-756.64326933089376" sparseCutoff="1.0000000000000000"/>
      <sparseX i="306" alpha="-1585.8145066127338" sparseCutoff="1.0000000000000000"/>
      <sparseX i="307" alpha="-3264.8921042044112" sparseCutoff="1.0000000000000000"/>
      <sparseX i="308" alpha="6.0913249148469477" sparseCutoff="1.0000000000000000"/>
      <sparseX i="309" alpha="-2152.1321238497417" sparseCutoff="1.0000000000000000"/>
      <sparseX i="310" alpha="-1046.2420416366961" sparseCutoff="1.0000000000000000"/>
      <sparseX i="311" alpha="2476.1504981930425" sparseCutoff="1.0000000000000000"/>
      <sparseX i="312" alpha="-263.48521009868466" sparseCutoff="1.0000000000000000"/>
      <sparseX i="313" alpha="590.80857822237556" sparseCutoff="1.0000000000000000"/>
      <sparseX i="314" alpha="1056.9697505159004" sparseCutoff="1.0000000000000000"/>
      <sparseX i="315" alpha="-791.43746636795015" sparseCutoff="1.0000000000000000"/>
      <sparseX i="316" alpha="700.40111860026843" sparseCutoff="1.0000000000000000"/>
      <sparseX i="317" alpha="83.161954686814724" sparseCutoff="1.0000000000000000"/>
      <sparseX i="318" alpha="1739.8449313329613" sparseCutoff="1.0000000000000000"/>
      <sparseX i="319" alpha="2756.5204777256376" sparseCutoff="1.0000000000000000"/>
      <sparseX i="320" alpha="529.17242293474783" sparseCutoff="1.0000000000000000"/>
      <sparseX i="321" alpha="-1889.1200270701361" sparseCutoff="1.0000000000000000"/>
      <sparseX i="322" alpha="-2481.7318474854346" sparseCutoff="1.0000000000000000"/>
      <sparseX i="323" alpha="1209.3936628349654" sparseCutoff="1.0000000000000000"/>
      <sparseX i="324" alpha="-1751.4106504862098" sparseCutoff="1.0000000000000000"/>
      <sparseX i="325" alpha="1461.9801010862116" sparseCutoff="1.0000000000000000"/>
      <sparseX i="326" alpha="388.88882773922114" sparseCutoff="1.0000000000000000"/>
      <sparseX i="327" alpha="-123.00089465808385" sparseCutoff="1.0000000000000000"/>
      <sparseX i="328" alpha="358.60463379259744" sparseCutoff="1.0000000000000000"/>
      <sparseX i="329" alpha="266.26657196325158" sparseCutoff="1.0000000000000000"/>
      <sparseX i="330" alpha="-2940.5521550929057" sparseCutoff="1.0000000000000000"/>
      <sparseX i="331" alpha="-2386.1031730463001" sparseCutoff="1.0000000000000000"/>
      <sparseX i="332" alpha="-2155.1825688310319" sparseCutoff="1.0000000000000000"/>
      <sparseX i="333" alpha="-1069.5418991245799" sparseCutoff="1.0000000000000000"/>
      <sparseX i="334" alpha="810.11455158908268" sparseCutoff="1.0000000000000000"/>
      <sparseX i="335" alpha="-438.47346524995106" sparseCutoff="1.0000000000000000"/>
      <sparseX i="336" alpha="-643.31875583852013" sparseCutoff="1.0000000000000000"/>
      <sparseX i="337" alpha="-561.59417867016384" sparseCutoff="1.0000000000000000"/>
      <sparseX i="338" alpha="150.59399573126225" sparseCutoff="1.0000000000000000"/>
      <sparseX i="339" alpha="1672.2282311163976" sparseCutoff="1.0000000000000000"/>
      <sparseX i="340" alpha="1147.0345631633309" sparseCutoff="1.0000000000000000"/>
      <sparseX i="341" alpha="-2627.8900174402029" sparseCutoff="1.0000000000000000"/>
      <sparseX i="342" alpha="917.81021366627567" sparseCutoff="1.0000000000000000"/>
      <sparseX i="343" alpha="775.82982339699856" sparseCutoff="1.0000000000000000"/>
      <sparseX i="344" alpha="-1369.6942905269266" sparseCutoff="1.0000000000000000"/>
      <sparseX i="345" alpha="781.61655386691189" sparseCutoff="1.0000000000000000"/>
      <sparseX i="346" alpha="1518.0725512408856" sparseCutoff="1.0000000000000000"/>
      <sparseX i="347" alpha="480.48396554057393" sparseCutoff="1.0000000000000000"/>
      <sparseX i="348" alpha="176.18135352128229" sparseCutoff="1.0000000000000000"/>
      <sparseX i="349" alpha="402.51269635315265" sparseCutoff="1.0000000000000000"/>
      <sparseX i="350" alpha="-725.13103149999654" sparseCutoff="1.0000000000000000"/>
      <sparseX i="351" alpha="1467.5950901016654" sparseCutoff="1.0000000000000000"/>
      <sparseX i="352" alpha="-454.28365608823481" sparseCutoff="1.0000000000000000"/>
      <sparseX i="353" alpha="-65.106498184004650" sparseCutoff="1.0000000000000000"/>
      <sparseX i="354" alpha="-143.73749860573645" sparseCutoff="1.0000000000000000"/>
      <sparseX i="355" alpha="-9.4893045139080368" sparseCutoff="1.0000000000000000"/>
      <sparseX i="356" alpha="2820.4028291263198" sparseCutoff="1.0000000000000000"/>
      <sparseX i="357" alpha="1820.7648561715209" sparseCutoff="1.0000000000000000"/>
      <sparseX i="358" alpha="613.32667525112504" sparseCutoff="1.0000000000000000"/>
      <sparseX i="359" alpha="2166.1354416175709" sparseCutoff="1.0000000000000000"/>
      <sparseX i="360" alpha="-65.450576226847971" sparseCutoff="1.0000000000000000"/>
      <sparseX i="361" alpha="2067.8120321218935" sparseCutoff="1.0000000000000000"/>
      <sparseX i="362" alpha="195.71829369849223" sparseCutoff="1.0000000000000000"/>
      <sparseX i="363" alpha="-1074.9109221549361" sparseCutoff="1.0000000000000000"/>
      <sparseX i="364" alpha="2815.8153657837483" sparseCutoff="1.0000000000000000"/>
      <sparseX i="365" alpha="-290.93999306470891" sparseCutoff="1.0000000000000000"/>
      <sparseX i="366" alpha="364.29576919891809" sparseCutoff="1.0000000000000000"/>
      <sparseX i="367" alpha="-1618.3794973538843" sparseCutoff="1.0000000000000000"/>
      <sparseX i="368" alpha="-141.70912767474559" sparseCutoff="1.0000000000000000"/>
      <sparseX i="369" alpha="-41.859155058865404" sparseCutoff="1.0000000000000000"/>
      <sparseX i="370" alpha="248.48585216936007" sparseCutoff="1.0000000000000000"/>
      <sparseX i="371" alpha="-287.71990423750555" sparseCutoff="1.0000000000000000"/>
      <sparseX i="372" alpha="210.72506137971175" sparseCutoff="1.0000000000000000"/>
      <sparseX i="373" alpha="251.11972513255105" sparseCutoff="1.0000000000000000"/>
      <sparseX i="374" alpha="-2290.5976645882529" sparseCutoff="1.0000000000000000"/>
      <sparseX i="375" alpha="2649.0245361531620" sparseCutoff="1.0000000000000000"/>
      <sparseX i="376" alpha="-29.667336084855854" sparseCutoff="1.0000000000000000"/>
      <sparseX i="377" alpha="-117.71995094624248" sparseCutoff="1.0000000000000000"/>
      <sparseX i="378" alpha="-2726.5073386552544" sparseCutoff="1.0000000000000000"/>
      <sparseX i="379" alpha="-2959.9141714940170" sparseCutoff="1.0000000000000000"/>
      <sparseX i="380" alpha="500.49589354205534" sparseCutoff="1.0000000000000000"/>
      <sparseX i="381" alpha="-413.48790654648309" sparseCutoff="1.0000000000000000"/>
      <sparseX i="382" alpha="963.69968740348440" sparseCutoff="1.0000000000000000"/>
      <sparseX i="383" alpha="1411.6612535538698" sparseCutoff="1.0000000000000000"/>
      <sparseX i="384" alpha="89.036250428175350" sparseCutoff="1.0000000000000000"/>
      <sparseX i="385" alpha="6437.2115934191625" sparseCutoff="1.0000000000000000"/>
      <sparseX i="386" alpha="2769.0098729324154" sparseCutoff="1.0000000000000000"/>
      <sparseX i="387" alpha="460.97865214167734" sparseCutoff="1.0000000000000000"/>
      <sparseX i="388" alpha="-980.14663677125930" sparseCutoff="1.0000000000000000"/>
      <sparseX i="389" alpha="5458.3703581523205" sparseCutoff="1.0000000000000000"/>
      <sparseX i="390" alpha="-739.89625746540321" sparseCutoff="1.0000000000000000"/>
      <sparseX i="391" alpha="1577.7730485010338" sparseCutoff="1.0000000000000000"/>
      <sparseX i="392" alpha="374.10380453020872" sparseCutoff="1.0000000000000000"/>
      <sparseX i="393" alpha="-232.61088834731376" sparseCutoff="1.0000000000000000"/>
      <sparseX i="394" alpha="129.41613349634625" sparseCutoff="1.0000000000000000"/>
      <sparseX i="395" alpha="-6106.4245710455343" sparseCutoff="1.0000000000000000"/>
      <sparseX i="396" alpha="858.73374873019975" sparseCutoff="1.0000000000000000"/>
      <sparseX i="397" alpha="927.81018512256389" sparseCutoff="1.0000000000000000"/>
      <sparseX i="398" alpha="55.788471468803337" sparseCutoff="1.0000000000000000"/>
      <sparseX i="399" alpha="-371.09624429820741" sparseCutoff="1.0000000000000000"/>
      <sparseX i="400" alpha="437.74212952298689" sparseCutoff="1.0000000000000000"/>
      <sparseX i="401" alpha="79.359654276108230" sparseCutoff="1.0000000000000000"/>
      <sparseX i="402" alpha="-1133.6644298784383" sparseCutoff="1.0000000000000000"/>
      <sparseX i="403" alpha="3365.8481464939127" sparseCutoff="1.0000000000000000"/>
      <sparseX i="404" alpha="736.71840296577500" sparseCutoff="1.0000000000000000"/>
      <sparseX i="405" alpha="-1962.1196027938627" sparseCutoff="1.0000000000000000"/>
      <sparseX i="406" alpha="-181.30632350808682" sparseCutoff="1.0000000000000000"/>
      <sparseX i="407" alpha="-1003.9722441513539" sparseCutoff="1.0000000000000000"/>
      <sparseX i="408" alpha="-574.32501994135077" sparseCutoff="1.0000000000000000"/>
      <sparseX i="409" alpha="1068.2314171015980" sparseCutoff="1.0000000000000000"/>
      <sparseX i="410" alpha="-1193.9747099467590" sparseCutoff="1.0000000000000000"/>
      <sparseX i="411" alpha="-1844.7768267725467" sparseCutoff="1.0000000000000000"/>
      <sparseX i="412" alpha="272.35260889224656" sparseCutoff="1.0000000000000000"/>
      <sparseX i="413" alpha="121.57170828895175" sparseCutoff="1.0000000000000000"/>
      <sparseX i="414" alpha="-1609.5097716914045" sparseCutoff="1.0000000000000000"/>
      <sparseX i="415" alpha="-2567.7003868585421" sparseCutoff="1.0000000000000000"/>
      <sparseX i="416" alpha="-969.83286767248876" sparseCutoff="1.0000000000000000"/>
      <sparseX i="417" alpha="-623.59018733634605" sparseCutoff="1.0000000000000000"/>
      <sparseX i="418" alpha="-836.69371734829599" sparseCutoff="1.0000000000000000"/>
      <sparseX i="419" alpha="-2609.0906737775158" sparseCutoff="1.0000000000000000"/>
      <sparseX i="420" alpha="2796.9844636176167" sparseCutoff="1.0000000000000000"/>
      <sparseX i="421" alpha="85.456893342566630" sparseCutoff="1.0000000000000000"/>
      <sparseX i="422" alpha="-603.18799559736181" sparseCutoff="1.0000000000000000"/>
      <sparseX i="423" alpha="-985.30008799967686" sparseCutoff="1.0000000000000000"/>
      <sparseX i="424" alpha="-224.90711796838241" sparseCutoff="1.0000000000000000"/>
      <sparseX i="425" alpha="-1056.8015245524452" sparseCutoff="1.0000000000000000"/>
      <sparseX i="426" alpha="-1040.1864362864217" sparseCutoff="1.0000000000000000"/>
      <sparseX i="427" alpha="1780.9884245197732" sparseCutoff="1.0000000000000000"/>
      <sparseX i="428" alpha="-860.57385264924005" sparseCutoff="1.0000000000000000"/>
      <sparseX i="429" alpha="-1243.6990503343932" sparseCutoff="1.0000000000000000"/>
      <sparseX i="430" alpha="2372.5087777790773" sparseCutoff="1.0000000000000000"/>
      <sparseX i="431" alpha="-2874.7279043465387" sparseCutoff="1.0000000000000000"/>
      <sparseX i="432" alpha="-5920.9444209390113" sparseCutoff="1.0000000000000000"/>
      <sparseX i="433" alpha="321.79981792558380" sparseCutoff="1.0000000000000000"/>
      <sparseX i="434" alpha="788.08183473162489" sparseCutoff="1.0000000000000000"/>
      <sparseX i="435" alpha="-571.59123933724379" sparseCutoff="1.0000000000000000"/>
      <sparseX i="436" alpha="278.55547721040529" sparseCutoff="1.0000000000000000"/>
      <sparseX i="437" alpha="-777.34654246117134" sparseCutoff="1.0000000000000000"/>
      <sparseX i="438" alpha="-940.02566665721054" sparseCutoff="1.0000000000000000"/>
      <sparseX i="439" alpha="-1267.3458714023086" sparseCutoff="1.0000000000000000"/>
      <sparseX i="440" alpha="580.51822162417307" sparseCutoff="1.0000000000000000"/>
      <sparseX i="441" alpha="308.85816931440883" sparseCutoff="1.0000000000000000"/>
      <sparseX i="442" alpha="915.67528921195310" sparseCutoff="1.0000000000000000"/>
      <sparseX i="443" alpha="-1694.9094882452287" sparseCutoff="1.0000000000000000"/>
      <sparseX i="444" alpha="-1295.0645678436267" sparseCutoff="1.0000000000000000"/>
      <sparseX i="445" alpha="-3107.1620822688296" sparseCutoff="1.0000000000000000"/>
      <sparseX i="446" alpha="-1089.3585750834172" sparseCutoff="1.0000000000000000"/>
      <sparseX i="447" alpha="-427.74190670750102" sparseCutoff="1.0000000000000000"/>
      <sparseX i="448" alpha="1626.6746677778974" sparseCutoff="1.0000000000000000"/>
      <sparseX i="449" alpha="8.9022955160162045" sparseCutoff="1.0000000000000000"/>
      <sparseX i="450" alpha="464.89119315472789" sparseCutoff="1.0000000000000000"/>
      <sparseX i="451" alpha="-1299.6743810641919" sparseCutoff="1.0000000000000000"/>
      <sparseX i="452" alpha="-807.38687070202434" sparseCutoff="1.0000000000000000"/>
      <sparseX i="453" alpha="-278.19964010834951" sparseCutoff="1.0000000000000000"/>
      <sparseX i="454" alpha="-3174.4226369225539" sparseCutoff="1.0000000000000000"/>
      <sparseX i="455" alpha="-3501.7770379155354" sparseCutoff="1.0000000000000000"/>
      <sparseX i="456" alpha="-1055.2464571029711" sparseCutoff="1.0000000000000000"/>
      <sparseX i="457" alpha="613.21756573570917" sparseCutoff="1.0000000000000000"/>
      <sparseX i="458" alpha="-201.39599611318155" sparseCutoff="1.0000000000000000"/>
      <sparseX i="459" alpha="-3003.7513081574234" sparseCutoff="1.0000000000000000"/>
      <sparseX i="460" alpha="-2363.3164131398880" sparseCutoff="1.0000000000000000"/>
      <sparseX i="461" alpha="1531.4934875467154" sparseCutoff="1.0000000000000000"/>
      <sparseX i="462" alpha="-1025.2998736804050" sparseCutoff="1.0000000000000000"/>
      <sparseX i="463" alpha="-103.85527585022464" sparseCutoff="1.0000000000000000"/>
      <sparseX i="464" alpha="-1645.2200668483233" sparseCutoff="1.0000000000000000"/>
      <sparseX i="465" alpha="182.62672251437260" sparseCutoff="1.0000000000000000"/>
      <sparseX i="466" alpha="-415.59312993544131" sparseCutoff="1.0000000000000000"/>
      <sparseX i="467" alpha="22.408997261534683" sparseCutoff="1.0000000000000000"/>
      <sparseX i="468" alpha="-3041.1833169282186" sparseCutoff="1.0000000000000000"/>
      <sparseX i="469" alpha="1399.4286898947241" sparseCutoff="1.0000000000000000"/>
      <sparseX i="470" alpha="-159.46380108492411" sparseCutoff="1.0000000000000000"/>
      <sparseX i="471" alpha="-249.11812435939632" sparseCutoff="1.0000000000000000"/>
      <sparseX i="472" alpha="201.21523828643853" sparseCutoff="1.0000000000000000"/>
      <sparseX i="473" alpha="-272.67258266515302" sparseCutoff="1.0000000000000000"/>
      <sparseX i="474" alpha="-324.32716313356582" sparseCutoff="1.0000000000000000"/>
      <sparseX i="475" alpha="-853.50223377345458" sparseCutoff="1.0000000000000000"/>
      <sparseX i="476" alpha="-85.847854291503140" sparseCutoff="1.0000000000000000"/>
      <sparseX i="477" alpha="35.626926787721857" sparseCutoff="1.0000000000000000"/>
      <sparseX i="478" alpha="-51.955192067230051" sparseCutoff="1.0000000000000000"/>
      <sparseX i="479" alpha="1090.7491803037954" sparseCutoff="1.0000000000000000"/>
      <sparseX i="480" alpha="803.34111256123549" sparseCutoff="1.0000000000000000"/>
      <sparseX i="481" alpha="313.14929914707176" sparseCutoff="1.0000000000000000"/>
      <sparseX i="482" alpha="-3151.3415506165629" sparseCutoff="1.0000000000000000"/>
      <sparseX i="483" alpha="510.18699585209220" sparseCutoff="1.0000000000000000"/>
      <sparseX i="484" alpha="-396.32266685210914" sparseCutoff="1.0000000000000000"/>
      <sparseX i="485" alpha="1565.4127837129708" sparseCutoff="1.0000000000000000"/>
      <sparseX i="486" alpha="1682.7779333154890" sparseCutoff="1.0000000000000000"/>
      <sparseX i="487" alpha="317.14122919463995" sparseCutoff="1.0000000000000000"/>
      <sparseX i="488" alpha="1453.5814950019778" sparseCutoff="1.0000000000000000"/>
      <sparseX i="489" alpha="545.57550181114391" sparseCutoff="1.0000000000000000"/>
      <sparseX i="490" alpha="337.00465740995600" sparseCutoff="1.0000000000000000"/>
      <sparseX i="491" alpha="-2304.4076544289610" sparseCutoff="1.0000000000000000"/>
      <sparseX i="492" alpha="-120.92447224971812" sparseCutoff="1.0000000000000000"/>
      <sparseX i="493" alpha="-1163.7375172154048" sparseCutoff="1.0000000000000000"/>
      <sparseX i="494" alpha="216.33670423371726" sparseCutoff="1.0000000000000000"/>
      <sparseX i="495" alpha="-1371.6962230651038" sparseCutoff="1.0000000000000000"/>
      <sparseX i="496" alpha="-337.54265485100882" sparseCutoff="1.0000000000000000"/>
      <sparseX i="497" alpha="1347.6927735209704" sparseCutoff="1.0000000000000000"/>
      <sparseX i="498" alpha="-500.06872902867718" sparseCutoff="1.0000000000000000"/>
      <sparseX i="499" alpha="350.30523083008370" sparseCutoff="1.0000000000000000"/>
      <sparseX i="500" alpha="1186.7084563199580" sparseCutoff="1.0000000000000000"/>
      <sparseX i="501" alpha="3.7798635189609140" sparseCutoff="1.0000000000000000"/>
      <sparseX i="502" alpha="-459.51964404583140" sparseCutoff="1.0000000000000000"/>
      <sparseX i="503" alpha="1421.7298795959755" sparseCutoff="1.0000000000000000"/>
      <sparseX i="504" alpha="2159.1525092083052" sparseCutoff="1.0000000000000000"/>
      <sparseX i="505" alpha="-191.28122947495154" sparseCutoff="1.0000000000000000"/>
      <sparseX i="506" alpha="-1963.2245423644790" sparseCutoff="1.0000000000000000"/>
      <sparseX i="507" alpha="-2621.5454897097766" sparseCutoff="1.0000000000000000"/>
      <sparseX i="508" alpha="665.19358947595390" sparseCutoff="1.0000000000000000"/>
      <sparseX i="509" alpha="-142.11925381434452" sparseCutoff="1.0000000000000000"/>
      <sparseX i="510" alpha="2926.5014840269073" sparseCutoff="1.0000000000000000"/>
      <sparseX i="511" alpha="515.76319829955241" sparseCutoff="1.0000000000000000"/>
      <sparseX i="512" alpha="-1512.4582416636254" sparseCutoff="1.0000000000000000"/>
      <sparseX i="513" alpha="1392.8807339774512" sparseCutoff="1.0000000000000000"/>
      <sparseX i="514" alpha="467.85159918117665" sparseCutoff="1.0000000000000000"/>
      <sparseX i="515" alpha="449.31489731298683" sparseCutoff="1.0000000000000000"/>
      <sparseX i="516" alpha="-132.75476858396246" sparseCutoff="1.0000000000000000"/>
      <sparseX i="517" alpha="-673.01986801152179" sparseCutoff="1.0000000000000000"/>
      <sparseX i="518" alpha="-950.85129459429709" sparseCutoff="1.0000000000000000"/>
      <sparseX i="519" alpha="574.55886830588850" sparseCutoff="1.0000000000000000"/>
      <sparseX i="520" alpha="-122.66632490045306" sparseCutoff="1.0000000000000000"/>
      <sparseX i="521" alpha="686.88535353183465" sparseCutoff="1.0000000000000000"/>
      <sparseX i="522" alpha="50.270781566964622" sparseCutoff="1.0000000000000000"/>
      <sparseX i="523" alpha="1423.6495078838184" sparseCutoff="1.0000000000000000"/>
      <sparseX i="524" alpha="-1005.3784752315289" sparseCutoff="1.0000000000000000"/>
      <sparseX i="525" alpha="-345.90985686933288" sparseCutoff="1.0000000000000000"/>
      <sparseX i="526" alpha="441.91532348622559" sparseCutoff="1.0000000000000000"/>
      <sparseX i="527" alpha="-202.89816441651465" sparseCutoff="1.0000000000000000"/>
      <sparseX i="528" alpha="2666.4568984256302" sparseCutoff="1.0000000000000000"/>
      <sparseX i="529" alpha="985.88776865561783" sparseCutoff="1.0000000000000000"/>
      <sparseX i="530" alpha="1560.4557288364972" sparseCutoff="1.0000000000000000"/>
      <sparseX i="531" alpha="-1514.8227621907824" sparseCutoff="1.0000000000000000"/>
      <sparseX i="532" alpha="319.07261180160486" sparseCutoff="1.0000000000000000"/>
      <sparseX i="533" alpha="-2813.8884016514899" sparseCutoff="1.0000000000000000"/>
      <sparseX i="534" alpha="-1892.4421180671877" sparseCutoff="1.0000000000000000"/>
      <sparseX i="535" alpha="-124.54613008785846" sparseCutoff="1.0000000000000000"/>
      <sparseX i="536" alpha="943.61559753997483" sparseCutoff="1.0000000000000000"/>
      <sparseX i="537" alpha="334.71313596143335" sparseCutoff="1.0000000000000000"/>
      <sparseX i="538" alpha="458.64189027894639" sparseCutoff="1.0000000000000000"/>
      <sparseX i="539" alpha="-630.64248530200723" sparseCutoff="1.0000000000000000"/>
      <sparseX i="540" alpha="-658.19003431479825" sparseCutoff="1.0000000000000000"/>
      <sparseX i="541" alpha="598.00218522243006" sparseCutoff="1.0000000000000000"/>
      <sparseX i="542" alpha="607.91767557928301" sparseCutoff="1.0000000000000000"/>
      <sparseX i="543" alpha="-2116.6710401447726" sparseCutoff="1.0000000000000000"/>
      <sparseX i="544" alpha="84.179965818744279" sparseCutoff="1.0000000000000000"/>
      <sparseX i="545" alpha="-494.03428897759909" sparseCutoff="1.0000000000000000"/>
      <sparseX i="546" alpha="4312.3803511591013" sparseCutoff="1.0000000000000000"/>
      <sparseX i="547" alpha="253.52098994343331" sparseCutoff="1.0000000000000000"/>
      <sparseX i="548" alpha="5.8386516942076954" sparseCutoff="1.0000000000000000"/>
      <sparseX i="549" alpha="2444.0027170299481" sparseCutoff="1.0000000000000000"/>
      <sparseX i="550" alpha="-1048.6869341134429" sparseCutoff="1.0000000000000000"/>
      <sparseX i="551" alpha="1859.5867077116950" sparseCutoff="1.0000000000000000"/>
      <sparseX i="552" alpha="1019.0639188785054" sparseCutoff="1.0000000000000000"/>
      <sparseX i="553" alpha="-1130.9150249702716" sparseCutoff="1.0000000000000000"/>
      <sparseX i="554" alpha="506.53992877731292" sparseCutoff="1.0000000000000000"/>
      <sparseX i="555" alpha="5028.8021782020442" sparseCutoff="1.0000000000000000"/>
      <sparseX i="556" alpha="1225.9742058450124" sparseCutoff="1.0000000000000000"/>
      <sparseX i="557" alpha="709.94191351099289" sparseCutoff="1.0000000000000000"/>
      <sparseX i="558" alpha="-830.85687087364352" sparseCutoff="1.0000000000000000"/>
      <sparseX i="559" alpha="35.586038556935385" sparseCutoff="1.0000000000000000"/>
      <sparseX i="560" alpha="956.12483010649373" sparseCutoff="1.0000000000000000"/>
      <sparseX i="561" alpha="44.281363455212038" sparseCutoff="1.0000000000000000"/>
      <sparseX i="562" alpha="2700.0343491579838" sparseCutoff="1.0000000000000000"/>
      <sparseX i="563" alpha="-642.76577425109997" sparseCutoff="1.0000000000000000"/>
      <sparseX i="564" alpha="-402.78710566208406" sparseCutoff="1.0000000000000000"/>
      <sparseX i="565" alpha="504.32684286739516" sparseCutoff="1.0000000000000000"/>
      <sparseX i="566" alpha="355.76725051673509" sparseCutoff="1.0000000000000000"/>
      <sparseX i="567" alpha="-411.03225493567811" sparseCutoff="1.0000000000000000"/>
      <sparseX i="568" alpha="-394.37114440131063" sparseCutoff="1.0000000000000000"/>
      <sparseX i="569" alpha="-1598.1126600745320" sparseCutoff="1.0000000000000000"/>
      <sparseX i="570" alpha="2049.5667334596615" sparseCutoff="1.0000000000000000"/>
      <sparseX i="571" alpha="2238.8394817049793" sparseCutoff="1.0000000000000000"/>
      <sparseX i="572" alpha="-159.67808844002357" sparseCutoff="1.0000000000000000"/>
      <sparseX i="573" alpha="151.29541432714180" sparseCutoff="1.0000000000000000"/>
      <sparseX i="574" alpha="-614.19769437096954" sparseCutoff="1.0000000000000000"/>
      <sparseX i="575" alpha="1268.1015410095783" sparseCutoff="1.0000000000000000"/>
      <sparseX i="576" alpha="866.05947764379596" sparseCutoff="1.0000000000000000"/>
      <sparseX i="577" alpha="630.27556173838889" sparseCutoff="1.0000000000000000"/>
      <sparseX i="578" alpha="928.66882289630485" sparseCutoff="1.0000000000000000"/>
      <sparseX i="579" alpha="1436.1705136646290" sparseCutoff="1.0000000000000000"/>
      <sparseX i="580" alpha="1807.6323926902403" sparseCutoff="1.0000000000000000"/>
      <sparseX i="581" alpha="-2241.7079016010089" sparseCutoff="1.0000000000000000"/>
      <sparseX i="582" alpha="-427.02566356387342" sparseCutoff="1.0000000000000000"/>
      <sparseX i="583" alpha="-111.95485819578958" sparseCutoff="1.0000000000000000"/>
      <sparseX i="584" alpha="-2583.5217373082646" sparseCutoff="1.0000000000000000"/>
      <sparseX i="585" alpha="-903.97946629346154" sparseCutoff="1.0000000000000000"/>
      <sparseX i="586" alpha="240.82397241313384" sparseCutoff="1.0000000000000000"/>
      <sparseX i="587" alpha="-556.44151795704113" sparseCutoff="1.0000000000000000"/>
      <sparseX i="588" alpha="1468.8054008289350" sparseCutoff="1.0000000000000000"/>
      <sparseX i="589" alpha="242.62669570070125" sparseCutoff="1.0000000000000000"/>
      <sparseX i="590" alpha="-14.334744862495338" sparseCutoff="1.0000000000000000"/>
      <sparseX i="591" alpha="-748.66793857727964" sparseCutoff="1.0000000000000000"/>
      <sparseX i="592" alpha="-829.23578642240659" sparseCutoff="1.0000000000000000"/>
      <sparseX i="593" alpha="-104.36449591473053" sparseCutoff="1.0000000000000000"/>
      <sparseX i="594" alpha="227.39704054658196" sparseCutoff="1.0000000000000000"/>
      <sparseX i="595" alpha="-507.55099399922682" sparseCutoff="1.0000000000000000"/>
      <sparseX i="596" alpha="5752.9369389180692" sparseCutoff="1.0000000000000000"/>
      <sparseX i="597" alpha="-1747.2204343658759" sparseCutoff="1.0000000000000000"/>
      <sparseX i="598" alpha="602.93866247172787" sparseCutoff="1.0000000000000000"/>
      <sparseX i="599" alpha="3040.1928389426080" sparseCutoff="1.0000000000000000"/>
      <sparseX i="600" alpha="-1187.9173265452689" sparseCutoff="1.0000000000000000"/>
      <sparseX i="601" alpha="-2064.9728144504006" sparseCutoff="1.0000000000000000"/>
      <sparseX i="602" alpha="1420.6088792369990" sparseCutoff="1.0000000000000000"/>
      <sparseX i="603" alpha="-4185.8666533460855" sparseCutoff="1.0000000000000000"/>
      <sparseX i="604" alpha="-1815.5607600436549" sparseCutoff="1.0000000000000000"/>
      <sparseX i="605" alpha="-257.22417526529625" sparseCutoff="1.0000000000000000"/>
      <sparseX i="606" alpha="-703.20650606310812" sparseCutoff="1.0000000000000000"/>
      <sparseX i="607" alpha="177.26917931650348" sparseCutoff="1.0000000000000000"/>
      <sparseX i="608" alpha="-4213.0291994822810" sparseCutoff="1.0000000000000000"/>
      <sparseX i="609" alpha="-405.51791568298597" sparseCutoff="1.0000000000000000"/>
      <sparseX i="610" alpha="-477.22476169151383" sparseCutoff="1.0000000000000000"/>
      <sparseX i="611" alpha="429.36273573247928" sparseCutoff="1.0000000000000000"/>
      <sparseX i="612" alpha="-560.78279193449703" sparseCutoff="1.0000000000000000"/>
      <sparseX i="613" alpha="-325.20742762573963" sparseCutoff="1.0000000000000000"/>
      <sparseX i="614" alpha="769.77383760336454" sparseCutoff="1.0000000000000000"/>
      <sparseX i="615" alpha="-211.11317645245936" sparseCutoff="1.0000000000000000"/>
      <sparseX i="616" alpha="-200.37985702242196" sparseCutoff="1.0000000000000000"/>
      <sparseX i="617" alpha="2553.9452418314772" sparseCutoff="1.0000000000000000"/>
      <sparseX i="618" alpha="3581.0235328663571" sparseCutoff="1.0000000000000000"/>
      <sparseX i="619" alpha="-774.22379000331944" sparseCutoff="1.0000000000000000"/>
      <sparseX i="620" alpha="1743.3136892176076" sparseCutoff="1.0000000000000000"/>
      <sparseX i="621" alpha="317.29907279917563" sparseCutoff="1.0000000000000000"/>
      <sparseX i="622" alpha="395.21326973760659" sparseCutoff="1.0000000000000000"/>
      <sparseX i="623" alpha="219.79380382098674" sparseCutoff="1.0000000000000000"/>
      <sparseX i="624" alpha="-1586.1520340794959" sparseCutoff="1.0000000000000000"/>
      <sparseX i="625" alpha="-296.82699754408543" sparseCutoff="1.0000000000000000"/>
      <sparseX i="626" alpha="3307.9694916132003" sparseCutoff="1.0000000000000000"/>
      <sparseX i="627" alpha="2506.9572081477704" sparseCutoff="1.0000000000000000"/>
      <sparseX i="628" alpha="-42.893046692864715" sparseCutoff="1.0000000000000000"/>
      <sparseX i="629" alpha="-687.05101321369750" sparseCutoff="1.0000000000000000"/>
      <sparseX i="630" alpha="80.013145556468814" sparseCutoff="1.0000000000000000"/>
      <sparseX i="631" alpha="-478.94172545396935" sparseCutoff="1.0000000000000000"/>
      <sparseX i="632" alpha="744.97144533329379" sparseCutoff="1.0000000000000000"/>
      <sparseX i="633" alpha="-2737.2832244895608" sparseCutoff="1.0000000000000000"/>
      <sparseX i="634" alpha="4588.4250202194389" sparseCutoff="1.0000000000000000"/>
      <sparseX i="635" alpha="-2764.7332151238525" sparseCutoff="1.0000000000000000"/>
      <sparseX i="636" alpha="2211.6232429635184" sparseCutoff="1.0000000000000000"/>
      <sparseX i="637" alpha="-468.13246547655240" sparseCutoff="1.0000000000000000"/>
      <sparseX i="638" alpha="-971.22341704983410" sparseCutoff="1.0000000000000000"/>
      <sparseX i="639" alpha="-248.81181481044823" sparseCutoff="1.0000000000000000"/>
      <sparseX i="640" alpha="85.836747156655520" sparseCutoff="1.0000000000000000"/>
      <sparseX i="641" alpha="-100.78731728498789" sparseCutoff="1.0000000000000000"/>
      <sparseX i="642" alpha="-281.90074250642226" sparseCutoff="1.0000000000000000"/>
      <sparseX i="643" alpha="2730.7079522509848" sparseCutoff="1.0000000000000000"/>
      <sparseX i="644" alpha="1063.4856871070087" sparseCutoff="1.0000000000000000"/>
      <sparseX i="645" alpha="-321.88232951348834" sparseCutoff="1.0000000000000000"/>
      <sparseX i="646" alpha="1890.7228053599201" sparseCutoff="1.0000000000000000"/>
      <sparseX i="647" alpha="-2996.6631040635034" sparseCutoff="1.0000000000000000"/>
      <sparseX i="648" alpha="2317.9591446550589" sparseCutoff="1.0000000000000000"/>
      <sparseX i="649" alpha="-924.24298636502078" sparseCutoff="1.0000000000000000"/>
      <sparseX i="650" alpha="580.01028016387033" sparseCutoff="1.0000000000000000"/>
      <sparseX i="651" alpha="-126.06211823558922" sparseCutoff="1.0000000000000000"/>
      <sparseX i="652" alpha="1626.7269942563562" sparseCutoff="1.0000000000000000"/>
      <sparseX i="653" alpha="354.32364778036867" sparseCutoff="1.0000000000000000"/>
      <sparseX i="654" alpha="-729.51175379223446" sparseCutoff="1.0000000000000000"/>
      <sparseX i="655" alpha="1649.3262156032001" sparseCutoff="1.0000000000000000"/>
      <sparseX i="656" alpha="2998.8243019740903" sparseCutoff="1.0000000000000000"/>
      <sparseX i="657" alpha="1876.3448890156192" sparseCutoff="1.0000000000000000"/>
      <sparseX i="658" alpha="62.929662980536129" sparseCutoff="1.0000000000000000"/>
      <sparseX i="659" alpha="769.32893839739893" sparseCutoff="1.0000000000000000"/>
      <sparseX i="660" alpha="-34.147662402630495" sparseCutoff="1.0000000000000000"/>
      <sparseX i="661" alpha="-306.42767473287876" sparseCutoff="1.0000000000000000"/>
      <sparseX i="662" alpha="614.95759775438194" sparseCutoff="1.0000000000000000"/>
      <sparseX i="663" alpha="-353.35321249622450" sparseCutoff="1.0000000000000000"/>
      <sparseX i="664" alpha="797.97785150170421" sparseCutoff="1.0000000000000000"/>
      <sparseX i="665" alpha="1804.4884410765690" sparseCutoff="1.0000000000000000"/>
      <sparseX i="666" alpha="-1542.9259590252293" sparseCutoff="1.0000000000000000"/>
      <sparseX i="667" alpha="-263.65671303568683" sparseCutoff="1.0000000000000000"/>
      <sparseX i="668" alpha="3593.2218381126781" sparseCutoff="1.0000000000000000"/>
      <sparseX i="669" alpha="-1107.7394015792381" sparseCutoff="1.0000000000000000"/>
      <sparseX i="670" alpha="1653.3652051468650" sparseCutoff="1.0000000000000000"/>
      <sparseX i="671" alpha="10.119416000164248" sparseCutoff="1.0000000000000000"/>
      <sparseX i="672" alpha="1947.5719961992650" sparseCutoff="1.0000000000000000"/>
      <sparseX i="673" alpha="341.10609891827585" sparseCutoff="1.0000000000000000"/>
      <sparseX i="674" alpha="1841.8511341975782" sparseCutoff="1.0000000000000000"/>
      <sparseX i="675" alpha="-133.69399184152309" sparseCutoff="1.0000000000000000"/>
      <sparseX i="676" alpha="-1210.7581612590543" sparseCutoff="1.0000000000000000"/>
      <sparseX i="677" alpha="-1097.7262324641938" sparseCutoff="1.0000000000000000"/>
      <sparseX i="678" alpha="-1575.8453293247603" sparseCutoff="1.0000000000000000"/>
      <sparseX i="679" alpha="533.89495462782543" sparseCutoff="1.0000000000000000"/>
      <sparseX i="680" alpha="-2139.6806613013387" sparseCutoff="1.0000000000000000"/>
      <sparseX i="681" alpha="1284.6836245707693" sparseCutoff="1.0000000000000000"/>
      <sparseX i="682" alpha="-948.59590776317714" sparseCutoff="1.0000000000000000"/>
      <sparseX i="683" alpha="-1291.8929159417323" sparseCutoff="1.0000000000000000"/>
      <sparseX i="684" alpha="-201.04552006560777" sparseCutoff="1.0000000000000000"/>
      <sparseX i="685" alpha="-1477.7470858627009" sparseCutoff="1.0000000000000000"/>
      <sparseX i="686" alpha="-315.23268335002177" sparseCutoff="1.0000000000000000"/>
      <sparseX i="687" alpha="427.51966411351174" sparseCutoff="1.0000000000000000"/>
      <sparseX i="688" alpha="1653.5846133299112" sparseCutoff="1.0000000000000000"/>
      <sparseX i="689" alpha="-781.12729124754776" sparseCutoff="1.0000000000000000"/>
      <sparseX i="690" alpha="383.06240425254970" sparseCutoff="1.0000000000000000"/>
      <sparseX i="691" alpha="3000.7415417265474" sparseCutoff="1.0000000000000000"/>
      <sparseX i="692" alpha="40.592018317715656" sparseCutoff="1.0000000000000000"/>
      <sparseX i="693" alpha="2574.1968527452855" sparseCutoff="1.0000000000000000"/>
      <sparseX i="694" alpha="-478.53214990655118" sparseCutoff="1.0000000000000000"/>
      <sparseX i="695" alpha="-122.06288520208312" sparseCutoff="1.0000000000000000"/>
      <sparseX i="696" alpha="201.02591234084076" sparseCutoff="1.0000000000000000"/>
      <sparseX i="697" alpha="45.705712162993663" sparseCutoff="1.0000000000000000"/>
      <sparseX i="698" alpha="990.73165261196095" sparseCutoff="1.0000000000000000"/>
      <sparseX i="699" alpha="367.57300851693913" sparseCutoff="1.0000000000000000"/>
      <sparseX i="700" alpha="-234.86431341994574" sparseCutoff="1.0000000000000000"/>
      <sparseX i="701" alpha="499.05046531337615" sparseCutoff="1.0000000000000000"/>
      <sparseX i="702" alpha="229.01095825531638" sparseCutoff="1.0000000000000000"/>
      <sparseX i="703" alpha="-1702.3195585296999" sparseCutoff="1.0000000000000000"/>
      <sparseX i="704" alpha="513.94259580145820" sparseCutoff="1.0000000000000000"/>
      <sparseX i="705" alpha="107.86460706702572" sparseCutoff="1.0000000000000000"/>
      <sparseX i="706" alpha="1080.5229614695834" sparseCutoff="1.0000000000000000"/>
      <sparseX i="707" alpha="6725.5261590413456" sparseCutoff="1.0000000000000000"/>
      <sparseX i="708" alpha="-3085.4657826837220" sparseCutoff="1.0000000000000000"/>
      <sparseX i="709" alpha="1669.4940093357905" sparseCutoff="1.0000000000000000"/>
      <sparseX i="710" alpha="976.45828313365178" sparseCutoff="1.0000000000000000"/>
      <sparseX i="711" alpha="-170.60026865932360" sparseCutoff="1.0000000000000000"/>
      <sparseX i="712" alpha="477.54267727436684" sparseCutoff="1.0000000000000000"/>
      <sparseX i="713" alpha="1090.6410241741703" sparseCutoff="1.0000000000000000"/>
      <sparseX i="714" alpha="3445.0018638790075" sparseCutoff="1.0000000000000000"/>
      <sparseX i="715" alpha="103.29430808124104" sparseCutoff="1.0000000000000000"/>
      <sparseX i="716" alpha="2009.8521144112997" sparseCutoff="1.0000000000000000"/>
      <sparseX i="717" alpha="-6705.7205175434001" sparseCutoff="1.0000000000000000"/>
      <sparseX i="718" alpha="-166.15465626645604" sparseCutoff="1.0000000000000000"/>
      <sparseX i="719" alpha="41.122322708926227" sparseCutoff="1.0000000000000000"/>
      <sparseX i="720" alpha="1994.8748251921807" sparseCutoff="1.0000000000000000"/>
      <sparseX i="721" alpha="317.68910422935392" sparseCutoff="1.0000000000000000"/>
      <sparseX i="722" alpha="319.33485406577091" sparseCutoff="1.0000000000000000"/>
      <sparseX i="723" alpha="894.44163636470898" sparseCutoff="1.0000000000000000"/>
      <sparseX i="724" alpha="2067.4473605415233" sparseCutoff="1.0000000000000000"/>
      <sparseX i="725" alpha="2323.7882769895914" sparseCutoff="1.0000000000000000"/>
      <sparseX i="726" alpha="-552.19551613609212" sparseCutoff="1.0000000000000000"/>
      <sparseX i="727" alpha="-389.31808620809841" sparseCutoff="1.0000000000000000"/>
      <sparseX i="728" alpha="-490.98491052946599" sparseCutoff="1.0000000000000000"/>
      <sparseX i="729" alpha="452.24198920114100" sparseCutoff="1.0000000000000000"/>
      <sparseX i="730" alpha="458.24344717510536" sparseCutoff="1.0000000000000000"/>
      <sparseX i="731" alpha="5051.7320750282142" sparseCutoff="1.0000000000000000"/>
      <sparseX i="732" alpha="-596.98902524890434" sparseCutoff="1.0000000000000000"/>
      <sparseX i="733" alpha="547.36857257728218" sparseCutoff="1.0000000000000000"/>
      <sparseX i="734" alpha="-3261.6948408529915" sparseCutoff="1.0000000000000000"/>
      <sparseX i="735" alpha="-1848.9114652607007" sparseCutoff="1.0000000000000000"/>
      <sparseX i="736" alpha="-4050.4846413569649" sparseCutoff="1.0000000000000000"/>
      <sparseX i="737" alpha="-4387.5814645733199" sparseCutoff="1.0000000000000000"/>
      <sparseX i="738" alpha="68.557010571055329" sparseCutoff="1.0000000000000000"/>
      <sparseX i="739" alpha="-515.59485832129508" sparseCutoff="1.0000000000000000"/>
      <sparseX i="740" alpha="987.36370480351547" sparseCutoff="1.0000000000000000"/>
      <sparseX i="741" alpha="-440.54700916451731" sparseCutoff="1.0000000000000000"/>
      <sparseX i="742" alpha="2601.4709647798809" sparseCutoff="1.0000000000000000"/>
      <sparseX i="743" alpha="-874.47658200902140" sparseCutoff="1.0000000000000000"/>
      <sparseX i="744" alpha="-565.35979334756053" sparseCutoff="1.0000000000000000"/>
      <sparseX i="745" alpha="324.12178408474978" sparseCutoff="1.0000000000000000"/>
      <sparseX i="746" alpha="-1683.0396515357256" sparseCutoff="1.0000000000000000"/>
      <sparseX i="747" alpha="-2664.7866855763782" sparseCutoff="1.0000000000000000"/>
      <sparseX i="748" alpha="4087.6883259418773" sparseCutoff="1.0000000000000000"/>
      <sparseX i="749" alpha="900.85398998757989" sparseCutoff="1.0000000000000000"/>
      <sparseX i="750" alpha="435.93751391020953" sparseCutoff="1.0000000000000000"/>
      <sparseX i="751" alpha="-494.84612041051372" sparseCutoff="1.0000000000000000"/>
      <sparseX i="752" alpha="2231.1085623710214" sparseCutoff="1.0000000000000000"/>
      <sparseX i="753" alpha="760.48138226678282" sparseCutoff="1.0000000000000000"/>
      <sparseX i="754" alpha="-2737.8670484597228" sparseCutoff="1.0000000000000000"/>
      <sparseX i="755" alpha="626.04475531944934" sparseCutoff="1.0000000000000000"/>
      <sparseX i="756" alpha="2689.9453434537036" sparseCutoff="1.0000000000000000"/>
      <sparseX i="757" alpha="-24.502684873240007" sparseCutoff="1.0000000000000000"/>
      <sparseX i="758" alpha="75.067477646036437" sparseCutoff="1.0000000000000000"/>
      <sparseX i="759" alpha="204.63002335111941" sparseCutoff="1.0000000000000000"/>
      <sparseX i="760" alpha="-2605.9323159207802" sparseCutoff="1.0000000000000000"/>
      <sparseX i="761" alpha="-896.17903702870944" sparseCutoff="1.0000000000000000"/>
      <sparseX i="762" alpha="-3692.5803950266672" sparseCutoff="1.0000000000000000"/>
      <sparseX i="763" alpha="3687.1424497714629" sparseCutoff="1.0000000000000000"/>
      <sparseX i="764" alpha="1863.6057991993907" sparseCutoff="1.0000000000000000"/>
      <sparseX i="765" alpha="-3.3681634172711985" sparseCutoff="1.0000000000000000"/>
      <sparseX i="766" alpha="-523.80848391939378" sparseCutoff="1.0000000000000000"/>
      <sparseX i="767" alpha="-2543.2557784979144" sparseCutoff="1.0000000000000000"/>
      <sparseX i="768" alpha="-836.58834009314376" sparseCutoff="1.0000000000000000"/>
      <sparseX i="769" alpha="-3570.4717290294120" sparseCutoff="1.0000000000000000"/>
      <sparseX i="770" alpha="1815.5732582963174" sparseCutoff="1.0000000000000000"/>
      <sparseX i="771" alpha="1205.9883955681855" sparseCutoff="1.0000000000000000"/>
      <sparseX i="772" alpha="1494.4723770918515" sparseCutoff="1.0000000000000000"/>
      <sparseX i="773" alpha="272.94286614967103" sparseCutoff="1.0000000000000000"/>
      <sparseX i="774" alpha="1862.9642401429351" sparseCutoff="1.0000000000000000"/>
      <sparseX i="775" alpha="-669.08529214941518" sparseCutoff="1.0000000000000000"/>
      <sparseX i="776" alpha="-2510.5843791211491" sparseCutoff="1.0000000000000000"/>
      <sparseX i="777" alpha="687.24201648387941" sparseCutoff="1.0000000000000000"/>
      <sparseX i="778" alpha="3305.4523194495323" sparseCutoff="1.0000000000000000"/>
      <sparseX i="779" alpha="-730.10774830910316" sparseCutoff="1.0000000000000000"/>
      <sparseX i="780" alpha="1015.0555407309303" sparseCutoff="1.0000000000000000"/>
      <sparseX i="781" alpha="-641.10971604297242" sparseCutoff="1.0000000000000000"/>
      <sparseX i="782" alpha="676.16941956054859" sparseCutoff="1.0000000000000000"/>
      <sparseX i="783" alpha="38.401117117905244" sparseCutoff="1.0000000000000000"/>
      <sparseX i="784" alpha="186.82497751680106" sparseCutoff="1.0000000000000000"/>
      <sparseX i="785" alpha="5037.7555063356522" sparseCutoff="1.0000000000000000"/>
      <sparseX i="786" alpha="3711.0173987540688" sparseCutoff="1.0000000000000000"/>
      <sparseX i="787" alpha="-173.33384871969474" sparseCutoff="1.0000000000000000"/>
      <sparseX i="788" alpha="294.10858496473452" sparseCutoff="1.0000000000000000"/>
      <sparseX i="789" alpha="-310.64662034663593" sparseCutoff="1.0000000000000000"/>
      <sparseX i="790" alpha="718.93944708433821" sparseCutoff="1.0000000000000000"/>
      <sparseX i="791" alpha="-3183.7541384087026" sparseCutoff="1.0000000000000000"/>
      <sparseX i="792" alpha="1901.8697436927262" sparseCutoff="1.0000000000000000"/>
      <sparseX i="793" alpha="-1935.0786507652060" sparseCutoff="1.0000000000000000"/>
      <sparseX i="794" alpha="680.82823946321469" sparseCutoff="1.0000000000000000"/>
      <sparseX i="795" alpha="-2351.2027653992332" sparseCutoff="1.0000000000000000"/>
      <sparseX i="796" alpha="89.706182626618400" sparseCutoff="1.0000000000000000"/>
      <sparseX i="797" alpha="-1846.6042576793427" sparseCutoff="1.0000000000000000"/>
      <sparseX i="798" alpha="-1002.3925012027236" sparseCutoff="1.0000000000000000"/>
      <sparseX i="799" alpha="-124.22051616045194" sparseCutoff="1.0000000000000000"/>
      <sparseX i="800" alpha="-2203.4192600903725" sparseCutoff="1.0000000000000000"/>
      <sparseX i="801" alpha="-448.88895175119933" sparseCutoff="1.0000000000000000"/>
      <sparseX i="802" alpha="-1182.9670161602355" sparseCutoff="1.0000000000000000"/>
      <sparseX i="803" alpha="553.67026307293168" sparseCutoff="1.0000000000000000"/>
      <sparseX i="804" alpha="-1556.1620769547214" sparseCutoff="1.0000000000000000"/>
      <sparseX i="805" alpha="430.78981698676017" sparseCutoff="1.0000000000000000"/>
      <sparseX i="806" alpha="971.24715117010544" sparseCutoff="1.0000000000000000"/>
      <sparseX i="807" alpha="1650.0116812819524" sparseCutoff="1.0000000000000000"/>
      <sparseX i="808" alpha="-110.33587206174954" sparseCutoff="1.0000000000000000"/>
      <sparseX i="809" alpha="963.22476290494012" sparseCutoff="1.0000000000000000"/>
      <sparseX i="810" alpha="-873.99130631951914" sparseCutoff="1.0000000000000000"/>
      <sparseX i="811" alpha="-126.70163265369810" sparseCutoff="1.0000000000000000"/>
      <sparseX i="812" alpha="2181.7993465395721" sparseCutoff="1.0000000000000000"/>
      <sparseX i="813" alpha="-2258.7939720612881" sparseCutoff="1.0000000000000000"/>
      <sparseX i="814" alpha="-433.79534665282449" sparseCutoff="1.0000000000000000"/>
      <sparseX i="815" alpha="-751.00616646957894" sparseCutoff="1.0000000000000000"/>
      <sparseX i="816" alpha="-957.45386787536972" sparseCutoff="1.0000000000000000"/>
      <sparseX i="817" alpha="3519.2187688138461" sparseCutoff="1.0000000000000000"/>
      <sparseX i="818" alpha="-228.89939014405684" sparseCutoff="1.0000000000000000"/>
      <sparseX i="819" alpha="1412.9360803925547" sparseCutoff="1.0000000000000000"/>
      <sparseX i="820" alpha="-225.43404283197466" sparseCutoff="1.0000000000000000"/>
      <sparseX i="821" alpha="-274.35154257527586" sparseCutoff="1.0000000000000000"/>
      <sparseX i="822" alpha="678.73334895737639" sparseCutoff="1.0000000000000000"/>
      <sparseX i="823" alpha="1098.4042266312490" sparseCutoff="1.0000000000000000"/>
      <sparseX i="824" alpha="-105.46621489111016" sparseCutoff="1.0000000000000000"/>
      <sparseX i="825" alpha="1501.0890051123945" sparseCutoff="1.0000000000000000"/>
      <sparseX i="826" alpha="811.53532856504091" sparseCutoff="1.0000000000000000"/>
      <sparseX i="827" alpha="364.10801971422364" sparseCutoff="1.0000000000000000"/>
      <sparseX i="828" alpha="2047.3746074985418" sparseCutoff="1.0000000000000000"/>
      <sparseX i="829" alpha="1992.1201225209902" sparseCutoff="1.0000000000000000"/>
      <sparseX i="830" alpha="1843.9037885797511" sparseCutoff="1.0000000000000000"/>
      <sparseX i="831" alpha="2224.0185976919797" sparseCutoff="1.0000000000000000"/>
      <sparseX i="832" alpha="-175.21516128563840" sparseCutoff="1.0000000000000000"/>
      <sparseX i="833" alpha="1580.8912308184213" sparseCutoff="1.0000000000000000"/>
      <sparseX i="834" alpha="958.91567643134647" sparseCutoff="1.0000000000000000"/>
      <sparseX i="835" alpha="2503.5067189940273" sparseCutoff="1.0000000000000000"/>
      <sparseX i="836" alpha="-1677.9020965793952" sparseCutoff="1.0000000000000000"/>
      <sparseX i="837" alpha="852.59369412375713" sparseCutoff="1.0000000000000000"/>
      <sparseX i="838" alpha="344.58905798721020" sparseCutoff="1.0000000000000000"/>
      <sparseX i="839" alpha="971.74893051200672" sparseCutoff="1.0000000000000000"/>
      <sparseX i="840" alpha="-4308.7429686361811" sparseCutoff="1.0000000000000000"/>
      <sparseX i="841" alpha="-1397.9183568477445" sparseCutoff="1.0000000000000000"/>
      <sparseX i="842" alpha="5662.8466218062440" sparseCutoff="1.0000000000000000"/>
      <sparseX i="843" alpha="3384.0167290684217" sparseCutoff="1.0000000000000000"/>
      <sparseX i="844" alpha="-896.30418530941392" sparseCutoff="1.0000000000000000"/>
      <sparseX i="845" alpha="808.29973550270540" sparseCutoff="1.0000000000000000"/>
      <sparseX i="846" alpha="-3761.7132103559911" sparseCutoff="1.0000000000000000"/>
      <sparseX i="847" alpha="-237.61706404802806" sparseCutoff="1.0000000000000000"/>
      <sparseX i="848" alpha="-5070.3903367507755" sparseCutoff="1.0000000000000000"/>
      <sparseX i="849" alpha="-640.44020318964488" sparseCutoff="1.0000000000000000"/>
      <sparseX i="850" alpha="-1833.6710744372378" sparseCutoff="1.0000000000000000"/>
      <sparseX i="851" alpha="4171.1921705978721" sparseCutoff="1.0000000000000000"/>
      <sparseX i="852" alpha="968.00615371796630" sparseCutoff="1.0000000000000000"/>
      <sparseX i="853" alpha="-149.16204235944829" sparseCutoff="1.0000000000000000"/>
      <sparseX i="854" alpha="-4537.9011152807598" sparseCutoff="1.0000000000000000"/>
      <sparseX i="855" alpha="1318.2516024227409" sparseCutoff="1.0000000000000000"/>
      <sparseX i="856" alpha="-23.990815090935577" sparseCutoff="1.0000000000000000"/>
      <sparseX i="857" alpha="-222.84565072771966" sparseCutoff="1.0000000000000000"/>
      <sparseX i="858" alpha="-1352.6346957576686" sparseCutoff="1.0000000000000000"/>
      <sparseX i="859" alpha="-213.82445400930666" sparseCutoff="1.0000000000000000"/>
      <sparseX i="860" alpha="1315.1369254708432" sparseCutoff="1.0000000000000000"/>
      <sparseX i="861" alpha="685.46855262098245" sparseCutoff="1.0000000000000000"/>
      <sparseX i="862" alpha="1090.4246574857277" sparseCutoff="1.0000000000000000"/>
      <sparseX i="863" alpha="110.31544216362425" sparseCutoff="1.0000000000000000"/>
      <sparseX i="864" alpha="-3776.6450296886892" sparseCutoff="1.0000000000000000"/>
      <sparseX i="865" alpha="-867.65577133874490" sparseCutoff="1.0000000000000000"/>
      <sparseX i="866" alpha="1556.3156953963044" sparseCutoff="1.0000000000000000"/>
      <sparseX i="867" alpha="1150.1309536594172" sparseCutoff="1.0000000000000000"/>
      <sparseX i="868" alpha="-112.60738413256495" sparseCutoff="1.0000000000000000"/>
      <sparseX i="869" alpha="254.69323279369584" sparseCutoff="1.0000000000000000"/>
      <sparseX i="870" alpha="-15.616190281087960" sparseCutoff="1.0000000000000000"/>
      <sparseX i="871" alpha="-694.64226501678922" sparseCutoff="1.0000000000000000"/>
      <sparseX i="872" alpha="-2648.1656132334065" sparseCutoff="1.0000000000000000"/>
      <sparseX i="873" alpha="621.81710388450063" sparseCutoff="1.0000000000000000"/>
      <sparseX i="874" alpha="-90.663057889377654" sparseCutoff="1.0000000000000000"/>
      <sparseX i="875" alpha="1700.6155644391063" sparseCutoff="1.0000000000000000"/>
      <sparseX i="876" alpha="122.86771750033144" sparseCutoff="1.0000000000000000"/>
      <sparseX i="877" alpha="-536.68349028192517" sparseCutoff="1.0000000000000000"/>
      <sparseX i="878" alpha="869.42926492718618" sparseCutoff="1.0000000000000000"/>
      <sparseX i="879" alpha="222.75446467038702" sparseCutoff="1.0000000000000000"/>
      <sparseX i="880" alpha="-1740.8798010923551" sparseCutoff="1.0000000000000000"/>
      <sparseX i="881" alpha="518.27892560956559" sparseCutoff="1.0000000000000000"/>
      <sparseX i="882" alpha="-9097.5288603652134" sparseCutoff="1.0000000000000000"/>
      <sparseX i="883" alpha="-1436.1410307073877" sparseCutoff="1.0000000000000000"/>
      <sparseX i="884" alpha="1307.8921177999455" sparseCutoff="1.0000000000000000"/>
      <sparseX i="885" alpha="-48.659817201296569" sparseCutoff="1.0000000000000000"/>
      <sparseX i="886" alpha="-1050.7409770890872" sparseCutoff="1.0000000000000000"/>
      <sparseX i="887" alpha="-497.54716880233150" sparseCutoff="1.0000000000000000"/>
      <sparseX i="888" alpha="1514.8896939412373" sparseCutoff="1.0000000000000000"/>
      <sparseX i="889" alpha="-159.12318170964150" sparseCutoff="1.0000000000000000"/>
      <sparseX i="890" alpha="1428.9787007568623" sparseCutoff="1.0000000000000000"/>
      <sparseX i="891" alpha="-420.81913584126272" sparseCutoff="1.0000000000000000"/>
      <sparseX i="892" alpha="3529.4379489833086" sparseCutoff="1.0000000000000000"/>
      <sparseX i="893" alpha="2917.1886693579800" sparseCutoff="1.0000000000000000"/>
      <sparseX i="894" alpha="-133.95704439138225" sparseCutoff="1.0000000000000000"/>
      <sparseX i="895" alpha="379.73675077888890" sparseCutoff="1.0000000000000000"/>
      <sparseX i="896" alpha="-1128.5152650419273" sparseCutoff="1.0000000000000000"/>
      <sparseX i="897" alpha="32.588412888815959" sparseCutoff="1.0000000000000000"/>
      <sparseX i="898" alpha="568.25473343822227" sparseCutoff="1.0000000000000000"/>
      <sparseX i="899" alpha="237.68239128097250" sparseCutoff="1.0000000000000000"/>
      <sparseX i="900" alpha="1741.4618429701779" sparseCutoff="1.0000000000000000"/>
      <sparseX i="901" alpha="-759.64846917244506" sparseCutoff="1.0000000000000000"/>
      <sparseX i="902" alpha="1078.7475032549989" sparseCutoff="1.0000000000000000"/>
      <sparseX i="903" alpha="7.1295496232859135" sparseCutoff="1.0000000000000000"/>
      <sparseX i="904" alpha="-116.11839312798617" sparseCutoff="1.0000000000000000"/>
      <sparseX i="905" alpha="1792.8465351783395" sparseCutoff="1.0000000000000000"/>
      <sparseX i="906" alpha="305.80588219845293" sparseCutoff="1.0000000000000000"/>
      <sparseX i="907" alpha="-1302.9723391438704" sparseCutoff="1.0000000000000000"/>
      <sparseX i="908" alpha="232.82130552536856" sparseCutoff="1.0000000000000000"/>
      <sparseX i="909" alpha="-1008.6259467597903" sparseCutoff="1.0000000000000000"/>
      <sparseX i="910" alpha="468.07107573250551" sparseCutoff="1.0000000000000000"/>
      <sparseX i="911" alpha="401.87907797539862" sparseCutoff="1.0000000000000000"/>
      <sparseX i="912" alpha="1537.0440292400706" sparseCutoff="1.0000000000000000"/>
      <sparseX i="913" alpha="-29.871419635865248" sparseCutoff="1.0000000000000000"/>
      <sparseX i="914" alpha="-1741.0033573955309" sparseCutoff="1.0000000000000000"/>
      <sparseX i="915" alpha="96.128904256183858" sparseCutoff="1.0000000000000000"/>
      <sparseX i="916" alpha="124.53414451787135" sparseCutoff="1.0000000000000000"/>
      <sparseX i="917" alpha="-506.64163765746343" sparseCutoff="1.0000000000000000"/>
      <sparseX i="918" alpha="1585.6615361556242" sparseCutoff="1.0000000000000000"/>
      <sparseX i="919" alpha="3778.4192437374813" sparseCutoff="1.0000000000000000"/>
      <sparseX i="920" alpha="101.85598054006233" sparseCutoff="1.0000000000000000"/>
      <sparseX i="921" alpha="-10.140396094340369" sparseCutoff="1.0000000000000000"/>
      <sparseX i="922" alpha="665.16943729278978" sparseCutoff="1.0000000000000000"/>
      <sparseX i="923" alpha="2634.1828194596419" sparseCutoff="1.0000000000000000"/>
      <sparseX i="924" alpha="-251.47264563424071" sparseCutoff="1.0000000000000000"/>
      <sparseX i="925" alpha="-1092.4019144613212" sparseCutoff="1.0000000000000000"/>
      <sparseX i="926" alpha="365.63371377376131" sparseCutoff="1.0000000000000000"/>
      <sparseX i="927" alpha="281.71985722830004" sparseCutoff="1.0000000000000000"/>
      <sparseX i="928" alpha="114.50854171720546" sparseCutoff="1.0000000000000000"/>
      <sparseX i="929" alpha="-781.39794303416932" sparseCutoff="1.0000000000000000"/>
      <sparseX i="930" alpha="485.21291615217882" sparseCutoff="1.0000000000000000"/>
      <sparseX i="931" alpha="-380.89129032392202" sparseCutoff="1.0000000000000000"/>
      <sparseX i="932" alpha="-440.82752561029656" sparseCutoff="1.0000000000000000"/>
      <sparseX i="933" alpha="1457.2433274707998" sparseCutoff="1.0000000000000000"/>
      <sparseX i="934" alpha="-1168.8549499262995" sparseCutoff="1.0000000000000000"/>
      <sparseX i="935" alpha="67.802840149574322" sparseCutoff="1.0000000000000000"/>
      <sparseX i="936" alpha="1332.6438635910408" sparseCutoff="1.0000000000000000"/>
      <sparseX i="937" alpha="-231.99655456365417" sparseCutoff="1.0000000000000000"/>
      <sparseX i="938" alpha="-161.97168228648204" sparseCutoff="1.0000000000000000"/>
      <sparseX i="939" alpha="-2894.1639034145342" sparseCutoff="1.0000000000000000"/>
      <sparseX i="940" alpha="23.217721145438666" sparseCutoff="1.0000000000000000"/>
      <sparseX i="941" alpha="399.59128110379146" sparseCutoff="1.0000000000000000"/>
      <sparseX i="942" alpha="-2354.0441829628198" sparseCutoff="1.0000000000000000"/>
      <sparseX i="943" alpha="-490.98985220773579" sparseCutoff="1.0000000000000000"/>
      <sparseX i="944" alpha="360.34620030086347" sparseCutoff="1.0000000000000000"/>
      <sparseX i="945" alpha="315.23676666861058" sparseCutoff="1.0000000000000000"/>
      <sparseX i="946" alpha="1624.5246100649190" sparseCutoff="1.0000000000000000"/>
      <sparseX i="947" alpha="2482.2634544158213" sparseCutoff="1.0000000000000000"/>
      <sparseX i="948" alpha="17.974260675580968" sparseCutoff="1.0000000000000000"/>
      <sparseX i="949" alpha="3917.5497567745711" sparseCutoff="1.0000000000000000"/>
      <sparseX i="950" alpha="-991.03947044832466" sparseCutoff="1.0000000000000000"/>
      <sparseX i="951" alpha="2382.1584011797590" sparseCutoff="1.0000000000000000"/>
      <sparseX i="952" alpha="1197.3414714094179" sparseCutoff="1.0000000000000000"/>
      <sparseX i="953" alpha="386.11316408278344" sparseCutoff="1.0000000000000000"/>
      <sparseX i="954" alpha="78.567286412712903" sparseCutoff="1.0000000000000000"/>
      <sparseX i="955" alpha="-2405.8401841360242" sparseCutoff="1.0000000000000000"/>
      <sparseX i="956" alpha="1657.1713582258049" sparseCutoff="1.0000000000000000"/>
      <sparseX i="957" alpha="-1134.0842045714053" sparseCutoff="1.0000000000000000"/>
      <sparseX i="958" alpha="428.07646793738076" sparseCutoff="1.0000000000000000"/>
      <sparseX i="959" alpha="-1663.5296916302909" sparseCutoff="1.0000000000000000"/>
      <sparseX i="960" alpha="3538.4128802978466" sparseCutoff="1.0000000000000000"/>
      <sparseX i="961" alpha="-2526.3686956050201" sparseCutoff="1.0000000000000000"/>
      <sparseX i="962" alpha="1123.4775912308230" sparseCutoff="1.0000000000000000"/>
      <sparseX i="963" alpha="-792.91968970960386" sparseCutoff="1.0000000000000000"/>
      <sparseX i="964" alpha="497.32522627941597" sparseCutoff="1.0000000000000000"/>
      <sparseX i="965" alpha="-7679.0484626581756" sparseCutoff="1.0000000000000000"/>
      <sparseX i="966" alpha="591.75133731950154" sparseCutoff="1.0000000000000000"/>
      <sparseX i="967" alpha="-1275.7248227909552" sparseCutoff="1.0000000000000000"/>
      <sparseX i="968" alpha="-6952.7702697967861" sparseCutoff="1.0000000000000000"/>
      <sparseX i="969" alpha="1800.5075637537834" sparseCutoff="1.0000000000000000"/>
      <sparseX i="970" alpha="203.27776210956134" sparseCutoff="1.0000000000000000"/>
      <sparseX i="971" alpha="979.75809764679457" sparseCutoff="1.0000000000000000"/>
      <sparseX i="972" alpha="1523.6547389442610" sparseCutoff="1.0000000000000000"/>
      <sparseX i="973" alpha="539.07883674124059" sparseCutoff="1.0000000000000000"/>
      <sparseX i="974" alpha="8.9423666334131493" sparseCutoff="1.0000000000000000"/>
      <sparseX i="975" alpha="-2604.1839602342620" sparseCutoff="1.0000000000000000"/>
      <sparseX i="976" alpha="-312.20556845700310" sparseCutoff="1.0000000000000000"/>
      <sparseX i="977" alpha="1612.8458594185520" sparseCutoff="1.0000000000000000"/>
      <sparseX i="978" alpha="-3025.6813854801844" sparseCutoff="1.0000000000000000"/>
      <sparseX i="979" alpha="218.94705005761679" sparseCutoff="1.0000000000000000"/>
      <sparseX i="980" alpha="990.45271285977140" sparseCutoff="1.0000000000000000"/>
      <sparseX i="981" alpha="-3472.2284055895957" sparseCutoff="1.0000000000000000"/>
      <sparseX i="982" alpha="603.89788224757979" sparseCutoff="1.0000000000000000"/>
      <sparseX i="983" alpha="420.99747182160638" sparseCutoff="1.0000000000000000"/>
      <sparseX i="984" alpha="425.67336243411393" sparseCutoff="1.0000000000000000"/>
      <sparseX i="985" alpha="1868.6112596844391" sparseCutoff="1.0000000000000000"/>
      <sparseX i="986" alpha="2110.6937678640420" sparseCutoff="1.0000000000000000"/>
      <sparseX i="987" alpha="618.01966740964428" sparseCutoff="1.0000000000000000"/>
      <sparseX i="988" alpha="-450.38672380912124" sparseCutoff="1.0000000000000000"/>
      <sparseX i="989" alpha="-1084.9226577035577" sparseCutoff="1.0000000000000000"/>
      <sparseX i="990" alpha="-1274.0842729758604" sparseCutoff="1.0000000000000000"/>
      <sparseX i="991" alpha="-208.22650544966712" sparseCutoff="1.0000000000000000"/>
      <sparseX i="992" alpha="5723.1301221924086" sparseCutoff="1.0000000000000000"/>
      <sparseX i="993" alpha="216.75012860366712" sparseCutoff="1.0000000000000000"/>
      <sparseX i="994" alpha="1673.3114789171927" sparseCutoff="1.0000000000000000"/>
      <sparseX i="995" alpha="1321.6926927276784" sparseCutoff="1.0000000000000000"/>
