<GAP_2023_6_27_60_21_24_39_304>
<Potential label="GAP_2023_6_27_60_21_24_39_304" init_args="IP GAP label=GAP_2023_6_27_60_21_24_39_304"/>
<GAP_params label="GAP_2023_6_27_60_21_24_39_304" gap_version="1657795613">
  <GAP_data do_core="F">
    <e0 Z="1" value=".00000000000000000E+000"/>
    <e0 Z="2" value=".00000000000000000E+000"/>
    <e0 Z="3" value=".00000000000000000E+000"/>
    <e0 Z="4" value=".00000000000000000E+000"/>
    <e0 Z="5" value=".00000000000000000E+000"/>
    <e0 Z="6" value=".00000000000000000E+000"/>
    <e0 Z="7" value=".00000000000000000E+000"/>
    <e0 Z="8" value=".00000000000000000E+000"/>
    <e0 Z="9" value=".00000000000000000E+000"/>
    <e0 Z="10" value=".00000000000000000E+000"/>
    <e0 Z="11" value=".00000000000000000E+000"/>
    <e0 Z="12" value=".00000000000000000E+000"/>
    <e0 Z="13" value=".00000000000000000E+000"/>
    <e0 Z="14" value="-160.73263835370375"/>
    <e0 Z="15" value=".00000000000000000E+000"/>
    <e0 Z="16" value=".00000000000000000E+000"/>
    <e0 Z="17" value=".00000000000000000E+000"/>
    <e0 Z="18" value=".00000000000000000E+000"/>
    <e0 Z="19" value=".00000000000000000E+000"/>
    <e0 Z="20" value=".00000000000000000E+000"/>
    <e0 Z="21" value=".00000000000000000E+000"/>
    <e0 Z="22" value=".00000000000000000E+000"/>
    <e0 Z="23" value=".00000000000000000E+000"/>
    <e0 Z="24" value=".00000000000000000E+000"/>
    <e0 Z="25" value=".00000000000000000E+000"/>
    <e0 Z="26" value=".00000000000000000E+000"/>
    <e0 Z="27" value=".00000000000000000E+000"/>
    <e0 Z="28" value=".00000000000000000E+000"/>
    <e0 Z="29" value=".00000000000000000E+000"/>
    <e0 Z="30" value=".00000000000000000E+000"/>
    <e0 Z="31" value=".00000000000000000E+000"/>
    <e0 Z="32" value=".00000000000000000E+000"/>
    <e0 Z="33" value=".00000000000000000E+000"/>
    <e0 Z="34" value=".00000000000000000E+000"/>
    <e0 Z="35" value=".00000000000000000E+000"/>
    <e0 Z="36" value=".00000000000000000E+000"/>
    <e0 Z="37" value=".00000000000000000E+000"/>
    <e0 Z="38" value=".00000000000000000E+000"/>
    <e0 Z="39" value=".00000000000000000E+000"/>
    <e0 Z="40" value=".00000000000000000E+000"/>
    <e0 Z="41" value=".00000000000000000E+000"/>
    <e0 Z="42" value=".00000000000000000E+000"/>
    <e0 Z="43" value=".00000000000000000E+000"/>
    <e0 Z="44" value=".00000000000000000E+000"/>
    <e0 Z="45" value=".00000000000000000E+000"/>
    <e0 Z="46" value=".00000000000000000E+000"/>
    <e0 Z="47" value=".00000000000000000E+000"/>
    <e0 Z="48" value=".00000000000000000E+000"/>
    <e0 Z="49" value=".00000000000000000E+000"/>
    <e0 Z="50" value=".00000000000000000E+000"/>
    <e0 Z="51" value=".00000000000000000E+000"/>
    <e0 Z="52" value=".00000000000000000E+000"/>
    <e0 Z="53" value=".00000000000000000E+000"/>
    <e0 Z="54" value=".00000000000000000E+000"/>
    <e0 Z="55" value=".00000000000000000E+000"/>
    <e0 Z="56" value=".00000000000000000E+000"/>
    <e0 Z="57" value=".00000000000000000E+000"/>
    <e0 Z="58" value=".00000000000000000E+000"/>
    <e0 Z="59" value=".00000000000000000E+000"/>
    <e0 Z="60" value=".00000000000000000E+000"/>
    <e0 Z="61" value=".00000000000000000E+000"/>
    <e0 Z="62" value=".00000000000000000E+000"/>
    <e0 Z="63" value=".00000000000000000E+000"/>
    <e0 Z="64" value=".00000000000000000E+000"/>
    <e0 Z="65" value=".00000000000000000E+000"/>
    <e0 Z="66" value=".00000000000000000E+000"/>
    <e0 Z="67" value=".00000000000000000E+000"/>
    <e0 Z="68" value=".00000000000000000E+000"/>
    <e0 Z="69" value=".00000000000000000E+000"/>
    <e0 Z="70" value=".00000000000000000E+000"/>
    <e0 Z="71" value=".00000000000000000E+000"/>
    <e0 Z="72" value=".00000000000000000E+000"/>
    <e0 Z="73" value=".00000000000000000E+000"/>
    <e0 Z="74" value=".00000000000000000E+000"/>
    <e0 Z="75" value=".00000000000000000E+000"/>
    <e0 Z="76" value=".00000000000000000E+000"/>
    <e0 Z="77" value=".00000000000000000E+000"/>
    <e0 Z="78" value=".00000000000000000E+000"/>
    <e0 Z="79" value=".00000000000000000E+000"/>
    <e0 Z="80" value=".00000000000000000E+000"/>
    <e0 Z="81" value=".00000000000000000E+000"/>
    <e0 Z="82" value=".00000000000000000E+000"/>
    <e0 Z="83" value=".00000000000000000E+000"/>
    <e0 Z="84" value=".00000000000000000E+000"/>
    <e0 Z="85" value=".00000000000000000E+000"/>
    <e0 Z="86" value=".00000000000000000E+000"/>
    <e0 Z="87" value=".00000000000000000E+000"/>
    <e0 Z="88" value=".00000000000000000E+000"/>
    <e0 Z="89" value=".00000000000000000E+000"/>
    <e0 Z="90" value=".00000000000000000E+000"/>
    <e0 Z="91" value=".00000000000000000E+000"/>
    <e0 Z="92" value=".00000000000000000E+000"/>
    <e0 Z="93" value=".00000000000000000E+000"/>
    <e0 Z="94" value=".00000000000000000E+000"/>
    <e0 Z="95" value=".00000000000000000E+000"/>
    <e0 Z="96" value=".00000000000000000E+000"/>
    <e0 Z="97" value=".00000000000000000E+000"/>
    <e0 Z="98" value=".00000000000000000E+000"/>
    <e0 Z="99" value=".00000000000000000E+000"/>
    <e0 Z="100" value=".00000000000000000E+000"/>
    <e0 Z="101" value=".00000000000000000E+000"/>
    <e0 Z="102" value=".00000000000000000E+000"/>
    <e0 Z="103" value=".00000000000000000E+000"/>
    <e0 Z="104" value=".00000000000000000E+000"/>
    <e0 Z="105" value=".00000000000000000E+000"/>
    <e0 Z="106" value=".00000000000000000E+000"/>
    <e0 Z="107" value=".00000000000000000E+000"/>
    <e0 Z="108" value=".00000000000000000E+000"/>
    <e0 Z="109" value=".00000000000000000E+000"/>
    <e0 Z="110" value=".00000000000000000E+000"/>
    <e0 Z="111" value=".00000000000000000E+000"/>
    <e0 Z="112" value=".00000000000000000E+000"/>
    <e0 Z="113" value=".00000000000000000E+000"/>
    <e0 Z="114" value=".00000000000000000E+000"/>
    <e0 Z="115" value=".00000000000000000E+000"/>
    <e0 Z="116" value=".00000000000000000E+000"/>
    <e0 Z="117" value=".00000000000000000E+000"/>
    <e0 Z="118" value=".00000000000000000E+000"/>
  </GAP_data>
  <gpSparse label="GAP_2023_6_27_60_21_24_39_304" n_coordinate="2" fitted="T">
    <gpCoordinates label="GAP_2023_6_27_60_21_24_39_3041" dimensions="1" signal_variance="1.0000000000000000" signal_mean=".00000000000000000E+000" sparsified="T" n_permutations="2" covariance_type="1" n_sparseX="30" sparseX_filename="GAP.xml.sparseX.GAP_2023_6_27_60_21_24_39_3041" sparseX_md5sum="9e675db772eb7cf1ad1e81d5eaa8bd3b">
      <theta>  0.50000000000000000E+000 </theta>
      <descriptor> distance_Nb order=2 cutoff=10.0 covariance_type=ARD_SE theta_uniform=0.5 n_sparse=30 delta=1.0 sparse_method=uniform compact_clusters=T Z={14 14 }</descriptor>
      <permutation i="1">1  </permutation>
      <permutation i="2">1  </permutation>
      <sparseX i="1" alpha="152.09552827089828" sparseCutoff="1.0000000000000000"/>
      <sparseX i="2" alpha="-306.96847987442703" sparseCutoff="1.0000000000000000"/>
      <sparseX i="3" alpha="-288.75420606394306" sparseCutoff="1.0000000000000000"/>
      <sparseX i="4" alpha="-364.48919409051621" sparseCutoff="1.0000000000000000"/>
      <sparseX i="5" alpha="40.634489398637186" sparseCutoff="1.0000000000000000"/>
      <sparseX i="6" alpha="-60.414255623846238" sparseCutoff=".17063740203357491E-001"/>
      <sparseX i="7" alpha="21.331541207524754" sparseCutoff="1.0000000000000000"/>
      <sparseX i="8" alpha="36.518213560599719" sparseCutoff="1.0000000000000000"/>
      <sparseX i="9" alpha="140.71974540261670" sparseCutoff="1.0000000000000000"/>
      <sparseX i="10" alpha="243.83870914019943" sparseCutoff="1.0000000000000000"/>
      <sparseX i="11" alpha="465.89906073591141" sparseCutoff="1.0000000000000000"/>
      <sparseX i="12" alpha="140.02476208187440" sparseCutoff="1.0000000000000000"/>
      <sparseX i="13" alpha="-29.963725887403317" sparseCutoff="1.0000000000000000"/>
      <sparseX i="14" alpha="-99.666488507794384" sparseCutoff="1.0000000000000000"/>
      <sparseX i="15" alpha="-23.070544896774503" sparseCutoff="1.0000000000000000"/>
      <sparseX i="16" alpha="-14.327308159578575" sparseCutoff="1.0000000000000000"/>
      <sparseX i="17" alpha="6.2243644930241437" sparseCutoff=".42645977335161045"/>
      <sparseX i="18" alpha="340.22806423556597" sparseCutoff="1.0000000000000000"/>
      <sparseX i="19" alpha="-117.75622356052884" sparseCutoff="1.0000000000000000"/>
      <sparseX i="20" alpha="-32.782412332303366" sparseCutoff="1.0000000000000000"/>
      <sparseX i="21" alpha="-194.74545421856109" sparseCutoff="1.0000000000000000"/>
      <sparseX i="22" alpha="263.70452952335847" sparseCutoff="1.0000000000000000"/>
      <sparseX i="23" alpha="-376.63633377562104" sparseCutoff="1.0000000000000000"/>
      <sparseX i="24" alpha="-517.97664865596926" sparseCutoff="1.0000000000000000"/>
      <sparseX i="25" alpha="523.14623137558067" sparseCutoff="1.0000000000000000"/>
      <sparseX i="26" alpha="-114.34811012618465" sparseCutoff="1.0000000000000000"/>
      <sparseX i="27" alpha="300.36455642736934" sparseCutoff="1.0000000000000000"/>
      <sparseX i="28" alpha="29.248097884116405" sparseCutoff="1.0000000000000000"/>
      <sparseX i="29" alpha="-252.14889139474028" sparseCutoff="1.0000000000000000"/>
      <sparseX i="30" alpha="35.083242695585831" sparseCutoff="1.0000000000000000"/>
    </gpCoordinates>
    <gpCoordinates label="GAP_2023_6_27_60_21_24_39_3042" dimensions="391" signal_variance=".10000000000000001E+000" signal_mean=".00000000000000000E+000" sparsified="T" n_permutations="1" covariance_type="2" zeta="4.0000000000000000" n_sparseX="500" sparseX_filename="GAP.xml.sparseX.GAP_2023_6_27_60_21_24_39_3042" sparseX_md5sum="1d8261eb56feaf9f8e42b853255ba609">
      <descriptor> soap l_max=4 n_max=12 atom_sigma=0.5 zeta=4 cutoff=5.0 cutoff_transition_width=1.0 central_weight=1.0 n_sparse=500 delta=0.1 f0=0.0 covariance_type=dot_product sparse_method=cur_points n_species=1 Z=14 species_Z={14 }</descriptor>
      <permutation i="1">1  </permutation>
      <sparseX i="1" alpha="7164.8734891139302" sparseCutoff="1.0000000000000000"/>
      <sparseX i="2" alpha="-3158.8908890231783" sparseCutoff="1.0000000000000000"/>
      <sparseX i="3" alpha="-2742.4993203949002" sparseCutoff="1.0000000000000000"/>
      <sparseX i="4" alpha="-14524.206584460553" sparseCutoff="1.0000000000000000"/>
      <sparseX i="5" alpha="-17811.857811769260" sparseCutoff="1.0000000000000000"/>
      <sparseX i="6" alpha="-1684.9436930397410" sparseCutoff="1.0000000000000000"/>
      <sparseX i="7" alpha="-437.96597948983816" sparseCutoff="1.0000000000000000"/>
      <sparseX i="8" alpha="-580.60187168850769" sparseCutoff="1.0000000000000000"/>
      <sparseX i="9" alpha="2383.0413981723200" sparseCutoff="1.0000000000000000"/>
      <sparseX i="10" alpha="-636.18326160403194" sparseCutoff="1.0000000000000000"/>
      <sparseX i="11" alpha="-4591.3969168704771" sparseCutoff="1.0000000000000000"/>
      <sparseX i="12" alpha="-2058.6690211153364" sparseCutoff="1.0000000000000000"/>
      <sparseX i="13" alpha="11392.470050099433" sparseCutoff="1.0000000000000000"/>
      <sparseX i="14" alpha="6671.3492126899373" sparseCutoff="1.0000000000000000"/>
      <sparseX i="15" alpha="-3781.6772091381490" sparseCutoff="1.0000000000000000"/>
      <sparseX i="16" alpha="1077.9450818250691" sparseCutoff="1.0000000000000000"/>
      <sparseX i="17" alpha="-2811.3086192615569" sparseCutoff="1.0000000000000000"/>
      <sparseX i="18" alpha="-7855.1394533368548" sparseCutoff="1.0000000000000000"/>
      <sparseX i="19" alpha="-1631.1712781067604" sparseCutoff="1.0000000000000000"/>
      <sparseX i="20" alpha="1311.3835813751987" sparseCutoff="1.0000000000000000"/>
      <sparseX i="21" alpha="1989.7568434169559" sparseCutoff="1.0000000000000000"/>
      <sparseX i="22" alpha="-1198.7306589115560" sparseCutoff="1.0000000000000000"/>
      <sparseX i="23" alpha="-476.03693215561111" sparseCutoff="1.0000000000000000"/>
      <sparseX i="24" alpha="-3493.3527619828042" sparseCutoff="1.0000000000000000"/>
      <sparseX i="25" alpha="519.26307520832313" sparseCutoff="1.0000000000000000"/>
      <sparseX i="26" alpha="11726.318603494368" sparseCutoff="1.0000000000000000"/>
      <sparseX i="27" alpha="-678.29123864891505" sparseCutoff="1.0000000000000000"/>
      <sparseX i="28" alpha="-3916.1022504842717" sparseCutoff="1.0000000000000000"/>
      <sparseX i="29" alpha="-1156.6394397802217" sparseCutoff="1.0000000000000000"/>
      <sparseX i="30" alpha="99.779948134840382" sparseCutoff="1.0000000000000000"/>
      <sparseX i="31" alpha="-494.48253459861724" sparseCutoff="1.0000000000000000"/>
      <sparseX i="32" alpha="3240.6809349338946" sparseCutoff="1.0000000000000000"/>
      <sparseX i="33" alpha="-4088.8423082907898" sparseCutoff="1.0000000000000000"/>
      <sparseX i="34" alpha="5886.7065402743101" sparseCutoff="1.0000000000000000"/>
      <sparseX i="35" alpha="-1600.5287883804176" sparseCutoff="1.0000000000000000"/>
      <sparseX i="36" alpha="599.38231704431905" sparseCutoff="1.0000000000000000"/>
      <sparseX i="37" alpha="-911.19283760234805" sparseCutoff="1.0000000000000000"/>
      <sparseX i="38" alpha="-1107.3849109714979" sparseCutoff="1.0000000000000000"/>
      <sparseX i="39" alpha="-1247.2950496425010" sparseCutoff="1.0000000000000000"/>
      <sparseX i="40" alpha="7466.6498948858580" sparseCutoff="1.0000000000000000"/>
      <sparseX i="41" alpha="655.66498046303241" sparseCutoff="1.0000000000000000"/>
      <sparseX i="42" alpha="601.80128925427800" sparseCutoff="1.0000000000000000"/>
      <sparseX i="43" alpha="5702.8513614747699" sparseCutoff="1.0000000000000000"/>
      <sparseX i="44" alpha="2056.2848837186680" sparseCutoff="1.0000000000000000"/>
      <sparseX i="45" alpha="-5049.5851888563830" sparseCutoff="1.0000000000000000"/>
      <sparseX i="46" alpha="-22971.233803918927" sparseCutoff="1.0000000000000000"/>
      <sparseX i="47" alpha="-863.75141909538058" sparseCutoff="1.0000000000000000"/>
      <sparseX i="48" alpha="8686.9847304979539" sparseCutoff="1.0000000000000000"/>
      <sparseX i="49" alpha="-5923.5873700619923" sparseCutoff="1.0000000000000000"/>
      <sparseX i="50" alpha="4943.3252885325692" sparseCutoff="1.0000000000000000"/>
      <sparseX i="51" alpha="266.08318412548806" sparseCutoff="1.0000000000000000"/>
      <sparseX i="52" alpha="2696.7018847105846" sparseCutoff="1.0000000000000000"/>
      <sparseX i="53" alpha="2848.5310658640010" sparseCutoff="1.0000000000000000"/>
      <sparseX i="54" alpha="-1498.5855090323698" sparseCutoff="1.0000000000000000"/>
      <sparseX i="55" alpha="-5261.8127709051732" sparseCutoff="1.0000000000000000"/>
      <sparseX i="56" alpha="-608.23993578284012" sparseCutoff="1.0000000000000000"/>
      <sparseX i="57" alpha="1681.5434557893066" sparseCutoff="1.0000000000000000"/>
      <sparseX i="58" alpha="11387.206236817723" sparseCutoff="1.0000000000000000"/>
      <sparseX i="59" alpha="-5382.3088031897578" sparseCutoff="1.0000000000000000"/>
      <sparseX i="60" alpha="9536.5578656313901" sparseCutoff="1.0000000000000000"/>
      <sparseX i="61" alpha="647.26335882636806" sparseCutoff="1.0000000000000000"/>
      <sparseX i="62" alpha="-10337.671818894119" sparseCutoff="1.0000000000000000"/>
      <sparseX i="63" alpha="-230.69337717604014" sparseCutoff="1.0000000000000000"/>
      <sparseX i="64" alpha="-2355.4139272672819" sparseCutoff="1.0000000000000000"/>
      <sparseX i="65" alpha="4061.8109778507728" sparseCutoff="1.0000000000000000"/>
      <sparseX i="66" alpha="986.40985898484735" sparseCutoff="1.0000000000000000"/>
      <sparseX i="67" alpha="3457.7795422438776" sparseCutoff="1.0000000000000000"/>
      <sparseX i="68" alpha="-1015.5419754675102" sparseCutoff="1.0000000000000000"/>
      <sparseX i="69" alpha="-1127.2751599866729" sparseCutoff="1.0000000000000000"/>
      <sparseX i="70" alpha="-848.00603506097991" sparseCutoff="1.0000000000000000"/>
      <sparseX i="71" alpha="18.144065789793377" sparseCutoff="1.0000000000000000"/>
      <sparseX i="72" alpha="-528.44643270158178" sparseCutoff="1.0000000000000000"/>
      <sparseX i="73" alpha="21374.117568874630" sparseCutoff="1.0000000000000000"/>
      <sparseX i="74" alpha="-852.51331723166084" sparseCutoff="1.0000000000000000"/>
      <sparseX i="75" alpha="3892.0845194023864" sparseCutoff="1.0000000000000000"/>
      <sparseX i="76" alpha="-371.08735663021969" sparseCutoff="1.0000000000000000"/>
      <sparseX i="77" alpha="4213.2961352061175" sparseCutoff="1.0000000000000000"/>
      <sparseX i="78" alpha="1040.1059840701471" sparseCutoff="1.0000000000000000"/>
      <sparseX i="79" alpha="-985.25174324262844" sparseCutoff="1.0000000000000000"/>
      <sparseX i="80" alpha="9769.7717051816035" sparseCutoff="1.0000000000000000"/>
      <sparseX i="81" alpha="-1193.8843168996318" sparseCutoff="1.0000000000000000"/>
      <sparseX i="82" alpha="499.07912476408336" sparseCutoff="1.0000000000000000"/>
      <sparseX i="83" alpha="3520.8939770263005" sparseCutoff="1.0000000000000000"/>
      <sparseX i="84" alpha="-3057.5607330854036" sparseCutoff="1.0000000000000000"/>
      <sparseX i="85" alpha="-4601.1036297146911" sparseCutoff="1.0000000000000000"/>
      <sparseX i="86" alpha="-255.45458711315106" sparseCutoff="1.0000000000000000"/>
      <sparseX i="87" alpha="-844.73127480694677" sparseCutoff="1.0000000000000000"/>
      <sparseX i="88" alpha="-14632.117085605732" sparseCutoff="1.0000000000000000"/>
      <sparseX i="89" alpha="-2204.0949855644849" sparseCutoff="1.0000000000000000"/>
      <sparseX i="90" alpha="5554.4711423976196" sparseCutoff="1.0000000000000000"/>
      <sparseX i="91" alpha="1627.6212567001724" sparseCutoff="1.0000000000000000"/>
      <sparseX i="92" alpha="4567.8398323867132" sparseCutoff="1.0000000000000000"/>
      <sparseX i="93" alpha="11725.897927192562" sparseCutoff="1.0000000000000000"/>
      <sparseX i="94" alpha="10073.786960837060" sparseCutoff="1.0000000000000000"/>
      <sparseX i="95" alpha="-721.31474560829088" sparseCutoff="1.0000000000000000"/>
      <sparseX i="96" alpha="1177.6727740827509" sparseCutoff="1.0000000000000000"/>
      <sparseX i="97" alpha="1977.8880749112304" sparseCutoff="1.0000000000000000"/>
      <sparseX i="98" alpha="2565.4074735181725" sparseCutoff="1.0000000000000000"/>
      <sparseX i="99" alpha="1822.0677016559616" sparseCutoff="1.0000000000000000"/>
      <sparseX i="100" alpha="-675.29640838329999" sparseCutoff="1.0000000000000000"/>
      <sparseX i="101" alpha="-276.36296652705329" sparseCutoff="1.0000000000000000"/>
      <sparseX i="102" alpha="-4143.1335345367997" sparseCutoff="1.0000000000000000"/>
      <sparseX i="103" alpha="-423.88184843769915" sparseCutoff="1.0000000000000000"/>
      <sparseX i="104" alpha="877.47855439792681" sparseCutoff="1.0000000000000000"/>
      <sparseX i="105" alpha="318.09428064106396" sparseCutoff="1.0000000000000000"/>
      <sparseX i="106" alpha="1441.3124256142560" sparseCutoff="1.0000000000000000"/>
      <sparseX i="107" alpha="-1556.6100872145375" sparseCutoff="1.0000000000000000"/>
      <sparseX i="108" alpha="-11894.016976364683" sparseCutoff="1.0000000000000000"/>
      <sparseX i="109" alpha="416.15506594328468" sparseCutoff="1.0000000000000000"/>
      <sparseX i="110" alpha="10782.195742756652" sparseCutoff="1.0000000000000000"/>
      <sparseX i="111" alpha="21140.227105306411" sparseCutoff="1.0000000000000000"/>
      <sparseX i="112" alpha="321.53758851456860" sparseCutoff="1.0000000000000000"/>
      <sparseX i="113" alpha="1572.5174932166394" sparseCutoff="1.0000000000000000"/>
      <sparseX i="114" alpha="-8168.3619586491304" sparseCutoff="1.0000000000000000"/>
      <sparseX i="115" alpha="-4964.2946460811299" sparseCutoff="1.0000000000000000"/>
      <sparseX i="116" alpha="-1541.0343317777565" sparseCutoff="1.0000000000000000"/>
      <sparseX i="117" alpha="1394.2592967616499" sparseCutoff="1.0000000000000000"/>
      <sparseX i="118" alpha="-1706.8817692498501" sparseCutoff="1.0000000000000000"/>
      <sparseX i="119" alpha="-13871.593239203235" sparseCutoff="1.0000000000000000"/>
      <sparseX i="120" alpha="-3667.2598752948775" sparseCutoff="1.0000000000000000"/>
      <sparseX i="121" alpha="-2028.8254258119218" sparseCutoff="1.0000000000000000"/>
      <sparseX i="122" alpha="1490.1539911679597" sparseCutoff="1.0000000000000000"/>
      <sparseX i="123" alpha="1168.3227594858204" sparseCutoff="1.0000000000000000"/>
      <sparseX i="124" alpha="-8496.0000167604394" sparseCutoff="1.0000000000000000"/>
      <sparseX i="125" alpha="-5396.3125167731223" sparseCutoff="1.0000000000000000"/>
      <sparseX i="126" alpha="3073.5918093701871" sparseCutoff="1.0000000000000000"/>
      <sparseX i="127" alpha="-496.04173700108657" sparseCutoff="1.0000000000000000"/>
      <sparseX i="128" alpha="5954.1939143661521" sparseCutoff="1.0000000000000000"/>
      <sparseX i="129" alpha="-1592.8174892296968" sparseCutoff="1.0000000000000000"/>
      <sparseX i="130" alpha="-1369.1239067433089" sparseCutoff="1.0000000000000000"/>
      <sparseX i="131" alpha="7569.2941812756781" sparseCutoff="1.0000000000000000"/>
      <sparseX i="132" alpha="4789.3720175001999" sparseCutoff="1.0000000000000000"/>
      <sparseX i="133" alpha="7917.8801369221082" sparseCutoff="1.0000000000000000"/>
      <sparseX i="134" alpha="1103.0094865629255" sparseCutoff="1.0000000000000000"/>
      <sparseX i="135" alpha="646.68193301161591" sparseCutoff="1.0000000000000000"/>
      <sparseX i="136" alpha="1214.6520562882035" sparseCutoff="1.0000000000000000"/>
      <sparseX i="137" alpha="2337.3087009230926" sparseCutoff="1.0000000000000000"/>
      <sparseX i="138" alpha="-206.75776568672453" sparseCutoff="1.0000000000000000"/>
      <sparseX i="139" alpha="-3210.5973987014022" sparseCutoff="1.0000000000000000"/>
      <sparseX i="140" alpha="-20118.719105816075" sparseCutoff="1.0000000000000000"/>
      <sparseX i="141" alpha="-3996.7343806280060" sparseCutoff="1.0000000000000000"/>
      <sparseX i="142" alpha="-1161.1206755664373" sparseCutoff="1.0000000000000000"/>
      <sparseX i="143" alpha="479.09640453185563" sparseCutoff="1.0000000000000000"/>
      <sparseX i="144" alpha="867.81459201493590" sparseCutoff="1.0000000000000000"/>
      <sparseX i="145" alpha="938.72573069741577" sparseCutoff="1.0000000000000000"/>
      <sparseX i="146" alpha="5859.7183298399386" sparseCutoff="1.0000000000000000"/>
      <sparseX i="147" alpha="6545.8125270378132" sparseCutoff="1.0000000000000000"/>
      <sparseX i="148" alpha="-1891.1420043953121" sparseCutoff="1.0000000000000000"/>
      <sparseX i="149" alpha="-6361.4567189074560" sparseCutoff="1.0000000000000000"/>
      <sparseX i="150" alpha="13554.529669595715" sparseCutoff="1.0000000000000000"/>
      <sparseX i="151" alpha="2598.2899124632631" sparseCutoff="1.0000000000000000"/>
      <sparseX i="152" alpha="-6029.9585528547668" sparseCutoff="1.0000000000000000"/>
      <sparseX i="153" alpha="-899.51860052399707" sparseCutoff="1.0000000000000000"/>
      <sparseX i="154" alpha="-1185.2868803197475" sparseCutoff="1.0000000000000000"/>
      <sparseX i="155" alpha="21095.651855276225" sparseCutoff="1.0000000000000000"/>
      <sparseX i="156" alpha="6147.3924525014963" sparseCutoff="1.0000000000000000"/>
      <sparseX i="157" alpha="1678.4695752016094" sparseCutoff="1.0000000000000000"/>
      <sparseX i="158" alpha="-1244.1968890994108" sparseCutoff="1.0000000000000000"/>
      <sparseX i="159" alpha="-637.91101278058909" sparseCutoff="1.0000000000000000"/>
      <sparseX i="160" alpha="-1163.0220555846092" sparseCutoff="1.0000000000000000"/>
      <sparseX i="161" alpha="-9444.4234159278221" sparseCutoff="1.0000000000000000"/>
      <sparseX i="162" alpha="-374.16239827813013" sparseCutoff="1.0000000000000000"/>
      <sparseX i="163" alpha="9415.4661958323577" sparseCutoff="1.0000000000000000"/>
      <sparseX i="164" alpha="767.35603996078476" sparseCutoff="1.0000000000000000"/>
      <sparseX i="165" alpha="-2996.7042338210417" sparseCutoff="1.0000000000000000"/>
      <sparseX i="166" alpha="1420.4402908897061" sparseCutoff="1.0000000000000000"/>
      <sparseX i="167" alpha="4929.3713635703107" sparseCutoff="1.0000000000000000"/>
      <sparseX i="168" alpha="-111.71362118174227" sparseCutoff="1.0000000000000000"/>
      <sparseX i="169" alpha="-7137.0081326001182" sparseCutoff="1.0000000000000000"/>
      <sparseX i="170" alpha="5978.8226378625832" sparseCutoff="1.0000000000000000"/>
      <sparseX i="171" alpha="2336.4013462734488" sparseCutoff="1.0000000000000000"/>
      <sparseX i="172" alpha="-1317.8733376401219" sparseCutoff="1.0000000000000000"/>
      <sparseX i="173" alpha="-1132.1421087824208" sparseCutoff="1.0000000000000000"/>
      <sparseX i="174" alpha="-3156.5913027438214" sparseCutoff="1.0000000000000000"/>
      <sparseX i="175" alpha="413.64970611220701" sparseCutoff="1.0000000000000000"/>
      <sparseX i="176" alpha="-7307.5700844352632" sparseCutoff="1.0000000000000000"/>
      <sparseX i="177" alpha="746.91750526968463" sparseCutoff="1.0000000000000000"/>
      <sparseX i="178" alpha="-2920.1084550177311" sparseCutoff="1.0000000000000000"/>
      <sparseX i="179" alpha="-1780.5270905734837" sparseCutoff="1.0000000000000000"/>
      <sparseX i="180" alpha="-433.96271432965972" sparseCutoff="1.0000000000000000"/>
      <sparseX i="181" alpha="-212.27284296176401" sparseCutoff="1.0000000000000000"/>
      <sparseX i="182" alpha="-6354.8650534942735" sparseCutoff="1.0000000000000000"/>
      <sparseX i="183" alpha="-11617.505355807092" sparseCutoff="1.0000000000000000"/>
      <sparseX i="184" alpha="-12065.522232223047" sparseCutoff="1.0000000000000000"/>
      <sparseX i="185" alpha="1440.1184945312975" sparseCutoff="1.0000000000000000"/>
      <sparseX i="186" alpha="1644.8885295260220" sparseCutoff="1.0000000000000000"/>
      <sparseX i="187" alpha="-20987.682513416141" sparseCutoff="1.0000000000000000"/>
      <sparseX i="188" alpha="-19397.193764726624" sparseCutoff="1.0000000000000000"/>
      <sparseX i="189" alpha="-760.10529571790755" sparseCutoff="1.0000000000000000"/>
      <sparseX i="190" alpha="-3141.8264616623046" sparseCutoff="1.0000000000000000"/>
      <sparseX i="191" alpha="1498.3086786197728" sparseCutoff="1.0000000000000000"/>
      <sparseX i="192" alpha="3518.3213376568970" sparseCutoff="1.0000000000000000"/>
      <sparseX i="193" alpha="-1413.5507732149488" sparseCutoff="1.0000000000000000"/>
      <sparseX i="194" alpha="-447.67896776469905" sparseCutoff="1.0000000000000000"/>
      <sparseX i="195" alpha="9176.2964072421510" sparseCutoff="1.0000000000000000"/>
      <sparseX i="196" alpha="2946.4370236158111" sparseCutoff="1.0000000000000000"/>
      <sparseX i="197" alpha="2719.9867431129769" sparseCutoff="1.0000000000000000"/>
      <sparseX i="198" alpha="4109.1726148884873" sparseCutoff="1.0000000000000000"/>
      <sparseX i="199" alpha="-7435.1224898040027" sparseCutoff="1.0000000000000000"/>
      <sparseX i="200" alpha="10432.168810623880" sparseCutoff="1.0000000000000000"/>
      <sparseX i="201" alpha="13598.871572639275" sparseCutoff="1.0000000000000000"/>
      <sparseX i="202" alpha="-3460.8274564406374" sparseCutoff="1.0000000000000000"/>
      <sparseX i="203" alpha="-4916.4066390282369" sparseCutoff="1.0000000000000000"/>
      <sparseX i="204" alpha="-2909.4454152775775" sparseCutoff="1.0000000000000000"/>
      <sparseX i="205" alpha="-427.00296266370958" sparseCutoff="1.0000000000000000"/>
      <sparseX i="206" alpha="4499.7058828764157" sparseCutoff="1.0000000000000000"/>
      <sparseX i="207" alpha="2598.9567458001711" sparseCutoff="1.0000000000000000"/>
      <sparseX i="208" alpha="-1581.7808435795232" sparseCutoff="1.0000000000000000"/>
      <sparseX i="209" alpha="-2779.6084854767337" sparseCutoff="1.0000000000000000"/>
      <sparseX i="210" alpha="-3640.1037973654443" sparseCutoff="1.0000000000000000"/>
      <sparseX i="211" alpha="-1698.4968006487029" sparseCutoff="1.0000000000000000"/>
      <sparseX i="212" alpha="-322.73029817623882" sparseCutoff="1.0000000000000000"/>
      <sparseX i="213" alpha="-2071.4072151842570" sparseCutoff="1.0000000000000000"/>
      <sparseX i="214" alpha="-4896.4783649176088" sparseCutoff="1.0000000000000000"/>
      <sparseX i="215" alpha="3821.9359734990512" sparseCutoff="1.0000000000000000"/>
      <sparseX i="216" alpha="949.86314893781366" sparseCutoff="1.0000000000000000"/>
      <sparseX i="217" alpha="-1438.1798566313562" sparseCutoff="1.0000000000000000"/>
      <sparseX i="218" alpha="-11937.113792498605" sparseCutoff="1.0000000000000000"/>
      <sparseX i="219" alpha="358.58271606341111" sparseCutoff="1.0000000000000000"/>
      <sparseX i="220" alpha="3499.5640814036510" sparseCutoff="1.0000000000000000"/>
      <sparseX i="221" alpha="-1862.8014817187777" sparseCutoff="1.0000000000000000"/>
      <sparseX i="222" alpha="2210.6370187444713" sparseCutoff="1.0000000000000000"/>
      <sparseX i="223" alpha="-1663.8316531577600" sparseCutoff="1.0000000000000000"/>
      <sparseX i="224" alpha="342.63380110631135" sparseCutoff="1.0000000000000000"/>
      <sparseX i="225" alpha="-2876.6611896218033" sparseCutoff="1.0000000000000000"/>
      <sparseX i="226" alpha="-2523.2839901079069" sparseCutoff="1.0000000000000000"/>
      <sparseX i="227" alpha="-834.58628528137285" sparseCutoff="1.0000000000000000"/>
      <sparseX i="228" alpha="251.94891214064057" sparseCutoff="1.0000000000000000"/>
      <sparseX i="229" alpha="714.28686704228278" sparseCutoff="1.0000000000000000"/>
      <sparseX i="230" alpha="-432.11436319976048" sparseCutoff="1.0000000000000000"/>
      <sparseX i="231" alpha="589.12205674160987" sparseCutoff="1.0000000000000000"/>
      <sparseX i="232" alpha="958.63494938704082" sparseCutoff="1.0000000000000000"/>
      <sparseX i="233" alpha="3530.1442633282850" sparseCutoff="1.0000000000000000"/>
      <sparseX i="234" alpha="90.683681840866271" sparseCutoff="1.0000000000000000"/>
      <sparseX i="235" alpha="2737.0245624870377" sparseCutoff="1.0000000000000000"/>
      <sparseX i="236" alpha="47.997829698767845" sparseCutoff="1.0000000000000000"/>
      <sparseX i="237" alpha="4188.4002923192793" sparseCutoff="1.0000000000000000"/>
      <sparseX i="238" alpha="-3079.6776630201075" sparseCutoff="1.0000000000000000"/>
      <sparseX i="239" alpha="7262.1064130820296" sparseCutoff="1.0000000000000000"/>
      <sparseX i="240" alpha="1698.9387977560432" sparseCutoff="1.0000000000000000"/>
      <sparseX i="241" alpha="1111.4463150320732" sparseCutoff="1.0000000000000000"/>
      <sparseX i="242" alpha="1149.9202538557422" sparseCutoff="1.0000000000000000"/>
      <sparseX i="243" alpha="2200.4414484350777" sparseCutoff="1.0000000000000000"/>
      <sparseX i="244" alpha="717.08959091557836" sparseCutoff="1.0000000000000000"/>
      <sparseX i="245" alpha="1480.3593652106251" sparseCutoff="1.0000000000000000"/>
      <sparseX i="246" alpha="-1003.0823508196665" sparseCutoff="1.0000000000000000"/>
      <sparseX i="247" alpha="-460.54726901189213" sparseCutoff="1.0000000000000000"/>
      <sparseX i="248" alpha="713.27373552543929" sparseCutoff="1.0000000000000000"/>
      <sparseX i="249" alpha="1226.3884845984296" sparseCutoff="1.0000000000000000"/>
      <sparseX i="250" alpha="3474.8491874361475" sparseCutoff="1.0000000000000000"/>
      <sparseX i="251" alpha="-1542.1634245902887" sparseCutoff="1.0000000000000000"/>
      <sparseX i="252" alpha="-1189.3601888246953" sparseCutoff="1.0000000000000000"/>
      <sparseX i="253" alpha="83.091466889705231" sparseCutoff="1.0000000000000000"/>
      <sparseX i="254" alpha="-834.80548440869200" sparseCutoff="1.0000000000000000"/>
      <sparseX i="255" alpha="127.30588843062408" sparseCutoff="1.0000000000000000"/>
      <sparseX i="256" alpha="1363.8427275396089" sparseCutoff="1.0000000000000000"/>
      <sparseX i="257" alpha="-9445.5656804606861" sparseCutoff="1.0000000000000000"/>
      <sparseX i="258" alpha="-923.69322237582958" sparseCutoff="1.0000000000000000"/>
      <sparseX i="259" alpha="3213.5987220444545" sparseCutoff="1.0000000000000000"/>
      <sparseX i="260" alpha="1294.1653321375750" sparseCutoff="1.0000000000000000"/>
      <sparseX i="261" alpha="-2858.8615017052402" sparseCutoff="1.0000000000000000"/>
      <sparseX i="262" alpha="1503.2855507520085" sparseCutoff="1.0000000000000000"/>
      <sparseX i="263" alpha="481.43180301462314" sparseCutoff="1.0000000000000000"/>
      <sparseX i="264" alpha="885.74233307315774" sparseCutoff="1.0000000000000000"/>
      <sparseX i="265" alpha="1076.5181912387955" sparseCutoff="1.0000000000000000"/>
      <sparseX i="266" alpha="240.11036247098778" sparseCutoff="1.0000000000000000"/>
      <sparseX i="267" alpha="271.41431936230310" sparseCutoff="1.0000000000000000"/>
      <sparseX i="268" alpha="-700.84661504259884" sparseCutoff="1.0000000000000000"/>
      <sparseX i="269" alpha="204.27357491155684" sparseCutoff="1.0000000000000000"/>
      <sparseX i="270" alpha="70.602711534388618" sparseCutoff="1.0000000000000000"/>
      <sparseX i="271" alpha="-2214.7836987688784" sparseCutoff="1.0000000000000000"/>
      <sparseX i="272" alpha="462.97816284110246" sparseCutoff="1.0000000000000000"/>
      <sparseX i="273" alpha="-1996.3134264858065" sparseCutoff="1.0000000000000000"/>
      <sparseX i="274" alpha="-2510.8730677622484" sparseCutoff="1.0000000000000000"/>
      <sparseX i="275" alpha="194.26323686096470" sparseCutoff="1.0000000000000000"/>
      <sparseX i="276" alpha="119.34484045007383" sparseCutoff="1.0000000000000000"/>
      <sparseX i="277" alpha="1503.4916740946298" sparseCutoff="1.0000000000000000"/>
      <sparseX i="278" alpha="1743.5836419818831" sparseCutoff="1.0000000000000000"/>
      <sparseX i="279" alpha="-240.76470607227213" sparseCutoff="1.0000000000000000"/>
      <sparseX i="280" alpha="-309.87625286642043" sparseCutoff="1.0000000000000000"/>
      <sparseX i="281" alpha="960.76293826582128" sparseCutoff="1.0000000000000000"/>
      <sparseX i="282" alpha="5623.3778393908578" sparseCutoff="1.0000000000000000"/>
      <sparseX i="283" alpha="1705.0550460044994" sparseCutoff="1.0000000000000000"/>
      <sparseX i="284" alpha="117.46870035177238" sparseCutoff="1.0000000000000000"/>
      <sparseX i="285" alpha="1414.3436066380536" sparseCutoff="1.0000000000000000"/>
      <sparseX i="286" alpha="-306.05579368864380" sparseCutoff="1.0000000000000000"/>
      <sparseX i="287" alpha="209.33141893653320" sparseCutoff="1.0000000000000000"/>
      <sparseX i="288" alpha="-906.22906197011730" sparseCutoff="1.0000000000000000"/>
      <sparseX i="289" alpha="-797.16848022467866" sparseCutoff="1.0000000000000000"/>
      <sparseX i="290" alpha="226.28497614106556" sparseCutoff="1.0000000000000000"/>
      <sparseX i="291" alpha="476.53395798493329" sparseCutoff="1.0000000000000000"/>
      <sparseX i="292" alpha="-501.50613599171726" sparseCutoff="1.0000000000000000"/>
      <sparseX i="293" alpha="845.92584083010331" sparseCutoff="1.0000000000000000"/>
      <sparseX i="294" alpha="1384.2545254248435" sparseCutoff="1.0000000000000000"/>
      <sparseX i="295" alpha="1294.0233747096884" sparseCutoff="1.0000000000000000"/>
      <sparseX i="296" alpha="-523.71064379104678" sparseCutoff="1.0000000000000000"/>
      <sparseX i="297" alpha="-1960.6779709255918" sparseCutoff="1.0000000000000000"/>
      <sparseX i="298" alpha="-640.59741530649615" sparseCutoff="1.0000000000000000"/>
      <sparseX i="299" alpha="-3220.8633796476747" sparseCutoff="1.0000000000000000"/>
      <sparseX i="300" alpha="3150.3256180572266" sparseCutoff="1.0000000000000000"/>
      <sparseX i="301" alpha="977.99206794644863" sparseCutoff="1.0000000000000000"/>
      <sparseX i="302" alpha="-157.93242411265587" sparseCutoff="1.0000000000000000"/>
      <sparseX i="303" alpha="-8845.5560925271020" sparseCutoff="1.0000000000000000"/>
      <sparseX i="304" alpha="763.29867418361539" sparseCutoff="1.0000000000000000"/>
      <sparseX i="305" alpha="2717.8316495814497" sparseCutoff="1.0000000000000000"/>
      <sparseX i="306" alpha="888.52050843450274" sparseCutoff="1.0000000000000000"/>
      <sparseX i="307" alpha="-752.70045210062756" sparseCutoff="1.0000000000000000"/>
      <sparseX i="308" alpha="-2405.5334782815289" sparseCutoff="1.0000000000000000"/>
      <sparseX i="309" alpha="204.74368930664625" sparseCutoff="1.0000000000000000"/>
      <sparseX i="310" alpha="-1172.8011794023801" sparseCutoff="1.0000000000000000"/>
      <sparseX i="311" alpha="2838.0213409651233" sparseCutoff="1.0000000000000000"/>
      <sparseX i="312" alpha="-841.90233466710845" sparseCutoff="1.0000000000000000"/>
      <sparseX i="313" alpha="-519.49483347321143" sparseCutoff="1.0000000000000000"/>
      <sparseX i="314" alpha="-398.84772337994593" sparseCutoff="1.0000000000000000"/>
      <sparseX i="315" alpha="1483.3930540897586" sparseCutoff="1.0000000000000000"/>
      <sparseX i="316" alpha="-2553.0772957663366" sparseCutoff="1.0000000000000000"/>
      <sparseX i="317" alpha="-1138.1749963020086" sparseCutoff="1.0000000000000000"/>
      <sparseX i="318" alpha="-804.66196466726058" sparseCutoff="1.0000000000000000"/>
      <sparseX i="319" alpha="241.35594465044721" sparseCutoff="1.0000000000000000"/>
      <sparseX i="320" alpha="2057.9202014099496" sparseCutoff="1.0000000000000000"/>
      <sparseX i="321" alpha="2543.1715623778136" sparseCutoff="1.0000000000000000"/>
      <sparseX i="322" alpha="3216.0486017460116" sparseCutoff="1.0000000000000000"/>
      <sparseX i="323" alpha="-1013.8151348822917" sparseCutoff="1.0000000000000000"/>
      <sparseX i="324" alpha="-911.26347073328770" sparseCutoff="1.0000000000000000"/>
      <sparseX i="325" alpha="265.25164361726570" sparseCutoff="1.0000000000000000"/>
      <sparseX i="326" alpha="7144.4784855089965" sparseCutoff="1.0000000000000000"/>
      <sparseX i="327" alpha="560.29085848844352" sparseCutoff="1.0000000000000000"/>
      <sparseX i="328" alpha="603.68574279506265" sparseCutoff="1.0000000000000000"/>
      <sparseX i="329" alpha="-3042.1294196873346" sparseCutoff="1.0000000000000000"/>
      <sparseX i="330" alpha="1771.3972629664465" sparseCutoff="1.0000000000000000"/>
      <sparseX i="331" alpha="-125.69835646890003" sparseCutoff="1.0000000000000000"/>
      <sparseX i="332" alpha="-3347.9257958265998" sparseCutoff="1.0000000000000000"/>
      <sparseX i="333" alpha="-682.48402774493923" sparseCutoff="1.0000000000000000"/>
      <sparseX i="334" alpha="-1083.4980713887492" sparseCutoff="1.0000000000000000"/>
      <sparseX i="335" alpha="-256.59809557487830" sparseCutoff="1.0000000000000000"/>
      <sparseX i="336" alpha="1203.8580999511205" sparseCutoff="1.0000000000000000"/>
      <sparseX i="337" alpha="3101.2182397118800" sparseCutoff="1.0000000000000000"/>
      <sparseX i="338" alpha="100.42835142251663" sparseCutoff="1.0000000000000000"/>
      <sparseX i="339" alpha="-563.24224332243568" sparseCutoff="1.0000000000000000"/>
      <sparseX i="340" alpha="1751.5975015982015" sparseCutoff="1.0000000000000000"/>
      <sparseX i="341" alpha="-537.32279826499030" sparseCutoff="1.0000000000000000"/>
      <sparseX i="342" alpha="-3094.4160761667827" sparseCutoff="1.0000000000000000"/>
      <sparseX i="343" alpha="978.51885758350727" sparseCutoff="1.0000000000000000"/>
      <sparseX i="344" alpha="3223.9766629123374" sparseCutoff="1.0000000000000000"/>
      <sparseX i="345" alpha="-1164.2681132921048" sparseCutoff="1.0000000000000000"/>
      <sparseX i="346" alpha="-983.08422271794382" sparseCutoff="1.0000000000000000"/>
      <sparseX i="347" alpha="3718.9945233964031" sparseCutoff="1.0000000000000000"/>
      <sparseX i="348" alpha="-837.06068354379852" sparseCutoff="1.0000000000000000"/>
      <sparseX i="349" alpha="-510.80780171442103" sparseCutoff="1.0000000000000000"/>
      <sparseX i="350" alpha="-1425.3422285879892" sparseCutoff="1.0000000000000000"/>
      <sparseX i="351" alpha="-2395.6010314396949" sparseCutoff="1.0000000000000000"/>
      <sparseX i="352" alpha="2774.6117613457704" sparseCutoff="1.0000000000000000"/>
      <sparseX i="353" alpha="-1069.8595197774480" sparseCutoff="1.0000000000000000"/>
      <sparseX i="354" alpha="-629.42952619395669" sparseCutoff="1.0000000000000000"/>
      <sparseX i="355" alpha="1678.5998520634266" sparseCutoff="1.0000000000000000"/>
      <sparseX i="356" alpha="-619.54603238261211" sparseCutoff="1.0000000000000000"/>
      <sparseX i="357" alpha="205.95629417156300" sparseCutoff="1.0000000000000000"/>
      <sparseX i="358" alpha="-999.81138971799419" sparseCutoff="1.0000000000000000"/>
      <sparseX i="359" alpha="955.86799573531925" sparseCutoff="1.0000000000000000"/>
      <sparseX i="360" alpha="1431.7010223272139" sparseCutoff="1.0000000000000000"/>
      <sparseX i="361" alpha="1225.8106378371974" sparseCutoff="1.0000000000000000"/>
      <sparseX i="362" alpha="-420.95736537054501" sparseCutoff="1.0000000000000000"/>
      <sparseX i="363" alpha="-3375.6573230843978" sparseCutoff="1.0000000000000000"/>
      <sparseX i="364" alpha="1394.4068524003414" sparseCutoff="1.0000000000000000"/>
      <sparseX i="365" alpha="-2130.6945079077577" sparseCutoff="1.0000000000000000"/>
      <sparseX i="366" alpha="2088.2795512530547" sparseCutoff="1.0000000000000000"/>
      <sparseX i="367" alpha="1070.2742798467186" sparseCutoff="1.0000000000000000"/>
      <sparseX i="368" alpha="-1709.3978823547739" sparseCutoff="1.0000000000000000"/>
      <sparseX i="369" alpha="-156.11475378237145" sparseCutoff="1.0000000000000000"/>
      <sparseX i="370" alpha="-211.39398033094460" sparseCutoff="1.0000000000000000"/>
      <sparseX i="371" alpha="-1954.7417124723893" sparseCutoff="1.0000000000000000"/>
      <sparseX i="372" alpha="-499.97712256670974" sparseCutoff="1.0000000000000000"/>
      <sparseX i="373" alpha="-137.56917683286636" sparseCutoff="1.0000000000000000"/>
      <sparseX i="374" alpha="880.20259769541997" sparseCutoff="1.0000000000000000"/>
      <sparseX i="375" alpha="-1740.5122721789735" sparseCutoff="1.0000000000000000"/>
      <sparseX i="376" alpha="-755.25835390910856" sparseCutoff="1.0000000000000000"/>
      <sparseX i="377" alpha="-353.26902625318286" sparseCutoff="1.0000000000000000"/>
      <sparseX i="378" alpha="377.18955649047638" sparseCutoff="1.0000000000000000"/>
      <sparseX i="379" alpha="-904.74063203832202" sparseCutoff="1.0000000000000000"/>
      <sparseX i="380" alpha="2444.4833400896805" sparseCutoff="1.0000000000000000"/>
      <sparseX i="381" alpha="143.09446396178336" sparseCutoff="1.0000000000000000"/>
      <sparseX i="382" alpha="-2140.1381082382009" sparseCutoff="1.0000000000000000"/>
      <sparseX i="383" alpha="662.62614784527796" sparseCutoff="1.0000000000000000"/>
      <sparseX i="384" alpha="510.58769858740624" sparseCutoff="1.0000000000000000"/>
      <sparseX i="385" alpha="2134.6766563421047" sparseCutoff="1.0000000000000000"/>
      <sparseX i="386" alpha="-2347.5152002072277" sparseCutoff="1.0000000000000000"/>
      <sparseX i="387" alpha="-416.55858266315539" sparseCutoff="1.0000000000000000"/>
      <sparseX i="388" alpha="2257.0910701100884" sparseCutoff="1.0000000000000000"/>
      <sparseX i="389" alpha="4598.4747631928522" sparseCutoff="1.0000000000000000"/>
      <sparseX i="390" alpha="-1574.2302714187140" sparseCutoff="1.0000000000000000"/>
      <sparseX i="391" alpha="735.45202775359826" sparseCutoff="1.0000000000000000"/>
      <sparseX i="392" alpha="1126.3565081683578" sparseCutoff="1.0000000000000000"/>
      <sparseX i="393" alpha="-1764.8370104781345" sparseCutoff="1.0000000000000000"/>
      <sparseX i="394" alpha="822.86498644177391" sparseCutoff="1.0000000000000000"/>
      <sparseX i="395" alpha="1098.2178980577953" sparseCutoff="1.0000000000000000"/>
      <sparseX i="396" alpha="-905.66404074080401" sparseCutoff="1.0000000000000000"/>
      <sparseX i="397" alpha="-1961.4787937693370" sparseCutoff="1.0000000000000000"/>
      <sparseX i="398" alpha="-456.80521855868352" sparseCutoff="1.0000000000000000"/>
      <sparseX i="399" alpha="-2129.6222027081963" sparseCutoff="1.0000000000000000"/>
      <sparseX i="400" alpha="-530.97694707205540" sparseCutoff="1.0000000000000000"/>
      <sparseX i="401" alpha="-385.55970224636246" sparseCutoff="1.0000000000000000"/>
      <sparseX i="402" alpha="-1623.2416590330379" sparseCutoff="1.0000000000000000"/>
      <sparseX i="403" alpha="-1047.7152199818534" sparseCutoff="1.0000000000000000"/>
      <sparseX i="404" alpha="625.10546297992676" sparseCutoff="1.0000000000000000"/>
      <sparseX i="405" alpha="1493.6214844148244" sparseCutoff="1.0000000000000000"/>
      <sparseX i="406" alpha="3011.1329328230859" sparseCutoff="1.0000000000000000"/>
      <sparseX i="407" alpha="-1760.2339983677987" sparseCutoff="1.0000000000000000"/>
      <sparseX i="408" alpha="-2685.7009616705463" sparseCutoff="1.0000000000000000"/>
      <sparseX i="409" alpha="-2028.6400820646882" sparseCutoff="1.0000000000000000"/>
      <sparseX i="410" alpha="420.82034713070533" sparseCutoff="1.0000000000000000"/>
      <sparseX i="411" alpha="-283.84410148275975" sparseCutoff="1.0000000000000000"/>
      <sparseX i="412" alpha="-3765.7589957584082" sparseCutoff="1.0000000000000000"/>
      <sparseX i="413" alpha="1383.9706939391206" sparseCutoff="1.0000000000000000"/>
      <sparseX i="414" alpha="1901.0825324732477" sparseCutoff="1.0000000000000000"/>
      <sparseX i="415" alpha="1966.3136441693646" sparseCutoff="1.0000000000000000"/>
      <sparseX i="416" alpha="-3115.2128321803257" sparseCutoff="1.0000000000000000"/>
      <sparseX i="417" alpha="-2238.9040146435873" sparseCutoff="1.0000000000000000"/>
      <sparseX i="418" alpha="-1054.7413104486523" sparseCutoff="1.0000000000000000"/>
      <sparseX i="419" alpha="-860.16412843191824" sparseCutoff="1.0000000000000000"/>
      <sparseX i="420" alpha="-3417.2405017578299" sparseCutoff="1.0000000000000000"/>
      <sparseX i="421" alpha="-2691.2136156414895" sparseCutoff="1.0000000000000000"/>
      <sparseX i="422" alpha="-1669.4058472186055" sparseCutoff="1.0000000000000000"/>
      <sparseX i="423" alpha="161.26644729006466" sparseCutoff="1.0000000000000000"/>
      <sparseX i="424" alpha="795.58149321348162" sparseCutoff="1.0000000000000000"/>
      <sparseX i="425" alpha="-1230.6524322632329" sparseCutoff="1.0000000000000000"/>
      <sparseX i="426" alpha="2863.5065219354542" sparseCutoff="1.0000000000000000"/>
      <sparseX i="427" alpha="-1887.3505781466697" sparseCutoff="1.0000000000000000"/>
      <sparseX i="428" alpha="-146.74438159627974" sparseCutoff="1.0000000000000000"/>
      <sparseX i="429" alpha="1091.0902432967109" sparseCutoff="1.0000000000000000"/>
      <sparseX i="430" alpha="2811.8746250093100" sparseCutoff="1.0000000000000000"/>
      <sparseX i="431" alpha="1579.0751089510218" sparseCutoff="1.0000000000000000"/>
      <sparseX i="432" alpha="4084.8488022088754" sparseCutoff="1.0000000000000000"/>
      <sparseX i="433" alpha="-3156.4451781411003" sparseCutoff="1.0000000000000000"/>
      <sparseX i="434" alpha="-317.30854323355533" sparseCutoff="1.0000000000000000"/>
      <sparseX i="435" alpha="431.32813180456839" sparseCutoff="1.0000000000000000"/>
      <sparseX i="436" alpha="-1762.2615512025368" sparseCutoff="1.0000000000000000"/>
      <sparseX i="437" alpha="-2915.0233485365193" sparseCutoff="1.0000000000000000"/>
      <sparseX i="438" alpha="-1191.2884616918025" sparseCutoff="1.0000000000000000"/>
      <sparseX i="439" alpha="-2741.2811580859325" sparseCutoff="1.0000000000000000"/>
      <sparseX i="440" alpha="747.19312383095485" sparseCutoff="1.0000000000000000"/>
      <sparseX i="441" alpha="2070.1321600485467" sparseCutoff="1.0000000000000000"/>
      <sparseX i="442" alpha="-2027.4116980232823" sparseCutoff="1.0000000000000000"/>
      <sparseX i="443" alpha="-1639.2559209452945" sparseCutoff="1.0000000000000000"/>
      <sparseX i="444" alpha="3338.8888925398478" sparseCutoff="1.0000000000000000"/>
      <sparseX i="445" alpha="1858.7186964353923" sparseCutoff="1.0000000000000000"/>
      <sparseX i="446" alpha="-5241.5253671689361" sparseCutoff="1.0000000000000000"/>
      <sparseX i="447" alpha="-2264.3692565930087" sparseCutoff="1.0000000000000000"/>
      <sparseX i="448" alpha="1471.5189623537494" sparseCutoff="1.0000000000000000"/>
      <sparseX i="449" alpha="-1204.7620070985752" sparseCutoff="1.0000000000000000"/>
      <sparseX i="450" alpha="-2693.2439099602834" sparseCutoff="1.0000000000000000"/>
      <sparseX i="451" alpha="-1065.1971035416882" sparseCutoff="1.0000000000000000"/>
      <sparseX i="452" alpha="-2235.4864030933104" sparseCutoff="1.0000000000000000"/>
      <sparseX i="453" alpha="-332.80515175525284" sparseCutoff="1.0000000000000000"/>
      <sparseX i="454" alpha="-661.85373432391430" sparseCutoff="1.0000000000000000"/>
      <sparseX i="455" alpha="896.37590872305623" sparseCutoff="1.0000000000000000"/>
      <sparseX i="456" alpha="3361.8698194427557" sparseCutoff="1.0000000000000000"/>
      <sparseX i="457" alpha="-1344.3292847083351" sparseCutoff="1.0000000000000000"/>
      <sparseX i="458" alpha="350.53804434811332" sparseCutoff="1.0000000000000000"/>
      <sparseX i="459" alpha="97.842461235093879" sparseCutoff="1.0000000000000000"/>
      <sparseX i="460" alpha="1201.8157973716984" sparseCutoff="1.0000000000000000"/>
      <sparseX i="461" alpha="524.29364681639231" sparseCutoff="1.0000000000000000"/>
      <sparseX i="462" alpha="515.30675557967481" sparseCutoff="1.0000000000000000"/>
      <sparseX i="463" alpha="-88.661484108959073" sparseCutoff="1.0000000000000000"/>
      <sparseX i="464" alpha="844.56907222952896" sparseCutoff="1.0000000000000000"/>
      <sparseX i="465" alpha="39.390890496222802" sparseCutoff="1.0000000000000000"/>
      <sparseX i="466" alpha="197.52528056816308" sparseCutoff="1.0000000000000000"/>
      <sparseX i="467" alpha="4576.6130124735628" sparseCutoff="1.0000000000000000"/>
      <sparseX i="468" alpha="-1993.2045353538424" sparseCutoff="1.0000000000000000"/>
      <sparseX i="469" alpha="1218.4290275221883" sparseCutoff="1.0000000000000000"/>
      <sparseX i="470" alpha="3762.8494865780963" sparseCutoff="1.0000000000000000"/>
      <sparseX i="471" alpha="286.57200219562458" sparseCutoff="1.0000000000000000"/>
      <sparseX i="472" alpha="1747.5619384988213" sparseCutoff="1.0000000000000000"/>
      <sparseX i="473" alpha="2103.9864840865694" sparseCutoff="1.0000000000000000"/>
      <sparseX i="474" alpha="818.62221575674300" sparseCutoff="1.0000000000000000"/>
      <sparseX i="475" alpha="1731.8976985046661" sparseCutoff="1.0000000000000000"/>
      <sparseX i="476" alpha="831.77516499602802" sparseCutoff="1.0000000000000000"/>
      <sparseX i="477" alpha="1286.9823510260005" sparseCutoff="1.0000000000000000"/>
      <sparseX i="478" alpha="3382.2906749239460" sparseCutoff="1.0000000000000000"/>
      <sparseX i="479" alpha="-1184.8006660559211" sparseCutoff="1.0000000000000000"/>
      <sparseX i="480" alpha="3624.4328294616294" sparseCutoff="1.0000000000000000"/>
      <sparseX i="481" alpha="-3612.4090994485437" sparseCutoff="1.0000000000000000"/>
      <sparseX i="482" alpha="1945.7217204881742" sparseCutoff="1.0000000000000000"/>
      <sparseX i="483" alpha="5167.4142548416421" sparseCutoff="1.0000000000000000"/>
      <sparseX i="484" alpha="907.72130950315147" sparseCutoff="1.0000000000000000"/>
      <sparseX i="485" alpha="-623.65005271270718" sparseCutoff="1.0000000000000000"/>
      <sparseX i="486" alpha="334.24777953061033" sparseCutoff="1.0000000000000000"/>
      <sparseX i="487" alpha="549.74528871403118" sparseCutoff="1.0000000000000000"/>
      <sparseX i="488" alpha="2353.8672783882625" sparseCutoff="1.0000000000000000"/>
      <sparseX i="489" alpha="-1854.5738937290364" sparseCutoff="1.0000000000000000"/>
      <sparseX i="490" alpha="940.81723871510246" sparseCutoff="1.0000000000000000"/>
      <sparseX i="491" alpha="510.52008551251890" sparseCutoff="1.0000000000000000"/>
      <sparseX i="492" alpha="-1388.8389799472357" sparseCutoff="1.0000000000000000"/>
      <sparseX i="493" alpha="1212.4081781345333" sparseCutoff="1.0000000000000000"/>
      <sparseX i="494" alpha="762.90408223216878" sparseCutoff="1.0000000000000000"/>
      <sparseX i="495" alpha="-145.96477561269785" sparseCutoff="1.0000000000000000"/>
      <sparseX i="496" alpha="-43.072553579600097" sparseCutoff="1.0000000000000000"/>
      <sparseX i="497" alpha="65.837821633122672" sparseCutoff="1.0000000000000000"/>
      <sparseX i="498" alpha="167.91260111513796" sparseCutoff="1.0000000000000000"/>
      <sparseX i="499" alpha="2173.5096176371612" sparseCutoff="1.0000000000000000"/>
      <sparseX i="500" alpha="-1725.6574451630927" sparseCutoff="1.0000000000000000"/>
    </gpCoordinates>
  </gpSparse>
  <command_line><![CDATA[ at_file=train.xyz gp_file=GAP.xml energy_parameter_name=QM_energy force_parameter_name=QM_forces virial_parameter_name=QM_virial do_copy_at_file=F sparse_separate_file=T default_sigma={ 0.001 0.1 0.05 0.0 } e0_method=average e0=Si:-160.73263835370375 gap={ distance_Nb order=2 cutoff=10.0 covariance_type=ARD_SE theta_uniform=0.5 n_sparse=30 delta=1.0 sparse_method=uniform compact_clusters=T : soap l_max=4 n_max=12 atom_sigma=0.5 zeta=4 cutoff=5.0 cutoff_transition_width=1.0 central_weight=1.0 n_sparse=500 delta=0.1 f0=0.0 covariance_type=dot_product sparse_method=cur_points } sparse_jitter = 1.0e-8]]></command_line>
</GAP_params>
</GAP_2023_6_27_60_21_24_39_304>
