<GAP_2023_3_14_0_1_44_25_903>
<Potential label="GAP_2023_3_14_0_1_44_25_903" init_args="IP GAP label=GAP_2023_3_14_0_1_44_25_903"/>
<GAP_params label="GAP_2023_3_14_0_1_44_25_903" gap_version="1657795613">
  <GAP_data do_core="F">
    <e0 Z="1" value=".00000000000000000E+000"/>
    <e0 Z="2" value=".00000000000000000E+000"/>
    <e0 Z="3" value=".00000000000000000E+000"/>
    <e0 Z="4" value=".00000000000000000E+000"/>
    <e0 Z="5" value=".00000000000000000E+000"/>
    <e0 Z="6" value=".00000000000000000E+000"/>
    <e0 Z="7" value=".00000000000000000E+000"/>
    <e0 Z="8" value="-303.43560781508364"/>
    <e0 Z="9" value=".00000000000000000E+000"/>
    <e0 Z="10" value=".00000000000000000E+000"/>
    <e0 Z="11" value=".00000000000000000E+000"/>
    <e0 Z="12" value=".00000000000000000E+000"/>
    <e0 Z="13" value="-303.43560781508364"/>
    <e0 Z="14" value=".00000000000000000E+000"/>
    <e0 Z="15" value=".00000000000000000E+000"/>
    <e0 Z="16" value=".00000000000000000E+000"/>
    <e0 Z="17" value=".00000000000000000E+000"/>
    <e0 Z="18" value=".00000000000000000E+000"/>
    <e0 Z="19" value=".00000000000000000E+000"/>
    <e0 Z="20" value=".00000000000000000E+000"/>
    <e0 Z="21" value=".00000000000000000E+000"/>
    <e0 Z="22" value=".00000000000000000E+000"/>
    <e0 Z="23" value=".00000000000000000E+000"/>
    <e0 Z="24" value=".00000000000000000E+000"/>
    <e0 Z="25" value=".00000000000000000E+000"/>
    <e0 Z="26" value=".00000000000000000E+000"/>
    <e0 Z="27" value=".00000000000000000E+000"/>
    <e0 Z="28" value=".00000000000000000E+000"/>
    <e0 Z="29" value=".00000000000000000E+000"/>
    <e0 Z="30" value=".00000000000000000E+000"/>
    <e0 Z="31" value=".00000000000000000E+000"/>
    <e0 Z="32" value=".00000000000000000E+000"/>
    <e0 Z="33" value=".00000000000000000E+000"/>
    <e0 Z="34" value=".00000000000000000E+000"/>
    <e0 Z="35" value=".00000000000000000E+000"/>
    <e0 Z="36" value=".00000000000000000E+000"/>
    <e0 Z="37" value=".00000000000000000E+000"/>
    <e0 Z="38" value=".00000000000000000E+000"/>
    <e0 Z="39" value=".00000000000000000E+000"/>
    <e0 Z="40" value=".00000000000000000E+000"/>
    <e0 Z="41" value=".00000000000000000E+000"/>
    <e0 Z="42" value=".00000000000000000E+000"/>
    <e0 Z="43" value=".00000000000000000E+000"/>
    <e0 Z="44" value=".00000000000000000E+000"/>
    <e0 Z="45" value=".00000000000000000E+000"/>
    <e0 Z="46" value=".00000000000000000E+000"/>
    <e0 Z="47" value=".00000000000000000E+000"/>
    <e0 Z="48" value=".00000000000000000E+000"/>
    <e0 Z="49" value=".00000000000000000E+000"/>
    <e0 Z="50" value=".00000000000000000E+000"/>
    <e0 Z="51" value=".00000000000000000E+000"/>
    <e0 Z="52" value=".00000000000000000E+000"/>
    <e0 Z="53" value=".00000000000000000E+000"/>
    <e0 Z="54" value=".00000000000000000E+000"/>
    <e0 Z="55" value=".00000000000000000E+000"/>
    <e0 Z="56" value=".00000000000000000E+000"/>
    <e0 Z="57" value=".00000000000000000E+000"/>
    <e0 Z="58" value=".00000000000000000E+000"/>
    <e0 Z="59" value=".00000000000000000E+000"/>
    <e0 Z="60" value=".00000000000000000E+000"/>
    <e0 Z="61" value=".00000000000000000E+000"/>
    <e0 Z="62" value=".00000000000000000E+000"/>
    <e0 Z="63" value=".00000000000000000E+000"/>
    <e0 Z="64" value=".00000000000000000E+000"/>
    <e0 Z="65" value=".00000000000000000E+000"/>
    <e0 Z="66" value=".00000000000000000E+000"/>
    <e0 Z="67" value=".00000000000000000E+000"/>
    <e0 Z="68" value=".00000000000000000E+000"/>
    <e0 Z="69" value=".00000000000000000E+000"/>
    <e0 Z="70" value=".00000000000000000E+000"/>
    <e0 Z="71" value=".00000000000000000E+000"/>
    <e0 Z="72" value=".00000000000000000E+000"/>
    <e0 Z="73" value=".00000000000000000E+000"/>
    <e0 Z="74" value=".00000000000000000E+000"/>
    <e0 Z="75" value=".00000000000000000E+000"/>
    <e0 Z="76" value=".00000000000000000E+000"/>
    <e0 Z="77" value=".00000000000000000E+000"/>
    <e0 Z="78" value=".00000000000000000E+000"/>
    <e0 Z="79" value=".00000000000000000E+000"/>
    <e0 Z="80" value=".00000000000000000E+000"/>
    <e0 Z="81" value=".00000000000000000E+000"/>
    <e0 Z="82" value=".00000000000000000E+000"/>
    <e0 Z="83" value=".00000000000000000E+000"/>
    <e0 Z="84" value=".00000000000000000E+000"/>
    <e0 Z="85" value=".00000000000000000E+000"/>
    <e0 Z="86" value=".00000000000000000E+000"/>
    <e0 Z="87" value=".00000000000000000E+000"/>
    <e0 Z="88" value=".00000000000000000E+000"/>
    <e0 Z="89" value=".00000000000000000E+000"/>
    <e0 Z="90" value=".00000000000000000E+000"/>
    <e0 Z="91" value=".00000000000000000E+000"/>
    <e0 Z="92" value=".00000000000000000E+000"/>
    <e0 Z="93" value=".00000000000000000E+000"/>
    <e0 Z="94" value=".00000000000000000E+000"/>
    <e0 Z="95" value=".00000000000000000E+000"/>
    <e0 Z="96" value=".00000000000000000E+000"/>
    <e0 Z="97" value=".00000000000000000E+000"/>
    <e0 Z="98" value=".00000000000000000E+000"/>
    <e0 Z="99" value=".00000000000000000E+000"/>
    <e0 Z="100" value=".00000000000000000E+000"/>
    <e0 Z="101" value=".00000000000000000E+000"/>
    <e0 Z="102" value=".00000000000000000E+000"/>
    <e0 Z="103" value=".00000000000000000E+000"/>
    <e0 Z="104" value=".00000000000000000E+000"/>
    <e0 Z="105" value=".00000000000000000E+000"/>
    <e0 Z="106" value=".00000000000000000E+000"/>
    <e0 Z="107" value=".00000000000000000E+000"/>
    <e0 Z="108" value=".00000000000000000E+000"/>
    <e0 Z="109" value=".00000000000000000E+000"/>
    <e0 Z="110" value=".00000000000000000E+000"/>
    <e0 Z="111" value=".00000000000000000E+000"/>
    <e0 Z="112" value=".00000000000000000E+000"/>
    <e0 Z="113" value=".00000000000000000E+000"/>
    <e0 Z="114" value=".00000000000000000E+000"/>
    <e0 Z="115" value=".00000000000000000E+000"/>
    <e0 Z="116" value=".00000000000000000E+000"/>
    <e0 Z="117" value=".00000000000000000E+000"/>
    <e0 Z="118" value=".00000000000000000E+000"/>
  </GAP_data>
  <gpSparse label="GAP_2023_3_14_0_1_44_25_903" n_coordinate="5" fitted="T">
    <gpCoordinates label="GAP_2023_3_14_0_1_44_25_9031" dimensions="1" signal_variance="1.0000000000000000" signal_mean=".00000000000000000E+000" sparsified="T" n_permutations="2" covariance_type="1" n_sparseX="20" sparseX_filename="GAP.xml.sparseX.GAP_2023_3_14_0_1_44_25_9031" sparseX_md5sum="7582e6956bd35473abc1bddce6e51f49">
      <theta>  0.10000000000000000E+001 </theta>
      <descriptor> distance_Nb order=2 n_sparse=20 cutoff=4.5 cutoff_transition_width=1.0 compact_clusters covariance_type=ard_se theta_uniform=1.0 sparse_method=uniform f0=0.0               delta=1.0 Z={8 8 }</descriptor>
      <permutation i="1">1  </permutation>
      <permutation i="2">1  </permutation>
      <sparseX i="1" alpha="9547.5954094539011" sparseCutoff=".32660740912811570E-002"/>
      <sparseX i="2" alpha="31872.456878277189" sparseCutoff=".70330543826576419"/>
      <sparseX i="3" alpha="-23500.529853545057" sparseCutoff="1.0000000000000000"/>
      <sparseX i="4" alpha="41083.750429495936" sparseCutoff=".51692201905339963E-001"/>
      <sparseX i="5" alpha="1996.7066204039493" sparseCutoff="1.0000000000000000"/>
      <sparseX i="6" alpha="23831.588363065646" sparseCutoff=".87023414499775542"/>
      <sparseX i="7" alpha="-27594.102408928287" sparseCutoff=".42861304834389946"/>
      <sparseX i="8" alpha="-29179.069877522044" sparseCutoff="1.0000000000000000"/>
      <sparseX i="9" alpha="-1271.6070518472302" sparseCutoff=".15895364976856741"/>
      <sparseX i="10" alpha="-14538.215774692144" sparseCutoff=".48880583882699086"/>
      <sparseX i="11" alpha="19888.701004803279" sparseCutoff="1.0000000000000000"/>
      <sparseX i="12" alpha="11364.883585306678" sparseCutoff="1.0000000000000000"/>
      <sparseX i="13" alpha="27123.819599305829" sparseCutoff="1.0000000000000000"/>
      <sparseX i="14" alpha="-751.87185766478581" sparseCutoff="1.0000000000000000"/>
      <sparseX i="15" alpha="26852.938404407822" sparseCutoff="1.0000000000000000"/>
      <sparseX i="16" alpha="-23038.996173944182" sparseCutoff=".99323237991574365"/>
      <sparseX i="17" alpha="-25935.569043442229" sparseCutoff="1.0000000000000000"/>
      <sparseX i="18" alpha="17276.579891835958" sparseCutoff="1.0000000000000000"/>
      <sparseX i="19" alpha="5945.1603122807273" sparseCutoff="1.0000000000000000"/>
      <sparseX i="20" alpha="-34366.491458524557" sparseCutoff="1.0000000000000000"/>
    </gpCoordinates>
    <gpCoordinates label="GAP_2023_3_14_0_1_44_25_9032" dimensions="1" signal_variance="1.0000000000000000" signal_mean=".00000000000000000E+000" sparsified="T" n_permutations="1" covariance_type="1" n_sparseX="20" sparseX_filename="GAP.xml.sparseX.GAP_2023_3_14_0_1_44_25_9032" sparseX_md5sum="a75e1dfbe973e98fb76e824721ac13a7">
      <theta>  0.10000000000000000E+001 </theta>
      <descriptor> distance_Nb order=2 n_sparse=20 cutoff=4.5 cutoff_transition_width=1.0 compact_clusters covariance_type=ard_se theta_uniform=1.0 sparse_method=uniform f0=0.0               delta=1.0 Z={8 13 }</descriptor>
      <permutation i="1">1  </permutation>
      <sparseX i="1" alpha="21546.624665906900" sparseCutoff="1.0000000000000000"/>
      <sparseX i="2" alpha="14729.027710116652" sparseCutoff="1.0000000000000000"/>
      <sparseX i="3" alpha="11136.082742360491" sparseCutoff="1.0000000000000000"/>
      <sparseX i="4" alpha="-4080.5231645404078" sparseCutoff=".93642329772744393E-001"/>
      <sparseX i="5" alpha="-541.11241618527026" sparseCutoff=".74419362547960022"/>
      <sparseX i="6" alpha="-4683.1881653398223" sparseCutoff=".98218030139135171"/>
      <sparseX i="7" alpha="29049.836699991483" sparseCutoff="1.0000000000000000"/>
      <sparseX i="8" alpha="12337.442530322989" sparseCutoff=".54751149653160169"/>
      <sparseX i="9" alpha="1082.2174690927145" sparseCutoff=".27028047407960387E-002"/>
      <sparseX i="10" alpha="-871.85397146036405" sparseCutoff="1.0000000000000000"/>
      <sparseX i="11" alpha="-4562.7383785871234" sparseCutoff=".21276294837438126"/>
      <sparseX i="12" alpha="-36655.012631272126" sparseCutoff="1.0000000000000000"/>
      <sparseX i="13" alpha="-12082.071283653098" sparseCutoff=".89706882717968961"/>
      <sparseX i="14" alpha="-16195.699395001817" sparseCutoff="1.0000000000000000"/>
      <sparseX i="15" alpha="-36061.587290382646" sparseCutoff="1.0000000000000000"/>
      <sparseX i="16" alpha="-16361.420320849849" sparseCutoff="1.0000000000000000"/>
      <sparseX i="17" alpha="4497.2263945871346" sparseCutoff="1.0000000000000000"/>
      <sparseX i="18" alpha="739.27263983757928" sparseCutoff="1.0000000000000000"/>
      <sparseX i="19" alpha="7565.1372251697057" sparseCutoff="1.0000000000000000"/>
      <sparseX i="20" alpha="27327.052609253245" sparseCutoff="1.0000000000000000"/>
    </gpCoordinates>
    <gpCoordinates label="GAP_2023_3_14_0_1_44_25_9033" dimensions="1" signal_variance="1.0000000000000000" signal_mean=".00000000000000000E+000" sparsified="T" n_permutations="2" covariance_type="1" n_sparseX="20" sparseX_filename="GAP.xml.sparseX.GAP_2023_3_14_0_1_44_25_9033" sparseX_md5sum="a8f8a5692389dd060a7d8546ed7b7b18">
      <theta>  0.10000000000000000E+001 </theta>
      <descriptor> distance_Nb order=2 n_sparse=20 cutoff=4.5 cutoff_transition_width=1.0 compact_clusters covariance_type=ard_se theta_uniform=1.0 sparse_method=uniform f0=0.0               delta=1.0 Z={13 13 }</descriptor>
      <permutation i="1">1  </permutation>
      <permutation i="2">1  </permutation>
      <sparseX i="1" alpha="2912.0849931825151" sparseCutoff=".66146466747517230"/>
      <sparseX i="2" alpha="-384.95481024287903" sparseCutoff="1.0000000000000000"/>
      <sparseX i="3" alpha="-453.62169439040900" sparseCutoff="1.0000000000000000"/>
      <sparseX i="4" alpha="2099.3368451767742" sparseCutoff="1.0000000000000000"/>
      <sparseX i="5" alpha="-1671.4585465913297" sparseCutoff="1.0000000000000000"/>
      <sparseX i="6" alpha="3873.7163082837878" sparseCutoff="1.0000000000000000"/>
      <sparseX i="7" alpha="-3504.9328979831644" sparseCutoff="1.0000000000000000"/>
      <sparseX i="8" alpha="-2552.8036439450466" sparseCutoff=".96852714080984703"/>
      <sparseX i="9" alpha="-3551.0796444419416" sparseCutoff="1.0000000000000000"/>
      <sparseX i="10" alpha="2380.1591463631221" sparseCutoff="1.0000000000000000"/>
      <sparseX i="11" alpha="1368.3442427746434" sparseCutoff=".85621546002613713"/>
      <sparseX i="12" alpha="4570.9918715197200" sparseCutoff="1.0000000000000000"/>
      <sparseX i="13" alpha="1934.8249802814282" sparseCutoff=".39977791423977949E-002"/>
      <sparseX i="14" alpha="-307.84751282953368" sparseCutoff=".52084059315909637"/>
      <sparseX i="15" alpha="336.57189464716782" sparseCutoff="1.0000000000000000"/>
      <sparseX i="16" alpha="3600.8889006119680" sparseCutoff=".90982661174979773E-002"/>
      <sparseX i="17" alpha="-3803.2895774238145" sparseCutoff=".35164559717876648"/>
      <sparseX i="18" alpha="2102.7792296124417" sparseCutoff=".15303632760632313"/>
      <sparseX i="19" alpha="-11076.642112927737" sparseCutoff="1.0000000000000000"/>
      <sparseX i="20" alpha="7898.3058122250422" sparseCutoff="1.0000000000000000"/>
    </gpCoordinates>
    <gpCoordinates label="GAP_2023_3_14_0_1_44_25_9034" dimensions="681" signal_variance=".50000000000000000" signal_mean=".00000000000000000E+000" sparsified="T" n_permutations="1" covariance_type="2" zeta="4.0000000000000000" n_sparseX="1000" sparseX_filename="GAP.xml.sparseX.GAP_2023_3_14_0_1_44_25_9034" sparseX_md5sum="6e708ea93d3a251787903376f52b2378">
      <descriptor> soap n_sparse=1000 n_max=8 l_max=4 cutoff=3.5 cutoff_transition_width=0.5 atom_sigma=0.4                  covariance_type=dot_product zeta=4 sparse_method=cur_points delta=0.5 n_species=2 Z=8 species_Z={8 13 }</descriptor>
      <permutation i="1">1  </permutation>
      <sparseX i="1" alpha="-4137.0119982874357" sparseCutoff="1.0000000000000000"/>
      <sparseX i="2" alpha="-5715.3271955419377" sparseCutoff="1.0000000000000000"/>
      <sparseX i="3" alpha="-1167.5199579400567" sparseCutoff="1.0000000000000000"/>
      <sparseX i="4" alpha="-2294.6715182653252" sparseCutoff="1.0000000000000000"/>
      <sparseX i="5" alpha="3282.8587965317570" sparseCutoff="1.0000000000000000"/>
      <sparseX i="6" alpha="1373.1286801225376" sparseCutoff="1.0000000000000000"/>
      <sparseX i="7" alpha="7210.9421354979195" sparseCutoff="1.0000000000000000"/>
      <sparseX i="8" alpha="8010.0006861999163" sparseCutoff="1.0000000000000000"/>
      <sparseX i="9" alpha="89.365645432932922" sparseCutoff="1.0000000000000000"/>
      <sparseX i="10" alpha="-6925.9142956760943" sparseCutoff="1.0000000000000000"/>
      <sparseX i="11" alpha="-17763.015626034929" sparseCutoff="1.0000000000000000"/>
      <sparseX i="12" alpha="-2.1920589652876208" sparseCutoff="1.0000000000000000"/>
      <sparseX i="13" alpha="3379.0501615951207" sparseCutoff="1.0000000000000000"/>
      <sparseX i="14" alpha="-761.66707778051295" sparseCutoff="1.0000000000000000"/>
      <sparseX i="15" alpha="8855.4990994478903" sparseCutoff="1.0000000000000000"/>
      <sparseX i="16" alpha="4079.2403262963026" sparseCutoff="1.0000000000000000"/>
      <sparseX i="17" alpha="16090.428118434591" sparseCutoff="1.0000000000000000"/>
      <sparseX i="18" alpha="572.73241402660597" sparseCutoff="1.0000000000000000"/>
      <sparseX i="19" alpha="1672.5796072218011" sparseCutoff="1.0000000000000000"/>
      <sparseX i="20" alpha="18085.550070058212" sparseCutoff="1.0000000000000000"/>
      <sparseX i="21" alpha="-7543.0081189370858" sparseCutoff="1.0000000000000000"/>
      <sparseX i="22" alpha="4141.4548109637699" sparseCutoff="1.0000000000000000"/>
      <sparseX i="23" alpha="2567.0630519085130" sparseCutoff="1.0000000000000000"/>
      <sparseX i="24" alpha="920.72324001333607" sparseCutoff="1.0000000000000000"/>
      <sparseX i="25" alpha="-8043.5631009696144" sparseCutoff="1.0000000000000000"/>
      <sparseX i="26" alpha="-2905.5168959909042" sparseCutoff="1.0000000000000000"/>
      <sparseX i="27" alpha="-17095.653556694426" sparseCutoff="1.0000000000000000"/>
      <sparseX i="28" alpha="4872.8867146906878" sparseCutoff="1.0000000000000000"/>
      <sparseX i="29" alpha="7484.9982959717481" sparseCutoff="1.0000000000000000"/>
      <sparseX i="30" alpha="-4858.1830882838740" sparseCutoff="1.0000000000000000"/>
      <sparseX i="31" alpha="-1153.6973907065455" sparseCutoff="1.0000000000000000"/>
      <sparseX i="32" alpha="9108.4407971526580" sparseCutoff="1.0000000000000000"/>
      <sparseX i="33" alpha="3897.3638247812764" sparseCutoff="1.0000000000000000"/>
      <sparseX i="34" alpha="-149.10986246105281" sparseCutoff="1.0000000000000000"/>
      <sparseX i="35" alpha="-334.85636087431027" sparseCutoff="1.0000000000000000"/>
      <sparseX i="36" alpha="2743.5099657831420" sparseCutoff="1.0000000000000000"/>
      <sparseX i="37" alpha="-1687.1730702794214" sparseCutoff="1.0000000000000000"/>
      <sparseX i="38" alpha="-10849.419210355463" sparseCutoff="1.0000000000000000"/>
      <sparseX i="39" alpha="2679.5114774783983" sparseCutoff="1.0000000000000000"/>
      <sparseX i="40" alpha="-1209.2340032569571" sparseCutoff="1.0000000000000000"/>
      <sparseX i="41" alpha="-1540.5856968504118" sparseCutoff="1.0000000000000000"/>
      <sparseX i="42" alpha="887.28704723312251" sparseCutoff="1.0000000000000000"/>
      <sparseX i="43" alpha="-2662.5962595192332" sparseCutoff="1.0000000000000000"/>
      <sparseX i="44" alpha="1403.5542605438025" sparseCutoff="1.0000000000000000"/>
      <sparseX i="45" alpha="-2313.2383626797737" sparseCutoff="1.0000000000000000"/>
      <sparseX i="46" alpha="1284.1874042654695" sparseCutoff="1.0000000000000000"/>
      <sparseX i="47" alpha="131.66295796783010" sparseCutoff="1.0000000000000000"/>
      <sparseX i="48" alpha="-5103.1035074405663" sparseCutoff="1.0000000000000000"/>
      <sparseX i="49" alpha="642.40152116418960" sparseCutoff="1.0000000000000000"/>
      <sparseX i="50" alpha="863.96031405139775" sparseCutoff="1.0000000000000000"/>
      <sparseX i="51" alpha="822.00369423467760" sparseCutoff="1.0000000000000000"/>
      <sparseX i="52" alpha="-22.597603428246774" sparseCutoff="1.0000000000000000"/>
      <sparseX i="53" alpha="2602.0157444030342" sparseCutoff="1.0000000000000000"/>
      <sparseX i="54" alpha="42.481459800453777" sparseCutoff="1.0000000000000000"/>
      <sparseX i="55" alpha="-771.32183982772176" sparseCutoff="1.0000000000000000"/>
      <sparseX i="56" alpha="2606.1577944630521" sparseCutoff="1.0000000000000000"/>
      <sparseX i="57" alpha="4115.5891938237983" sparseCutoff="1.0000000000000000"/>
      <sparseX i="58" alpha="-958.18223814963017" sparseCutoff="1.0000000000000000"/>
      <sparseX i="59" alpha="-586.88797243509896" sparseCutoff="1.0000000000000000"/>
      <sparseX i="60" alpha="372.57682112596376" sparseCutoff="1.0000000000000000"/>
      <sparseX i="61" alpha="-994.98724470888055" sparseCutoff="1.0000000000000000"/>
      <sparseX i="62" alpha="-303.19027417362292" sparseCutoff="1.0000000000000000"/>
      <sparseX i="63" alpha="752.60513049813267" sparseCutoff="1.0000000000000000"/>
      <sparseX i="64" alpha="869.30514933470829" sparseCutoff="1.0000000000000000"/>
      <sparseX i="65" alpha="-454.12925793881777" sparseCutoff="1.0000000000000000"/>
      <sparseX i="66" alpha="602.06983851985581" sparseCutoff="1.0000000000000000"/>
      <sparseX i="67" alpha="768.87251495714759" sparseCutoff="1.0000000000000000"/>
      <sparseX i="68" alpha="1355.5848399520962" sparseCutoff="1.0000000000000000"/>
      <sparseX i="69" alpha="-718.25961965731926" sparseCutoff="1.0000000000000000"/>
      <sparseX i="70" alpha="-108.16952681345994" sparseCutoff="1.0000000000000000"/>
      <sparseX i="71" alpha="1274.0630876859120" sparseCutoff="1.0000000000000000"/>
      <sparseX i="72" alpha="-1611.9331395417455" sparseCutoff="1.0000000000000000"/>
      <sparseX i="73" alpha="1607.6393044045778" sparseCutoff="1.0000000000000000"/>
      <sparseX i="74" alpha="-765.50773560136292" sparseCutoff="1.0000000000000000"/>
      <sparseX i="75" alpha="-2198.7315303686155" sparseCutoff="1.0000000000000000"/>
      <sparseX i="76" alpha="498.12271036523771" sparseCutoff="1.0000000000000000"/>
      <sparseX i="77" alpha="-3676.3397682616533" sparseCutoff="1.0000000000000000"/>
      <sparseX i="78" alpha="1556.3607281771897" sparseCutoff="1.0000000000000000"/>
      <sparseX i="79" alpha="4463.2210386994984" sparseCutoff="1.0000000000000000"/>
      <sparseX i="80" alpha="-724.02020723594580" sparseCutoff="1.0000000000000000"/>
      <sparseX i="81" alpha="981.65893848548421" sparseCutoff="1.0000000000000000"/>
      <sparseX i="82" alpha="-1144.0267805654489" sparseCutoff="1.0000000000000000"/>
      <sparseX i="83" alpha="659.10275054752799" sparseCutoff="1.0000000000000000"/>
      <sparseX i="84" alpha="-515.06790904020841" sparseCutoff="1.0000000000000000"/>
      <sparseX i="85" alpha="-153.71239095522509" sparseCutoff="1.0000000000000000"/>
      <sparseX i="86" alpha="740.73257781906682" sparseCutoff="1.0000000000000000"/>
      <sparseX i="87" alpha="-4570.1355485290323" sparseCutoff="1.0000000000000000"/>
      <sparseX i="88" alpha="469.40447794599515" sparseCutoff="1.0000000000000000"/>
      <sparseX i="89" alpha="-3628.6285156313356" sparseCutoff="1.0000000000000000"/>
      <sparseX i="90" alpha="-449.27635206091378" sparseCutoff="1.0000000000000000"/>
      <sparseX i="91" alpha="-671.86550036322126" sparseCutoff="1.0000000000000000"/>
      <sparseX i="92" alpha="1491.3455229679664" sparseCutoff="1.0000000000000000"/>
      <sparseX i="93" alpha="183.95739605479105" sparseCutoff="1.0000000000000000"/>
      <sparseX i="94" alpha="2722.6965759040095" sparseCutoff="1.0000000000000000"/>
      <sparseX i="95" alpha="-1126.7637491657929" sparseCutoff="1.0000000000000000"/>
      <sparseX i="96" alpha="-1639.3118794728173" sparseCutoff="1.0000000000000000"/>
      <sparseX i="97" alpha="-4096.5056339901912" sparseCutoff="1.0000000000000000"/>
      <sparseX i="98" alpha="-5094.8818751907856" sparseCutoff="1.0000000000000000"/>
      <sparseX i="99" alpha="2412.8141535072082" sparseCutoff="1.0000000000000000"/>
      <sparseX i="100" alpha="-138.57163198830844" sparseCutoff="1.0000000000000000"/>
      <sparseX i="101" alpha="-2729.4332210199645" sparseCutoff="1.0000000000000000"/>
      <sparseX i="102" alpha="637.85900054533226" sparseCutoff="1.0000000000000000"/>
      <sparseX i="103" alpha="-903.60636324492611" sparseCutoff="1.0000000000000000"/>
      <sparseX i="104" alpha="-1092.4447964493031" sparseCutoff="1.0000000000000000"/>
      <sparseX i="105" alpha="2803.3170140013485" sparseCutoff="1.0000000000000000"/>
      <sparseX i="106" alpha="151.32574164248055" sparseCutoff="1.0000000000000000"/>
      <sparseX i="107" alpha="-651.25162882151278" sparseCutoff="1.0000000000000000"/>
      <sparseX i="108" alpha="42.899813870933343" sparseCutoff="1.0000000000000000"/>
      <sparseX i="109" alpha="-252.04612370814260" sparseCutoff="1.0000000000000000"/>
      <sparseX i="110" alpha="-1520.3042633794105" sparseCutoff="1.0000000000000000"/>
      <sparseX i="111" alpha="49.440167189756863" sparseCutoff="1.0000000000000000"/>
      <sparseX i="112" alpha="-3059.5351238564317" sparseCutoff="1.0000000000000000"/>
      <sparseX i="113" alpha="-366.95246471702603" sparseCutoff="1.0000000000000000"/>
      <sparseX i="114" alpha="-1611.8502497570796" sparseCutoff="1.0000000000000000"/>
      <sparseX i="115" alpha="1418.5758427505766" sparseCutoff="1.0000000000000000"/>
      <sparseX i="116" alpha="-1953.0644715540161" sparseCutoff="1.0000000000000000"/>
      <sparseX i="117" alpha="4324.2041728054801" sparseCutoff="1.0000000000000000"/>
      <sparseX i="118" alpha="-1023.4949411300172" sparseCutoff="1.0000000000000000"/>
      <sparseX i="119" alpha="550.46372050523655" sparseCutoff="1.0000000000000000"/>
      <sparseX i="120" alpha="-37.911033921495587" sparseCutoff="1.0000000000000000"/>
      <sparseX i="121" alpha="-2905.6914583344296" sparseCutoff="1.0000000000000000"/>
      <sparseX i="122" alpha="3748.7915952311855" sparseCutoff="1.0000000000000000"/>
      <sparseX i="123" alpha="-499.24214964831424" sparseCutoff="1.0000000000000000"/>
      <sparseX i="124" alpha="-3494.2319190525991" sparseCutoff="1.0000000000000000"/>
      <sparseX i="125" alpha="607.51955793914658" sparseCutoff="1.0000000000000000"/>
      <sparseX i="126" alpha="-750.59916193869810" sparseCutoff="1.0000000000000000"/>
      <sparseX i="127" alpha="-529.22701708898205" sparseCutoff="1.0000000000000000"/>
      <sparseX i="128" alpha="433.63766837246936" sparseCutoff="1.0000000000000000"/>
      <sparseX i="129" alpha="334.79427459177219" sparseCutoff="1.0000000000000000"/>
      <sparseX i="130" alpha="-428.54065680947173" sparseCutoff="1.0000000000000000"/>
      <sparseX i="131" alpha="714.31766019154577" sparseCutoff="1.0000000000000000"/>
      <sparseX i="132" alpha="-628.87985685138881" sparseCutoff="1.0000000000000000"/>
      <sparseX i="133" alpha="-374.95360824819835" sparseCutoff="1.0000000000000000"/>
      <sparseX i="134" alpha="1145.1877631499899" sparseCutoff="1.0000000000000000"/>
      <sparseX i="135" alpha="2981.9502554224418" sparseCutoff="1.0000000000000000"/>
      <sparseX i="136" alpha="-1088.3393043758069" sparseCutoff="1.0000000000000000"/>
      <sparseX i="137" alpha="618.79476556662257" sparseCutoff="1.0000000000000000"/>
      <sparseX i="138" alpha="1487.2444874257808" sparseCutoff="1.0000000000000000"/>
      <sparseX i="139" alpha="535.51547141465301" sparseCutoff="1.0000000000000000"/>
      <sparseX i="140" alpha="4727.7627177822560" sparseCutoff="1.0000000000000000"/>
      <sparseX i="141" alpha="-3948.4273548517358" sparseCutoff="1.0000000000000000"/>
      <sparseX i="142" alpha="-1373.7233000638728" sparseCutoff="1.0000000000000000"/>
      <sparseX i="143" alpha="-1306.3845957634524" sparseCutoff="1.0000000000000000"/>
      <sparseX i="144" alpha="1948.5720097762403" sparseCutoff="1.0000000000000000"/>
      <sparseX i="145" alpha="-602.01341574739467" sparseCutoff="1.0000000000000000"/>
      <sparseX i="146" alpha="1650.1521704265072" sparseCutoff="1.0000000000000000"/>
      <sparseX i="147" alpha="5360.7515019137963" sparseCutoff="1.0000000000000000"/>
      <sparseX i="148" alpha="414.52396989145024" sparseCutoff="1.0000000000000000"/>
      <sparseX i="149" alpha="520.86089974038384" sparseCutoff="1.0000000000000000"/>
      <sparseX i="150" alpha="-113.24693211750127" sparseCutoff="1.0000000000000000"/>
      <sparseX i="151" alpha="-672.14572004713864" sparseCutoff="1.0000000000000000"/>
      <sparseX i="152" alpha="-766.15354721667222" sparseCutoff="1.0000000000000000"/>
      <sparseX i="153" alpha="-357.44024138825199" sparseCutoff="1.0000000000000000"/>
      <sparseX i="154" alpha="1887.4082457523120" sparseCutoff="1.0000000000000000"/>
      <sparseX i="155" alpha="-275.43627452447384" sparseCutoff="1.0000000000000000"/>
      <sparseX i="156" alpha="-1204.3241092592555" sparseCutoff="1.0000000000000000"/>
      <sparseX i="157" alpha="-2217.5268260825624" sparseCutoff="1.0000000000000000"/>
      <sparseX i="158" alpha="-657.66010312116964" sparseCutoff="1.0000000000000000"/>
      <sparseX i="159" alpha="1888.3406546534695" sparseCutoff="1.0000000000000000"/>
      <sparseX i="160" alpha="198.31457103752180" sparseCutoff="1.0000000000000000"/>
      <sparseX i="161" alpha="2782.2878498744485" sparseCutoff="1.0000000000000000"/>
      <sparseX i="162" alpha="1048.1149043838948" sparseCutoff="1.0000000000000000"/>
      <sparseX i="163" alpha="1556.0053224882706" sparseCutoff="1.0000000000000000"/>
      <sparseX i="164" alpha="-5094.1392233520937" sparseCutoff="1.0000000000000000"/>
      <sparseX i="165" alpha="-2769.3402961261704" sparseCutoff="1.0000000000000000"/>
      <sparseX i="166" alpha="640.20221907731343" sparseCutoff="1.0000000000000000"/>
      <sparseX i="167" alpha="-1293.1414987681844" sparseCutoff="1.0000000000000000"/>
      <sparseX i="168" alpha="793.71149087083108" sparseCutoff="1.0000000000000000"/>
      <sparseX i="169" alpha="-2942.8967949244425" sparseCutoff="1.0000000000000000"/>
      <sparseX i="170" alpha="3992.6059926170979" sparseCutoff="1.0000000000000000"/>
      <sparseX i="171" alpha="214.46362176651766" sparseCutoff="1.0000000000000000"/>
      <sparseX i="172" alpha="81.462062001764650" sparseCutoff="1.0000000000000000"/>
      <sparseX i="173" alpha="782.90764880950337" sparseCutoff="1.0000000000000000"/>
      <sparseX i="174" alpha="-13668.932055061441" sparseCutoff="1.0000000000000000"/>
      <sparseX i="175" alpha="-4215.6645320499501" sparseCutoff="1.0000000000000000"/>
      <sparseX i="176" alpha="-5213.7419211598672" sparseCutoff="1.0000000000000000"/>
      <sparseX i="177" alpha="1500.0691976638261" sparseCutoff="1.0000000000000000"/>
      <sparseX i="178" alpha="2483.1739972464029" sparseCutoff="1.0000000000000000"/>
      <sparseX i="179" alpha="-2213.3474714093850" sparseCutoff="1.0000000000000000"/>
      <sparseX i="180" alpha="355.04542592399082" sparseCutoff="1.0000000000000000"/>
      <sparseX i="181" alpha="1887.9723964111740" sparseCutoff="1.0000000000000000"/>
      <sparseX i="182" alpha="2140.4041082169510" sparseCutoff="1.0000000000000000"/>
      <sparseX i="183" alpha="1073.4423326062345" sparseCutoff="1.0000000000000000"/>
      <sparseX i="184" alpha="755.05215960840178" sparseCutoff="1.0000000000000000"/>
      <sparseX i="185" alpha="-125.82413991059424" sparseCutoff="1.0000000000000000"/>
      <sparseX i="186" alpha="-15.135720919876082" sparseCutoff="1.0000000000000000"/>
      <sparseX i="187" alpha="-1278.9874861996914" sparseCutoff="1.0000000000000000"/>
      <sparseX i="188" alpha="-168.39398259431704" sparseCutoff="1.0000000000000000"/>
      <sparseX i="189" alpha="-1109.2845353830492" sparseCutoff="1.0000000000000000"/>
      <sparseX i="190" alpha="-1554.0577373196379" sparseCutoff="1.0000000000000000"/>
      <sparseX i="191" alpha="4253.3140369599860" sparseCutoff="1.0000000000000000"/>
      <sparseX i="192" alpha="-650.39223950357450" sparseCutoff="1.0000000000000000"/>
      <sparseX i="193" alpha="-2978.9346008407160" sparseCutoff="1.0000000000000000"/>
      <sparseX i="194" alpha="32.635846232079892" sparseCutoff="1.0000000000000000"/>
      <sparseX i="195" alpha="446.53510888329737" sparseCutoff="1.0000000000000000"/>
      <sparseX i="196" alpha="-965.11663954935329" sparseCutoff="1.0000000000000000"/>
      <sparseX i="197" alpha="-681.65208610217007" sparseCutoff="1.0000000000000000"/>
      <sparseX i="198" alpha="1499.5220343371802" sparseCutoff="1.0000000000000000"/>
      <sparseX i="199" alpha="-527.91542816886624" sparseCutoff="1.0000000000000000"/>
      <sparseX i="200" alpha="2597.3340210433739" sparseCutoff="1.0000000000000000"/>
      <sparseX i="201" alpha="489.39579135492869" sparseCutoff="1.0000000000000000"/>
      <sparseX i="202" alpha="-359.46178959442892" sparseCutoff="1.0000000000000000"/>
      <sparseX i="203" alpha="1356.9508693835323" sparseCutoff="1.0000000000000000"/>
      <sparseX i="204" alpha="29.779060597732350" sparseCutoff="1.0000000000000000"/>
      <sparseX i="205" alpha="493.90300420677744" sparseCutoff="1.0000000000000000"/>
      <sparseX i="206" alpha="-1371.4847989236673" sparseCutoff="1.0000000000000000"/>
      <sparseX i="207" alpha="69.091372240819737" sparseCutoff="1.0000000000000000"/>
      <sparseX i="208" alpha="-968.28736211750243" sparseCutoff="1.0000000000000000"/>
      <sparseX i="209" alpha="-2454.3159879311784" sparseCutoff="1.0000000000000000"/>
      <sparseX i="210" alpha="-617.75321845614712" sparseCutoff="1.0000000000000000"/>
      <sparseX i="211" alpha="-759.38763169939102" sparseCutoff="1.0000000000000000"/>
      <sparseX i="212" alpha="-611.68192764500918" sparseCutoff="1.0000000000000000"/>
      <sparseX i="213" alpha="-1681.1926153954732" sparseCutoff="1.0000000000000000"/>
      <sparseX i="214" alpha="167.33393494462285" sparseCutoff="1.0000000000000000"/>
      <sparseX i="215" alpha="-652.78201977858339" sparseCutoff="1.0000000000000000"/>
      <sparseX i="216" alpha="-1018.2087061688366" sparseCutoff="1.0000000000000000"/>
      <sparseX i="217" alpha="161.00110629620539" sparseCutoff="1.0000000000000000"/>
      <sparseX i="218" alpha="666.36449961365111" sparseCutoff="1.0000000000000000"/>
      <sparseX i="219" alpha="-1709.7920271635344" sparseCutoff="1.0000000000000000"/>
      <sparseX i="220" alpha="-269.76270522882135" sparseCutoff="1.0000000000000000"/>
      <sparseX i="221" alpha="588.31619404704543" sparseCutoff="1.0000000000000000"/>
      <sparseX i="222" alpha="-1007.1778126870613" sparseCutoff="1.0000000000000000"/>
      <sparseX i="223" alpha="1909.9744249725463" sparseCutoff="1.0000000000000000"/>
      <sparseX i="224" alpha="1033.9579493157523" sparseCutoff="1.0000000000000000"/>
      <sparseX i="225" alpha="-702.79249296560693" sparseCutoff="1.0000000000000000"/>
      <sparseX i="226" alpha="2993.2158799173621" sparseCutoff="1.0000000000000000"/>
      <sparseX i="227" alpha="-5344.8170740696105" sparseCutoff="1.0000000000000000"/>
      <sparseX i="228" alpha="-1297.4644679397006" sparseCutoff="1.0000000000000000"/>
      <sparseX i="229" alpha="-1048.3987714734701" sparseCutoff="1.0000000000000000"/>
      <sparseX i="230" alpha="994.00750237254715" sparseCutoff="1.0000000000000000"/>
      <sparseX i="231" alpha="1343.7266310150974" sparseCutoff="1.0000000000000000"/>
      <sparseX i="232" alpha="1187.4341997124850" sparseCutoff="1.0000000000000000"/>
      <sparseX i="233" alpha="148.34263497036559" sparseCutoff="1.0000000000000000"/>
      <sparseX i="234" alpha="-484.71345440506070" sparseCutoff="1.0000000000000000"/>
      <sparseX i="235" alpha="-773.66974981706107" sparseCutoff="1.0000000000000000"/>
      <sparseX i="236" alpha="-1940.3341541598422" sparseCutoff="1.0000000000000000"/>
      <sparseX i="237" alpha="2016.5411409067672" sparseCutoff="1.0000000000000000"/>
      <sparseX i="238" alpha="944.86123376671367" sparseCutoff="1.0000000000000000"/>
      <sparseX i="239" alpha="-270.57184175044358" sparseCutoff="1.0000000000000000"/>
      <sparseX i="240" alpha="-1054.6821329060112" sparseCutoff="1.0000000000000000"/>
      <sparseX i="241" alpha="-1135.4576641996844" sparseCutoff="1.0000000000000000"/>
      <sparseX i="242" alpha="-1212.5860509344211" sparseCutoff="1.0000000000000000"/>
      <sparseX i="243" alpha="-3216.3355153276025" sparseCutoff="1.0000000000000000"/>
      <sparseX i="244" alpha="-740.41361251665114" sparseCutoff="1.0000000000000000"/>
      <sparseX i="245" alpha="-1656.1952079293258" sparseCutoff="1.0000000000000000"/>
      <sparseX i="246" alpha="-900.63339002502039" sparseCutoff="1.0000000000000000"/>
      <sparseX i="247" alpha="451.65169091341721" sparseCutoff="1.0000000000000000"/>
      <sparseX i="248" alpha="-158.87670863786738" sparseCutoff="1.0000000000000000"/>
      <sparseX i="249" alpha="-3263.4180303190369" sparseCutoff="1.0000000000000000"/>
      <sparseX i="250" alpha="30.853620559863355" sparseCutoff="1.0000000000000000"/>
      <sparseX i="251" alpha="-858.62044394563873" sparseCutoff="1.0000000000000000"/>
      <sparseX i="252" alpha="-236.90894094445846" sparseCutoff="1.0000000000000000"/>
      <sparseX i="253" alpha="-295.21123760382716" sparseCutoff="1.0000000000000000"/>
      <sparseX i="254" alpha="-2735.4080092531462" sparseCutoff="1.0000000000000000"/>
      <sparseX i="255" alpha="2624.3385712484019" sparseCutoff="1.0000000000000000"/>
      <sparseX i="256" alpha="201.89656944062565" sparseCutoff="1.0000000000000000"/>
      <sparseX i="257" alpha="-2817.6643100253918" sparseCutoff="1.0000000000000000"/>
      <sparseX i="258" alpha="-2100.0433159123413" sparseCutoff="1.0000000000000000"/>
      <sparseX i="259" alpha="3180.0851140745967" sparseCutoff="1.0000000000000000"/>
      <sparseX i="260" alpha="-1045.6532635167516" sparseCutoff="1.0000000000000000"/>
      <sparseX i="261" alpha="-776.67502550862673" sparseCutoff="1.0000000000000000"/>
      <sparseX i="262" alpha="-538.17171086404835" sparseCutoff="1.0000000000000000"/>
      <sparseX i="263" alpha="-124.78654106118208" sparseCutoff="1.0000000000000000"/>
      <sparseX i="264" alpha="-973.92927817388249" sparseCutoff="1.0000000000000000"/>
      <sparseX i="265" alpha="432.26166173393835" sparseCutoff="1.0000000000000000"/>
      <sparseX i="266" alpha="-235.65427560049031" sparseCutoff="1.0000000000000000"/>
      <sparseX i="267" alpha="-3101.8482269469018" sparseCutoff="1.0000000000000000"/>
      <sparseX i="268" alpha="619.62600531452460" sparseCutoff="1.0000000000000000"/>
      <sparseX i="269" alpha="-380.48676199190197" sparseCutoff="1.0000000000000000"/>
      <sparseX i="270" alpha="97.842410378853032" sparseCutoff="1.0000000000000000"/>
      <sparseX i="271" alpha="-221.63664589056759" sparseCutoff="1.0000000000000000"/>
      <sparseX i="272" alpha="-626.38945839854580" sparseCutoff="1.0000000000000000"/>
      <sparseX i="273" alpha="177.33981818509051" sparseCutoff="1.0000000000000000"/>
      <sparseX i="274" alpha="189.11252298167614" sparseCutoff="1.0000000000000000"/>
      <sparseX i="275" alpha="-63.143596410266007" sparseCutoff="1.0000000000000000"/>
      <sparseX i="276" alpha="1949.5147316011951" sparseCutoff="1.0000000000000000"/>
      <sparseX i="277" alpha="-91.647156747789836" sparseCutoff="1.0000000000000000"/>
      <sparseX i="278" alpha="2366.7908537011072" sparseCutoff="1.0000000000000000"/>
      <sparseX i="279" alpha="245.60753234501541" sparseCutoff="1.0000000000000000"/>
      <sparseX i="280" alpha="367.20174614311139" sparseCutoff="1.0000000000000000"/>
      <sparseX i="281" alpha="-973.11225593219569" sparseCutoff="1.0000000000000000"/>
      <sparseX i="282" alpha="387.10666493405620" sparseCutoff="1.0000000000000000"/>
      <sparseX i="283" alpha="-162.49311852277026" sparseCutoff="1.0000000000000000"/>
      <sparseX i="284" alpha="1534.6787739725967" sparseCutoff="1.0000000000000000"/>
      <sparseX i="285" alpha="11.828956418322921" sparseCutoff="1.0000000000000000"/>
      <sparseX i="286" alpha="1419.8610033213643" sparseCutoff="1.0000000000000000"/>
      <sparseX i="287" alpha="833.72205286952226" sparseCutoff="1.0000000000000000"/>
      <sparseX i="288" alpha="2510.8577078940843" sparseCutoff="1.0000000000000000"/>
      <sparseX i="289" alpha="1298.3025440309809" sparseCutoff="1.0000000000000000"/>
      <sparseX i="290" alpha="58.948981981964209" sparseCutoff="1.0000000000000000"/>
      <sparseX i="291" alpha="-181.96916959484810" sparseCutoff="1.0000000000000000"/>
      <sparseX i="292" alpha="104.51289485347870" sparseCutoff="1.0000000000000000"/>
      <sparseX i="293" alpha="228.64380210706062" sparseCutoff="1.0000000000000000"/>
      <sparseX i="294" alpha="-2048.8110854879837" sparseCutoff="1.0000000000000000"/>
      <sparseX i="295" alpha="-956.91928562204873" sparseCutoff="1.0000000000000000"/>
      <sparseX i="296" alpha="-789.84433800075794" sparseCutoff="1.0000000000000000"/>
      <sparseX i="297" alpha="-690.17366694539533" sparseCutoff="1.0000000000000000"/>
      <sparseX i="298" alpha="-2621.0837374849684" sparseCutoff="1.0000000000000000"/>
      <sparseX i="299" alpha="-619.03241867073973" sparseCutoff="1.0000000000000000"/>
      <sparseX i="300" alpha="1520.2288525878332" sparseCutoff="1.0000000000000000"/>
      <sparseX i="301" alpha="922.14035961296963" sparseCutoff="1.0000000000000000"/>
      <sparseX i="302" alpha="1350.4831798738326" sparseCutoff="1.0000000000000000"/>
      <sparseX i="303" alpha="-119.14103822929812" sparseCutoff="1.0000000000000000"/>
      <sparseX i="304" alpha="3913.7622633657643" sparseCutoff="1.0000000000000000"/>
      <sparseX i="305" alpha="-554.36567913554507" sparseCutoff="1.0000000000000000"/>
      <sparseX i="306" alpha="-343.85257607511397" sparseCutoff="1.0000000000000000"/>
      <sparseX i="307" alpha="1255.1537999844384" sparseCutoff="1.0000000000000000"/>
      <sparseX i="308" alpha="-791.19833125651223" sparseCutoff="1.0000000000000000"/>
      <sparseX i="309" alpha="684.35334117661137" sparseCutoff="1.0000000000000000"/>
      <sparseX i="310" alpha="-1102.0214086479675" sparseCutoff="1.0000000000000000"/>
      <sparseX i="311" alpha="1091.2957101544591" sparseCutoff="1.0000000000000000"/>
      <sparseX i="312" alpha="2495.9376130143773" sparseCutoff="1.0000000000000000"/>
      <sparseX i="313" alpha="472.59198851229490" sparseCutoff="1.0000000000000000"/>
      <sparseX i="314" alpha="-403.09667401534040" sparseCutoff="1.0000000000000000"/>
      <sparseX i="315" alpha="825.22904450137048" sparseCutoff="1.0000000000000000"/>
      <sparseX i="316" alpha="158.58832597283350" sparseCutoff="1.0000000000000000"/>
      <sparseX i="317" alpha="153.52261057320865" sparseCutoff="1.0000000000000000"/>
      <sparseX i="318" alpha="-590.45009292686836" sparseCutoff="1.0000000000000000"/>
      <sparseX i="319" alpha="3042.0719875915365" sparseCutoff="1.0000000000000000"/>
      <sparseX i="320" alpha="443.87616662987216" sparseCutoff="1.0000000000000000"/>
      <sparseX i="321" alpha="-5956.9217201791489" sparseCutoff="1.0000000000000000"/>
      <sparseX i="322" alpha="2463.8297824836900" sparseCutoff="1.0000000000000000"/>
      <sparseX i="323" alpha="-505.30934355397750" sparseCutoff="1.0000000000000000"/>
      <sparseX i="324" alpha="-74.930349849472123" sparseCutoff="1.0000000000000000"/>
      <sparseX i="325" alpha="-490.08785202599603" sparseCutoff="1.0000000000000000"/>
      <sparseX i="326" alpha="-941.04763356093883" sparseCutoff="1.0000000000000000"/>
      <sparseX i="327" alpha="-2252.0289596235934" sparseCutoff="1.0000000000000000"/>
      <sparseX i="328" alpha="-2256.4777626119394" sparseCutoff="1.0000000000000000"/>
      <sparseX i="329" alpha="-226.43982945858426" sparseCutoff="1.0000000000000000"/>
      <sparseX i="330" alpha="-271.92598788751934" sparseCutoff="1.0000000000000000"/>
      <sparseX i="331" alpha="308.59132996794472" sparseCutoff="1.0000000000000000"/>
      <sparseX i="332" alpha="-372.56811957314750" sparseCutoff="1.0000000000000000"/>
      <sparseX i="333" alpha="-480.16595466879028" sparseCutoff="1.0000000000000000"/>
      <sparseX i="334" alpha="1942.1265758408952" sparseCutoff="1.0000000000000000"/>
      <sparseX i="335" alpha="-1575.2540157238107" sparseCutoff="1.0000000000000000"/>
      <sparseX i="336" alpha="1703.4238940855514" sparseCutoff="1.0000000000000000"/>
      <sparseX i="337" alpha="1516.2974044100476" sparseCutoff="1.0000000000000000"/>
      <sparseX i="338" alpha="-2506.7914529581653" sparseCutoff="1.0000000000000000"/>
      <sparseX i="339" alpha="1462.0368356878387" sparseCutoff="1.0000000000000000"/>
      <sparseX i="340" alpha="-960.49150221851767" sparseCutoff="1.0000000000000000"/>
      <sparseX i="341" alpha="-566.48212281445115" sparseCutoff="1.0000000000000000"/>
      <sparseX i="342" alpha="91.757877916810159" sparseCutoff="1.0000000000000000"/>
      <sparseX i="343" alpha="-520.98396572964259" sparseCutoff="1.0000000000000000"/>
      <sparseX i="344" alpha="-2162.0459233801803" sparseCutoff="1.0000000000000000"/>
      <sparseX i="345" alpha="-2497.7485821293658" sparseCutoff="1.0000000000000000"/>
      <sparseX i="346" alpha="-1071.6292124506147" sparseCutoff="1.0000000000000000"/>
      <sparseX i="347" alpha="3059.1531026280845" sparseCutoff="1.0000000000000000"/>
      <sparseX i="348" alpha="-4543.1419690748098" sparseCutoff="1.0000000000000000"/>
      <sparseX i="349" alpha="692.76808092155147" sparseCutoff="1.0000000000000000"/>
      <sparseX i="350" alpha="1750.3342877747914" sparseCutoff="1.0000000000000000"/>
      <sparseX i="351" alpha="1623.7552434632084" sparseCutoff="1.0000000000000000"/>
      <sparseX i="352" alpha="1179.2419263513016" sparseCutoff="1.0000000000000000"/>
      <sparseX i="353" alpha="-1968.6753733564169" sparseCutoff="1.0000000000000000"/>
      <sparseX i="354" alpha="282.39269003305498" sparseCutoff="1.0000000000000000"/>
      <sparseX i="355" alpha="-503.66270522879336" sparseCutoff="1.0000000000000000"/>
      <sparseX i="356" alpha="-769.33168510297457" sparseCutoff="1.0000000000000000"/>
      <sparseX i="357" alpha="-2752.1376223835600" sparseCutoff="1.0000000000000000"/>
      <sparseX i="358" alpha="-1105.1682072527226" sparseCutoff="1.0000000000000000"/>
      <sparseX i="359" alpha="1010.9742888791143" sparseCutoff="1.0000000000000000"/>
      <sparseX i="360" alpha="675.19094238609989" sparseCutoff="1.0000000000000000"/>
      <sparseX i="361" alpha="-664.35964902747037" sparseCutoff="1.0000000000000000"/>
      <sparseX i="362" alpha="-2142.1749937795430" sparseCutoff="1.0000000000000000"/>
      <sparseX i="363" alpha="-1894.0607594258208" sparseCutoff="1.0000000000000000"/>
      <sparseX i="364" alpha="-998.55534415175521" sparseCutoff="1.0000000000000000"/>
      <sparseX i="365" alpha="-818.54365108623938" sparseCutoff="1.0000000000000000"/>
      <sparseX i="366" alpha="-2344.4022395469037" sparseCutoff="1.0000000000000000"/>
      <sparseX i="367" alpha="605.74543778390830" sparseCutoff="1.0000000000000000"/>
      <sparseX i="368" alpha="-1308.7873324702146" sparseCutoff="1.0000000000000000"/>
      <sparseX i="369" alpha="-4835.0799494560106" sparseCutoff="1.0000000000000000"/>
      <sparseX i="370" alpha="-205.98038585799964" sparseCutoff="1.0000000000000000"/>
      <sparseX i="371" alpha="-369.02552532790190" sparseCutoff="1.0000000000000000"/>
      <sparseX i="372" alpha="5912.5566399127274" sparseCutoff="1.0000000000000000"/>
      <sparseX i="373" alpha="-3096.7875652628104" sparseCutoff="1.0000000000000000"/>
      <sparseX i="374" alpha="1585.8505795941978" sparseCutoff="1.0000000000000000"/>
      <sparseX i="375" alpha="1423.5722545075139" sparseCutoff="1.0000000000000000"/>
      <sparseX i="376" alpha="57.064376824014381" sparseCutoff="1.0000000000000000"/>
      <sparseX i="377" alpha="204.24171281026048" sparseCutoff="1.0000000000000000"/>
      <sparseX i="378" alpha="2314.2374531700443" sparseCutoff="1.0000000000000000"/>
      <sparseX i="379" alpha="-922.57645766498058" sparseCutoff="1.0000000000000000"/>
      <sparseX i="380" alpha="141.82937784344520" sparseCutoff="1.0000000000000000"/>
      <sparseX i="381" alpha="-491.55861966723688" sparseCutoff="1.0000000000000000"/>
      <sparseX i="382" alpha="203.98015075010656" sparseCutoff="1.0000000000000000"/>
      <sparseX i="383" alpha="-319.13904069534016" sparseCutoff="1.0000000000000000"/>
      <sparseX i="384" alpha="2049.0600816920892" sparseCutoff="1.0000000000000000"/>
      <sparseX i="385" alpha="1954.2405681368371" sparseCutoff="1.0000000000000000"/>
      <sparseX i="386" alpha="2244.7138265759877" sparseCutoff="1.0000000000000000"/>
      <sparseX i="387" alpha="1358.5456743015015" sparseCutoff="1.0000000000000000"/>
      <sparseX i="388" alpha="-1206.8164360948688" sparseCutoff="1.0000000000000000"/>
      <sparseX i="389" alpha="309.20292971362932" sparseCutoff="1.0000000000000000"/>
      <sparseX i="390" alpha="153.60606428624124" sparseCutoff="1.0000000000000000"/>
      <sparseX i="391" alpha="-795.19322646265982" sparseCutoff="1.0000000000000000"/>
      <sparseX i="392" alpha="-4116.8030921826312" sparseCutoff="1.0000000000000000"/>
      <sparseX i="393" alpha="-1546.7713331675782" sparseCutoff="1.0000000000000000"/>
      <sparseX i="394" alpha="13.962560696264683" sparseCutoff="1.0000000000000000"/>
      <sparseX i="395" alpha="-2251.0983533126409" sparseCutoff="1.0000000000000000"/>
      <sparseX i="396" alpha="-1047.6392652252700" sparseCutoff="1.0000000000000000"/>
      <sparseX i="397" alpha="480.23526377730116" sparseCutoff="1.0000000000000000"/>
      <sparseX i="398" alpha="-1153.3608357190299" sparseCutoff="1.0000000000000000"/>
      <sparseX i="399" alpha="1367.8461310817902" sparseCutoff="1.0000000000000000"/>
      <sparseX i="400" alpha="-46.417517626560048" sparseCutoff="1.0000000000000000"/>
      <sparseX i="401" alpha="-190.02843397295385" sparseCutoff="1.0000000000000000"/>
      <sparseX i="402" alpha="-2005.9977471677073" sparseCutoff="1.0000000000000000"/>
      <sparseX i="403" alpha="-562.50572255175666" sparseCutoff="1.0000000000000000"/>
      <sparseX i="404" alpha="-200.72250705165499" sparseCutoff="1.0000000000000000"/>
      <sparseX i="405" alpha="559.66629893028494" sparseCutoff="1.0000000000000000"/>
      <sparseX i="406" alpha="274.12924777813834" sparseCutoff="1.0000000000000000"/>
      <sparseX i="407" alpha="-1496.6035906910863" sparseCutoff="1.0000000000000000"/>
      <sparseX i="408" alpha="643.69389781802533" sparseCutoff="1.0000000000000000"/>
      <sparseX i="409" alpha="-107.99441403209221" sparseCutoff="1.0000000000000000"/>
      <sparseX i="410" alpha="817.97822145604312" sparseCutoff="1.0000000000000000"/>
      <sparseX i="411" alpha="166.50878163672027" sparseCutoff="1.0000000000000000"/>
      <sparseX i="412" alpha="1534.5089829952162" sparseCutoff="1.0000000000000000"/>
      <sparseX i="413" alpha="348.72389510061782" sparseCutoff="1.0000000000000000"/>
      <sparseX i="414" alpha="-1061.1288074054953" sparseCutoff="1.0000000000000000"/>
      <sparseX i="415" alpha="-69.916659197600453" sparseCutoff="1.0000000000000000"/>
      <sparseX i="416" alpha="221.95164608601999" sparseCutoff="1.0000000000000000"/>
      <sparseX i="417" alpha="231.83833632788910" sparseCutoff="1.0000000000000000"/>
      <sparseX i="418" alpha="2275.3265793362120" sparseCutoff="1.0000000000000000"/>
      <sparseX i="419" alpha="151.12102556537505" sparseCutoff="1.0000000000000000"/>
      <sparseX i="420" alpha="4369.8197220320044" sparseCutoff="1.0000000000000000"/>
      <sparseX i="421" alpha="-1404.6543632032278" sparseCutoff="1.0000000000000000"/>
      <sparseX i="422" alpha="2430.6869862164658" sparseCutoff="1.0000000000000000"/>
      <sparseX i="423" alpha="1530.5567267771175" sparseCutoff="1.0000000000000000"/>
      <sparseX i="424" alpha="283.80532470265251" sparseCutoff="1.0000000000000000"/>
      <sparseX i="425" alpha="496.33394301895839" sparseCutoff="1.0000000000000000"/>
      <sparseX i="426" alpha="2257.3068582956689" sparseCutoff="1.0000000000000000"/>
      <sparseX i="427" alpha="-134.12845305204274" sparseCutoff="1.0000000000000000"/>
      <sparseX i="428" alpha="163.95822747959443" sparseCutoff="1.0000000000000000"/>
      <sparseX i="429" alpha="-1936.3214173830029" sparseCutoff="1.0000000000000000"/>
      <sparseX i="430" alpha="3189.5343548588894" sparseCutoff="1.0000000000000000"/>
      <sparseX i="431" alpha="2056.5785538045711" sparseCutoff="1.0000000000000000"/>
      <sparseX i="432" alpha="-2282.7637576799511" sparseCutoff="1.0000000000000000"/>
      <sparseX i="433" alpha="2811.7217314032964" sparseCutoff="1.0000000000000000"/>
      <sparseX i="434" alpha="-116.03677059309177" sparseCutoff="1.0000000000000000"/>
      <sparseX i="435" alpha="1100.1341992911211" sparseCutoff="1.0000000000000000"/>
      <sparseX i="436" alpha="3137.4474939640672" sparseCutoff="1.0000000000000000"/>
      <sparseX i="437" alpha="1793.9713582552906" sparseCutoff="1.0000000000000000"/>
      <sparseX i="438" alpha="-1672.2896250448764" sparseCutoff="1.0000000000000000"/>
      <sparseX i="439" alpha="440.66987399022332" sparseCutoff="1.0000000000000000"/>
      <sparseX i="440" alpha="644.39539851151926" sparseCutoff="1.0000000000000000"/>
      <sparseX i="441" alpha="515.68263655860289" sparseCutoff="1.0000000000000000"/>
      <sparseX i="442" alpha="993.53821882307830" sparseCutoff="1.0000000000000000"/>
      <sparseX i="443" alpha="1540.7531451881425" sparseCutoff="1.0000000000000000"/>
      <sparseX i="444" alpha="666.97142187776524" sparseCutoff="1.0000000000000000"/>
      <sparseX i="445" alpha="-2350.7248646258927" sparseCutoff="1.0000000000000000"/>
      <sparseX i="446" alpha="-248.92024509437363" sparseCutoff="1.0000000000000000"/>
      <sparseX i="447" alpha="2509.8532229789244" sparseCutoff="1.0000000000000000"/>
      <sparseX i="448" alpha="706.84694692963910" sparseCutoff="1.0000000000000000"/>
      <sparseX i="449" alpha="-850.88354446581934" sparseCutoff="1.0000000000000000"/>
      <sparseX i="450" alpha="1854.5337988704509" sparseCutoff="1.0000000000000000"/>
      <sparseX i="451" alpha="-427.62201864733464" sparseCutoff="1.0000000000000000"/>
      <sparseX i="452" alpha="2475.9950124571678" sparseCutoff="1.0000000000000000"/>
      <sparseX i="453" alpha="137.51623934146022" sparseCutoff="1.0000000000000000"/>
      <sparseX i="454" alpha="3226.9435481344212" sparseCutoff="1.0000000000000000"/>
      <sparseX i="455" alpha="603.90143705606192" sparseCutoff="1.0000000000000000"/>
      <sparseX i="456" alpha="1347.3783564821256" sparseCutoff="1.0000000000000000"/>
      <sparseX i="457" alpha="1394.1984335177974" sparseCutoff="1.0000000000000000"/>
      <sparseX i="458" alpha="-448.97509343451173" sparseCutoff="1.0000000000000000"/>
      <sparseX i="459" alpha="-58.368841113363963" sparseCutoff="1.0000000000000000"/>
      <sparseX i="460" alpha="2624.3694747525678" sparseCutoff="1.0000000000000000"/>
      <sparseX i="461" alpha="-87.585527027935299" sparseCutoff="1.0000000000000000"/>
      <sparseX i="462" alpha="-165.56919173669962" sparseCutoff="1.0000000000000000"/>
      <sparseX i="463" alpha="328.60663191689935" sparseCutoff="1.0000000000000000"/>
      <sparseX i="464" alpha="-105.86190996360331" sparseCutoff="1.0000000000000000"/>
      <sparseX i="465" alpha="-24.713394054405832" sparseCutoff="1.0000000000000000"/>
      <sparseX i="466" alpha="2449.7881867457436" sparseCutoff="1.0000000000000000"/>
      <sparseX i="467" alpha="-2634.5680035254418" sparseCutoff="1.0000000000000000"/>
      <sparseX i="468" alpha="488.18244573939933" sparseCutoff="1.0000000000000000"/>
      <sparseX i="469" alpha="-504.67915348215075" sparseCutoff="1.0000000000000000"/>
      <sparseX i="470" alpha="-774.11626773415128" sparseCutoff="1.0000000000000000"/>
      <sparseX i="471" alpha="-75.427940504503397" sparseCutoff="1.0000000000000000"/>
      <sparseX i="472" alpha="-1987.0231374591567" sparseCutoff="1.0000000000000000"/>
      <sparseX i="473" alpha="-421.05843305042043" sparseCutoff="1.0000000000000000"/>
      <sparseX i="474" alpha="-1030.5034283843884" sparseCutoff="1.0000000000000000"/>
      <sparseX i="475" alpha="845.44283041420204" sparseCutoff="1.0000000000000000"/>
      <sparseX i="476" alpha="-324.79762133550634" sparseCutoff="1.0000000000000000"/>
      <sparseX i="477" alpha="-585.15315226715529" sparseCutoff="1.0000000000000000"/>
      <sparseX i="478" alpha="-104.06929077335838" sparseCutoff="1.0000000000000000"/>
      <sparseX i="479" alpha="900.46960604648802" sparseCutoff="1.0000000000000000"/>
      <sparseX i="480" alpha="-471.71077815398507" sparseCutoff="1.0000000000000000"/>
      <sparseX i="481" alpha="-676.93727915515774" sparseCutoff="1.0000000000000000"/>
      <sparseX i="482" alpha="-1009.7447265154777" sparseCutoff="1.0000000000000000"/>
      <sparseX i="483" alpha="334.20310949425931" sparseCutoff="1.0000000000000000"/>
      <sparseX i="484" alpha="-950.35210581724868" sparseCutoff="1.0000000000000000"/>
      <sparseX i="485" alpha="-1595.8778044481180" sparseCutoff="1.0000000000000000"/>
      <sparseX i="486" alpha="3424.4373131632360" sparseCutoff="1.0000000000000000"/>
      <sparseX i="487" alpha="3128.1271429404019" sparseCutoff="1.0000000000000000"/>
      <sparseX i="488" alpha="-1783.8713128589470" sparseCutoff="1.0000000000000000"/>
      <sparseX i="489" alpha="806.08019224705936" sparseCutoff="1.0000000000000000"/>
      <sparseX i="490" alpha="2388.9257962529905" sparseCutoff="1.0000000000000000"/>
      <sparseX i="491" alpha="-129.80141772143651" sparseCutoff="1.0000000000000000"/>
      <sparseX i="492" alpha="3482.2937111602555" sparseCutoff="1.0000000000000000"/>
      <sparseX i="493" alpha="2262.5667651490749" sparseCutoff="1.0000000000000000"/>
      <sparseX i="494" alpha="382.13990094538423" sparseCutoff="1.0000000000000000"/>
      <sparseX i="495" alpha="692.32693593338854" sparseCutoff="1.0000000000000000"/>
      <sparseX i="496" alpha="-231.17231072849259" sparseCutoff="1.0000000000000000"/>
      <sparseX i="497" alpha="1372.6916519736017" sparseCutoff="1.0000000000000000"/>
      <sparseX i="498" alpha="2835.0492747240951" sparseCutoff="1.0000000000000000"/>
      <sparseX i="499" alpha="283.47722677161204" sparseCutoff="1.0000000000000000"/>
      <sparseX i="500" alpha="-316.50634283573186" sparseCutoff="1.0000000000000000"/>
      <sparseX i="501" alpha="-1063.1810645093415" sparseCutoff="1.0000000000000000"/>
      <sparseX i="502" alpha="174.80277973031926" sparseCutoff="1.0000000000000000"/>
      <sparseX i="503" alpha="-751.64894601646552" sparseCutoff="1.0000000000000000"/>
      <sparseX i="504" alpha="-276.93222643703609" sparseCutoff="1.0000000000000000"/>
      <sparseX i="505" alpha="-1157.8267214708703" sparseCutoff="1.0000000000000000"/>
      <sparseX i="506" alpha="-131.17114834722574" sparseCutoff="1.0000000000000000"/>
      <sparseX i="507" alpha="852.84492576351420" sparseCutoff="1.0000000000000000"/>
      <sparseX i="508" alpha="-41.837316054736867" sparseCutoff="1.0000000000000000"/>
      <sparseX i="509" alpha="103.38071567434625" sparseCutoff="1.0000000000000000"/>
      <sparseX i="510" alpha="284.17076762793550" sparseCutoff="1.0000000000000000"/>
      <sparseX i="511" alpha="-3175.3913652710844" sparseCutoff="1.0000000000000000"/>
      <sparseX i="512" alpha="301.72922948086426" sparseCutoff="1.0000000000000000"/>
      <sparseX i="513" alpha="2817.0093391479777" sparseCutoff="1.0000000000000000"/>
      <sparseX i="514" alpha="860.82492245789274" sparseCutoff="1.0000000000000000"/>
      <sparseX i="515" alpha="389.46689357752632" sparseCutoff="1.0000000000000000"/>
      <sparseX i="516" alpha="2563.1191522866934" sparseCutoff="1.0000000000000000"/>
      <sparseX i="517" alpha="946.46115592815772" sparseCutoff="1.0000000000000000"/>
      <sparseX i="518" alpha="-462.42519590648124" sparseCutoff="1.0000000000000000"/>
      <sparseX i="519" alpha="-8.8972619464858003" sparseCutoff="1.0000000000000000"/>
      <sparseX i="520" alpha="-621.57179935993952" sparseCutoff="1.0000000000000000"/>
      <sparseX i="521" alpha="338.59231561322656" sparseCutoff="1.0000000000000000"/>
      <sparseX i="522" alpha="-746.16527068295181" sparseCutoff="1.0000000000000000"/>
      <sparseX i="523" alpha="87.758595512493599" sparseCutoff="1.0000000000000000"/>
      <sparseX i="524" alpha="-4351.9302331852386" sparseCutoff="1.0000000000000000"/>
      <sparseX i="525" alpha="2309.2202668006339" sparseCutoff="1.0000000000000000"/>
      <sparseX i="526" alpha="5551.9751915702473" sparseCutoff="1.0000000000000000"/>
      <sparseX i="527" alpha="-1702.2274773844922" sparseCutoff="1.0000000000000000"/>
      <sparseX i="528" alpha="-398.53250363315635" sparseCutoff="1.0000000000000000"/>
      <sparseX i="529" alpha="-1818.5283938731052" sparseCutoff="1.0000000000000000"/>
      <sparseX i="530" alpha="185.25045114203010" sparseCutoff="1.0000000000000000"/>
      <sparseX i="531" alpha="496.58747695671843" sparseCutoff="1.0000000000000000"/>
      <sparseX i="532" alpha="-1507.9023889447499" sparseCutoff="1.0000000000000000"/>
      <sparseX i="533" alpha="59.701247423302810" sparseCutoff="1.0000000000000000"/>
      <sparseX i="534" alpha="346.68498959014835" sparseCutoff="1.0000000000000000"/>
      <sparseX i="535" alpha="1403.3793132999699" sparseCutoff="1.0000000000000000"/>
      <sparseX i="536" alpha="1660.5280585869666" sparseCutoff="1.0000000000000000"/>
      <sparseX i="537" alpha="-894.59157750141026" sparseCutoff="1.0000000000000000"/>
      <sparseX i="538" alpha="585.81587571399382" sparseCutoff="1.0000000000000000"/>
      <sparseX i="539" alpha="-237.12527432370069" sparseCutoff="1.0000000000000000"/>
      <sparseX i="540" alpha="1844.7672969614175" sparseCutoff="1.0000000000000000"/>
      <sparseX i="541" alpha="-441.44080809765103" sparseCutoff="1.0000000000000000"/>
      <sparseX i="542" alpha="2574.9808956262978" sparseCutoff="1.0000000000000000"/>
      <sparseX i="543" alpha="2484.7637450932048" sparseCutoff="1.0000000000000000"/>
      <sparseX i="544" alpha="311.83515177822198" sparseCutoff="1.0000000000000000"/>
      <sparseX i="545" alpha="394.41669165110164" sparseCutoff="1.0000000000000000"/>
      <sparseX i="546" alpha="3535.4326662930976" sparseCutoff="1.0000000000000000"/>
      <sparseX i="547" alpha="808.59978726294628" sparseCutoff="1.0000000000000000"/>
      <sparseX i="548" alpha="-439.38423064229477" sparseCutoff="1.0000000000000000"/>
      <sparseX i="549" alpha="-6.4684175331948488" sparseCutoff="1.0000000000000000"/>
      <sparseX i="550" alpha="846.60662935965649" sparseCutoff="1.0000000000000000"/>
      <sparseX i="551" alpha="-1781.3544285607697" sparseCutoff="1.0000000000000000"/>
      <sparseX i="552" alpha="911.96648858902233" sparseCutoff="1.0000000000000000"/>
      <sparseX i="553" alpha="2045.5350531143831" sparseCutoff="1.0000000000000000"/>
      <sparseX i="554" alpha="-2098.2149097505098" sparseCutoff="1.0000000000000000"/>
      <sparseX i="555" alpha="216.76980427034985" sparseCutoff="1.0000000000000000"/>
      <sparseX i="556" alpha="371.46111325840758" sparseCutoff="1.0000000000000000"/>
      <sparseX i="557" alpha="-5106.7979700458627" sparseCutoff="1.0000000000000000"/>
      <sparseX i="558" alpha="-1728.1379231317699" sparseCutoff="1.0000000000000000"/>
      <sparseX i="559" alpha="-219.66387740682558" sparseCutoff="1.0000000000000000"/>
      <sparseX i="560" alpha="68.757650963726192" sparseCutoff="1.0000000000000000"/>
      <sparseX i="561" alpha="-27.520239296354866" sparseCutoff="1.0000000000000000"/>
      <sparseX i="562" alpha="-2494.9466791981408" sparseCutoff="1.0000000000000000"/>
      <sparseX i="563" alpha="1265.4625058590798" sparseCutoff="1.0000000000000000"/>
      <sparseX i="564" alpha="1275.6168426003990" sparseCutoff="1.0000000000000000"/>
      <sparseX i="565" alpha="-6188.6904901966827" sparseCutoff="1.0000000000000000"/>
      <sparseX i="566" alpha="5024.6532767455183" sparseCutoff="1.0000000000000000"/>
      <sparseX i="567" alpha="936.68306532436191" sparseCutoff="1.0000000000000000"/>
      <sparseX i="568" alpha="2089.7769880043293" sparseCutoff="1.0000000000000000"/>
      <sparseX i="569" alpha="187.92993936814597" sparseCutoff="1.0000000000000000"/>
      <sparseX i="570" alpha="-341.80075498792598" sparseCutoff="1.0000000000000000"/>
      <sparseX i="571" alpha="-1210.8295083638943" sparseCutoff="1.0000000000000000"/>
      <sparseX i="572" alpha="486.35320282195499" sparseCutoff="1.0000000000000000"/>
      <sparseX i="573" alpha="-250.72356999136053" sparseCutoff="1.0000000000000000"/>
      <sparseX i="574" alpha="-848.13446264219272" sparseCutoff="1.0000000000000000"/>
      <sparseX i="575" alpha="-915.51294988668292" sparseCutoff="1.0000000000000000"/>
      <sparseX i="576" alpha="825.01427949952119" sparseCutoff="1.0000000000000000"/>
      <sparseX i="577" alpha="-1230.8264243943452" sparseCutoff="1.0000000000000000"/>
      <sparseX i="578" alpha="-1122.6842431736702" sparseCutoff="1.0000000000000000"/>
      <sparseX i="579" alpha="9.7650168132740127" sparseCutoff="1.0000000000000000"/>
      <sparseX i="580" alpha="255.32747388804819" sparseCutoff="1.0000000000000000"/>
      <sparseX i="581" alpha="-5341.5258104036830" sparseCutoff="1.0000000000000000"/>
      <sparseX i="582" alpha="-905.54335743460649" sparseCutoff="1.0000000000000000"/>
      <sparseX i="583" alpha="-25.676466835739856" sparseCutoff="1.0000000000000000"/>
      <sparseX i="584" alpha="277.97902264259318" sparseCutoff="1.0000000000000000"/>
      <sparseX i="585" alpha="-623.59696216508519" sparseCutoff="1.0000000000000000"/>
      <sparseX i="586" alpha="-2711.0260883522546" sparseCutoff="1.0000000000000000"/>
      <sparseX i="587" alpha="-1367.7483967920068" sparseCutoff="1.0000000000000000"/>
      <sparseX i="588" alpha="1197.9254554092092" sparseCutoff="1.0000000000000000"/>
      <sparseX i="589" alpha="656.89219344115259" sparseCutoff="1.0000000000000000"/>
      <sparseX i="590" alpha="1601.1304524748232" sparseCutoff="1.0000000000000000"/>
      <sparseX i="591" alpha="-432.81760790424431" sparseCutoff="1.0000000000000000"/>
      <sparseX i="592" alpha="-943.95905246068469" sparseCutoff="1.0000000000000000"/>
      <sparseX i="593" alpha="667.51389360781445" sparseCutoff="1.0000000000000000"/>
      <sparseX i="594" alpha="2673.5426406094566" sparseCutoff="1.0000000000000000"/>
      <sparseX i="595" alpha="6858.8225267819062" sparseCutoff="1.0000000000000000"/>
      <sparseX i="596" alpha="-2770.1816964782306" sparseCutoff="1.0000000000000000"/>
      <sparseX i="597" alpha="1328.7802130058330" sparseCutoff="1.0000000000000000"/>
      <sparseX i="598" alpha="-1054.5355830957446" sparseCutoff="1.0000000000000000"/>
      <sparseX i="599" alpha="962.41875483249635" sparseCutoff="1.0000000000000000"/>
      <sparseX i="600" alpha="-645.52681595792228" sparseCutoff="1.0000000000000000"/>
      <sparseX i="601" alpha="-5634.4343358091328" sparseCutoff="1.0000000000000000"/>
      <sparseX i="602" alpha="3717.9020933794300" sparseCutoff="1.0000000000000000"/>
      <sparseX i="603" alpha="-2639.5652876591075" sparseCutoff="1.0000000000000000"/>
      <sparseX i="604" alpha="-401.88737906731103" sparseCutoff="1.0000000000000000"/>
      <sparseX i="605" alpha="93.690816588159890" sparseCutoff="1.0000000000000000"/>
      <sparseX i="606" alpha="-5131.1330342408492" sparseCutoff="1.0000000000000000"/>
      <sparseX i="607" alpha="1676.2000190358608" sparseCutoff="1.0000000000000000"/>
      <sparseX i="608" alpha="1614.8436171226260" sparseCutoff="1.0000000000000000"/>
      <sparseX i="609" alpha="-1632.7937367460233" sparseCutoff="1.0000000000000000"/>
      <sparseX i="610" alpha="-1560.3494448018935" sparseCutoff="1.0000000000000000"/>
      <sparseX i="611" alpha="-411.18506981669708" sparseCutoff="1.0000000000000000"/>
      <sparseX i="612" alpha="-643.58699511828286" sparseCutoff="1.0000000000000000"/>
      <sparseX i="613" alpha="573.12885352144326" sparseCutoff="1.0000000000000000"/>
      <sparseX i="614" alpha="-457.47675436913340" sparseCutoff="1.0000000000000000"/>
      <sparseX i="615" alpha="-2149.3119396073166" sparseCutoff="1.0000000000000000"/>
      <sparseX i="616" alpha="1390.1031678819979" sparseCutoff="1.0000000000000000"/>
      <sparseX i="617" alpha="-1612.1664769170693" sparseCutoff="1.0000000000000000"/>
      <sparseX i="618" alpha="-995.91687504828406" sparseCutoff="1.0000000000000000"/>
      <sparseX i="619" alpha="-206.08895327483270" sparseCutoff="1.0000000000000000"/>
      <sparseX i="620" alpha="-330.44944851453010" sparseCutoff="1.0000000000000000"/>
      <sparseX i="621" alpha="-3298.1378439528148" sparseCutoff="1.0000000000000000"/>
      <sparseX i="622" alpha="-1600.4603722450524" sparseCutoff="1.0000000000000000"/>
      <sparseX i="623" alpha="-965.08052866847856" sparseCutoff="1.0000000000000000"/>
      <sparseX i="624" alpha="635.65470671719845" sparseCutoff="1.0000000000000000"/>
      <sparseX i="625" alpha="332.06949949932635" sparseCutoff="1.0000000000000000"/>
      <sparseX i="626" alpha="1227.1727473842006" sparseCutoff="1.0000000000000000"/>
      <sparseX i="627" alpha="-1896.7857908407466" sparseCutoff="1.0000000000000000"/>
      <sparseX i="628" alpha="-11.848519053146525" sparseCutoff="1.0000000000000000"/>
      <sparseX i="629" alpha="540.64660385292052" sparseCutoff="1.0000000000000000"/>
      <sparseX i="630" alpha="-907.46693117634084" sparseCutoff="1.0000000000000000"/>
      <sparseX i="631" alpha="754.97026330172366" sparseCutoff="1.0000000000000000"/>
      <sparseX i="632" alpha="-762.38238959205796" sparseCutoff="1.0000000000000000"/>
      <sparseX i="633" alpha="342.91864824132716" sparseCutoff="1.0000000000000000"/>
      <sparseX i="634" alpha="-341.62743131528850" sparseCutoff="1.0000000000000000"/>
      <sparseX i="635" alpha="203.18681626325792" sparseCutoff="1.0000000000000000"/>
      <sparseX i="636" alpha="-1075.7472436270764" sparseCutoff="1.0000000000000000"/>
      <sparseX i="637" alpha="-74.550843850595768" sparseCutoff="1.0000000000000000"/>
      <sparseX i="638" alpha="-53.241909406133459" sparseCutoff="1.0000000000000000"/>
      <sparseX i="639" alpha="-1261.8398764320200" sparseCutoff="1.0000000000000000"/>
      <sparseX i="640" alpha="288.12480333373395" sparseCutoff="1.0000000000000000"/>
      <sparseX i="641" alpha="470.99222105163409" sparseCutoff="1.0000000000000000"/>
      <sparseX i="642" alpha="-228.85065137222207" sparseCutoff="1.0000000000000000"/>
      <sparseX i="643" alpha="-217.46368712432493" sparseCutoff="1.0000000000000000"/>
      <sparseX i="644" alpha="842.70605167104532" sparseCutoff="1.0000000000000000"/>
      <sparseX i="645" alpha="-199.03541853921172" sparseCutoff="1.0000000000000000"/>
      <sparseX i="646" alpha="1445.4617043568521" sparseCutoff="1.0000000000000000"/>
      <sparseX i="647" alpha="2633.5273500663302" sparseCutoff="1.0000000000000000"/>
      <sparseX i="648" alpha="831.63849461747338" sparseCutoff="1.0000000000000000"/>
      <sparseX i="649" alpha="-336.45167305185942" sparseCutoff="1.0000000000000000"/>
      <sparseX i="650" alpha="1799.3782648598415" sparseCutoff="1.0000000000000000"/>
      <sparseX i="651" alpha="3476.6115155662906" sparseCutoff="1.0000000000000000"/>
      <sparseX i="652" alpha="-607.71104616602997" sparseCutoff="1.0000000000000000"/>
      <sparseX i="653" alpha="-2055.7360684956989" sparseCutoff="1.0000000000000000"/>
      <sparseX i="654" alpha="749.59845787291749" sparseCutoff="1.0000000000000000"/>
      <sparseX i="655" alpha="3987.2099679906974" sparseCutoff="1.0000000000000000"/>
      <sparseX i="656" alpha="2167.4901379354419" sparseCutoff="1.0000000000000000"/>
      <sparseX i="657" alpha="-6754.6775905043460" sparseCutoff="1.0000000000000000"/>
      <sparseX i="658" alpha="-2072.8071467684408" sparseCutoff="1.0000000000000000"/>
      <sparseX i="659" alpha="-600.06943556205420" sparseCutoff="1.0000000000000000"/>
      <sparseX i="660" alpha="1386.8171599157383" sparseCutoff="1.0000000000000000"/>
      <sparseX i="661" alpha="1329.1512681058121" sparseCutoff="1.0000000000000000"/>
      <sparseX i="662" alpha="-855.21456408621134" sparseCutoff="1.0000000000000000"/>
      <sparseX i="663" alpha="1499.2432503088339" sparseCutoff="1.0000000000000000"/>
      <sparseX i="664" alpha="771.94231733533320" sparseCutoff="1.0000000000000000"/>
      <sparseX i="665" alpha="2260.8331959795378" sparseCutoff="1.0000000000000000"/>
      <sparseX i="666" alpha="184.39457525971011" sparseCutoff="1.0000000000000000"/>
      <sparseX i="667" alpha="-1711.1839596811576" sparseCutoff="1.0000000000000000"/>
      <sparseX i="668" alpha="674.92914762104010" sparseCutoff="1.0000000000000000"/>
      <sparseX i="669" alpha="6750.4410971684092" sparseCutoff="1.0000000000000000"/>
      <sparseX i="670" alpha="-1244.8361764963206" sparseCutoff="1.0000000000000000"/>
      <sparseX i="671" alpha="230.28483241990187" sparseCutoff="1.0000000000000000"/>
      <sparseX i="672" alpha="-83.909733085500847" sparseCutoff="1.0000000000000000"/>
      <sparseX i="673" alpha="999.91928649479303" sparseCutoff="1.0000000000000000"/>
      <sparseX i="674" alpha="662.56586851881048" sparseCutoff="1.0000000000000000"/>
      <sparseX i="675" alpha="-1480.2898881955380" sparseCutoff="1.0000000000000000"/>
      <sparseX i="676" alpha="467.31333551013989" sparseCutoff="1.0000000000000000"/>
      <sparseX i="677" alpha="144.57511237210949" sparseCutoff="1.0000000000000000"/>
      <sparseX i="678" alpha="-1017.7327848220389" sparseCutoff="1.0000000000000000"/>
      <sparseX i="679" alpha="317.33607686123327" sparseCutoff="1.0000000000000000"/>
      <sparseX i="680" alpha="969.42537774753703" sparseCutoff="1.0000000000000000"/>
      <sparseX i="681" alpha="1128.5303959819857" sparseCutoff="1.0000000000000000"/>
      <sparseX i="682" alpha="312.09525463570344" sparseCutoff="1.0000000000000000"/>
      <sparseX i="683" alpha="506.90882537685070" sparseCutoff="1.0000000000000000"/>
      <sparseX i="684" alpha="-874.52156742116983" sparseCutoff="1.0000000000000000"/>
      <sparseX i="685" alpha="407.67366570697408" sparseCutoff="1.0000000000000000"/>
      <sparseX i="686" alpha="802.24628739828711" sparseCutoff="1.0000000000000000"/>
      <sparseX i="687" alpha="-559.34946161965661" sparseCutoff="1.0000000000000000"/>
      <sparseX i="688" alpha="108.90770885910958" sparseCutoff="1.0000000000000000"/>
      <sparseX i="689" alpha="-406.60955195084443" sparseCutoff="1.0000000000000000"/>
      <sparseX i="690" alpha="-1373.5510703842085" sparseCutoff="1.0000000000000000"/>
      <sparseX i="691" alpha="-46.005338741277257" sparseCutoff="1.0000000000000000"/>
      <sparseX i="692" alpha="132.96072800358706" sparseCutoff="1.0000000000000000"/>
      <sparseX i="693" alpha="185.90339460724934" sparseCutoff="1.0000000000000000"/>
      <sparseX i="694" alpha="-2281.0330445334566" sparseCutoff="1.0000000000000000"/>
      <sparseX i="695" alpha="-740.01532856252902" sparseCutoff="1.0000000000000000"/>
      <sparseX i="696" alpha="1787.3792312706787" sparseCutoff="1.0000000000000000"/>
      <sparseX i="697" alpha="-1491.2058077423790" sparseCutoff="1.0000000000000000"/>
      <sparseX i="698" alpha="1177.9349520492649" sparseCutoff="1.0000000000000000"/>
      <sparseX i="699" alpha="377.26556477957763" sparseCutoff="1.0000000000000000"/>
      <sparseX i="700" alpha="-126.46005932881103" sparseCutoff="1.0000000000000000"/>
      <sparseX i="701" alpha="165.17717149297962" sparseCutoff="1.0000000000000000"/>
      <sparseX i="702" alpha="-479.95287027140029" sparseCutoff="1.0000000000000000"/>
      <sparseX i="703" alpha="452.19710030273251" sparseCutoff="1.0000000000000000"/>
      <sparseX i="704" alpha="1118.5926054672352" sparseCutoff="1.0000000000000000"/>
      <sparseX i="705" alpha="-125.04072581901877" sparseCutoff="1.0000000000000000"/>
      <sparseX i="706" alpha="1458.6972685327187" sparseCutoff="1.0000000000000000"/>
      <sparseX i="707" alpha="59.632197728215580" sparseCutoff="1.0000000000000000"/>
      <sparseX i="708" alpha="436.87916311805168" sparseCutoff="1.0000000000000000"/>
      <sparseX i="709" alpha="-1239.9359180751378" sparseCutoff="1.0000000000000000"/>
      <sparseX i="710" alpha="-710.89226632022996" sparseCutoff="1.0000000000000000"/>
      <sparseX i="711" alpha="835.54602710512472" sparseCutoff="1.0000000000000000"/>
      <sparseX i="712" alpha="131.73617289042716" sparseCutoff="1.0000000000000000"/>
      <sparseX i="713" alpha="181.86099565678921" sparseCutoff="1.0000000000000000"/>
      <sparseX i="714" alpha="-104.22985177171199" sparseCutoff="1.0000000000000000"/>
      <sparseX i="715" alpha="-1296.6621454666247" sparseCutoff="1.0000000000000000"/>
      <sparseX i="716" alpha="-2165.4286315031809" sparseCutoff="1.0000000000000000"/>
      <sparseX i="717" alpha="3029.5939126622870" sparseCutoff="1.0000000000000000"/>
      <sparseX i="718" alpha="-153.85414547091489" sparseCutoff="1.0000000000000000"/>
      <sparseX i="719" alpha="498.56170039453900" sparseCutoff="1.0000000000000000"/>
      <sparseX i="720" alpha="-429.94829544127043" sparseCutoff="1.0000000000000000"/>
      <sparseX i="721" alpha="-659.04347552704485" sparseCutoff="1.0000000000000000"/>
      <sparseX i="722" alpha="-545.95120776287968" sparseCutoff="1.0000000000000000"/>
      <sparseX i="723" alpha="116.64551372634547" sparseCutoff="1.0000000000000000"/>
      <sparseX i="724" alpha="252.15993617828255" sparseCutoff="1.0000000000000000"/>
      <sparseX i="725" alpha="-325.64829207874004" sparseCutoff="1.0000000000000000"/>
      <sparseX i="726" alpha="-3166.3455113790201" sparseCutoff="1.0000000000000000"/>
      <sparseX i="727" alpha="2366.7949988613200" sparseCutoff="1.0000000000000000"/>
      <sparseX i="728" alpha="-38.516197456757240" sparseCutoff="1.0000000000000000"/>
      <sparseX i="729" alpha="-768.01480380007797" sparseCutoff="1.0000000000000000"/>
      <sparseX i="730" alpha="-620.38302742135875" sparseCutoff="1.0000000000000000"/>
      <sparseX i="731" alpha="-1616.3218380020876" sparseCutoff="1.0000000000000000"/>
      <sparseX i="732" alpha="-1011.0833930532909" sparseCutoff="1.0000000000000000"/>
      <sparseX i="733" alpha="1453.1219336117047" sparseCutoff="1.0000000000000000"/>
      <sparseX i="734" alpha="1282.2680774574153" sparseCutoff="1.0000000000000000"/>
      <sparseX i="735" alpha="-779.46512200665393" sparseCutoff="1.0000000000000000"/>
      <sparseX i="736" alpha="180.22511032311934" sparseCutoff="1.0000000000000000"/>
      <sparseX i="737" alpha="-1306.0721536151864" sparseCutoff="1.0000000000000000"/>
      <sparseX i="738" alpha="-878.68734395449110" sparseCutoff="1.0000000000000000"/>
      <sparseX i="739" alpha="-15.609147087614055" sparseCutoff="1.0000000000000000"/>
      <sparseX i="740" alpha="383.79901333040510" sparseCutoff="1.0000000000000000"/>
      <sparseX i="741" alpha="-550.92714704228433" sparseCutoff="1.0000000000000000"/>
      <sparseX i="742" alpha="-460.01969699233649" sparseCutoff="1.0000000000000000"/>
      <sparseX i="743" alpha="204.33314521272533" sparseCutoff="1.0000000000000000"/>
      <sparseX i="744" alpha="898.45551182929057" sparseCutoff="1.0000000000000000"/>
      <sparseX i="745" alpha="2302.7665716879947" sparseCutoff="1.0000000000000000"/>
      <sparseX i="746" alpha="-1855.6846533948312" sparseCutoff="1.0000000000000000"/>
      <sparseX i="747" alpha="2325.6485578750285" sparseCutoff="1.0000000000000000"/>
      <sparseX i="748" alpha="-844.02853378525344" sparseCutoff="1.0000000000000000"/>
      <sparseX i="749" alpha="1599.1947103975085" sparseCutoff="1.0000000000000000"/>
      <sparseX i="750" alpha="-795.55566083032454" sparseCutoff="1.0000000000000000"/>
      <sparseX i="751" alpha="-3086.0135281854236" sparseCutoff="1.0000000000000000"/>
      <sparseX i="752" alpha="-131.64751151277181" sparseCutoff="1.0000000000000000"/>
      <sparseX i="753" alpha="-50.149487435900248" sparseCutoff="1.0000000000000000"/>
      <sparseX i="754" alpha="-7075.5932524650607" sparseCutoff="1.0000000000000000"/>
      <sparseX i="755" alpha="-2944.4629599355258" sparseCutoff="1.0000000000000000"/>
      <sparseX i="756" alpha="121.57382852881882" sparseCutoff="1.0000000000000000"/>
      <sparseX i="757" alpha="3141.9674609613135" sparseCutoff="1.0000000000000000"/>
      <sparseX i="758" alpha="-2541.3341774157589" sparseCutoff="1.0000000000000000"/>
      <sparseX i="759" alpha="2053.4318491041727" sparseCutoff="1.0000000000000000"/>
      <sparseX i="760" alpha="1817.9256673137295" sparseCutoff="1.0000000000000000"/>
      <sparseX i="761" alpha="-751.97908545432881" sparseCutoff="1.0000000000000000"/>
      <sparseX i="762" alpha="1550.1114072302166" sparseCutoff="1.0000000000000000"/>
      <sparseX i="763" alpha="-1277.0517241869643" sparseCutoff="1.0000000000000000"/>
      <sparseX i="764" alpha="-1230.7223956351154" sparseCutoff="1.0000000000000000"/>
      <sparseX i="765" alpha="347.48056513138056" sparseCutoff="1.0000000000000000"/>
      <sparseX i="766" alpha="-1785.3750490363559" sparseCutoff="1.0000000000000000"/>
      <sparseX i="767" alpha="-1447.1161408604969" sparseCutoff="1.0000000000000000"/>
      <sparseX i="768" alpha="1792.5226892412470" sparseCutoff="1.0000000000000000"/>
      <sparseX i="769" alpha="2162.3736040479012" sparseCutoff="1.0000000000000000"/>
      <sparseX i="770" alpha="-4467.0214986473229" sparseCutoff="1.0000000000000000"/>
      <sparseX i="771" alpha=".68908816096082159" sparseCutoff="1.0000000000000000"/>
      <sparseX i="772" alpha="-901.74727111526784" sparseCutoff="1.0000000000000000"/>
      <sparseX i="773" alpha="535.83033718873412" sparseCutoff="1.0000000000000000"/>
      <sparseX i="774" alpha="3261.5351245057736" sparseCutoff="1.0000000000000000"/>
      <sparseX i="775" alpha="2326.4848414666799" sparseCutoff="1.0000000000000000"/>
      <sparseX i="776" alpha="-1115.3014340905092" sparseCutoff="1.0000000000000000"/>
      <sparseX i="777" alpha="195.62706179225640" sparseCutoff="1.0000000000000000"/>
      <sparseX i="778" alpha="768.70405854946887" sparseCutoff="1.0000000000000000"/>
      <sparseX i="779" alpha="619.26239186706187" sparseCutoff="1.0000000000000000"/>
      <sparseX i="780" alpha="3779.3792164401411" sparseCutoff="1.0000000000000000"/>
      <sparseX i="781" alpha="768.79622850219391" sparseCutoff="1.0000000000000000"/>
      <sparseX i="782" alpha="532.11853410472190" sparseCutoff="1.0000000000000000"/>
      <sparseX i="783" alpha="-1183.5977315781599" sparseCutoff="1.0000000000000000"/>
      <sparseX i="784" alpha="2580.5867639137568" sparseCutoff="1.0000000000000000"/>
      <sparseX i="785" alpha="-262.49153260728593" sparseCutoff="1.0000000000000000"/>
      <sparseX i="786" alpha="398.45607713452466" sparseCutoff="1.0000000000000000"/>
      <sparseX i="787" alpha="263.03544557582393" sparseCutoff="1.0000000000000000"/>
      <sparseX i="788" alpha="-944.82340537307743" sparseCutoff="1.0000000000000000"/>
      <sparseX i="789" alpha="32.655425283730864" sparseCutoff="1.0000000000000000"/>
      <sparseX i="790" alpha="1145.1819371759480" sparseCutoff="1.0000000000000000"/>
      <sparseX i="791" alpha="-775.45654090829157" sparseCutoff="1.0000000000000000"/>
      <sparseX i="792" alpha="-4906.5942739491165" sparseCutoff="1.0000000000000000"/>
      <sparseX i="793" alpha="216.76787470995072" sparseCutoff="1.0000000000000000"/>
      <sparseX i="794" alpha="-582.38898279449757" sparseCutoff="1.0000000000000000"/>
      <sparseX i="795" alpha="-163.88503433532222" sparseCutoff="1.0000000000000000"/>
      <sparseX i="796" alpha="332.31980231260559" sparseCutoff="1.0000000000000000"/>
      <sparseX i="797" alpha="2324.8046084399025" sparseCutoff="1.0000000000000000"/>
      <sparseX i="798" alpha="2094.3891763841048" sparseCutoff="1.0000000000000000"/>
      <sparseX i="799" alpha="1053.4432544565093" sparseCutoff="1.0000000000000000"/>
      <sparseX i="800" alpha="-470.55634803694869" sparseCutoff="1.0000000000000000"/>
      <sparseX i="801" alpha="-2947.9611989126793" sparseCutoff="1.0000000000000000"/>
      <sparseX i="802" alpha="-750.41070190120672" sparseCutoff="1.0000000000000000"/>
      <sparseX i="803" alpha="563.02721149769877" sparseCutoff="1.0000000000000000"/>
      <sparseX i="804" alpha="199.65158154393964" sparseCutoff="1.0000000000000000"/>
      <sparseX i="805" alpha="2171.9506185909831" sparseCutoff="1.0000000000000000"/>
      <sparseX i="806" alpha="217.19123363699453" sparseCutoff="1.0000000000000000"/>
      <sparseX i="807" alpha="716.55918121610898" sparseCutoff="1.0000000000000000"/>
      <sparseX i="808" alpha="1774.7677325634249" sparseCutoff="1.0000000000000000"/>
      <sparseX i="809" alpha="2924.2514095607298" sparseCutoff="1.0000000000000000"/>
      <sparseX i="810" alpha="-3241.5271170095839" sparseCutoff="1.0000000000000000"/>
      <sparseX i="811" alpha="-638.51951657039274" sparseCutoff="1.0000000000000000"/>
      <sparseX i="812" alpha="874.59952313467500" sparseCutoff="1.0000000000000000"/>
      <sparseX i="813" alpha="837.85335509257527" sparseCutoff="1.0000000000000000"/>
      <sparseX i="814" alpha="3333.4763676397238" sparseCutoff="1.0000000000000000"/>
      <sparseX i="815" alpha="-1275.6503853290114" sparseCutoff="1.0000000000000000"/>
      <sparseX i="816" alpha="-5541.3241567913847" sparseCutoff="1.0000000000000000"/>
      <sparseX i="817" alpha="853.20710211667972" sparseCutoff="1.0000000000000000"/>
      <sparseX i="818" alpha="-454.12695548891691" sparseCutoff="1.0000000000000000"/>
      <sparseX i="819" alpha="-6.7445402901562366" sparseCutoff="1.0000000000000000"/>
      <sparseX i="820" alpha="709.62721582571623" sparseCutoff="1.0000000000000000"/>
      <sparseX i="821" alpha="-308.82096330610852" sparseCutoff="1.0000000000000000"/>
      <sparseX i="822" alpha="-2298.2528832630919" sparseCutoff="1.0000000000000000"/>
      <sparseX i="823" alpha="2386.2785787425037" sparseCutoff="1.0000000000000000"/>
      <sparseX i="824" alpha="-2504.0987117813206" sparseCutoff="1.0000000000000000"/>
      <sparseX i="825" alpha="453.09785660608873" sparseCutoff="1.0000000000000000"/>
      <sparseX i="826" alpha="1512.3945011084948" sparseCutoff="1.0000000000000000"/>
      <sparseX i="827" alpha="-1213.2493354099893" sparseCutoff="1.0000000000000000"/>
      <sparseX i="828" alpha="-18.185875235930641" sparseCutoff="1.0000000000000000"/>
      <sparseX i="829" alpha="505.54964160801671" sparseCutoff="1.0000000000000000"/>
      <sparseX i="830" alpha="-1804.1511823367932" sparseCutoff="1.0000000000000000"/>
      <sparseX i="831" alpha="-843.24131896812162" sparseCutoff="1.0000000000000000"/>
      <sparseX i="832" alpha="654.78813929479770" sparseCutoff="1.0000000000000000"/>
      <sparseX i="833" alpha="-162.40581746146060" sparseCutoff="1.0000000000000000"/>
      <sparseX i="834" alpha="-60.247013025571619" sparseCutoff="1.0000000000000000"/>
      <sparseX i="835" alpha="-3832.9373189700650" sparseCutoff="1.0000000000000000"/>
      <sparseX i="836" alpha="4446.3210006853888" sparseCutoff="1.0000000000000000"/>
      <sparseX i="837" alpha="3733.9582655892823" sparseCutoff="1.0000000000000000"/>
      <sparseX i="838" alpha="-235.69657031886942" sparseCutoff="1.0000000000000000"/>
      <sparseX i="839" alpha="-91.844465189110466" sparseCutoff="1.0000000000000000"/>
      <sparseX i="840" alpha="244.31426878412054" sparseCutoff="1.0000000000000000"/>
      <sparseX i="841" alpha="-167.63455872440275" sparseCutoff="1.0000000000000000"/>
      <sparseX i="842" alpha="-49.276065292195184" sparseCutoff="1.0000000000000000"/>
      <sparseX i="843" alpha="-1200.8597875628636" sparseCutoff="1.0000000000000000"/>
      <sparseX i="844" alpha="957.65347502475686" sparseCutoff="1.0000000000000000"/>
      <sparseX i="845" alpha="-2757.4737150751612" sparseCutoff="1.0000000000000000"/>
      <sparseX i="846" alpha="-1033.9054287121241" sparseCutoff="1.0000000000000000"/>
      <sparseX i="847" alpha="489.46393702617718" sparseCutoff="1.0000000000000000"/>
      <sparseX i="848" alpha="-2199.0458851939416" sparseCutoff="1.0000000000000000"/>
      <sparseX i="849" alpha="-23.759999972137408" sparseCutoff="1.0000000000000000"/>
      <sparseX i="850" alpha="-344.05509010549025" sparseCutoff="1.0000000000000000"/>
      <sparseX i="851" alpha="-595.15696544172340" sparseCutoff="1.0000000000000000"/>
      <sparseX i="852" alpha="-721.94122859701463" sparseCutoff="1.0000000000000000"/>
      <sparseX i="853" alpha="-28.166295427432598" sparseCutoff="1.0000000000000000"/>
      <sparseX i="854" alpha="-643.58393505532558" sparseCutoff="1.0000000000000000"/>
      <sparseX i="855" alpha="-553.46458147420742" sparseCutoff="1.0000000000000000"/>
      <sparseX i="856" alpha="-6453.2215430700844" sparseCutoff="1.0000000000000000"/>
      <sparseX i="857" alpha="-538.47764129764414" sparseCutoff="1.0000000000000000"/>
      <sparseX i="858" alpha="-263.94724310714651" sparseCutoff="1.0000000000000000"/>
      <sparseX i="859" alpha="-2899.9824565558997" sparseCutoff="1.0000000000000000"/>
      <sparseX i="860" alpha="1292.9723903579932" sparseCutoff="1.0000000000000000"/>
      <sparseX i="861" alpha="-1581.8240671874496" sparseCutoff="1.0000000000000000"/>
      <sparseX i="862" alpha="6177.0189682412883" sparseCutoff="1.0000000000000000"/>
      <sparseX i="863" alpha="1332.8136943583540" sparseCutoff="1.0000000000000000"/>
      <sparseX i="864" alpha="-326.16218072696932" sparseCutoff="1.0000000000000000"/>
      <sparseX i="865" alpha="17.156749040702636" sparseCutoff="1.0000000000000000"/>
      <sparseX i="866" alpha="-520.24473495767131" sparseCutoff="1.0000000000000000"/>
      <sparseX i="867" alpha="1824.8515539150103" sparseCutoff="1.0000000000000000"/>
      <sparseX i="868" alpha="-379.65604498841759" sparseCutoff="1.0000000000000000"/>
      <sparseX i="869" alpha="76.871644752529349" sparseCutoff="1.0000000000000000"/>
      <sparseX i="870" alpha="-368.55750839100847" sparseCutoff="1.0000000000000000"/>
      <sparseX i="871" alpha="-.79710808376898848E-004" sparseCutoff="1.0000000000000000"/>
      <sparseX i="872" alpha="-428.37925092194519" sparseCutoff="1.0000000000000000"/>
      <sparseX i="873" alpha="1175.2106356404979" sparseCutoff="1.0000000000000000"/>
      <sparseX i="874" alpha="-1083.2779081308011" sparseCutoff="1.0000000000000000"/>
      <sparseX i="875" alpha="-1497.9780805632192" sparseCutoff="1.0000000000000000"/>
      <sparseX i="876" alpha="-809.08035806297244" sparseCutoff="1.0000000000000000"/>
      <sparseX i="877" alpha="1802.0233190084662" sparseCutoff="1.0000000000000000"/>
      <sparseX i="878" alpha="-546.99651924309080" sparseCutoff="1.0000000000000000"/>
      <sparseX i="879" alpha="-1042.6858281586144" sparseCutoff="1.0000000000000000"/>
      <sparseX i="880" alpha="1776.9186972130763" sparseCutoff="1.0000000000000000"/>
      <sparseX i="881" alpha="964.95577404121400" sparseCutoff="1.0000000000000000"/>
      <sparseX i="882" alpha="-1473.1395139301110" sparseCutoff="1.0000000000000000"/>
      <sparseX i="883" alpha="604.49431529851529" sparseCutoff="1.0000000000000000"/>
      <sparseX i="884" alpha="856.38697930320780" sparseCutoff="1.0000000000000000"/>
      <sparseX i="885" alpha="-573.35965544597036" sparseCutoff="1.0000000000000000"/>
      <sparseX i="886" alpha="-1087.8969508982386" sparseCutoff="1.0000000000000000"/>
      <sparseX i="887" alpha="869.60281998069684" sparseCutoff="1.0000000000000000"/>
      <sparseX i="888" alpha="-539.65921454313559" sparseCutoff="1.0000000000000000"/>
      <sparseX i="889" alpha="-151.37508591596131" sparseCutoff="1.0000000000000000"/>
      <sparseX i="890" alpha="1267.4433240897804" sparseCutoff="1.0000000000000000"/>
      <sparseX i="891" alpha="923.53904919747742" sparseCutoff="1.0000000000000000"/>
      <sparseX i="892" alpha="986.08696684553593" sparseCutoff="1.0000000000000000"/>
      <sparseX i="893" alpha="1207.5194118419720" sparseCutoff="1.0000000000000000"/>
      <sparseX i="894" alpha="406.05406005811261" sparseCutoff="1.0000000000000000"/>
      <sparseX i="895" alpha="1921.6734935381814" sparseCutoff="1.0000000000000000"/>
      <sparseX i="896" alpha="2150.3704418634475" sparseCutoff="1.0000000000000000"/>
      <sparseX i="897" alpha="-1184.0629378629631" sparseCutoff="1.0000000000000000"/>
      <sparseX i="898" alpha="22.324875127210792" sparseCutoff="1.0000000000000000"/>
      <sparseX i="899" alpha="1344.3423874680366" sparseCutoff="1.0000000000000000"/>
      <sparseX i="900" alpha="818.10321582225947" sparseCutoff="1.0000000000000000"/>
      <sparseX i="901" alpha="1179.8562294537310" sparseCutoff="1.0000000000000000"/>
      <sparseX i="902" alpha="-74.725639257916114" sparseCutoff="1.0000000000000000"/>
      <sparseX i="903" alpha="-187.55869856540579" sparseCutoff="1.0000000000000000"/>
      <sparseX i="904" alpha="1127.1583823519754" sparseCutoff="1.0000000000000000"/>
      <sparseX i="905" alpha="8249.5673506504500" sparseCutoff="1.0000000000000000"/>
      <sparseX i="906" alpha="-2276.8988220709907" sparseCutoff="1.0000000000000000"/>
      <sparseX i="907" alpha="-2465.0343026599212" sparseCutoff="1.0000000000000000"/>
      <sparseX i="908" alpha="-1204.9104001906801" sparseCutoff="1.0000000000000000"/>
      <sparseX i="909" alpha="-2777.6957784886104" sparseCutoff="1.0000000000000000"/>
      <sparseX i="910" alpha="-2713.7656284568457" sparseCutoff="1.0000000000000000"/>
      <sparseX i="911" alpha="-342.87137395116969" sparseCutoff="1.0000000000000000"/>
      <sparseX i="912" alpha="-3464.0346132670898" sparseCutoff="1.0000000000000000"/>
      <sparseX i="913" alpha="1449.6113346646348" sparseCutoff="1.0000000000000000"/>
      <sparseX i="914" alpha="-1014.2173154270228" sparseCutoff="1.0000000000000000"/>
      <sparseX i="915" alpha="1189.7060188193414" sparseCutoff="1.0000000000000000"/>
      <sparseX i="916" alpha="5490.7228567610155" sparseCutoff="1.0000000000000000"/>
      <sparseX i="917" alpha="-2664.6753063524152" sparseCutoff="1.0000000000000000"/>
      <sparseX i="918" alpha="274.96002135693863" sparseCutoff="1.0000000000000000"/>
      <sparseX i="919" alpha="1003.7028570612846" sparseCutoff="1.0000000000000000"/>
      <sparseX i="920" alpha="-394.81657835705676" sparseCutoff="1.0000000000000000"/>
      <sparseX i="921" alpha="-839.72694909652898" sparseCutoff="1.0000000000000000"/>
      <sparseX i="922" alpha="-999.68466829578347" sparseCutoff="1.0000000000000000"/>
      <sparseX i="923" alpha="-3305.0161146366431" sparseCutoff="1.0000000000000000"/>
      <sparseX i="924" alpha="833.04321152607179" sparseCutoff="1.0000000000000000"/>
      <sparseX i="925" alpha="991.71460655693147" sparseCutoff="1.0000000000000000"/>
      <sparseX i="926" alpha="-1760.9962858885756" sparseCutoff="1.0000000000000000"/>
      <sparseX i="927" alpha="3857.6696081444943" sparseCutoff="1.0000000000000000"/>
      <sparseX i="928" alpha="604.49364373051901" sparseCutoff="1.0000000000000000"/>
      <sparseX i="929" alpha="168.76210023503526" sparseCutoff="1.0000000000000000"/>
      <sparseX i="930" alpha="182.94351737510195" sparseCutoff="1.0000000000000000"/>
      <sparseX i="931" alpha="-1265.9976048281919" sparseCutoff="1.0000000000000000"/>
      <sparseX i="932" alpha="1317.7728845396364" sparseCutoff="1.0000000000000000"/>
      <sparseX i="933" alpha="265.81089440560959" sparseCutoff="1.0000000000000000"/>
      <sparseX i="934" alpha="430.06208696389592" sparseCutoff="1.0000000000000000"/>
      <sparseX i="935" alpha="1753.4745144087206" sparseCutoff="1.0000000000000000"/>
      <sparseX i="936" alpha="-611.59397277009884" sparseCutoff="1.0000000000000000"/>
      <sparseX i="937" alpha="-4354.7938319944014" sparseCutoff="1.0000000000000000"/>
      <sparseX i="938" alpha="-1399.0823240299344" sparseCutoff="1.0000000000000000"/>
      <sparseX i="939" alpha="-335.39211134129926" sparseCutoff="1.0000000000000000"/>
      <sparseX i="940" alpha="1054.1043058463529" sparseCutoff="1.0000000000000000"/>
      <sparseX i="941" alpha="17.301260905966096" sparseCutoff="1.0000000000000000"/>
      <sparseX i="942" alpha="115.20188666766371" sparseCutoff="1.0000000000000000"/>
      <sparseX i="943" alpha="308.98491521388831" sparseCutoff="1.0000000000000000"/>
      <sparseX i="944" alpha="-944.10487486411819" sparseCutoff="1.0000000000000000"/>
      <sparseX i="945" alpha="270.35396540906538" sparseCutoff="1.0000000000000000"/>
      <sparseX i="946" alpha="725.04755350022197" sparseCutoff="1.0000000000000000"/>
      <sparseX i="947" alpha="-1302.6742812969594" sparseCutoff="1.0000000000000000"/>
      <sparseX i="948" alpha="190.27146476926907" sparseCutoff="1.0000000000000000"/>
      <sparseX i="949" alpha="2742.2854826710559" sparseCutoff="1.0000000000000000"/>
      <sparseX i="950" alpha="3742.3716284898742" sparseCutoff="1.0000000000000000"/>
      <sparseX i="951" alpha="-609.36526756485944" sparseCutoff="1.0000000000000000"/>
      <sparseX i="952" alpha="1196.6476083391012" sparseCutoff="1.0000000000000000"/>
      <sparseX i="953" alpha="233.12836857223633" sparseCutoff="1.0000000000000000"/>
      <sparseX i="954" alpha="374.25013864993542" sparseCutoff="1.0000000000000000"/>
      <sparseX i="955" alpha="1639.4606008707037" sparseCutoff="1.0000000000000000"/>
      <sparseX i="956" alpha="-2038.1628030842480" sparseCutoff="1.0000000000000000"/>
      <sparseX i="957" alpha="1025.6950058295836" sparseCutoff="1.0000000000000000"/>
      <sparseX i="958" alpha="-310.83802811035349" sparseCutoff="1.0000000000000000"/>
      <sparseX i="959" alpha="1879.5710200870201" sparseCutoff="1.0000000000000000"/>
      <sparseX i="960" alpha="1098.8987210155278" sparseCutoff="1.0000000000000000"/>
      <sparseX i="961" alpha="566.93686592064284" sparseCutoff="1.0000000000000000"/>
      <sparseX i="962" alpha="268.97510593661622" sparseCutoff="1.0000000000000000"/>
      <sparseX i="963" alpha="-3276.4286805572951" sparseCutoff="1.0000000000000000"/>
      <sparseX i="964" alpha="-589.04920679372333" sparseCutoff="1.0000000000000000"/>
      <sparseX i="965" alpha="-813.82431223688184" sparseCutoff="1.0000000000000000"/>
      <sparseX i="966" alpha="691.61605783194705" sparseCutoff="1.0000000000000000"/>
      <sparseX i="967" alpha="240.13713287068828" sparseCutoff="1.0000000000000000"/>
      <sparseX i="968" alpha="235.12403620007146" sparseCutoff="1.0000000000000000"/>
      <sparseX i="969" alpha="-748.83405846132257" sparseCutoff="1.0000000000000000"/>
      <sparseX i="970" alpha="1481.8270748372222" sparseCutoff="1.0000000000000000"/>
      <sparseX i="971" alpha="1417.4895170578932" sparseCutoff="1.0000000000000000"/>
      <sparseX i="972" alpha="163.32141712238945" sparseCutoff="1.0000000000000000"/>
      <sparseX i="973" alpha="1638.3022292947835" sparseCutoff="1.0000000000000000"/>
      <sparseX i="974" alpha="636.62522469657051" sparseCutoff="1.0000000000000000"/>
      <sparseX i="975" alpha="-1423.3897744153062" sparseCutoff="1.0000000000000000"/>
      <sparseX i="976" alpha="709.55679378398395" sparseCutoff="1.0000000000000000"/>
      <sparseX i="977" alpha="627.44710094380116" sparseCutoff="1.0000000000000000"/>
      <sparseX i="978" alpha="-.85562775766863197" sparseCutoff="1.0000000000000000"/>
      <sparseX i="979" alpha="2411.5061380482839" sparseCutoff="1.0000000000000000"/>
      <sparseX i="980" alpha="-8599.7655964759961" sparseCutoff="1.0000000000000000"/>
      <sparseX i="981" alpha="-435.19354992393875" sparseCutoff="1.0000000000000000"/>
      <sparseX i="982" alpha="1538.5882821506043" sparseCutoff="1.0000000000000000"/>
      <sparseX i="983" alpha="-1187.6910105171573" sparseCutoff="1.0000000000000000"/>
      <sparseX i="984" alpha="-1988.8778441665925" sparseCutoff="1.0000000000000000"/>
      <sparseX i="985" alpha="-3418.9230396940252" sparseCutoff="1.0000000000000000"/>
      <sparseX i="986" alpha="2266.8389127674222" sparseCutoff="1.0000000000000000"/>
      <sparseX i="987" alpha="1296.7403804959804" sparseCutoff="1.0000000000000000"/>
      <sparseX i="988" alpha="-754.67167827948458" sparseCutoff="1.0000000000000000"/>
      <sparseX i="989" alpha="1574.1722819789545" sparseCutoff="1.0000000000000000"/>
      <sparseX i="990" alpha="-204.74787165189488" sparseCutoff="1.0000000000000000"/>
      <sparseX i="991" alpha="145.24942114236379" sparseCutoff="1.0000000000000000"/>
      <sparseX i="992" alpha="2123.4607548195290" sparseCutoff="1.0000000000000000"/>
      <sparseX i="993" alpha="3406.0264770283202" sparseCutoff="1.0000000000000000"/>
      <sparseX i="994" alpha="269.78059485179875" sparseCutoff="1.0000000000000000"/>
      <sparseX i="995" alpha="-140.35170498545025" sparseCutoff="1.0000000000000000"/>
