<GAP_2023_6_27_60_19_18_40_315>
<Potential label="GAP_2023_6_27_60_19_18_40_315" init_args="IP GAP label=GAP_2023_6_27_60_19_18_40_315"/>
<GAP_params label="GAP_2023_6_27_60_19_18_40_315" gap_version="1657795613">
  <GAP_data do_core="F">
    <e0 Z="1" value=".00000000000000000E+000"/>
    <e0 Z="2" value=".00000000000000000E+000"/>
    <e0 Z="3" value=".00000000000000000E+000"/>
    <e0 Z="4" value=".00000000000000000E+000"/>
    <e0 Z="5" value=".00000000000000000E+000"/>
    <e0 Z="6" value=".00000000000000000E+000"/>
    <e0 Z="7" value=".00000000000000000E+000"/>
    <e0 Z="8" value=".00000000000000000E+000"/>
    <e0 Z="9" value=".00000000000000000E+000"/>
    <e0 Z="10" value=".00000000000000000E+000"/>
    <e0 Z="11" value=".00000000000000000E+000"/>
    <e0 Z="12" value=".00000000000000000E+000"/>
    <e0 Z="13" value=".00000000000000000E+000"/>
    <e0 Z="14" value="-160.73263835370375"/>
    <e0 Z="15" value=".00000000000000000E+000"/>
    <e0 Z="16" value=".00000000000000000E+000"/>
    <e0 Z="17" value=".00000000000000000E+000"/>
    <e0 Z="18" value=".00000000000000000E+000"/>
    <e0 Z="19" value=".00000000000000000E+000"/>
    <e0 Z="20" value=".00000000000000000E+000"/>
    <e0 Z="21" value=".00000000000000000E+000"/>
    <e0 Z="22" value=".00000000000000000E+000"/>
    <e0 Z="23" value=".00000000000000000E+000"/>
    <e0 Z="24" value=".00000000000000000E+000"/>
    <e0 Z="25" value=".00000000000000000E+000"/>
    <e0 Z="26" value=".00000000000000000E+000"/>
    <e0 Z="27" value=".00000000000000000E+000"/>
    <e0 Z="28" value=".00000000000000000E+000"/>
    <e0 Z="29" value=".00000000000000000E+000"/>
    <e0 Z="30" value=".00000000000000000E+000"/>
    <e0 Z="31" value=".00000000000000000E+000"/>
    <e0 Z="32" value=".00000000000000000E+000"/>
    <e0 Z="33" value=".00000000000000000E+000"/>
    <e0 Z="34" value=".00000000000000000E+000"/>
    <e0 Z="35" value=".00000000000000000E+000"/>
    <e0 Z="36" value=".00000000000000000E+000"/>
    <e0 Z="37" value=".00000000000000000E+000"/>
    <e0 Z="38" value=".00000000000000000E+000"/>
    <e0 Z="39" value=".00000000000000000E+000"/>
    <e0 Z="40" value=".00000000000000000E+000"/>
    <e0 Z="41" value=".00000000000000000E+000"/>
    <e0 Z="42" value=".00000000000000000E+000"/>
    <e0 Z="43" value=".00000000000000000E+000"/>
    <e0 Z="44" value=".00000000000000000E+000"/>
    <e0 Z="45" value=".00000000000000000E+000"/>
    <e0 Z="46" value=".00000000000000000E+000"/>
    <e0 Z="47" value=".00000000000000000E+000"/>
    <e0 Z="48" value=".00000000000000000E+000"/>
    <e0 Z="49" value=".00000000000000000E+000"/>
    <e0 Z="50" value=".00000000000000000E+000"/>
    <e0 Z="51" value=".00000000000000000E+000"/>
    <e0 Z="52" value=".00000000000000000E+000"/>
    <e0 Z="53" value=".00000000000000000E+000"/>
    <e0 Z="54" value=".00000000000000000E+000"/>
    <e0 Z="55" value=".00000000000000000E+000"/>
    <e0 Z="56" value=".00000000000000000E+000"/>
    <e0 Z="57" value=".00000000000000000E+000"/>
    <e0 Z="58" value=".00000000000000000E+000"/>
    <e0 Z="59" value=".00000000000000000E+000"/>
    <e0 Z="60" value=".00000000000000000E+000"/>
    <e0 Z="61" value=".00000000000000000E+000"/>
    <e0 Z="62" value=".00000000000000000E+000"/>
    <e0 Z="63" value=".00000000000000000E+000"/>
    <e0 Z="64" value=".00000000000000000E+000"/>
    <e0 Z="65" value=".00000000000000000E+000"/>
    <e0 Z="66" value=".00000000000000000E+000"/>
    <e0 Z="67" value=".00000000000000000E+000"/>
    <e0 Z="68" value=".00000000000000000E+000"/>
    <e0 Z="69" value=".00000000000000000E+000"/>
    <e0 Z="70" value=".00000000000000000E+000"/>
    <e0 Z="71" value=".00000000000000000E+000"/>
    <e0 Z="72" value=".00000000000000000E+000"/>
    <e0 Z="73" value=".00000000000000000E+000"/>
    <e0 Z="74" value=".00000000000000000E+000"/>
    <e0 Z="75" value=".00000000000000000E+000"/>
    <e0 Z="76" value=".00000000000000000E+000"/>
    <e0 Z="77" value=".00000000000000000E+000"/>
    <e0 Z="78" value=".00000000000000000E+000"/>
    <e0 Z="79" value=".00000000000000000E+000"/>
    <e0 Z="80" value=".00000000000000000E+000"/>
    <e0 Z="81" value=".00000000000000000E+000"/>
    <e0 Z="82" value=".00000000000000000E+000"/>
    <e0 Z="83" value=".00000000000000000E+000"/>
    <e0 Z="84" value=".00000000000000000E+000"/>
    <e0 Z="85" value=".00000000000000000E+000"/>
    <e0 Z="86" value=".00000000000000000E+000"/>
    <e0 Z="87" value=".00000000000000000E+000"/>
    <e0 Z="88" value=".00000000000000000E+000"/>
    <e0 Z="89" value=".00000000000000000E+000"/>
    <e0 Z="90" value=".00000000000000000E+000"/>
    <e0 Z="91" value=".00000000000000000E+000"/>
    <e0 Z="92" value=".00000000000000000E+000"/>
    <e0 Z="93" value=".00000000000000000E+000"/>
    <e0 Z="94" value=".00000000000000000E+000"/>
    <e0 Z="95" value=".00000000000000000E+000"/>
    <e0 Z="96" value=".00000000000000000E+000"/>
    <e0 Z="97" value=".00000000000000000E+000"/>
    <e0 Z="98" value=".00000000000000000E+000"/>
    <e0 Z="99" value=".00000000000000000E+000"/>
    <e0 Z="100" value=".00000000000000000E+000"/>
    <e0 Z="101" value=".00000000000000000E+000"/>
    <e0 Z="102" value=".00000000000000000E+000"/>
    <e0 Z="103" value=".00000000000000000E+000"/>
    <e0 Z="104" value=".00000000000000000E+000"/>
    <e0 Z="105" value=".00000000000000000E+000"/>
    <e0 Z="106" value=".00000000000000000E+000"/>
    <e0 Z="107" value=".00000000000000000E+000"/>
    <e0 Z="108" value=".00000000000000000E+000"/>
    <e0 Z="109" value=".00000000000000000E+000"/>
    <e0 Z="110" value=".00000000000000000E+000"/>
    <e0 Z="111" value=".00000000000000000E+000"/>
    <e0 Z="112" value=".00000000000000000E+000"/>
    <e0 Z="113" value=".00000000000000000E+000"/>
    <e0 Z="114" value=".00000000000000000E+000"/>
    <e0 Z="115" value=".00000000000000000E+000"/>
    <e0 Z="116" value=".00000000000000000E+000"/>
    <e0 Z="117" value=".00000000000000000E+000"/>
    <e0 Z="118" value=".00000000000000000E+000"/>
  </GAP_data>
  <gpSparse label="GAP_2023_6_27_60_19_18_40_315" n_coordinate="2" fitted="T">
    <gpCoordinates label="GAP_2023_6_27_60_19_18_40_3151" dimensions="1" signal_variance="1.0000000000000000" signal_mean=".00000000000000000E+000" sparsified="T" n_permutations="2" covariance_type="1" n_sparseX="30" sparseX_filename="GAP.xml.sparseX.GAP_2023_6_27_60_19_18_40_3151" sparseX_md5sum="09c4757e34509500ea3e820a3522dfd0">
      <theta>  0.50000000000000000E+000 </theta>
      <descriptor> distance_Nb order=2 cutoff=10.0 covariance_type=ARD_SE theta_uniform=0.5 n_sparse=30 delta=1.0 sparse_method=uniform compact_clusters=T Z={14 14 }</descriptor>
      <permutation i="1">1  </permutation>
      <permutation i="2">1  </permutation>
      <sparseX i="1" alpha="-433.58563197802306" sparseCutoff="1.0000000000000000"/>
      <sparseX i="2" alpha="-549.37948589074210" sparseCutoff="1.0000000000000000"/>
      <sparseX i="3" alpha="143.49210814149430" sparseCutoff="1.0000000000000000"/>
      <sparseX i="4" alpha="77.298942225472686" sparseCutoff="1.0000000000000000"/>
      <sparseX i="5" alpha="-162.19771291810923" sparseCutoff=".17063740203357491E-001"/>
      <sparseX i="6" alpha="51.735945128585371" sparseCutoff="1.0000000000000000"/>
      <sparseX i="7" alpha="73.782552295958865" sparseCutoff="1.0000000000000000"/>
      <sparseX i="8" alpha="335.75320457448561" sparseCutoff="1.0000000000000000"/>
      <sparseX i="9" alpha="-63.408693146099552" sparseCutoff="1.0000000000000000"/>
      <sparseX i="10" alpha="442.07025305705162" sparseCutoff="1.0000000000000000"/>
      <sparseX i="11" alpha="715.69809243314933" sparseCutoff="1.0000000000000000"/>
      <sparseX i="12" alpha="309.66404029017559" sparseCutoff="1.0000000000000000"/>
      <sparseX i="13" alpha="-53.180216273893130" sparseCutoff="1.0000000000000000"/>
      <sparseX i="14" alpha="-35.475894323742892" sparseCutoff="1.0000000000000000"/>
      <sparseX i="15" alpha="-195.30985533438303" sparseCutoff="1.0000000000000000"/>
      <sparseX i="16" alpha="-210.40439604462682" sparseCutoff="1.0000000000000000"/>
      <sparseX i="17" alpha="16.311175905685786" sparseCutoff=".42645977335161045"/>
      <sparseX i="18" alpha="521.72916673546865" sparseCutoff="1.0000000000000000"/>
      <sparseX i="19" alpha="-154.27699939093293" sparseCutoff="1.0000000000000000"/>
      <sparseX i="20" alpha="-224.97703781567523" sparseCutoff="1.0000000000000000"/>
      <sparseX i="21" alpha="-64.363661824559813" sparseCutoff="1.0000000000000000"/>
      <sparseX i="22" alpha="-611.01206178403640" sparseCutoff="1.0000000000000000"/>
      <sparseX i="23" alpha="385.58728715514388" sparseCutoff="1.0000000000000000"/>
      <sparseX i="24" alpha="-411.47508328970417" sparseCutoff="1.0000000000000000"/>
      <sparseX i="25" alpha="201.52200511641308" sparseCutoff="1.0000000000000000"/>
      <sparseX i="26" alpha="250.12938395621066" sparseCutoff="1.0000000000000000"/>
      <sparseX i="27" alpha="64.773046687474476" sparseCutoff="1.0000000000000000"/>
      <sparseX i="28" alpha="-272.51803402245156" sparseCutoff="1.0000000000000000"/>
      <sparseX i="29" alpha="-335.78265387272938" sparseCutoff="1.0000000000000000"/>
      <sparseX i="30" alpha="38.581396298368148" sparseCutoff="1.0000000000000000"/>
    </gpCoordinates>
    <gpCoordinates label="GAP_2023_6_27_60_19_18_40_3152" dimensions="391" signal_variance=".10000000000000001E+000" signal_mean=".00000000000000000E+000" sparsified="T" n_permutations="1" covariance_type="2" zeta="4.0000000000000000" n_sparseX="500" sparseX_filename="GAP.xml.sparseX.GAP_2023_6_27_60_19_18_40_3152" sparseX_md5sum="b98400e039ae37dfd659b1c3ea07be07">
      <descriptor> soap l_max=4 n_max=12 atom_sigma=0.5 zeta=4 cutoff=5.0 cutoff_transition_width=1.0 central_weight=1.0 n_sparse=500 delta=0.1 f0=0.0 covariance_type=dot_product sparse_method=cur_points n_species=1 Z=14 species_Z={14 }</descriptor>
      <permutation i="1">1  </permutation>
      <sparseX i="1" alpha="-768.30687217651985" sparseCutoff="1.0000000000000000"/>
      <sparseX i="2" alpha="-2045.6175389230145" sparseCutoff="1.0000000000000000"/>
      <sparseX i="3" alpha="-911.56217502005006" sparseCutoff="1.0000000000000000"/>
      <sparseX i="4" alpha="2687.4628089267731" sparseCutoff="1.0000000000000000"/>
      <sparseX i="5" alpha="1037.1646219136417" sparseCutoff="1.0000000000000000"/>
      <sparseX i="6" alpha="235.03213939292289" sparseCutoff="1.0000000000000000"/>
      <sparseX i="7" alpha="2311.2669721465750" sparseCutoff="1.0000000000000000"/>
      <sparseX i="8" alpha="-2076.2977746545457" sparseCutoff="1.0000000000000000"/>
      <sparseX i="9" alpha="-355.48792711440819" sparseCutoff="1.0000000000000000"/>
      <sparseX i="10" alpha="4218.3569148802098" sparseCutoff="1.0000000000000000"/>
      <sparseX i="11" alpha="-295.92878381511485" sparseCutoff="1.0000000000000000"/>
      <sparseX i="12" alpha="3408.4568401466422" sparseCutoff="1.0000000000000000"/>
      <sparseX i="13" alpha="4652.8700716182266" sparseCutoff="1.0000000000000000"/>
      <sparseX i="14" alpha="368.82912111838357" sparseCutoff="1.0000000000000000"/>
      <sparseX i="15" alpha="-3835.2790943200062" sparseCutoff="1.0000000000000000"/>
      <sparseX i="16" alpha="3954.7770708406124" sparseCutoff="1.0000000000000000"/>
      <sparseX i="17" alpha="2574.2286627217904" sparseCutoff="1.0000000000000000"/>
      <sparseX i="18" alpha="-2589.2504676149479" sparseCutoff="1.0000000000000000"/>
      <sparseX i="19" alpha="3445.4120273624444" sparseCutoff="1.0000000000000000"/>
      <sparseX i="20" alpha="3706.4509997887735" sparseCutoff="1.0000000000000000"/>
      <sparseX i="21" alpha="3408.3732408546166" sparseCutoff="1.0000000000000000"/>
      <sparseX i="22" alpha="2549.4199334636951" sparseCutoff="1.0000000000000000"/>
      <sparseX i="23" alpha="674.95019792564676" sparseCutoff="1.0000000000000000"/>
      <sparseX i="24" alpha="432.51775237432747" sparseCutoff="1.0000000000000000"/>
      <sparseX i="25" alpha="-2325.9030385322772" sparseCutoff="1.0000000000000000"/>
      <sparseX i="26" alpha="1388.3330505700276" sparseCutoff="1.0000000000000000"/>
      <sparseX i="27" alpha="-2933.0765810748480" sparseCutoff="1.0000000000000000"/>
      <sparseX i="28" alpha="21.982442877706003" sparseCutoff="1.0000000000000000"/>
      <sparseX i="29" alpha="326.62415240435547" sparseCutoff="1.0000000000000000"/>
      <sparseX i="30" alpha="2803.9906990671329" sparseCutoff="1.0000000000000000"/>
      <sparseX i="31" alpha="-614.11217859852297" sparseCutoff="1.0000000000000000"/>
      <sparseX i="32" alpha="793.73796340089041" sparseCutoff="1.0000000000000000"/>
      <sparseX i="33" alpha="-3184.6290237591443" sparseCutoff="1.0000000000000000"/>
      <sparseX i="34" alpha="-45.487335308678567" sparseCutoff="1.0000000000000000"/>
      <sparseX i="35" alpha="757.46578034934180" sparseCutoff="1.0000000000000000"/>
      <sparseX i="36" alpha="-1232.9717702545829" sparseCutoff="1.0000000000000000"/>
      <sparseX i="37" alpha="-1024.7417061702236" sparseCutoff="1.0000000000000000"/>
      <sparseX i="38" alpha="4328.3784068415598" sparseCutoff="1.0000000000000000"/>
      <sparseX i="39" alpha="-6434.4946033718015" sparseCutoff="1.0000000000000000"/>
      <sparseX i="40" alpha="-405.50949047689522" sparseCutoff="1.0000000000000000"/>
      <sparseX i="41" alpha="-508.09420958310869" sparseCutoff="1.0000000000000000"/>
      <sparseX i="42" alpha="1239.5956731516401" sparseCutoff="1.0000000000000000"/>
      <sparseX i="43" alpha="-2914.5927240302058" sparseCutoff="1.0000000000000000"/>
      <sparseX i="44" alpha="-2351.0771343128622" sparseCutoff="1.0000000000000000"/>
      <sparseX i="45" alpha="-2176.4668497721432" sparseCutoff="1.0000000000000000"/>
      <sparseX i="46" alpha="3279.3732510872310" sparseCutoff="1.0000000000000000"/>
      <sparseX i="47" alpha="566.65677956664365" sparseCutoff="1.0000000000000000"/>
      <sparseX i="48" alpha="2175.2229738391720" sparseCutoff="1.0000000000000000"/>
      <sparseX i="49" alpha="-1521.0039010709668" sparseCutoff="1.0000000000000000"/>
      <sparseX i="50" alpha="4.8024628040122241" sparseCutoff="1.0000000000000000"/>
      <sparseX i="51" alpha="-4526.7147482931696" sparseCutoff="1.0000000000000000"/>
      <sparseX i="52" alpha="-392.52300241127483" sparseCutoff="1.0000000000000000"/>
      <sparseX i="53" alpha="-3781.0855570268714" sparseCutoff="1.0000000000000000"/>
      <sparseX i="54" alpha="-1635.7478008138635" sparseCutoff="1.0000000000000000"/>
      <sparseX i="55" alpha="-6535.9271769091501" sparseCutoff="1.0000000000000000"/>
      <sparseX i="56" alpha="-2874.0486853859611" sparseCutoff="1.0000000000000000"/>
      <sparseX i="57" alpha="-2497.7948938793966" sparseCutoff="1.0000000000000000"/>
      <sparseX i="58" alpha="3341.8840159107995" sparseCutoff="1.0000000000000000"/>
      <sparseX i="59" alpha="-1143.4233937050658" sparseCutoff="1.0000000000000000"/>
      <sparseX i="60" alpha="1264.3066163166791" sparseCutoff="1.0000000000000000"/>
      <sparseX i="61" alpha="-4020.7573211580961" sparseCutoff="1.0000000000000000"/>
      <sparseX i="62" alpha="2643.9634977887285" sparseCutoff="1.0000000000000000"/>
      <sparseX i="63" alpha="-694.13148634875586" sparseCutoff="1.0000000000000000"/>
      <sparseX i="64" alpha="-3099.5824739803716" sparseCutoff="1.0000000000000000"/>
      <sparseX i="65" alpha="191.66726801702316" sparseCutoff="1.0000000000000000"/>
      <sparseX i="66" alpha="568.42340057827869" sparseCutoff="1.0000000000000000"/>
      <sparseX i="67" alpha="-5384.0963657489219" sparseCutoff="1.0000000000000000"/>
      <sparseX i="68" alpha="690.16517252013819" sparseCutoff="1.0000000000000000"/>
      <sparseX i="69" alpha="-2008.7878197497873" sparseCutoff="1.0000000000000000"/>
      <sparseX i="70" alpha="3251.2494921082571" sparseCutoff="1.0000000000000000"/>
      <sparseX i="71" alpha="-1696.8634863590073" sparseCutoff="1.0000000000000000"/>
      <sparseX i="72" alpha="-2593.3397243877507" sparseCutoff="1.0000000000000000"/>
      <sparseX i="73" alpha="643.27365910849494" sparseCutoff="1.0000000000000000"/>
      <sparseX i="74" alpha="2793.9105321309758" sparseCutoff="1.0000000000000000"/>
      <sparseX i="75" alpha="-2338.4230775412534" sparseCutoff="1.0000000000000000"/>
      <sparseX i="76" alpha="-5861.3690760314839" sparseCutoff="1.0000000000000000"/>
      <sparseX i="77" alpha="7479.6288239781379" sparseCutoff="1.0000000000000000"/>
      <sparseX i="78" alpha="5536.5943989472489" sparseCutoff="1.0000000000000000"/>
      <sparseX i="79" alpha="224.61880138978131" sparseCutoff="1.0000000000000000"/>
      <sparseX i="80" alpha="331.44436142737646" sparseCutoff="1.0000000000000000"/>
      <sparseX i="81" alpha="479.71661832471983" sparseCutoff="1.0000000000000000"/>
      <sparseX i="82" alpha="-4255.2712132928773" sparseCutoff="1.0000000000000000"/>
      <sparseX i="83" alpha="1541.9136711109986" sparseCutoff="1.0000000000000000"/>
      <sparseX i="84" alpha="3743.1718788342700" sparseCutoff="1.0000000000000000"/>
      <sparseX i="85" alpha="-669.35969644065949" sparseCutoff="1.0000000000000000"/>
      <sparseX i="86" alpha="6156.0767242323363" sparseCutoff="1.0000000000000000"/>
      <sparseX i="87" alpha="-1347.0515603648955" sparseCutoff="1.0000000000000000"/>
      <sparseX i="88" alpha="-133.60328201827326" sparseCutoff="1.0000000000000000"/>
      <sparseX i="89" alpha="-2165.0980775536214" sparseCutoff="1.0000000000000000"/>
      <sparseX i="90" alpha="-1011.8708994051316" sparseCutoff="1.0000000000000000"/>
      <sparseX i="91" alpha="998.69983610806491" sparseCutoff="1.0000000000000000"/>
      <sparseX i="92" alpha="131.84355594964350" sparseCutoff="1.0000000000000000"/>
      <sparseX i="93" alpha="-5093.1443156631049" sparseCutoff="1.0000000000000000"/>
      <sparseX i="94" alpha="1006.3302147236709" sparseCutoff="1.0000000000000000"/>
      <sparseX i="95" alpha="1975.5619349797814" sparseCutoff="1.0000000000000000"/>
      <sparseX i="96" alpha="-1218.2788245726665" sparseCutoff="1.0000000000000000"/>
      <sparseX i="97" alpha="-2230.6563711254989" sparseCutoff="1.0000000000000000"/>
      <sparseX i="98" alpha="30.282793838036930" sparseCutoff="1.0000000000000000"/>
      <sparseX i="99" alpha="-2084.2342067431237" sparseCutoff="1.0000000000000000"/>
      <sparseX i="100" alpha="430.17713421940385" sparseCutoff="1.0000000000000000"/>
      <sparseX i="101" alpha="-843.84312536834182" sparseCutoff="1.0000000000000000"/>
      <sparseX i="102" alpha="-1914.5843625646842" sparseCutoff="1.0000000000000000"/>
      <sparseX i="103" alpha="2023.3674947695126" sparseCutoff="1.0000000000000000"/>
      <sparseX i="104" alpha="-1959.7637290108503" sparseCutoff="1.0000000000000000"/>
      <sparseX i="105" alpha="428.68871853582391" sparseCutoff="1.0000000000000000"/>
      <sparseX i="106" alpha="-3394.3164715063958" sparseCutoff="1.0000000000000000"/>
      <sparseX i="107" alpha="925.68041259287202" sparseCutoff="1.0000000000000000"/>
      <sparseX i="108" alpha="-1088.8003614755530" sparseCutoff="1.0000000000000000"/>
      <sparseX i="109" alpha="-4355.1751469240962" sparseCutoff="1.0000000000000000"/>
      <sparseX i="110" alpha="-965.12124529347284" sparseCutoff="1.0000000000000000"/>
      <sparseX i="111" alpha="3306.9497841859520" sparseCutoff="1.0000000000000000"/>
      <sparseX i="112" alpha="-205.51080518669104" sparseCutoff="1.0000000000000000"/>
      <sparseX i="113" alpha="-3235.3433451633255" sparseCutoff="1.0000000000000000"/>
      <sparseX i="114" alpha="-491.60691777873802" sparseCutoff="1.0000000000000000"/>
      <sparseX i="115" alpha="-348.22246850579393" sparseCutoff="1.0000000000000000"/>
      <sparseX i="116" alpha="1546.1864199524432" sparseCutoff="1.0000000000000000"/>
      <sparseX i="117" alpha="4591.5555971373024" sparseCutoff="1.0000000000000000"/>
      <sparseX i="118" alpha="-2613.3202349898461" sparseCutoff="1.0000000000000000"/>
      <sparseX i="119" alpha="-2582.7328739244140" sparseCutoff="1.0000000000000000"/>
      <sparseX i="120" alpha="915.07564591879589" sparseCutoff="1.0000000000000000"/>
      <sparseX i="121" alpha="2155.2322394617622" sparseCutoff="1.0000000000000000"/>
      <sparseX i="122" alpha="-232.19133773540634" sparseCutoff="1.0000000000000000"/>
      <sparseX i="123" alpha="762.20528258740444" sparseCutoff="1.0000000000000000"/>
      <sparseX i="124" alpha="-7914.5891020129629" sparseCutoff="1.0000000000000000"/>
      <sparseX i="125" alpha="-1893.1890190408078" sparseCutoff="1.0000000000000000"/>
      <sparseX i="126" alpha="-2473.7313016899316" sparseCutoff="1.0000000000000000"/>
      <sparseX i="127" alpha="190.81677089143082" sparseCutoff="1.0000000000000000"/>
      <sparseX i="128" alpha="1221.3355874635117" sparseCutoff="1.0000000000000000"/>
      <sparseX i="129" alpha="943.76736349223449" sparseCutoff="1.0000000000000000"/>
      <sparseX i="130" alpha="1784.5732465470630" sparseCutoff="1.0000000000000000"/>
      <sparseX i="131" alpha="-2890.5446737123948" sparseCutoff="1.0000000000000000"/>
      <sparseX i="132" alpha="-3258.2816503904592" sparseCutoff="1.0000000000000000"/>
      <sparseX i="133" alpha="1790.8010095561597" sparseCutoff="1.0000000000000000"/>
      <sparseX i="134" alpha="-2358.1291141584288" sparseCutoff="1.0000000000000000"/>
      <sparseX i="135" alpha="1254.4799038543470" sparseCutoff="1.0000000000000000"/>
      <sparseX i="136" alpha="1189.2322214567971" sparseCutoff="1.0000000000000000"/>
      <sparseX i="137" alpha="-100.86520230864605" sparseCutoff="1.0000000000000000"/>
      <sparseX i="138" alpha="-299.41802021164364" sparseCutoff="1.0000000000000000"/>
      <sparseX i="139" alpha="-203.66980709686820" sparseCutoff="1.0000000000000000"/>
      <sparseX i="140" alpha="2303.6621661979430" sparseCutoff="1.0000000000000000"/>
      <sparseX i="141" alpha="1656.9826894148512" sparseCutoff="1.0000000000000000"/>
      <sparseX i="142" alpha="492.97338811651713" sparseCutoff="1.0000000000000000"/>
      <sparseX i="143" alpha="2991.0362619316038" sparseCutoff="1.0000000000000000"/>
      <sparseX i="144" alpha="390.43663816544921" sparseCutoff="1.0000000000000000"/>
      <sparseX i="145" alpha="824.01572236851177" sparseCutoff="1.0000000000000000"/>
      <sparseX i="146" alpha="2430.3225437243586" sparseCutoff="1.0000000000000000"/>
      <sparseX i="147" alpha="-3592.5507682249340" sparseCutoff="1.0000000000000000"/>
      <sparseX i="148" alpha="-1972.5625470670075" sparseCutoff="1.0000000000000000"/>
      <sparseX i="149" alpha="239.89070184421837" sparseCutoff="1.0000000000000000"/>
      <sparseX i="150" alpha="-87.460279516378890" sparseCutoff="1.0000000000000000"/>
      <sparseX i="151" alpha="17.320335251274500" sparseCutoff="1.0000000000000000"/>
      <sparseX i="152" alpha="-5070.2584415042948" sparseCutoff="1.0000000000000000"/>
      <sparseX i="153" alpha="597.09491583644751" sparseCutoff="1.0000000000000000"/>
      <sparseX i="154" alpha="3428.3856691969568" sparseCutoff="1.0000000000000000"/>
      <sparseX i="155" alpha="2084.2814013014963" sparseCutoff="1.0000000000000000"/>
      <sparseX i="156" alpha="-3118.7081535480856" sparseCutoff="1.0000000000000000"/>
      <sparseX i="157" alpha="4481.5289118990695" sparseCutoff="1.0000000000000000"/>
      <sparseX i="158" alpha="5263.2254180687632" sparseCutoff="1.0000000000000000"/>
      <sparseX i="159" alpha="5187.8533478438758" sparseCutoff="1.0000000000000000"/>
      <sparseX i="160" alpha="322.19605421197258" sparseCutoff="1.0000000000000000"/>
      <sparseX i="161" alpha="-381.27569941538735" sparseCutoff="1.0000000000000000"/>
      <sparseX i="162" alpha="419.87140308780073" sparseCutoff="1.0000000000000000"/>
      <sparseX i="163" alpha="-987.12071416800995" sparseCutoff="1.0000000000000000"/>
      <sparseX i="164" alpha="236.79353155797870" sparseCutoff="1.0000000000000000"/>
      <sparseX i="165" alpha="-183.29105865425299" sparseCutoff="1.0000000000000000"/>
      <sparseX i="166" alpha="2511.8131076018885" sparseCutoff="1.0000000000000000"/>
      <sparseX i="167" alpha="2551.8710739102007" sparseCutoff="1.0000000000000000"/>
      <sparseX i="168" alpha="-3890.5725130157821" sparseCutoff="1.0000000000000000"/>
      <sparseX i="169" alpha="1672.5728575172334" sparseCutoff="1.0000000000000000"/>
      <sparseX i="170" alpha="486.09206638964002" sparseCutoff="1.0000000000000000"/>
      <sparseX i="171" alpha="2330.9628788924224" sparseCutoff="1.0000000000000000"/>
      <sparseX i="172" alpha="-150.76118885858364" sparseCutoff="1.0000000000000000"/>
      <sparseX i="173" alpha="-1402.2276292626791" sparseCutoff="1.0000000000000000"/>
      <sparseX i="174" alpha="949.97693933047981" sparseCutoff="1.0000000000000000"/>
      <sparseX i="175" alpha="18.061390332362357" sparseCutoff="1.0000000000000000"/>
      <sparseX i="176" alpha="434.74558756991985" sparseCutoff="1.0000000000000000"/>
      <sparseX i="177" alpha="-468.54501341101508" sparseCutoff="1.0000000000000000"/>
      <sparseX i="178" alpha="642.47769277067414" sparseCutoff="1.0000000000000000"/>
      <sparseX i="179" alpha="-409.63779356632722" sparseCutoff="1.0000000000000000"/>
      <sparseX i="180" alpha="-3591.4051441567585" sparseCutoff="1.0000000000000000"/>
      <sparseX i="181" alpha="-872.29853191682821" sparseCutoff="1.0000000000000000"/>
      <sparseX i="182" alpha="269.33976094965783" sparseCutoff="1.0000000000000000"/>
      <sparseX i="183" alpha="-885.16855063002299" sparseCutoff="1.0000000000000000"/>
      <sparseX i="184" alpha="211.75612660412213" sparseCutoff="1.0000000000000000"/>
      <sparseX i="185" alpha="-4782.2209411882113" sparseCutoff="1.0000000000000000"/>
      <sparseX i="186" alpha="-49.963097716182340" sparseCutoff="1.0000000000000000"/>
      <sparseX i="187" alpha="-280.26318130094614" sparseCutoff="1.0000000000000000"/>
      <sparseX i="188" alpha="-185.79259675650709" sparseCutoff="1.0000000000000000"/>
      <sparseX i="189" alpha="-976.17884470890101" sparseCutoff="1.0000000000000000"/>
      <sparseX i="190" alpha="4101.2368838784669" sparseCutoff="1.0000000000000000"/>
      <sparseX i="191" alpha="18.873021403263376" sparseCutoff="1.0000000000000000"/>
      <sparseX i="192" alpha="6076.1190758271796" sparseCutoff="1.0000000000000000"/>
      <sparseX i="193" alpha="3827.0288302169042" sparseCutoff="1.0000000000000000"/>
      <sparseX i="194" alpha="-395.96616077931924" sparseCutoff="1.0000000000000000"/>
      <sparseX i="195" alpha="-3458.2143115926883" sparseCutoff="1.0000000000000000"/>
      <sparseX i="196" alpha="329.33412371184676" sparseCutoff="1.0000000000000000"/>
      <sparseX i="197" alpha="3530.1935073899767" sparseCutoff="1.0000000000000000"/>
      <sparseX i="198" alpha="-115.42275422989742" sparseCutoff="1.0000000000000000"/>
      <sparseX i="199" alpha="116.13077507673272" sparseCutoff="1.0000000000000000"/>
      <sparseX i="200" alpha="-66.346603336046101" sparseCutoff="1.0000000000000000"/>
      <sparseX i="201" alpha="3627.8128763501586" sparseCutoff="1.0000000000000000"/>
      <sparseX i="202" alpha="142.96001901172596" sparseCutoff="1.0000000000000000"/>
      <sparseX i="203" alpha="1089.4447463103636" sparseCutoff="1.0000000000000000"/>
      <sparseX i="204" alpha="6350.8139031779156" sparseCutoff="1.0000000000000000"/>
      <sparseX i="205" alpha="385.97682692908916" sparseCutoff="1.0000000000000000"/>
      <sparseX i="206" alpha="67.789040557634110" sparseCutoff="1.0000000000000000"/>
      <sparseX i="207" alpha="-1065.5046785523132" sparseCutoff="1.0000000000000000"/>
      <sparseX i="208" alpha="-1103.3151144014059" sparseCutoff="1.0000000000000000"/>
      <sparseX i="209" alpha="2133.9757342959178" sparseCutoff="1.0000000000000000"/>
      <sparseX i="210" alpha="-632.30308823896905" sparseCutoff="1.0000000000000000"/>
      <sparseX i="211" alpha="1691.8392665039460" sparseCutoff="1.0000000000000000"/>
      <sparseX i="212" alpha="147.56280860737712" sparseCutoff="1.0000000000000000"/>
      <sparseX i="213" alpha="235.19189905033332" sparseCutoff="1.0000000000000000"/>
      <sparseX i="214" alpha="-2338.9870783954925" sparseCutoff="1.0000000000000000"/>
      <sparseX i="215" alpha="365.65415261035537" sparseCutoff="1.0000000000000000"/>
      <sparseX i="216" alpha="281.82570646027546" sparseCutoff="1.0000000000000000"/>
      <sparseX i="217" alpha="-2408.7116140255671" sparseCutoff="1.0000000000000000"/>
      <sparseX i="218" alpha="-167.91676430716714" sparseCutoff="1.0000000000000000"/>
      <sparseX i="219" alpha="-3851.4174778854203" sparseCutoff="1.0000000000000000"/>
      <sparseX i="220" alpha="2183.8107350258024" sparseCutoff="1.0000000000000000"/>
      <sparseX i="221" alpha="1609.8944506078419" sparseCutoff="1.0000000000000000"/>
      <sparseX i="222" alpha="7334.5476654102913" sparseCutoff="1.0000000000000000"/>
      <sparseX i="223" alpha="-130.71426315549957" sparseCutoff="1.0000000000000000"/>
      <sparseX i="224" alpha="2652.7795850403359" sparseCutoff="1.0000000000000000"/>
      <sparseX i="225" alpha="-2373.6418699456622" sparseCutoff="1.0000000000000000"/>
      <sparseX i="226" alpha="-2698.3294745267344" sparseCutoff="1.0000000000000000"/>
      <sparseX i="227" alpha="243.58945119948950" sparseCutoff="1.0000000000000000"/>
      <sparseX i="228" alpha="-453.12638510515177" sparseCutoff="1.0000000000000000"/>
      <sparseX i="229" alpha="7055.3425819833974" sparseCutoff="1.0000000000000000"/>
      <sparseX i="230" alpha="1360.7760830430580" sparseCutoff="1.0000000000000000"/>
      <sparseX i="231" alpha="117.28962231457220" sparseCutoff="1.0000000000000000"/>
      <sparseX i="232" alpha="-926.93685187759854" sparseCutoff="1.0000000000000000"/>
      <sparseX i="233" alpha="-455.32674432153698" sparseCutoff="1.0000000000000000"/>
      <sparseX i="234" alpha="-815.40492011260574" sparseCutoff="1.0000000000000000"/>
      <sparseX i="235" alpha="1514.0683303718654" sparseCutoff="1.0000000000000000"/>
      <sparseX i="236" alpha="-857.99871919263251" sparseCutoff="1.0000000000000000"/>
      <sparseX i="237" alpha="-1440.6757856522297" sparseCutoff="1.0000000000000000"/>
      <sparseX i="238" alpha="18.709596888138964" sparseCutoff="1.0000000000000000"/>
      <sparseX i="239" alpha="-25.376025363593840" sparseCutoff="1.0000000000000000"/>
      <sparseX i="240" alpha="-2693.3886476603575" sparseCutoff="1.0000000000000000"/>
      <sparseX i="241" alpha="784.93458138737913" sparseCutoff="1.0000000000000000"/>
      <sparseX i="242" alpha="53.888797666781294" sparseCutoff="1.0000000000000000"/>
      <sparseX i="243" alpha="-43.571458522157073" sparseCutoff="1.0000000000000000"/>
      <sparseX i="244" alpha="402.06621918072062" sparseCutoff="1.0000000000000000"/>
      <sparseX i="245" alpha="-145.26411366450014" sparseCutoff="1.0000000000000000"/>
      <sparseX i="246" alpha="3458.4265360215245" sparseCutoff="1.0000000000000000"/>
      <sparseX i="247" alpha="-198.22302840747059" sparseCutoff="1.0000000000000000"/>
      <sparseX i="248" alpha="35.895775269634541" sparseCutoff="1.0000000000000000"/>
      <sparseX i="249" alpha="-272.98033831536321" sparseCutoff="1.0000000000000000"/>
      <sparseX i="250" alpha="1129.7232638809517" sparseCutoff="1.0000000000000000"/>
      <sparseX i="251" alpha="2674.9709958107642" sparseCutoff="1.0000000000000000"/>
      <sparseX i="252" alpha="2541.0769557137987" sparseCutoff="1.0000000000000000"/>
      <sparseX i="253" alpha="-2371.6763238521985" sparseCutoff="1.0000000000000000"/>
      <sparseX i="254" alpha="1039.1734419087386" sparseCutoff="1.0000000000000000"/>
      <sparseX i="255" alpha="89.017993931259113" sparseCutoff="1.0000000000000000"/>
      <sparseX i="256" alpha="-50.368109508344837" sparseCutoff="1.0000000000000000"/>
      <sparseX i="257" alpha="-1007.1892062380305" sparseCutoff="1.0000000000000000"/>
      <sparseX i="258" alpha="437.48882932739195" sparseCutoff="1.0000000000000000"/>
      <sparseX i="259" alpha="-755.63591048395256" sparseCutoff="1.0000000000000000"/>
      <sparseX i="260" alpha="193.82610140662337" sparseCutoff="1.0000000000000000"/>
      <sparseX i="261" alpha="53.891577173714190" sparseCutoff="1.0000000000000000"/>
      <sparseX i="262" alpha="312.86593547687988" sparseCutoff="1.0000000000000000"/>
      <sparseX i="263" alpha="6111.9717048117282" sparseCutoff="1.0000000000000000"/>
      <sparseX i="264" alpha="-206.58697617487110" sparseCutoff="1.0000000000000000"/>
      <sparseX i="265" alpha="1744.4864352404227" sparseCutoff="1.0000000000000000"/>
      <sparseX i="266" alpha="-235.48340445563738" sparseCutoff="1.0000000000000000"/>
      <sparseX i="267" alpha="1325.8138634229915" sparseCutoff="1.0000000000000000"/>
      <sparseX i="268" alpha="640.49809997964655" sparseCutoff="1.0000000000000000"/>
      <sparseX i="269" alpha="2022.0688543251608" sparseCutoff="1.0000000000000000"/>
      <sparseX i="270" alpha="1962.1561461399865" sparseCutoff="1.0000000000000000"/>
      <sparseX i="271" alpha="911.74581094238931" sparseCutoff="1.0000000000000000"/>
      <sparseX i="272" alpha="206.35510518477307" sparseCutoff="1.0000000000000000"/>
      <sparseX i="273" alpha="189.60113764115633" sparseCutoff="1.0000000000000000"/>
      <sparseX i="274" alpha="121.63685118348668" sparseCutoff="1.0000000000000000"/>
      <sparseX i="275" alpha="846.96179778928581" sparseCutoff="1.0000000000000000"/>
      <sparseX i="276" alpha="3492.9699022113782" sparseCutoff="1.0000000000000000"/>
      <sparseX i="277" alpha="-523.56714708385164" sparseCutoff="1.0000000000000000"/>
      <sparseX i="278" alpha="-113.78580368141596" sparseCutoff="1.0000000000000000"/>
      <sparseX i="279" alpha="-1293.3484179301079" sparseCutoff="1.0000000000000000"/>
      <sparseX i="280" alpha="-279.14600194927226" sparseCutoff="1.0000000000000000"/>
      <sparseX i="281" alpha="-1382.1513306381225" sparseCutoff="1.0000000000000000"/>
      <sparseX i="282" alpha="-2879.9687069827842" sparseCutoff="1.0000000000000000"/>
      <sparseX i="283" alpha="-788.85202582781460" sparseCutoff="1.0000000000000000"/>
      <sparseX i="284" alpha="-136.83238988838002" sparseCutoff="1.0000000000000000"/>
      <sparseX i="285" alpha="77.202366263358996" sparseCutoff="1.0000000000000000"/>
      <sparseX i="286" alpha="81.534178963370977" sparseCutoff="1.0000000000000000"/>
      <sparseX i="287" alpha="13.803677436231373" sparseCutoff="1.0000000000000000"/>
      <sparseX i="288" alpha="-146.62288393245814" sparseCutoff="1.0000000000000000"/>
      <sparseX i="289" alpha="-3.4521856511190547" sparseCutoff="1.0000000000000000"/>
      <sparseX i="290" alpha="301.79593126841064" sparseCutoff="1.0000000000000000"/>
      <sparseX i="291" alpha="-8.8347659073545497" sparseCutoff="1.0000000000000000"/>
      <sparseX i="292" alpha="3344.6134623795242" sparseCutoff="1.0000000000000000"/>
      <sparseX i="293" alpha="-510.96841123248913" sparseCutoff="1.0000000000000000"/>
      <sparseX i="294" alpha="-1321.7789722685609" sparseCutoff="1.0000000000000000"/>
      <sparseX i="295" alpha="-1044.9154123513445" sparseCutoff="1.0000000000000000"/>
      <sparseX i="296" alpha="551.30965681419468" sparseCutoff="1.0000000000000000"/>
      <sparseX i="297" alpha="690.55827090148262" sparseCutoff="1.0000000000000000"/>
      <sparseX i="298" alpha="243.13303273094269" sparseCutoff="1.0000000000000000"/>
      <sparseX i="299" alpha="250.61657871943339" sparseCutoff="1.0000000000000000"/>
      <sparseX i="300" alpha="-2378.6863076174150" sparseCutoff="1.0000000000000000"/>
      <sparseX i="301" alpha="-1270.2715219566323" sparseCutoff="1.0000000000000000"/>
      <sparseX i="302" alpha="2458.4411748795083" sparseCutoff="1.0000000000000000"/>
      <sparseX i="303" alpha="558.13939748036694" sparseCutoff="1.0000000000000000"/>
      <sparseX i="304" alpha="-1952.8271610287470" sparseCutoff="1.0000000000000000"/>
      <sparseX i="305" alpha="43.306638377198048" sparseCutoff="1.0000000000000000"/>
      <sparseX i="306" alpha="438.66835422677042" sparseCutoff="1.0000000000000000"/>
      <sparseX i="307" alpha="-17.457609642018614" sparseCutoff="1.0000000000000000"/>
      <sparseX i="308" alpha="4552.0470549417159" sparseCutoff="1.0000000000000000"/>
      <sparseX i="309" alpha="-2995.1778951062965" sparseCutoff="1.0000000000000000"/>
      <sparseX i="310" alpha="-175.78707075815291" sparseCutoff="1.0000000000000000"/>
      <sparseX i="311" alpha="2047.7520171819622" sparseCutoff="1.0000000000000000"/>
      <sparseX i="312" alpha="-491.31216347622194" sparseCutoff="1.0000000000000000"/>
      <sparseX i="313" alpha="-2230.6605397034045" sparseCutoff="1.0000000000000000"/>
      <sparseX i="314" alpha="1879.1281711726747" sparseCutoff="1.0000000000000000"/>
      <sparseX i="315" alpha="-92.419073329790720" sparseCutoff="1.0000000000000000"/>
      <sparseX i="316" alpha="1178.7063148819543" sparseCutoff="1.0000000000000000"/>
      <sparseX i="317" alpha="-140.62118208830685" sparseCutoff="1.0000000000000000"/>
      <sparseX i="318" alpha="-428.16409354636460" sparseCutoff="1.0000000000000000"/>
      <sparseX i="319" alpha="111.82936474305905" sparseCutoff="1.0000000000000000"/>
      <sparseX i="320" alpha="-112.69120509161162" sparseCutoff="1.0000000000000000"/>
      <sparseX i="321" alpha="-3858.0257115359527" sparseCutoff="1.0000000000000000"/>
      <sparseX i="322" alpha="477.57285019722610" sparseCutoff="1.0000000000000000"/>
      <sparseX i="323" alpha="-3988.8508360609176" sparseCutoff="1.0000000000000000"/>
      <sparseX i="324" alpha="257.30290026391719" sparseCutoff="1.0000000000000000"/>
      <sparseX i="325" alpha="584.61605812291134" sparseCutoff="1.0000000000000000"/>
      <sparseX i="326" alpha="-280.17296425906483" sparseCutoff="1.0000000000000000"/>
      <sparseX i="327" alpha="625.83080128778374" sparseCutoff="1.0000000000000000"/>
      <sparseX i="328" alpha="793.31708540917248" sparseCutoff="1.0000000000000000"/>
      <sparseX i="329" alpha="-256.45293567281328" sparseCutoff="1.0000000000000000"/>
      <sparseX i="330" alpha="-1027.6292922435257" sparseCutoff="1.0000000000000000"/>
      <sparseX i="331" alpha="1969.0015965443736" sparseCutoff="1.0000000000000000"/>
      <sparseX i="332" alpha="-2023.7271098198639" sparseCutoff="1.0000000000000000"/>
      <sparseX i="333" alpha="-3597.1353980597801" sparseCutoff="1.0000000000000000"/>
      <sparseX i="334" alpha="1674.3016148737620" sparseCutoff="1.0000000000000000"/>
      <sparseX i="335" alpha="591.11125497165187" sparseCutoff="1.0000000000000000"/>
      <sparseX i="336" alpha="-4050.4409169131645" sparseCutoff="1.0000000000000000"/>
      <sparseX i="337" alpha="-732.92627134484053" sparseCutoff="1.0000000000000000"/>
      <sparseX i="338" alpha="-4325.8982810854550" sparseCutoff="1.0000000000000000"/>
      <sparseX i="339" alpha="-5625.6397127554665" sparseCutoff="1.0000000000000000"/>
      <sparseX i="340" alpha="-654.55651522620519" sparseCutoff="1.0000000000000000"/>
      <sparseX i="341" alpha="2855.0540819071289" sparseCutoff="1.0000000000000000"/>
      <sparseX i="342" alpha="-1039.7182408446690" sparseCutoff="1.0000000000000000"/>
      <sparseX i="343" alpha="-10.961695016161901" sparseCutoff="1.0000000000000000"/>
      <sparseX i="344" alpha="2267.0233454343152" sparseCutoff="1.0000000000000000"/>
      <sparseX i="345" alpha="-3711.0395218846966" sparseCutoff="1.0000000000000000"/>
      <sparseX i="346" alpha="-1235.2583227665898" sparseCutoff="1.0000000000000000"/>
      <sparseX i="347" alpha="-4198.1679875758518" sparseCutoff="1.0000000000000000"/>
      <sparseX i="348" alpha="-2967.7353286614452" sparseCutoff="1.0000000000000000"/>
      <sparseX i="349" alpha="-2596.6775186948512" sparseCutoff="1.0000000000000000"/>
      <sparseX i="350" alpha="4524.6615635083581" sparseCutoff="1.0000000000000000"/>
      <sparseX i="351" alpha="-622.18865913036404" sparseCutoff="1.0000000000000000"/>
      <sparseX i="352" alpha="2069.6058083595863" sparseCutoff="1.0000000000000000"/>
      <sparseX i="353" alpha="-965.88818143594278" sparseCutoff="1.0000000000000000"/>
      <sparseX i="354" alpha="1802.9034652550731" sparseCutoff="1.0000000000000000"/>
      <sparseX i="355" alpha="-597.02970049657097" sparseCutoff="1.0000000000000000"/>
      <sparseX i="356" alpha="-2314.2339336097707" sparseCutoff="1.0000000000000000"/>
      <sparseX i="357" alpha="-5910.6634593257622" sparseCutoff="1.0000000000000000"/>
      <sparseX i="358" alpha="-541.44407865640187" sparseCutoff="1.0000000000000000"/>
      <sparseX i="359" alpha="-3210.3594565541648" sparseCutoff="1.0000000000000000"/>
      <sparseX i="360" alpha="3324.7103179272926" sparseCutoff="1.0000000000000000"/>
      <sparseX i="361" alpha="-1736.8482593492370" sparseCutoff="1.0000000000000000"/>
      <sparseX i="362" alpha="-3706.8260084751278" sparseCutoff="1.0000000000000000"/>
      <sparseX i="363" alpha="3820.5214836133637" sparseCutoff="1.0000000000000000"/>
      <sparseX i="364" alpha="-9.5268979612882454" sparseCutoff="1.0000000000000000"/>
      <sparseX i="365" alpha="-3860.7811803843379" sparseCutoff="1.0000000000000000"/>
      <sparseX i="366" alpha="-815.58950328250705" sparseCutoff="1.0000000000000000"/>
      <sparseX i="367" alpha="1478.2631453552458" sparseCutoff="1.0000000000000000"/>
      <sparseX i="368" alpha="44.427150709886689" sparseCutoff="1.0000000000000000"/>
      <sparseX i="369" alpha="-4986.9075027008539" sparseCutoff="1.0000000000000000"/>
      <sparseX i="370" alpha="761.28720231654427" sparseCutoff="1.0000000000000000"/>
      <sparseX i="371" alpha="-418.40006118567220" sparseCutoff="1.0000000000000000"/>
      <sparseX i="372" alpha="3864.7699797857294" sparseCutoff="1.0000000000000000"/>
      <sparseX i="373" alpha="2733.7047146025006" sparseCutoff="1.0000000000000000"/>
      <sparseX i="374" alpha="-2400.5055629242970" sparseCutoff="1.0000000000000000"/>
      <sparseX i="375" alpha="-3852.6145178048232" sparseCutoff="1.0000000000000000"/>
      <sparseX i="376" alpha="-273.08426877522101" sparseCutoff="1.0000000000000000"/>
      <sparseX i="377" alpha="644.30363879982065" sparseCutoff="1.0000000000000000"/>
      <sparseX i="378" alpha="2664.7494669149105" sparseCutoff="1.0000000000000000"/>
      <sparseX i="379" alpha="3853.8532839272993" sparseCutoff="1.0000000000000000"/>
      <sparseX i="380" alpha="-157.75170671973652" sparseCutoff="1.0000000000000000"/>
      <sparseX i="381" alpha="1609.0198179322131" sparseCutoff="1.0000000000000000"/>
      <sparseX i="382" alpha="2360.6897280254102" sparseCutoff="1.0000000000000000"/>
      <sparseX i="383" alpha="633.90990834951515" sparseCutoff="1.0000000000000000"/>
      <sparseX i="384" alpha="3082.4256741949612" sparseCutoff="1.0000000000000000"/>
      <sparseX i="385" alpha="-1047.2642964339768" sparseCutoff="1.0000000000000000"/>
      <sparseX i="386" alpha="2634.3313780465487" sparseCutoff="1.0000000000000000"/>
      <sparseX i="387" alpha="-75.066416482670803" sparseCutoff="1.0000000000000000"/>
      <sparseX i="388" alpha="1641.9828159026877" sparseCutoff="1.0000000000000000"/>
      <sparseX i="389" alpha="-7391.4648937705433" sparseCutoff="1.0000000000000000"/>
      <sparseX i="390" alpha="-2639.3089886848184" sparseCutoff="1.0000000000000000"/>
      <sparseX i="391" alpha="395.03773972382010" sparseCutoff="1.0000000000000000"/>
      <sparseX i="392" alpha="4399.6873675147044" sparseCutoff="1.0000000000000000"/>
      <sparseX i="393" alpha="-1547.6125015749351" sparseCutoff="1.0000000000000000"/>
      <sparseX i="394" alpha="1143.3355033851190" sparseCutoff="1.0000000000000000"/>
      <sparseX i="395" alpha="4122.5475123784754" sparseCutoff="1.0000000000000000"/>
      <sparseX i="396" alpha="-2368.1743461010233" sparseCutoff="1.0000000000000000"/>
      <sparseX i="397" alpha="315.91300038571268" sparseCutoff="1.0000000000000000"/>
      <sparseX i="398" alpha="768.16069087552773" sparseCutoff="1.0000000000000000"/>
      <sparseX i="399" alpha="4438.8303983733067" sparseCutoff="1.0000000000000000"/>
      <sparseX i="400" alpha="1017.8706742948611" sparseCutoff="1.0000000000000000"/>
      <sparseX i="401" alpha="-1105.9124024287194" sparseCutoff="1.0000000000000000"/>
      <sparseX i="402" alpha="1980.3917403695375" sparseCutoff="1.0000000000000000"/>
      <sparseX i="403" alpha="941.91666085655970" sparseCutoff="1.0000000000000000"/>
      <sparseX i="404" alpha="-534.21606514264386" sparseCutoff="1.0000000000000000"/>
      <sparseX i="405" alpha="1966.8305997725379" sparseCutoff="1.0000000000000000"/>
      <sparseX i="406" alpha="-252.00705439221878" sparseCutoff="1.0000000000000000"/>
      <sparseX i="407" alpha="1461.8836598144383" sparseCutoff="1.0000000000000000"/>
      <sparseX i="408" alpha="-1017.0261367361913" sparseCutoff="1.0000000000000000"/>
      <sparseX i="409" alpha="-3209.3218242861813" sparseCutoff="1.0000000000000000"/>
      <sparseX i="410" alpha="-3367.6496085811564" sparseCutoff="1.0000000000000000"/>
      <sparseX i="411" alpha="1963.2957205523219" sparseCutoff="1.0000000000000000"/>
      <sparseX i="412" alpha="5974.1214058368087" sparseCutoff="1.0000000000000000"/>
      <sparseX i="413" alpha="-7463.8933738255573" sparseCutoff="1.0000000000000000"/>
      <sparseX i="414" alpha="-5404.2052882558964" sparseCutoff="1.0000000000000000"/>
      <sparseX i="415" alpha="-365.92059171423830" sparseCutoff="1.0000000000000000"/>
      <sparseX i="416" alpha="-352.05302907758926" sparseCutoff="1.0000000000000000"/>
      <sparseX i="417" alpha="-2644.7801386494189" sparseCutoff="1.0000000000000000"/>
      <sparseX i="418" alpha="-3725.7244439971341" sparseCutoff="1.0000000000000000"/>
      <sparseX i="419" alpha="425.60984129098773" sparseCutoff="1.0000000000000000"/>
      <sparseX i="420" alpha="-5881.4204876188405" sparseCutoff="1.0000000000000000"/>
      <sparseX i="421" alpha="1275.4708879131517" sparseCutoff="1.0000000000000000"/>
      <sparseX i="422" alpha="24.189806743189585" sparseCutoff="1.0000000000000000"/>
      <sparseX i="423" alpha="2773.4390403617972" sparseCutoff="1.0000000000000000"/>
      <sparseX i="424" alpha="744.86456514092617" sparseCutoff="1.0000000000000000"/>
      <sparseX i="425" alpha="-2448.8272765854904" sparseCutoff="1.0000000000000000"/>
      <sparseX i="426" alpha="4121.3855110555896" sparseCutoff="1.0000000000000000"/>
      <sparseX i="427" alpha="-426.48300724425314" sparseCutoff="1.0000000000000000"/>
      <sparseX i="428" alpha="-1238.1588839512406" sparseCutoff="1.0000000000000000"/>
      <sparseX i="429" alpha="-6292.6003212857049" sparseCutoff="1.0000000000000000"/>
      <sparseX i="430" alpha="1575.1731457361939" sparseCutoff="1.0000000000000000"/>
      <sparseX i="431" alpha="2607.3729575625584" sparseCutoff="1.0000000000000000"/>
      <sparseX i="432" alpha="1005.4526754934643" sparseCutoff="1.0000000000000000"/>
      <sparseX i="433" alpha="3642.8514344512514" sparseCutoff="1.0000000000000000"/>
      <sparseX i="434" alpha="278.37006915673038" sparseCutoff="1.0000000000000000"/>
      <sparseX i="435" alpha="-7.6006428320990880" sparseCutoff="1.0000000000000000"/>
      <sparseX i="436" alpha="-2692.2554770042984" sparseCutoff="1.0000000000000000"/>
      <sparseX i="437" alpha="-749.86662989077081" sparseCutoff="1.0000000000000000"/>
      <sparseX i="438" alpha="864.31201743813517" sparseCutoff="1.0000000000000000"/>
      <sparseX i="439" alpha="88.096315504110152" sparseCutoff="1.0000000000000000"/>
      <sparseX i="440" alpha="4572.1464068438154" sparseCutoff="1.0000000000000000"/>
      <sparseX i="441" alpha="983.82903415883106" sparseCutoff="1.0000000000000000"/>
      <sparseX i="442" alpha="-3321.7319952591420" sparseCutoff="1.0000000000000000"/>
      <sparseX i="443" alpha="3676.1795537448884" sparseCutoff="1.0000000000000000"/>
      <sparseX i="444" alpha="8.0990851755047188" sparseCutoff="1.0000000000000000"/>
      <sparseX i="445" alpha="488.49522929885757" sparseCutoff="1.0000000000000000"/>
      <sparseX i="446" alpha="-1907.7356249392938" sparseCutoff="1.0000000000000000"/>
      <sparseX i="447" alpha="484.28440933346889" sparseCutoff="1.0000000000000000"/>
      <sparseX i="448" alpha="-474.09505355984970" sparseCutoff="1.0000000000000000"/>
      <sparseX i="449" alpha="-871.46477827782905" sparseCutoff="1.0000000000000000"/>
      <sparseX i="450" alpha="-4619.9698490009205" sparseCutoff="1.0000000000000000"/>
      <sparseX i="451" alpha="-190.86349183464208" sparseCutoff="1.0000000000000000"/>
      <sparseX i="452" alpha="2944.1631249881061" sparseCutoff="1.0000000000000000"/>
      <sparseX i="453" alpha="2121.7309996471818" sparseCutoff="1.0000000000000000"/>
      <sparseX i="454" alpha="-167.50501989517170" sparseCutoff="1.0000000000000000"/>
      <sparseX i="455" alpha="-3083.0306031250461" sparseCutoff="1.0000000000000000"/>
      <sparseX i="456" alpha="1623.8364905565534" sparseCutoff="1.0000000000000000"/>
      <sparseX i="457" alpha="2957.2918389111092" sparseCutoff="1.0000000000000000"/>
      <sparseX i="458" alpha="7713.5244837492210" sparseCutoff="1.0000000000000000"/>
      <sparseX i="459" alpha="465.20384992671859" sparseCutoff="1.0000000000000000"/>
      <sparseX i="460" alpha="2050.9963477774413" sparseCutoff="1.0000000000000000"/>
      <sparseX i="461" alpha="34.862261730160348" sparseCutoff="1.0000000000000000"/>
      <sparseX i="462" alpha="-345.08488100005150" sparseCutoff="1.0000000000000000"/>
      <sparseX i="463" alpha="-787.72651860282042" sparseCutoff="1.0000000000000000"/>
      <sparseX i="464" alpha="-1860.3321573041478" sparseCutoff="1.0000000000000000"/>
      <sparseX i="465" alpha="2964.9185659603363" sparseCutoff="1.0000000000000000"/>
      <sparseX i="466" alpha="2703.0839282471989" sparseCutoff="1.0000000000000000"/>
      <sparseX i="467" alpha="-1443.3876481478753" sparseCutoff="1.0000000000000000"/>
      <sparseX i="468" alpha="556.89112942110273" sparseCutoff="1.0000000000000000"/>
      <sparseX i="469" alpha="-168.92748735670298" sparseCutoff="1.0000000000000000"/>
      <sparseX i="470" alpha="-540.48592247375939" sparseCutoff="1.0000000000000000"/>
      <sparseX i="471" alpha="-1321.8176253555748" sparseCutoff="1.0000000000000000"/>
      <sparseX i="472" alpha="-100.08822409777228" sparseCutoff="1.0000000000000000"/>
      <sparseX i="473" alpha="426.36117746103048" sparseCutoff="1.0000000000000000"/>
      <sparseX i="474" alpha="-2246.0829782244605" sparseCutoff="1.0000000000000000"/>
      <sparseX i="475" alpha="-857.69776713399835" sparseCutoff="1.0000000000000000"/>
      <sparseX i="476" alpha="268.83365839530029" sparseCutoff="1.0000000000000000"/>
      <sparseX i="477" alpha="-429.66267129548976" sparseCutoff="1.0000000000000000"/>
      <sparseX i="478" alpha="-4698.5184148742401" sparseCutoff="1.0000000000000000"/>
      <sparseX i="479" alpha="2858.9087302922594" sparseCutoff="1.0000000000000000"/>
      <sparseX i="480" alpha="-677.03419733655926" sparseCutoff="1.0000000000000000"/>
      <sparseX i="481" alpha="-770.82571291091961" sparseCutoff="1.0000000000000000"/>
      <sparseX i="482" alpha="252.51022166541267" sparseCutoff="1.0000000000000000"/>
      <sparseX i="483" alpha="2238.7202537190251" sparseCutoff="1.0000000000000000"/>
      <sparseX i="484" alpha="-2918.9850056423074" sparseCutoff="1.0000000000000000"/>
      <sparseX i="485" alpha="4429.5791268181811" sparseCutoff="1.0000000000000000"/>
      <sparseX i="486" alpha="-3878.0320953360069" sparseCutoff="1.0000000000000000"/>
      <sparseX i="487" alpha="-2046.2929159573937" sparseCutoff="1.0000000000000000"/>
      <sparseX i="488" alpha="3481.4668085726375" sparseCutoff="1.0000000000000000"/>
      <sparseX i="489" alpha="-4315.7534235210942" sparseCutoff="1.0000000000000000"/>
      <sparseX i="490" alpha="-4724.3623821261426" sparseCutoff="1.0000000000000000"/>
      <sparseX i="491" alpha="-186.82586419184099" sparseCutoff="1.0000000000000000"/>
      <sparseX i="492" alpha="-319.12035470435796" sparseCutoff="1.0000000000000000"/>
      <sparseX i="493" alpha="4623.9725097883365" sparseCutoff="1.0000000000000000"/>
      <sparseX i="494" alpha="1623.4664584963596" sparseCutoff="1.0000000000000000"/>
      <sparseX i="495" alpha="-647.43277271524960" sparseCutoff="1.0000000000000000"/>
      <sparseX i="496" alpha="330.52038645462949" sparseCutoff="1.0000000000000000"/>
      <sparseX i="497" alpha="-3522.8789621371525" sparseCutoff="1.0000000000000000"/>
      <sparseX i="498" alpha="-2557.6694864341443" sparseCutoff="1.0000000000000000"/>
      <sparseX i="499" alpha="-1011.5195855663746" sparseCutoff="1.0000000000000000"/>
      <sparseX i="500" alpha="4684.1578499703883" sparseCutoff="1.0000000000000000"/>
    </gpCoordinates>
  </gpSparse>
  <command_line><![CDATA[ at_file=train.xyz gp_file=GAP.xml energy_parameter_name=QM_energy force_parameter_name=QM_forces virial_parameter_name=QM_virial do_copy_at_file=F sparse_separate_file=T default_sigma={ 0.001 0.1 0.05 0.0 } e0_method=average e0=Si:-160.73263835370375 gap={ distance_Nb order=2 cutoff=10.0 covariance_type=ARD_SE theta_uniform=0.5 n_sparse=30 delta=1.0 sparse_method=uniform compact_clusters=T : soap l_max=4 n_max=12 atom_sigma=0.5 zeta=4 cutoff=5.0 cutoff_transition_width=1.0 central_weight=1.0 n_sparse=500 delta=0.1 f0=0.0 covariance_type=dot_product sparse_method=cur_points } sparse_jitter = 1.0e-8]]></command_line>
</GAP_params>
</GAP_2023_6_27_60_19_18_40_315>
