<GAP_2023_3_13_0_17_11_1_858>
<Potential label="GAP_2023_3_13_0_17_11_1_858" init_args="IP GAP label=GAP_2023_3_13_0_17_11_1_858"/>
<GAP_params label="GAP_2023_3_13_0_17_11_1_858" gap_version="1657795613">
  <GAP_data do_core="F">
    <e0 Z="1" value=".00000000000000000E+000"/>
    <e0 Z="2" value=".00000000000000000E+000"/>
    <e0 Z="3" value=".00000000000000000E+000"/>
    <e0 Z="4" value=".00000000000000000E+000"/>
    <e0 Z="5" value=".00000000000000000E+000"/>
    <e0 Z="6" value=".00000000000000000E+000"/>
    <e0 Z="7" value=".00000000000000000E+000"/>
    <e0 Z="8" value="-303.44404461697087"/>
    <e0 Z="9" value=".00000000000000000E+000"/>
    <e0 Z="10" value=".00000000000000000E+000"/>
    <e0 Z="11" value=".00000000000000000E+000"/>
    <e0 Z="12" value=".00000000000000000E+000"/>
    <e0 Z="13" value="-303.44404461697087"/>
    <e0 Z="14" value=".00000000000000000E+000"/>
    <e0 Z="15" value=".00000000000000000E+000"/>
    <e0 Z="16" value=".00000000000000000E+000"/>
    <e0 Z="17" value=".00000000000000000E+000"/>
    <e0 Z="18" value=".00000000000000000E+000"/>
    <e0 Z="19" value=".00000000000000000E+000"/>
    <e0 Z="20" value=".00000000000000000E+000"/>
    <e0 Z="21" value=".00000000000000000E+000"/>
    <e0 Z="22" value=".00000000000000000E+000"/>
    <e0 Z="23" value=".00000000000000000E+000"/>
    <e0 Z="24" value=".00000000000000000E+000"/>
    <e0 Z="25" value=".00000000000000000E+000"/>
    <e0 Z="26" value=".00000000000000000E+000"/>
    <e0 Z="27" value=".00000000000000000E+000"/>
    <e0 Z="28" value=".00000000000000000E+000"/>
    <e0 Z="29" value=".00000000000000000E+000"/>
    <e0 Z="30" value=".00000000000000000E+000"/>
    <e0 Z="31" value=".00000000000000000E+000"/>
    <e0 Z="32" value=".00000000000000000E+000"/>
    <e0 Z="33" value=".00000000000000000E+000"/>
    <e0 Z="34" value=".00000000000000000E+000"/>
    <e0 Z="35" value=".00000000000000000E+000"/>
    <e0 Z="36" value=".00000000000000000E+000"/>
    <e0 Z="37" value=".00000000000000000E+000"/>
    <e0 Z="38" value=".00000000000000000E+000"/>
    <e0 Z="39" value=".00000000000000000E+000"/>
    <e0 Z="40" value=".00000000000000000E+000"/>
    <e0 Z="41" value=".00000000000000000E+000"/>
    <e0 Z="42" value=".00000000000000000E+000"/>
    <e0 Z="43" value=".00000000000000000E+000"/>
    <e0 Z="44" value=".00000000000000000E+000"/>
    <e0 Z="45" value=".00000000000000000E+000"/>
    <e0 Z="46" value=".00000000000000000E+000"/>
    <e0 Z="47" value=".00000000000000000E+000"/>
    <e0 Z="48" value=".00000000000000000E+000"/>
    <e0 Z="49" value=".00000000000000000E+000"/>
    <e0 Z="50" value=".00000000000000000E+000"/>
    <e0 Z="51" value=".00000000000000000E+000"/>
    <e0 Z="52" value=".00000000000000000E+000"/>
    <e0 Z="53" value=".00000000000000000E+000"/>
    <e0 Z="54" value=".00000000000000000E+000"/>
    <e0 Z="55" value=".00000000000000000E+000"/>
    <e0 Z="56" value=".00000000000000000E+000"/>
    <e0 Z="57" value=".00000000000000000E+000"/>
    <e0 Z="58" value=".00000000000000000E+000"/>
    <e0 Z="59" value=".00000000000000000E+000"/>
    <e0 Z="60" value=".00000000000000000E+000"/>
    <e0 Z="61" value=".00000000000000000E+000"/>
    <e0 Z="62" value=".00000000000000000E+000"/>
    <e0 Z="63" value=".00000000000000000E+000"/>
    <e0 Z="64" value=".00000000000000000E+000"/>
    <e0 Z="65" value=".00000000000000000E+000"/>
    <e0 Z="66" value=".00000000000000000E+000"/>
    <e0 Z="67" value=".00000000000000000E+000"/>
    <e0 Z="68" value=".00000000000000000E+000"/>
    <e0 Z="69" value=".00000000000000000E+000"/>
    <e0 Z="70" value=".00000000000000000E+000"/>
    <e0 Z="71" value=".00000000000000000E+000"/>
    <e0 Z="72" value=".00000000000000000E+000"/>
    <e0 Z="73" value=".00000000000000000E+000"/>
    <e0 Z="74" value=".00000000000000000E+000"/>
    <e0 Z="75" value=".00000000000000000E+000"/>
    <e0 Z="76" value=".00000000000000000E+000"/>
    <e0 Z="77" value=".00000000000000000E+000"/>
    <e0 Z="78" value=".00000000000000000E+000"/>
    <e0 Z="79" value=".00000000000000000E+000"/>
    <e0 Z="80" value=".00000000000000000E+000"/>
    <e0 Z="81" value=".00000000000000000E+000"/>
    <e0 Z="82" value=".00000000000000000E+000"/>
    <e0 Z="83" value=".00000000000000000E+000"/>
    <e0 Z="84" value=".00000000000000000E+000"/>
    <e0 Z="85" value=".00000000000000000E+000"/>
    <e0 Z="86" value=".00000000000000000E+000"/>
    <e0 Z="87" value=".00000000000000000E+000"/>
    <e0 Z="88" value=".00000000000000000E+000"/>
    <e0 Z="89" value=".00000000000000000E+000"/>
    <e0 Z="90" value=".00000000000000000E+000"/>
    <e0 Z="91" value=".00000000000000000E+000"/>
    <e0 Z="92" value=".00000000000000000E+000"/>
    <e0 Z="93" value=".00000000000000000E+000"/>
    <e0 Z="94" value=".00000000000000000E+000"/>
    <e0 Z="95" value=".00000000000000000E+000"/>
    <e0 Z="96" value=".00000000000000000E+000"/>
    <e0 Z="97" value=".00000000000000000E+000"/>
    <e0 Z="98" value=".00000000000000000E+000"/>
    <e0 Z="99" value=".00000000000000000E+000"/>
    <e0 Z="100" value=".00000000000000000E+000"/>
    <e0 Z="101" value=".00000000000000000E+000"/>
    <e0 Z="102" value=".00000000000000000E+000"/>
    <e0 Z="103" value=".00000000000000000E+000"/>
    <e0 Z="104" value=".00000000000000000E+000"/>
    <e0 Z="105" value=".00000000000000000E+000"/>
    <e0 Z="106" value=".00000000000000000E+000"/>
    <e0 Z="107" value=".00000000000000000E+000"/>
    <e0 Z="108" value=".00000000000000000E+000"/>
    <e0 Z="109" value=".00000000000000000E+000"/>
    <e0 Z="110" value=".00000000000000000E+000"/>
    <e0 Z="111" value=".00000000000000000E+000"/>
    <e0 Z="112" value=".00000000000000000E+000"/>
    <e0 Z="113" value=".00000000000000000E+000"/>
    <e0 Z="114" value=".00000000000000000E+000"/>
    <e0 Z="115" value=".00000000000000000E+000"/>
    <e0 Z="116" value=".00000000000000000E+000"/>
    <e0 Z="117" value=".00000000000000000E+000"/>
    <e0 Z="118" value=".00000000000000000E+000"/>
  </GAP_data>
  <gpSparse label="GAP_2023_3_13_0_17_11_1_858" n_coordinate="5" fitted="T">
    <gpCoordinates label="GAP_2023_3_13_0_17_11_1_8581" dimensions="1" signal_variance="1.0000000000000000" signal_mean=".00000000000000000E+000" sparsified="T" n_permutations="2" covariance_type="1" n_sparseX="20" sparseX_filename="GAP.xml.sparseX.GAP_2023_3_13_0_17_11_1_8581" sparseX_md5sum="0ee3e2fdf046465d85e0d48e3ccfb385">
      <theta>  0.10000000000000000E+001 </theta>
      <descriptor> distance_Nb order=2 n_sparse=20 cutoff=4.5 cutoff_transition_width=1.0 compact_clusters covariance_type=ard_se theta_uniform=1.0 sparse_method=uniform f0=0.0               delta=1.0 Z={8 8 }</descriptor>
      <permutation i="1">1  </permutation>
      <permutation i="2">1  </permutation>
      <sparseX i="1" alpha="21821.523099320762" sparseCutoff=".87062231842281679"/>
      <sparseX i="2" alpha="8533.1887284426539" sparseCutoff=".32660740912811570E-002"/>
      <sparseX i="3" alpha="28772.361521346738" sparseCutoff=".70330543826576419"/>
      <sparseX i="4" alpha="36963.242220639062" sparseCutoff=".51692201905339963E-001"/>
      <sparseX i="5" alpha="1556.7417773092125" sparseCutoff="1.0000000000000000"/>
      <sparseX i="6" alpha="-24998.151045891533" sparseCutoff=".42861304834389946"/>
      <sparseX i="7" alpha="-29490.368108181156" sparseCutoff="1.0000000000000000"/>
      <sparseX i="8" alpha="-808.57012384837412" sparseCutoff=".15895364976856741"/>
      <sparseX i="9" alpha="-13314.058560319572" sparseCutoff=".48880583882699086"/>
      <sparseX i="10" alpha="-18944.815875477230" sparseCutoff="1.0000000000000000"/>
      <sparseX i="11" alpha="17683.672498980086" sparseCutoff="1.0000000000000000"/>
      <sparseX i="12" alpha="10559.002748472583" sparseCutoff="1.0000000000000000"/>
      <sparseX i="13" alpha="24639.196374719257" sparseCutoff="1.0000000000000000"/>
      <sparseX i="14" alpha="540.83960693358051" sparseCutoff="1.0000000000000000"/>
      <sparseX i="15" alpha="25095.008247990489" sparseCutoff="1.0000000000000000"/>
      <sparseX i="16" alpha="-20901.602742545994" sparseCutoff=".99323237991574365"/>
      <sparseX i="17" alpha="-23711.221828511400" sparseCutoff="1.0000000000000000"/>
      <sparseX i="18" alpha="16254.855514339253" sparseCutoff="1.0000000000000000"/>
      <sparseX i="19" alpha="5413.8380494886233" sparseCutoff="1.0000000000000000"/>
      <sparseX i="20" alpha="-32650.792138306635" sparseCutoff="1.0000000000000000"/>
    </gpCoordinates>
    <gpCoordinates label="GAP_2023_3_13_0_17_11_1_8582" dimensions="1" signal_variance="1.0000000000000000" signal_mean=".00000000000000000E+000" sparsified="T" n_permutations="1" covariance_type="1" n_sparseX="20" sparseX_filename="GAP.xml.sparseX.GAP_2023_3_13_0_17_11_1_8582" sparseX_md5sum="62ddae54b32f9b432592385c70dfa09f">
      <theta>  0.10000000000000000E+001 </theta>
      <descriptor> distance_Nb order=2 n_sparse=20 cutoff=4.5 cutoff_transition_width=1.0 compact_clusters covariance_type=ard_se theta_uniform=1.0 sparse_method=uniform f0=0.0               delta=1.0 Z={8 13 }</descriptor>
      <permutation i="1">1  </permutation>
      <sparseX i="1" alpha="2079.2316015156671" sparseCutoff="1.0000000000000000"/>
      <sparseX i="2" alpha="9426.9480250322904" sparseCutoff="1.0000000000000000"/>
      <sparseX i="3" alpha="-3262.3109514564080" sparseCutoff=".93642329772744393E-001"/>
      <sparseX i="4" alpha="60.229383015721517" sparseCutoff=".74419362547960022"/>
      <sparseX i="5" alpha="-4480.2000559389107" sparseCutoff=".98218030139135171"/>
      <sparseX i="6" alpha="11801.718305989392" sparseCutoff="1.0000000000000000"/>
      <sparseX i="7" alpha="10223.019049875273" sparseCutoff=".54751149653160169"/>
      <sparseX i="8" alpha="955.41631685775576" sparseCutoff=".27028047407960387E-002"/>
      <sparseX i="9" alpha="-4175.2064721071720" sparseCutoff=".21276294837438126"/>
      <sparseX i="10" alpha="36906.020411427729" sparseCutoff="1.0000000000000000"/>
      <sparseX i="11" alpha="-9876.0289388920883" sparseCutoff=".89706882717968961"/>
      <sparseX i="12" alpha="-4788.0189644377970" sparseCutoff="1.0000000000000000"/>
      <sparseX i="13" alpha="-12194.731237338325" sparseCutoff="1.0000000000000000"/>
      <sparseX i="14" alpha="-25884.497925912736" sparseCutoff="1.0000000000000000"/>
      <sparseX i="15" alpha="-27460.224437042416" sparseCutoff="1.0000000000000000"/>
      <sparseX i="16" alpha="-13457.058696063694" sparseCutoff="1.0000000000000000"/>
      <sparseX i="17" alpha="2259.0870996582134" sparseCutoff="1.0000000000000000"/>
      <sparseX i="18" alpha="2552.2743426632505" sparseCutoff="1.0000000000000000"/>
      <sparseX i="19" alpha="6314.7899599379944" sparseCutoff="1.0000000000000000"/>
      <sparseX i="20" alpha="21261.295161936108" sparseCutoff="1.0000000000000000"/>
    </gpCoordinates>
    <gpCoordinates label="GAP_2023_3_13_0_17_11_1_8583" dimensions="1" signal_variance="1.0000000000000000" signal_mean=".00000000000000000E+000" sparsified="T" n_permutations="2" covariance_type="1" n_sparseX="20" sparseX_filename="GAP.xml.sparseX.GAP_2023_3_13_0_17_11_1_8583" sparseX_md5sum="cd87c7d898559470c53d05c0ef080579">
      <theta>  0.10000000000000000E+001 </theta>
      <descriptor> distance_Nb order=2 n_sparse=20 cutoff=4.5 cutoff_transition_width=1.0 compact_clusters covariance_type=ard_se theta_uniform=1.0 sparse_method=uniform f0=0.0               delta=1.0 Z={13 13 }</descriptor>
      <permutation i="1">1  </permutation>
      <permutation i="2">1  </permutation>
      <sparseX i="1" alpha="1907.9018990543245" sparseCutoff=".66146466747517230"/>
      <sparseX i="2" alpha="-1683.7586890287585" sparseCutoff="1.0000000000000000"/>
      <sparseX i="3" alpha="1170.8506851786922" sparseCutoff="1.0000000000000000"/>
      <sparseX i="4" alpha="-453.95661488675455" sparseCutoff="1.0000000000000000"/>
      <sparseX i="5" alpha="-1997.6687586050343" sparseCutoff="1.0000000000000000"/>
      <sparseX i="6" alpha="1274.5992109117403" sparseCutoff="1.0000000000000000"/>
      <sparseX i="7" alpha="-1655.7236822451987" sparseCutoff="1.0000000000000000"/>
      <sparseX i="8" alpha="1780.5993598495445" sparseCutoff="1.0000000000000000"/>
      <sparseX i="9" alpha="-645.18680391617897" sparseCutoff=".96852714080984703"/>
      <sparseX i="10" alpha="-1392.7268631401023" sparseCutoff="1.0000000000000000"/>
      <sparseX i="11" alpha="2806.3842577981727" sparseCutoff=".85621546002613713"/>
      <sparseX i="12" alpha="1652.3658804756528" sparseCutoff="1.0000000000000000"/>
      <sparseX i="13" alpha="1751.5958248820725" sparseCutoff=".39977791423977949E-002"/>
      <sparseX i="14" alpha="-1531.3116433903749" sparseCutoff=".52084059315909637"/>
      <sparseX i="15" alpha="951.66243045231010" sparseCutoff="1.0000000000000000"/>
      <sparseX i="16" alpha="3305.1182261767026" sparseCutoff=".90982661174979773E-002"/>
      <sparseX i="17" alpha="-3646.2497059694160" sparseCutoff=".35164559717876648"/>
      <sparseX i="18" alpha="3243.2949569041980" sparseCutoff=".15303632760632313"/>
      <sparseX i="19" alpha="-3442.9276072303228" sparseCutoff="1.0000000000000000"/>
      <sparseX i="20" alpha="2307.6485975442497" sparseCutoff="1.0000000000000000"/>
    </gpCoordinates>
    <gpCoordinates label="GAP_2023_3_13_0_17_11_1_8584" dimensions="681" signal_variance=".50000000000000000" signal_mean=".00000000000000000E+000" sparsified="T" n_permutations="1" covariance_type="2" zeta="4.0000000000000000" n_sparseX="1000" sparseX_filename="GAP.xml.sparseX.GAP_2023_3_13_0_17_11_1_8584" sparseX_md5sum="27d63390f50306cd72716c5243fcc0e8">
      <descriptor> soap n_sparse=1000 n_max=8 l_max=4 cutoff=3.5 cutoff_transition_width=0.5 atom_sigma=0.4                  covariance_type=dot_product zeta=4 sparse_method=cur_points delta=0.5 n_species=2 Z=8 species_Z={8 13 }</descriptor>
      <permutation i="1">1  </permutation>
      <sparseX i="1" alpha="10457.021280314731" sparseCutoff="1.0000000000000000"/>
      <sparseX i="2" alpha="-2917.7925965201553" sparseCutoff="1.0000000000000000"/>
      <sparseX i="3" alpha="2512.3835449005883" sparseCutoff="1.0000000000000000"/>
      <sparseX i="4" alpha="3653.2532368138768" sparseCutoff="1.0000000000000000"/>
      <sparseX i="5" alpha="-781.53265401794147" sparseCutoff="1.0000000000000000"/>
      <sparseX i="6" alpha="5661.9062779228643" sparseCutoff="1.0000000000000000"/>
      <sparseX i="7" alpha="57.619388542514343" sparseCutoff="1.0000000000000000"/>
      <sparseX i="8" alpha="-1549.8768418162604" sparseCutoff="1.0000000000000000"/>
      <sparseX i="9" alpha="-2017.0753534604992" sparseCutoff="1.0000000000000000"/>
      <sparseX i="10" alpha="9007.7368884711232" sparseCutoff="1.0000000000000000"/>
      <sparseX i="11" alpha="-1745.3073280024139" sparseCutoff="1.0000000000000000"/>
      <sparseX i="12" alpha="2017.1958420611709" sparseCutoff="1.0000000000000000"/>
      <sparseX i="13" alpha="-320.47458187992703" sparseCutoff="1.0000000000000000"/>
      <sparseX i="14" alpha="-4122.2462600467379" sparseCutoff="1.0000000000000000"/>
      <sparseX i="15" alpha="4198.7777475168168" sparseCutoff="1.0000000000000000"/>
      <sparseX i="16" alpha="20342.704842840467" sparseCutoff="1.0000000000000000"/>
      <sparseX i="17" alpha="110.99131884307639" sparseCutoff="1.0000000000000000"/>
      <sparseX i="18" alpha="5986.7522146774036" sparseCutoff="1.0000000000000000"/>
      <sparseX i="19" alpha="2964.2862908567772" sparseCutoff="1.0000000000000000"/>
      <sparseX i="20" alpha="-10609.276600636143" sparseCutoff="1.0000000000000000"/>
      <sparseX i="21" alpha="4534.1955346809518" sparseCutoff="1.0000000000000000"/>
      <sparseX i="22" alpha="-7433.8513749026069" sparseCutoff="1.0000000000000000"/>
      <sparseX i="23" alpha="1329.7501141063628" sparseCutoff="1.0000000000000000"/>
      <sparseX i="24" alpha="-3312.4826631602728" sparseCutoff="1.0000000000000000"/>
      <sparseX i="25" alpha="-15926.502815667851" sparseCutoff="1.0000000000000000"/>
      <sparseX i="26" alpha="-13502.100678206880" sparseCutoff="1.0000000000000000"/>
      <sparseX i="27" alpha="1327.6860343239366" sparseCutoff="1.0000000000000000"/>
      <sparseX i="28" alpha="-3955.6863465947536" sparseCutoff="1.0000000000000000"/>
      <sparseX i="29" alpha="1345.9756978181574" sparseCutoff="1.0000000000000000"/>
      <sparseX i="30" alpha="-1491.8345070060579" sparseCutoff="1.0000000000000000"/>
      <sparseX i="31" alpha="5254.2630447463416" sparseCutoff="1.0000000000000000"/>
      <sparseX i="32" alpha="4623.4097497017428" sparseCutoff="1.0000000000000000"/>
      <sparseX i="33" alpha="-13348.109844112323" sparseCutoff="1.0000000000000000"/>
      <sparseX i="34" alpha="-2251.9258068373056" sparseCutoff="1.0000000000000000"/>
      <sparseX i="35" alpha="2546.3725681861788" sparseCutoff="1.0000000000000000"/>
      <sparseX i="36" alpha="-4102.5215571842955" sparseCutoff="1.0000000000000000"/>
      <sparseX i="37" alpha="6994.7597399158849" sparseCutoff="1.0000000000000000"/>
      <sparseX i="38" alpha="7228.3375798017805" sparseCutoff="1.0000000000000000"/>
      <sparseX i="39" alpha="-7841.0278047726442" sparseCutoff="1.0000000000000000"/>
      <sparseX i="40" alpha="-11359.887657589845" sparseCutoff="1.0000000000000000"/>
      <sparseX i="41" alpha="16789.015360092719" sparseCutoff="1.0000000000000000"/>
      <sparseX i="42" alpha="7368.3912099120134" sparseCutoff="1.0000000000000000"/>
      <sparseX i="43" alpha="9773.1658637336732" sparseCutoff="1.0000000000000000"/>
      <sparseX i="44" alpha="3296.5210747228211" sparseCutoff="1.0000000000000000"/>
      <sparseX i="45" alpha="-11705.048197029679" sparseCutoff="1.0000000000000000"/>
      <sparseX i="46" alpha="925.42950078364106" sparseCutoff="1.0000000000000000"/>
      <sparseX i="47" alpha="898.29529140750310" sparseCutoff="1.0000000000000000"/>
      <sparseX i="48" alpha="-4950.2922232419187" sparseCutoff="1.0000000000000000"/>
      <sparseX i="49" alpha="2210.9042764259207" sparseCutoff="1.0000000000000000"/>
      <sparseX i="50" alpha="-6953.0728440371040" sparseCutoff="1.0000000000000000"/>
      <sparseX i="51" alpha="2711.0477895941153" sparseCutoff="1.0000000000000000"/>
      <sparseX i="52" alpha="-4206.4517443511131" sparseCutoff="1.0000000000000000"/>
      <sparseX i="53" alpha="-5970.2458100542635" sparseCutoff="1.0000000000000000"/>
      <sparseX i="54" alpha="13620.666804016037" sparseCutoff="1.0000000000000000"/>
      <sparseX i="55" alpha="-5845.2297163822695" sparseCutoff="1.0000000000000000"/>
      <sparseX i="56" alpha="1902.0632253883480" sparseCutoff="1.0000000000000000"/>
      <sparseX i="57" alpha="3296.4965916141541" sparseCutoff="1.0000000000000000"/>
      <sparseX i="58" alpha="-18.247306085840318" sparseCutoff="1.0000000000000000"/>
      <sparseX i="59" alpha="7612.7969212195476" sparseCutoff="1.0000000000000000"/>
      <sparseX i="60" alpha="2465.6401444807407" sparseCutoff="1.0000000000000000"/>
      <sparseX i="61" alpha="3261.2674685071493" sparseCutoff="1.0000000000000000"/>
      <sparseX i="62" alpha="-9575.1504588059652" sparseCutoff="1.0000000000000000"/>
      <sparseX i="63" alpha="2842.8307701393519" sparseCutoff="1.0000000000000000"/>
      <sparseX i="64" alpha="-1183.4368028318918" sparseCutoff="1.0000000000000000"/>
      <sparseX i="65" alpha="-2899.3361623301348" sparseCutoff="1.0000000000000000"/>
      <sparseX i="66" alpha="2174.0513500198017" sparseCutoff="1.0000000000000000"/>
      <sparseX i="67" alpha="-3817.9494133758285" sparseCutoff="1.0000000000000000"/>
      <sparseX i="68" alpha="-3895.1688491602590" sparseCutoff="1.0000000000000000"/>
      <sparseX i="69" alpha="8925.0582607174420" sparseCutoff="1.0000000000000000"/>
      <sparseX i="70" alpha="1522.1203821704255" sparseCutoff="1.0000000000000000"/>
      <sparseX i="71" alpha="-959.51193442744932" sparseCutoff="1.0000000000000000"/>
      <sparseX i="72" alpha="-557.90332904185902" sparseCutoff="1.0000000000000000"/>
      <sparseX i="73" alpha="1407.2987745718988" sparseCutoff="1.0000000000000000"/>
      <sparseX i="74" alpha="3916.2802715589428" sparseCutoff="1.0000000000000000"/>
      <sparseX i="75" alpha="2456.6095781727463" sparseCutoff="1.0000000000000000"/>
      <sparseX i="76" alpha="-902.24822504672022" sparseCutoff="1.0000000000000000"/>
      <sparseX i="77" alpha="-3354.9968255461990" sparseCutoff="1.0000000000000000"/>
      <sparseX i="78" alpha="-411.09176341072668" sparseCutoff="1.0000000000000000"/>
      <sparseX i="79" alpha="-40.397341752478106" sparseCutoff="1.0000000000000000"/>
      <sparseX i="80" alpha="-634.23920349963532" sparseCutoff="1.0000000000000000"/>
      <sparseX i="81" alpha="1509.7815566983263" sparseCutoff="1.0000000000000000"/>
      <sparseX i="82" alpha="-498.30659650224254" sparseCutoff="1.0000000000000000"/>
      <sparseX i="83" alpha="-1972.7736414393469" sparseCutoff="1.0000000000000000"/>
      <sparseX i="84" alpha="2534.5665498689036" sparseCutoff="1.0000000000000000"/>
      <sparseX i="85" alpha="970.19035833979922" sparseCutoff="1.0000000000000000"/>
      <sparseX i="86" alpha="-77.667374844501580" sparseCutoff="1.0000000000000000"/>
      <sparseX i="87" alpha="606.07705986014696" sparseCutoff="1.0000000000000000"/>
      <sparseX i="88" alpha="-1991.0063533156124" sparseCutoff="1.0000000000000000"/>
      <sparseX i="89" alpha="-1624.2769331063621" sparseCutoff="1.0000000000000000"/>
      <sparseX i="90" alpha="-2800.6631262464498" sparseCutoff="1.0000000000000000"/>
      <sparseX i="91" alpha="3435.5743996608962" sparseCutoff="1.0000000000000000"/>
      <sparseX i="92" alpha="433.78783688629642" sparseCutoff="1.0000000000000000"/>
      <sparseX i="93" alpha="-2652.1634182810290" sparseCutoff="1.0000000000000000"/>
      <sparseX i="94" alpha="993.49099238927840" sparseCutoff="1.0000000000000000"/>
      <sparseX i="95" alpha="580.45076378901172" sparseCutoff="1.0000000000000000"/>
      <sparseX i="96" alpha="-2586.8520099571301" sparseCutoff="1.0000000000000000"/>
      <sparseX i="97" alpha="-924.88712447726846" sparseCutoff="1.0000000000000000"/>
      <sparseX i="98" alpha="-475.71479744971884" sparseCutoff="1.0000000000000000"/>
      <sparseX i="99" alpha="526.45250848489172" sparseCutoff="1.0000000000000000"/>
      <sparseX i="100" alpha="-45.808024254483456" sparseCutoff="1.0000000000000000"/>
      <sparseX i="101" alpha="-261.30313936141062" sparseCutoff="1.0000000000000000"/>
      <sparseX i="102" alpha="2339.6094518429436" sparseCutoff="1.0000000000000000"/>
      <sparseX i="103" alpha="332.70712583187338" sparseCutoff="1.0000000000000000"/>
      <sparseX i="104" alpha="1527.1235100067775" sparseCutoff="1.0000000000000000"/>
      <sparseX i="105" alpha="3792.7891416740545" sparseCutoff="1.0000000000000000"/>
      <sparseX i="106" alpha="-2008.2036286083944" sparseCutoff="1.0000000000000000"/>
      <sparseX i="107" alpha="-1137.0163801265419" sparseCutoff="1.0000000000000000"/>
      <sparseX i="108" alpha="336.23934342297264" sparseCutoff="1.0000000000000000"/>
      <sparseX i="109" alpha="-185.08722467117323" sparseCutoff="1.0000000000000000"/>
      <sparseX i="110" alpha="-510.23246631231979" sparseCutoff="1.0000000000000000"/>
      <sparseX i="111" alpha="2347.0567815023178" sparseCutoff="1.0000000000000000"/>
      <sparseX i="112" alpha="54.364642170818612" sparseCutoff="1.0000000000000000"/>
      <sparseX i="113" alpha="-1769.4428412001250" sparseCutoff="1.0000000000000000"/>
      <sparseX i="114" alpha="-1698.7676296141487" sparseCutoff="1.0000000000000000"/>
      <sparseX i="115" alpha="338.45873647969347" sparseCutoff="1.0000000000000000"/>
      <sparseX i="116" alpha="881.76173990878101" sparseCutoff="1.0000000000000000"/>
      <sparseX i="117" alpha="-1405.5706737396629" sparseCutoff="1.0000000000000000"/>
      <sparseX i="118" alpha="-356.83085481748566" sparseCutoff="1.0000000000000000"/>
      <sparseX i="119" alpha="-366.38720381818064" sparseCutoff="1.0000000000000000"/>
      <sparseX i="120" alpha="2051.1418153105888" sparseCutoff="1.0000000000000000"/>
      <sparseX i="121" alpha="-11.940291408001674" sparseCutoff="1.0000000000000000"/>
      <sparseX i="122" alpha="925.81434559970114" sparseCutoff="1.0000000000000000"/>
      <sparseX i="123" alpha="2889.5314503023783" sparseCutoff="1.0000000000000000"/>
      <sparseX i="124" alpha="960.69091370658657" sparseCutoff="1.0000000000000000"/>
      <sparseX i="125" alpha="662.60256945045217" sparseCutoff="1.0000000000000000"/>
      <sparseX i="126" alpha="2049.6891422513531" sparseCutoff="1.0000000000000000"/>
      <sparseX i="127" alpha="-1970.8552017413854" sparseCutoff="1.0000000000000000"/>
      <sparseX i="128" alpha="-308.07993023381670" sparseCutoff="1.0000000000000000"/>
      <sparseX i="129" alpha="-2064.3842618264739" sparseCutoff="1.0000000000000000"/>
      <sparseX i="130" alpha="1585.7189222949698" sparseCutoff="1.0000000000000000"/>
      <sparseX i="131" alpha="-155.61286002936154" sparseCutoff="1.0000000000000000"/>
      <sparseX i="132" alpha="164.69889574823179" sparseCutoff="1.0000000000000000"/>
      <sparseX i="133" alpha="-1514.7418913679192" sparseCutoff="1.0000000000000000"/>
      <sparseX i="134" alpha="1207.0710373064089" sparseCutoff="1.0000000000000000"/>
      <sparseX i="135" alpha="1909.2593782360964" sparseCutoff="1.0000000000000000"/>
      <sparseX i="136" alpha="628.40973028094652" sparseCutoff="1.0000000000000000"/>
      <sparseX i="137" alpha="259.01409395404011" sparseCutoff="1.0000000000000000"/>
      <sparseX i="138" alpha="2216.3242300720372" sparseCutoff="1.0000000000000000"/>
      <sparseX i="139" alpha="947.40653569357596" sparseCutoff="1.0000000000000000"/>
      <sparseX i="140" alpha="3684.7434008572250" sparseCutoff="1.0000000000000000"/>
      <sparseX i="141" alpha="1482.6364588601700" sparseCutoff="1.0000000000000000"/>
      <sparseX i="142" alpha="104.36712046501842" sparseCutoff="1.0000000000000000"/>
      <sparseX i="143" alpha="-3782.7025143392402" sparseCutoff="1.0000000000000000"/>
      <sparseX i="144" alpha="3391.9982932096173" sparseCutoff="1.0000000000000000"/>
      <sparseX i="145" alpha="-504.38393285160510" sparseCutoff="1.0000000000000000"/>
      <sparseX i="146" alpha="-967.09796438023568" sparseCutoff="1.0000000000000000"/>
      <sparseX i="147" alpha="-1315.7382982597560" sparseCutoff="1.0000000000000000"/>
      <sparseX i="148" alpha="-1657.4172939529549" sparseCutoff="1.0000000000000000"/>
      <sparseX i="149" alpha="-1141.2049844004152" sparseCutoff="1.0000000000000000"/>
      <sparseX i="150" alpha="312.14726916931443" sparseCutoff="1.0000000000000000"/>
      <sparseX i="151" alpha="1010.2996495905526" sparseCutoff="1.0000000000000000"/>
      <sparseX i="152" alpha="-390.71303804051672" sparseCutoff="1.0000000000000000"/>
      <sparseX i="153" alpha="-2074.4386888817407" sparseCutoff="1.0000000000000000"/>
      <sparseX i="154" alpha="-1451.9240555254307" sparseCutoff="1.0000000000000000"/>
      <sparseX i="155" alpha="-2942.8629550211126" sparseCutoff="1.0000000000000000"/>
      <sparseX i="156" alpha="-578.59038765736580" sparseCutoff="1.0000000000000000"/>
      <sparseX i="157" alpha="1842.2482252912398" sparseCutoff="1.0000000000000000"/>
      <sparseX i="158" alpha="381.72442174212654" sparseCutoff="1.0000000000000000"/>
      <sparseX i="159" alpha="3253.6230553071646" sparseCutoff="1.0000000000000000"/>
      <sparseX i="160" alpha="-581.81123457404613" sparseCutoff="1.0000000000000000"/>
      <sparseX i="161" alpha="1501.9534088901835" sparseCutoff="1.0000000000000000"/>
      <sparseX i="162" alpha="2939.3486985467753" sparseCutoff="1.0000000000000000"/>
      <sparseX i="163" alpha="231.56408192124550" sparseCutoff="1.0000000000000000"/>
      <sparseX i="164" alpha="-37.014882057698848" sparseCutoff="1.0000000000000000"/>
      <sparseX i="165" alpha="119.78506052451716" sparseCutoff="1.0000000000000000"/>
      <sparseX i="166" alpha="1622.7516965395364" sparseCutoff="1.0000000000000000"/>
      <sparseX i="167" alpha="-55.526880938433514" sparseCutoff="1.0000000000000000"/>
      <sparseX i="168" alpha="-239.58648129089013" sparseCutoff="1.0000000000000000"/>
      <sparseX i="169" alpha="882.92344676619643" sparseCutoff="1.0000000000000000"/>
      <sparseX i="170" alpha="2678.4767069517538" sparseCutoff="1.0000000000000000"/>
      <sparseX i="171" alpha="-2028.9897526034999" sparseCutoff="1.0000000000000000"/>
      <sparseX i="172" alpha="-667.88421867326747" sparseCutoff="1.0000000000000000"/>
      <sparseX i="173" alpha="-98.652191492324221" sparseCutoff="1.0000000000000000"/>
      <sparseX i="174" alpha="383.91057148839019" sparseCutoff="1.0000000000000000"/>
      <sparseX i="175" alpha="-2060.7109866629412" sparseCutoff="1.0000000000000000"/>
      <sparseX i="176" alpha="2869.1161781628239" sparseCutoff="1.0000000000000000"/>
      <sparseX i="177" alpha="1767.8784379411159" sparseCutoff="1.0000000000000000"/>
      <sparseX i="178" alpha="1412.8603384172202" sparseCutoff="1.0000000000000000"/>
      <sparseX i="179" alpha="1451.8105029064025" sparseCutoff="1.0000000000000000"/>
      <sparseX i="180" alpha="-225.58651204276848" sparseCutoff="1.0000000000000000"/>
      <sparseX i="181" alpha="-948.22719750886097" sparseCutoff="1.0000000000000000"/>
      <sparseX i="182" alpha="-28.852148672917725" sparseCutoff="1.0000000000000000"/>
      <sparseX i="183" alpha="-494.34907807385423" sparseCutoff="1.0000000000000000"/>
      <sparseX i="184" alpha="1743.6533414201895" sparseCutoff="1.0000000000000000"/>
      <sparseX i="185" alpha="374.99742282610237" sparseCutoff="1.0000000000000000"/>
      <sparseX i="186" alpha="4655.9480115757578" sparseCutoff="1.0000000000000000"/>
      <sparseX i="187" alpha="2061.5696373941378" sparseCutoff="1.0000000000000000"/>
      <sparseX i="188" alpha="-2.3710600612115678" sparseCutoff="1.0000000000000000"/>
      <sparseX i="189" alpha="-2803.5066298975648" sparseCutoff="1.0000000000000000"/>
      <sparseX i="190" alpha="914.43507127097905" sparseCutoff="1.0000000000000000"/>
      <sparseX i="191" alpha="-546.78046793142869" sparseCutoff="1.0000000000000000"/>
      <sparseX i="192" alpha="356.91044733263521" sparseCutoff="1.0000000000000000"/>
      <sparseX i="193" alpha="972.90186774397591" sparseCutoff="1.0000000000000000"/>
      <sparseX i="194" alpha="-1376.9102111691511" sparseCutoff="1.0000000000000000"/>
      <sparseX i="195" alpha="75.463777591787931" sparseCutoff="1.0000000000000000"/>
      <sparseX i="196" alpha="-1799.2372200314558" sparseCutoff="1.0000000000000000"/>
      <sparseX i="197" alpha="-1747.2095892315440" sparseCutoff="1.0000000000000000"/>
      <sparseX i="198" alpha="-3192.4032324451182" sparseCutoff="1.0000000000000000"/>
      <sparseX i="199" alpha="-510.09234215940307" sparseCutoff="1.0000000000000000"/>
      <sparseX i="200" alpha="1158.8150922155755" sparseCutoff="1.0000000000000000"/>
      <sparseX i="201" alpha="158.18851600382393" sparseCutoff="1.0000000000000000"/>
      <sparseX i="202" alpha="-1948.9725382429469" sparseCutoff="1.0000000000000000"/>
      <sparseX i="203" alpha="-1089.1163404341194" sparseCutoff="1.0000000000000000"/>
      <sparseX i="204" alpha="572.52678224136298" sparseCutoff="1.0000000000000000"/>
      <sparseX i="205" alpha="916.26578942078947" sparseCutoff="1.0000000000000000"/>
      <sparseX i="206" alpha="5.5873333325280479" sparseCutoff="1.0000000000000000"/>
      <sparseX i="207" alpha="16.353821328902509" sparseCutoff="1.0000000000000000"/>
      <sparseX i="208" alpha="-1227.6590516220551" sparseCutoff="1.0000000000000000"/>
      <sparseX i="209" alpha="-5954.7839767135811" sparseCutoff="1.0000000000000000"/>
      <sparseX i="210" alpha="-820.84649078070265" sparseCutoff="1.0000000000000000"/>
      <sparseX i="211" alpha="73.697895558309654" sparseCutoff="1.0000000000000000"/>
      <sparseX i="212" alpha="-192.54466424412919" sparseCutoff="1.0000000000000000"/>
      <sparseX i="213" alpha="-355.27152344813817" sparseCutoff="1.0000000000000000"/>
      <sparseX i="214" alpha="550.74327996560021" sparseCutoff="1.0000000000000000"/>
      <sparseX i="215" alpha="16.554461010276679" sparseCutoff="1.0000000000000000"/>
      <sparseX i="216" alpha="-565.23939556523862" sparseCutoff="1.0000000000000000"/>
      <sparseX i="217" alpha="-1169.2041531284024" sparseCutoff="1.0000000000000000"/>
      <sparseX i="218" alpha="731.29496271366065" sparseCutoff="1.0000000000000000"/>
      <sparseX i="219" alpha="-596.82007957089957" sparseCutoff="1.0000000000000000"/>
      <sparseX i="220" alpha="-228.93021911660665" sparseCutoff="1.0000000000000000"/>
      <sparseX i="221" alpha="-736.64428021670369" sparseCutoff="1.0000000000000000"/>
      <sparseX i="222" alpha="763.58581215417212" sparseCutoff="1.0000000000000000"/>
      <sparseX i="223" alpha="516.82059353292937" sparseCutoff="1.0000000000000000"/>
      <sparseX i="224" alpha="411.63806923239963" sparseCutoff="1.0000000000000000"/>
      <sparseX i="225" alpha="-2735.0010497097155" sparseCutoff="1.0000000000000000"/>
      <sparseX i="226" alpha="-775.64880605848805" sparseCutoff="1.0000000000000000"/>
      <sparseX i="227" alpha="1345.4536211431957" sparseCutoff="1.0000000000000000"/>
      <sparseX i="228" alpha="322.81761780649600" sparseCutoff="1.0000000000000000"/>
      <sparseX i="229" alpha="2161.1402220623468" sparseCutoff="1.0000000000000000"/>
      <sparseX i="230" alpha="1235.3775922321702" sparseCutoff="1.0000000000000000"/>
      <sparseX i="231" alpha="1256.4305469914400" sparseCutoff="1.0000000000000000"/>
      <sparseX i="232" alpha="1301.0065774807408" sparseCutoff="1.0000000000000000"/>
      <sparseX i="233" alpha="1248.5933393082203" sparseCutoff="1.0000000000000000"/>
      <sparseX i="234" alpha="1468.1321272777295" sparseCutoff="1.0000000000000000"/>
      <sparseX i="235" alpha="-469.20320608987754" sparseCutoff="1.0000000000000000"/>
      <sparseX i="236" alpha="1425.6934140156816" sparseCutoff="1.0000000000000000"/>
      <sparseX i="237" alpha="-1482.5602184414890" sparseCutoff="1.0000000000000000"/>
      <sparseX i="238" alpha="-778.16390055507782" sparseCutoff="1.0000000000000000"/>
      <sparseX i="239" alpha="1808.0055563147607" sparseCutoff="1.0000000000000000"/>
      <sparseX i="240" alpha="-313.83806121986584" sparseCutoff="1.0000000000000000"/>
      <sparseX i="241" alpha="-451.14555029086233" sparseCutoff="1.0000000000000000"/>
      <sparseX i="242" alpha="-230.88993578009101" sparseCutoff="1.0000000000000000"/>
      <sparseX i="243" alpha="502.40684850554948" sparseCutoff="1.0000000000000000"/>
      <sparseX i="244" alpha="-1831.7235158974054" sparseCutoff="1.0000000000000000"/>
      <sparseX i="245" alpha="-2210.9129006558387" sparseCutoff="1.0000000000000000"/>
      <sparseX i="246" alpha="-1586.0103964513528" sparseCutoff="1.0000000000000000"/>
      <sparseX i="247" alpha="2963.8380125350004" sparseCutoff="1.0000000000000000"/>
      <sparseX i="248" alpha="416.07949084423126" sparseCutoff="1.0000000000000000"/>
      <sparseX i="249" alpha="5486.1965947816398" sparseCutoff="1.0000000000000000"/>
      <sparseX i="250" alpha="-1096.1882817870901" sparseCutoff="1.0000000000000000"/>
      <sparseX i="251" alpha="660.36615492918816" sparseCutoff="1.0000000000000000"/>
      <sparseX i="252" alpha="3275.8447494151251" sparseCutoff="1.0000000000000000"/>
      <sparseX i="253" alpha="1648.3746414889815" sparseCutoff="1.0000000000000000"/>
      <sparseX i="254" alpha="-7018.5130197570779" sparseCutoff="1.0000000000000000"/>
      <sparseX i="255" alpha="-395.46465295103070" sparseCutoff="1.0000000000000000"/>
      <sparseX i="256" alpha="246.66001427402435" sparseCutoff="1.0000000000000000"/>
      <sparseX i="257" alpha="1087.4691471316803" sparseCutoff="1.0000000000000000"/>
      <sparseX i="258" alpha="-1449.0247668210375" sparseCutoff="1.0000000000000000"/>
      <sparseX i="259" alpha="639.49655077377270" sparseCutoff="1.0000000000000000"/>
      <sparseX i="260" alpha="121.46832133235299" sparseCutoff="1.0000000000000000"/>
      <sparseX i="261" alpha="-955.99671396909662" sparseCutoff="1.0000000000000000"/>
      <sparseX i="262" alpha="-57.179620572479664" sparseCutoff="1.0000000000000000"/>
      <sparseX i="263" alpha="-2639.2470724560640" sparseCutoff="1.0000000000000000"/>
      <sparseX i="264" alpha="10059.222227747599" sparseCutoff="1.0000000000000000"/>
      <sparseX i="265" alpha="321.84612296672401" sparseCutoff="1.0000000000000000"/>
      <sparseX i="266" alpha="-4853.5704187763040" sparseCutoff="1.0000000000000000"/>
      <sparseX i="267" alpha="-8303.9971969853668" sparseCutoff="1.0000000000000000"/>
      <sparseX i="268" alpha="-247.70120367314857" sparseCutoff="1.0000000000000000"/>
      <sparseX i="269" alpha="213.62806153736261" sparseCutoff="1.0000000000000000"/>
      <sparseX i="270" alpha="2520.0815386718145" sparseCutoff="1.0000000000000000"/>
      <sparseX i="271" alpha="-876.31261472176107" sparseCutoff="1.0000000000000000"/>
      <sparseX i="272" alpha="-554.13363900494903" sparseCutoff="1.0000000000000000"/>
      <sparseX i="273" alpha="138.54079537024850" sparseCutoff="1.0000000000000000"/>
      <sparseX i="274" alpha="-204.02054813725036" sparseCutoff="1.0000000000000000"/>
      <sparseX i="275" alpha="60.801730452334873" sparseCutoff="1.0000000000000000"/>
      <sparseX i="276" alpha="158.26551847626797" sparseCutoff="1.0000000000000000"/>
      <sparseX i="277" alpha="1150.5534026676287" sparseCutoff="1.0000000000000000"/>
      <sparseX i="278" alpha="-760.86244473635406" sparseCutoff="1.0000000000000000"/>
      <sparseX i="279" alpha="972.03516031554068" sparseCutoff="1.0000000000000000"/>
      <sparseX i="280" alpha="-1971.9658714100806" sparseCutoff="1.0000000000000000"/>
      <sparseX i="281" alpha="3542.2024578413339" sparseCutoff="1.0000000000000000"/>
      <sparseX i="282" alpha="825.55223942916246" sparseCutoff="1.0000000000000000"/>
      <sparseX i="283" alpha="-2190.1535440020234" sparseCutoff="1.0000000000000000"/>
      <sparseX i="284" alpha="-409.93010110792568" sparseCutoff="1.0000000000000000"/>
      <sparseX i="285" alpha="-3342.7026583540783" sparseCutoff="1.0000000000000000"/>
      <sparseX i="286" alpha="42.688502480246683" sparseCutoff="1.0000000000000000"/>
      <sparseX i="287" alpha="279.30695438159825" sparseCutoff="1.0000000000000000"/>
      <sparseX i="288" alpha="-393.22896671825487" sparseCutoff="1.0000000000000000"/>
      <sparseX i="289" alpha="667.62489029851997" sparseCutoff="1.0000000000000000"/>
      <sparseX i="290" alpha="806.09227774379485" sparseCutoff="1.0000000000000000"/>
      <sparseX i="291" alpha="1537.2842301495921" sparseCutoff="1.0000000000000000"/>
      <sparseX i="292" alpha="-817.80783180388948" sparseCutoff="1.0000000000000000"/>
      <sparseX i="293" alpha="-2480.0718968195338" sparseCutoff="1.0000000000000000"/>
      <sparseX i="294" alpha="3263.7119729284386" sparseCutoff="1.0000000000000000"/>
      <sparseX i="295" alpha="-835.40233919701916" sparseCutoff="1.0000000000000000"/>
      <sparseX i="296" alpha="1953.1682075116707" sparseCutoff="1.0000000000000000"/>
      <sparseX i="297" alpha="-2541.2611820349457" sparseCutoff="1.0000000000000000"/>
      <sparseX i="298" alpha="-172.45526570032430" sparseCutoff="1.0000000000000000"/>
      <sparseX i="299" alpha="209.09307621338849" sparseCutoff="1.0000000000000000"/>
      <sparseX i="300" alpha="2273.7770247084604" sparseCutoff="1.0000000000000000"/>
      <sparseX i="301" alpha="495.02280347774132" sparseCutoff="1.0000000000000000"/>
      <sparseX i="302" alpha="-4561.7695613480237" sparseCutoff="1.0000000000000000"/>
      <sparseX i="303" alpha="-3369.0192358360132" sparseCutoff="1.0000000000000000"/>
      <sparseX i="304" alpha="-683.57709493505149" sparseCutoff="1.0000000000000000"/>
      <sparseX i="305" alpha="360.85807860102273" sparseCutoff="1.0000000000000000"/>
      <sparseX i="306" alpha="-3506.2095454699361" sparseCutoff="1.0000000000000000"/>
      <sparseX i="307" alpha="-1210.0395477923828" sparseCutoff="1.0000000000000000"/>
      <sparseX i="308" alpha="-5664.2346353767416" sparseCutoff="1.0000000000000000"/>
      <sparseX i="309" alpha="581.20105479645792" sparseCutoff="1.0000000000000000"/>
      <sparseX i="310" alpha="-330.02697877412294" sparseCutoff="1.0000000000000000"/>
      <sparseX i="311" alpha="-339.87857324289456" sparseCutoff="1.0000000000000000"/>
      <sparseX i="312" alpha="-742.02982833234444" sparseCutoff="1.0000000000000000"/>
      <sparseX i="313" alpha="-119.14977092188832" sparseCutoff="1.0000000000000000"/>
      <sparseX i="314" alpha="3043.7323022666087" sparseCutoff="1.0000000000000000"/>
      <sparseX i="315" alpha="1526.4512189511220" sparseCutoff="1.0000000000000000"/>
      <sparseX i="316" alpha="1253.1396244622520" sparseCutoff="1.0000000000000000"/>
      <sparseX i="317" alpha="-420.74486988869018" sparseCutoff="1.0000000000000000"/>
      <sparseX i="318" alpha="-723.30214822373557" sparseCutoff="1.0000000000000000"/>
      <sparseX i="319" alpha="-3138.6175367058804" sparseCutoff="1.0000000000000000"/>
      <sparseX i="320" alpha="269.05135687093593" sparseCutoff="1.0000000000000000"/>
      <sparseX i="321" alpha="322.21497170936453" sparseCutoff="1.0000000000000000"/>
      <sparseX i="322" alpha="1167.6544965767137" sparseCutoff="1.0000000000000000"/>
      <sparseX i="323" alpha="985.88537970677078" sparseCutoff="1.0000000000000000"/>
      <sparseX i="324" alpha="61.480595629712731" sparseCutoff="1.0000000000000000"/>
      <sparseX i="325" alpha="195.61512672385828" sparseCutoff="1.0000000000000000"/>
      <sparseX i="326" alpha="563.39004943912028" sparseCutoff="1.0000000000000000"/>
      <sparseX i="327" alpha="-1134.1483834631795" sparseCutoff="1.0000000000000000"/>
      <sparseX i="328" alpha="503.18961856874705" sparseCutoff="1.0000000000000000"/>
      <sparseX i="329" alpha="-731.07198337419845" sparseCutoff="1.0000000000000000"/>
      <sparseX i="330" alpha="-674.56870671893580" sparseCutoff="1.0000000000000000"/>
      <sparseX i="331" alpha="496.84670925870898" sparseCutoff="1.0000000000000000"/>
      <sparseX i="332" alpha="-1524.8261205535239" sparseCutoff="1.0000000000000000"/>
      <sparseX i="333" alpha="963.94068737792600" sparseCutoff="1.0000000000000000"/>
      <sparseX i="334" alpha="-273.41296819162238" sparseCutoff="1.0000000000000000"/>
      <sparseX i="335" alpha="1034.8619586413156" sparseCutoff="1.0000000000000000"/>
      <sparseX i="336" alpha="-2928.1071180894292" sparseCutoff="1.0000000000000000"/>
      <sparseX i="337" alpha="-154.81698878035405" sparseCutoff="1.0000000000000000"/>
      <sparseX i="338" alpha="-1623.6703918289536" sparseCutoff="1.0000000000000000"/>
      <sparseX i="339" alpha="-3336.8126619492091" sparseCutoff="1.0000000000000000"/>
      <sparseX i="340" alpha="-992.19625627211838" sparseCutoff="1.0000000000000000"/>
      <sparseX i="341" alpha="508.62421031960099" sparseCutoff="1.0000000000000000"/>
      <sparseX i="342" alpha="-523.38151479666658" sparseCutoff="1.0000000000000000"/>
      <sparseX i="343" alpha="-654.46076603713880" sparseCutoff="1.0000000000000000"/>
      <sparseX i="344" alpha="-2204.6623270264486" sparseCutoff="1.0000000000000000"/>
      <sparseX i="345" alpha="-1528.2012939788287" sparseCutoff="1.0000000000000000"/>
      <sparseX i="346" alpha="1520.1925919801727" sparseCutoff="1.0000000000000000"/>
      <sparseX i="347" alpha="5377.1931993786666" sparseCutoff="1.0000000000000000"/>
      <sparseX i="348" alpha="-170.55168753839726" sparseCutoff="1.0000000000000000"/>
      <sparseX i="349" alpha="-297.24253740428537" sparseCutoff="1.0000000000000000"/>
      <sparseX i="350" alpha="661.77292324098755" sparseCutoff="1.0000000000000000"/>
      <sparseX i="351" alpha="-1271.0060732659990" sparseCutoff="1.0000000000000000"/>
      <sparseX i="352" alpha="1476.4900906644200" sparseCutoff="1.0000000000000000"/>
      <sparseX i="353" alpha="691.84640586664818" sparseCutoff="1.0000000000000000"/>
      <sparseX i="354" alpha="461.74548665903592" sparseCutoff="1.0000000000000000"/>
      <sparseX i="355" alpha="819.95112448738485" sparseCutoff="1.0000000000000000"/>
      <sparseX i="356" alpha="1011.8058368338956" sparseCutoff="1.0000000000000000"/>
      <sparseX i="357" alpha="-846.40731079611783" sparseCutoff="1.0000000000000000"/>
      <sparseX i="358" alpha="-581.72461777718513" sparseCutoff="1.0000000000000000"/>
      <sparseX i="359" alpha="749.86684232617552" sparseCutoff="1.0000000000000000"/>
      <sparseX i="360" alpha="1388.6051529075839" sparseCutoff="1.0000000000000000"/>
      <sparseX i="361" alpha="590.21920355803297" sparseCutoff="1.0000000000000000"/>
      <sparseX i="362" alpha="-436.76941112990619" sparseCutoff="1.0000000000000000"/>
      <sparseX i="363" alpha="-166.95323188547638" sparseCutoff="1.0000000000000000"/>
      <sparseX i="364" alpha="718.46342628166803" sparseCutoff="1.0000000000000000"/>
      <sparseX i="365" alpha="-4076.1555188203056" sparseCutoff="1.0000000000000000"/>
      <sparseX i="366" alpha="1277.8120754688453" sparseCutoff="1.0000000000000000"/>
      <sparseX i="367" alpha="-3074.5262550070588" sparseCutoff="1.0000000000000000"/>
      <sparseX i="368" alpha="-3124.7992587620743" sparseCutoff="1.0000000000000000"/>
      <sparseX i="369" alpha="742.89404055941031" sparseCutoff="1.0000000000000000"/>
      <sparseX i="370" alpha="-821.73160025088976" sparseCutoff="1.0000000000000000"/>
      <sparseX i="371" alpha="1439.3031444074882" sparseCutoff="1.0000000000000000"/>
      <sparseX i="372" alpha="-1831.2233636518183" sparseCutoff="1.0000000000000000"/>
      <sparseX i="373" alpha="-662.95607635467172" sparseCutoff="1.0000000000000000"/>
      <sparseX i="374" alpha="-502.43718259651200" sparseCutoff="1.0000000000000000"/>
      <sparseX i="375" alpha="-1421.5606181591115" sparseCutoff="1.0000000000000000"/>
      <sparseX i="376" alpha="983.56868328576604" sparseCutoff="1.0000000000000000"/>
      <sparseX i="377" alpha="-592.96889069008319" sparseCutoff="1.0000000000000000"/>
      <sparseX i="378" alpha="-734.63336525274929" sparseCutoff="1.0000000000000000"/>
      <sparseX i="379" alpha="-3331.3601613530973" sparseCutoff="1.0000000000000000"/>
      <sparseX i="380" alpha="-335.78793353771442" sparseCutoff="1.0000000000000000"/>
      <sparseX i="381" alpha="782.61560565835748" sparseCutoff="1.0000000000000000"/>
      <sparseX i="382" alpha="457.27144263635688" sparseCutoff="1.0000000000000000"/>
      <sparseX i="383" alpha="-56.734950313127271" sparseCutoff="1.0000000000000000"/>
      <sparseX i="384" alpha="-43.298102951975856" sparseCutoff="1.0000000000000000"/>
      <sparseX i="385" alpha="-1320.3645116011176" sparseCutoff="1.0000000000000000"/>
      <sparseX i="386" alpha="-462.51134371756467" sparseCutoff="1.0000000000000000"/>
      <sparseX i="387" alpha="-1776.8136385163091" sparseCutoff="1.0000000000000000"/>
      <sparseX i="388" alpha="-1390.0287702051364" sparseCutoff="1.0000000000000000"/>
      <sparseX i="389" alpha="1805.9496879775279" sparseCutoff="1.0000000000000000"/>
      <sparseX i="390" alpha="-21.853656740769896" sparseCutoff="1.0000000000000000"/>
      <sparseX i="391" alpha="-1209.1882094532577" sparseCutoff="1.0000000000000000"/>
      <sparseX i="392" alpha="-4195.7016354984735" sparseCutoff="1.0000000000000000"/>
      <sparseX i="393" alpha="-1324.6558933037013" sparseCutoff="1.0000000000000000"/>
      <sparseX i="394" alpha="-180.13655910610163" sparseCutoff="1.0000000000000000"/>
      <sparseX i="395" alpha="-959.03600483794924" sparseCutoff="1.0000000000000000"/>
      <sparseX i="396" alpha="-366.74741464385642" sparseCutoff="1.0000000000000000"/>
      <sparseX i="397" alpha="95.824574751101053" sparseCutoff="1.0000000000000000"/>
      <sparseX i="398" alpha="431.20748120085329" sparseCutoff="1.0000000000000000"/>
      <sparseX i="399" alpha="454.91124766538752" sparseCutoff="1.0000000000000000"/>
      <sparseX i="400" alpha="1241.4692127242724" sparseCutoff="1.0000000000000000"/>
      <sparseX i="401" alpha="-296.60008684890136" sparseCutoff="1.0000000000000000"/>
      <sparseX i="402" alpha="-470.72608910659619" sparseCutoff="1.0000000000000000"/>
      <sparseX i="403" alpha="272.51600016363955" sparseCutoff="1.0000000000000000"/>
      <sparseX i="404" alpha="-4292.7003345084113" sparseCutoff="1.0000000000000000"/>
      <sparseX i="405" alpha="654.05406712047204" sparseCutoff="1.0000000000000000"/>
      <sparseX i="406" alpha="-458.82193901603097" sparseCutoff="1.0000000000000000"/>
      <sparseX i="407" alpha="-1642.7385734362115" sparseCutoff="1.0000000000000000"/>
      <sparseX i="408" alpha="1310.2810998526572" sparseCutoff="1.0000000000000000"/>
      <sparseX i="409" alpha="-358.04645480732415" sparseCutoff="1.0000000000000000"/>
      <sparseX i="410" alpha="1099.3710019563484" sparseCutoff="1.0000000000000000"/>
      <sparseX i="411" alpha="-4108.8787963675404" sparseCutoff="1.0000000000000000"/>
      <sparseX i="412" alpha="-99.566634192929200" sparseCutoff="1.0000000000000000"/>
      <sparseX i="413" alpha="-1049.3787208599874" sparseCutoff="1.0000000000000000"/>
      <sparseX i="414" alpha="-378.18280562860639" sparseCutoff="1.0000000000000000"/>
      <sparseX i="415" alpha="137.04511171733191" sparseCutoff="1.0000000000000000"/>
      <sparseX i="416" alpha="-649.68207940816399" sparseCutoff="1.0000000000000000"/>
      <sparseX i="417" alpha="3982.7031225841979" sparseCutoff="1.0000000000000000"/>
      <sparseX i="418" alpha="-1153.1763772337576" sparseCutoff="1.0000000000000000"/>
      <sparseX i="419" alpha="640.45502787294561" sparseCutoff="1.0000000000000000"/>
      <sparseX i="420" alpha="2086.3838031434211" sparseCutoff="1.0000000000000000"/>
      <sparseX i="421" alpha="-2488.8661297107456" sparseCutoff="1.0000000000000000"/>
      <sparseX i="422" alpha="-447.61250598279230" sparseCutoff="1.0000000000000000"/>
      <sparseX i="423" alpha="-626.94730486443120" sparseCutoff="1.0000000000000000"/>
      <sparseX i="424" alpha="357.75187868073266" sparseCutoff="1.0000000000000000"/>
      <sparseX i="425" alpha="-597.30144857713981" sparseCutoff="1.0000000000000000"/>
      <sparseX i="426" alpha="111.39371393906460" sparseCutoff="1.0000000000000000"/>
      <sparseX i="427" alpha="411.44590285305372" sparseCutoff="1.0000000000000000"/>
      <sparseX i="428" alpha="2830.9204645366790" sparseCutoff="1.0000000000000000"/>
      <sparseX i="429" alpha="-9.5221510320459881" sparseCutoff="1.0000000000000000"/>
      <sparseX i="430" alpha="772.77144807656146" sparseCutoff="1.0000000000000000"/>
      <sparseX i="431" alpha="2324.8903173198787" sparseCutoff="1.0000000000000000"/>
      <sparseX i="432" alpha="4627.6997799018327" sparseCutoff="1.0000000000000000"/>
      <sparseX i="433" alpha="-3169.8216722546804" sparseCutoff="1.0000000000000000"/>
      <sparseX i="434" alpha="-770.53710503615912" sparseCutoff="1.0000000000000000"/>
      <sparseX i="435" alpha="-2646.8433191551612" sparseCutoff="1.0000000000000000"/>
      <sparseX i="436" alpha="3713.4589374449570" sparseCutoff="1.0000000000000000"/>
      <sparseX i="437" alpha="1409.7589842212501" sparseCutoff="1.0000000000000000"/>
      <sparseX i="438" alpha="-778.33425836830247" sparseCutoff="1.0000000000000000"/>
      <sparseX i="439" alpha="2340.2007139643219" sparseCutoff="1.0000000000000000"/>
      <sparseX i="440" alpha="-1350.4682625424296" sparseCutoff="1.0000000000000000"/>
      <sparseX i="441" alpha="2769.0671639535526" sparseCutoff="1.0000000000000000"/>
      <sparseX i="442" alpha="-1173.9149114498675" sparseCutoff="1.0000000000000000"/>
      <sparseX i="443" alpha="-494.47138661908747" sparseCutoff="1.0000000000000000"/>
      <sparseX i="444" alpha="1332.2251340303133" sparseCutoff="1.0000000000000000"/>
      <sparseX i="445" alpha="390.11174783687886" sparseCutoff="1.0000000000000000"/>
      <sparseX i="446" alpha="-3422.1780212878448" sparseCutoff="1.0000000000000000"/>
      <sparseX i="447" alpha="-236.26485884254450" sparseCutoff="1.0000000000000000"/>
      <sparseX i="448" alpha="-1485.2211208833039" sparseCutoff="1.0000000000000000"/>
      <sparseX i="449" alpha="-349.21547585361759" sparseCutoff="1.0000000000000000"/>
      <sparseX i="450" alpha="1004.8362759067604" sparseCutoff="1.0000000000000000"/>
      <sparseX i="451" alpha="1518.8702545858114" sparseCutoff="1.0000000000000000"/>
      <sparseX i="452" alpha="978.39016881165924" sparseCutoff="1.0000000000000000"/>
      <sparseX i="453" alpha="7070.9256999128738" sparseCutoff="1.0000000000000000"/>
      <sparseX i="454" alpha="-1430.1457987579029" sparseCutoff="1.0000000000000000"/>
      <sparseX i="455" alpha="-707.33189802352547" sparseCutoff="1.0000000000000000"/>
      <sparseX i="456" alpha="-338.68089016452933" sparseCutoff="1.0000000000000000"/>
      <sparseX i="457" alpha="-665.29452594182237" sparseCutoff="1.0000000000000000"/>
      <sparseX i="458" alpha="1895.7303246824624" sparseCutoff="1.0000000000000000"/>
      <sparseX i="459" alpha="1031.8187520724400" sparseCutoff="1.0000000000000000"/>
      <sparseX i="460" alpha="-1107.4667348578528" sparseCutoff="1.0000000000000000"/>
      <sparseX i="461" alpha="945.33906773531578" sparseCutoff="1.0000000000000000"/>
      <sparseX i="462" alpha="-682.56037566756470" sparseCutoff="1.0000000000000000"/>
      <sparseX i="463" alpha="1686.8841719185127" sparseCutoff="1.0000000000000000"/>
      <sparseX i="464" alpha="137.14914354141422" sparseCutoff="1.0000000000000000"/>
      <sparseX i="465" alpha="461.09559757524806" sparseCutoff="1.0000000000000000"/>
      <sparseX i="466" alpha="-145.40250207316157" sparseCutoff="1.0000000000000000"/>
      <sparseX i="467" alpha="-60.882820007801762" sparseCutoff="1.0000000000000000"/>
      <sparseX i="468" alpha="536.49957988011022" sparseCutoff="1.0000000000000000"/>
      <sparseX i="469" alpha="4521.3312791856679" sparseCutoff="1.0000000000000000"/>
      <sparseX i="470" alpha="-110.62224424624547" sparseCutoff="1.0000000000000000"/>
      <sparseX i="471" alpha="-1217.4760460836342" sparseCutoff="1.0000000000000000"/>
      <sparseX i="472" alpha="-916.73127944987550" sparseCutoff="1.0000000000000000"/>
      <sparseX i="473" alpha="-3863.8995655440212" sparseCutoff="1.0000000000000000"/>
      <sparseX i="474" alpha="-132.93238247751299" sparseCutoff="1.0000000000000000"/>
      <sparseX i="475" alpha="-1021.7023444889811" sparseCutoff="1.0000000000000000"/>
      <sparseX i="476" alpha="-423.80559589918198" sparseCutoff="1.0000000000000000"/>
      <sparseX i="477" alpha="-2128.2488196803083" sparseCutoff="1.0000000000000000"/>
      <sparseX i="478" alpha="-2025.2648617503937" sparseCutoff="1.0000000000000000"/>
      <sparseX i="479" alpha="-1263.9288650758849" sparseCutoff="1.0000000000000000"/>
      <sparseX i="480" alpha="-798.57322311880705" sparseCutoff="1.0000000000000000"/>
      <sparseX i="481" alpha="2010.3287221644644" sparseCutoff="1.0000000000000000"/>
      <sparseX i="482" alpha="-4314.8238774781221" sparseCutoff="1.0000000000000000"/>
      <sparseX i="483" alpha="-28.160222237593551" sparseCutoff="1.0000000000000000"/>
      <sparseX i="484" alpha="974.46693719752864" sparseCutoff="1.0000000000000000"/>
      <sparseX i="485" alpha="-64.604224263147074" sparseCutoff="1.0000000000000000"/>
      <sparseX i="486" alpha="172.22662924709181" sparseCutoff="1.0000000000000000"/>
      <sparseX i="487" alpha="-2864.6850424677136" sparseCutoff="1.0000000000000000"/>
      <sparseX i="488" alpha="1051.9508379154743" sparseCutoff="1.0000000000000000"/>
      <sparseX i="489" alpha="1525.0832438578725" sparseCutoff="1.0000000000000000"/>
      <sparseX i="490" alpha="355.15815341916800" sparseCutoff="1.0000000000000000"/>
      <sparseX i="491" alpha="-378.00744732679482" sparseCutoff="1.0000000000000000"/>
      <sparseX i="492" alpha="-786.64507728816886" sparseCutoff="1.0000000000000000"/>
      <sparseX i="493" alpha="-3178.4490993088839" sparseCutoff="1.0000000000000000"/>
      <sparseX i="494" alpha="-1118.4644484960027" sparseCutoff="1.0000000000000000"/>
      <sparseX i="495" alpha="2282.0288831621565" sparseCutoff="1.0000000000000000"/>
      <sparseX i="496" alpha="-1401.6751723317641" sparseCutoff="1.0000000000000000"/>
      <sparseX i="497" alpha="1324.2310745208115" sparseCutoff="1.0000000000000000"/>
      <sparseX i="498" alpha="-1560.8103038565441" sparseCutoff="1.0000000000000000"/>
      <sparseX i="499" alpha="-3309.2370662636972" sparseCutoff="1.0000000000000000"/>
      <sparseX i="500" alpha="2675.3266524789901" sparseCutoff="1.0000000000000000"/>
      <sparseX i="501" alpha="-680.67287821344269" sparseCutoff="1.0000000000000000"/>
      <sparseX i="502" alpha="-148.28957354425904" sparseCutoff="1.0000000000000000"/>
      <sparseX i="503" alpha="-935.88032439964547" sparseCutoff="1.0000000000000000"/>
      <sparseX i="504" alpha="-1831.6273196610018" sparseCutoff="1.0000000000000000"/>
      <sparseX i="505" alpha="-1448.9960989796755" sparseCutoff="1.0000000000000000"/>
      <sparseX i="506" alpha="-1514.2547455933966" sparseCutoff="1.0000000000000000"/>
      <sparseX i="507" alpha="-285.90434904696804" sparseCutoff="1.0000000000000000"/>
      <sparseX i="508" alpha="-3038.6151341903796" sparseCutoff="1.0000000000000000"/>
      <sparseX i="509" alpha="38.833111548535179" sparseCutoff="1.0000000000000000"/>
      <sparseX i="510" alpha="1179.2489993829804" sparseCutoff="1.0000000000000000"/>
      <sparseX i="511" alpha="671.49910390120488" sparseCutoff="1.0000000000000000"/>
      <sparseX i="512" alpha="823.46486332985614" sparseCutoff="1.0000000000000000"/>
      <sparseX i="513" alpha="1846.3087722483588" sparseCutoff="1.0000000000000000"/>
      <sparseX i="514" alpha="1819.7802727270355" sparseCutoff="1.0000000000000000"/>
      <sparseX i="515" alpha="709.89171075507386" sparseCutoff="1.0000000000000000"/>
      <sparseX i="516" alpha="-1525.4244529610344" sparseCutoff="1.0000000000000000"/>
      <sparseX i="517" alpha="-102.53460047682903" sparseCutoff="1.0000000000000000"/>
      <sparseX i="518" alpha="-2823.3757992125388" sparseCutoff="1.0000000000000000"/>
      <sparseX i="519" alpha="1785.7130039898427" sparseCutoff="1.0000000000000000"/>
      <sparseX i="520" alpha="-939.72335622735136" sparseCutoff="1.0000000000000000"/>
      <sparseX i="521" alpha="944.24564896961658" sparseCutoff="1.0000000000000000"/>
      <sparseX i="522" alpha="318.64464358523804" sparseCutoff="1.0000000000000000"/>
      <sparseX i="523" alpha="-1077.9963080166310" sparseCutoff="1.0000000000000000"/>
      <sparseX i="524" alpha="-1431.7491387923751" sparseCutoff="1.0000000000000000"/>
      <sparseX i="525" alpha="-38.004927792107154" sparseCutoff="1.0000000000000000"/>
      <sparseX i="526" alpha="3334.6558858787448" sparseCutoff="1.0000000000000000"/>
      <sparseX i="527" alpha="-5486.8058625420017" sparseCutoff="1.0000000000000000"/>
      <sparseX i="528" alpha="-1788.3959697074872" sparseCutoff="1.0000000000000000"/>
      <sparseX i="529" alpha="-615.79299208283749" sparseCutoff="1.0000000000000000"/>
      <sparseX i="530" alpha="440.15068974345428" sparseCutoff="1.0000000000000000"/>
      <sparseX i="531" alpha="2375.4853740521949" sparseCutoff="1.0000000000000000"/>
      <sparseX i="532" alpha="-936.65964693566843" sparseCutoff="1.0000000000000000"/>
      <sparseX i="533" alpha="605.35406118562355" sparseCutoff="1.0000000000000000"/>
      <sparseX i="534" alpha="-3946.2635455485383" sparseCutoff="1.0000000000000000"/>
      <sparseX i="535" alpha="1273.3237865806570" sparseCutoff="1.0000000000000000"/>
      <sparseX i="536" alpha="-1510.1721163852249" sparseCutoff="1.0000000000000000"/>
      <sparseX i="537" alpha="-236.44718025425016" sparseCutoff="1.0000000000000000"/>
      <sparseX i="538" alpha="380.67993010404683" sparseCutoff="1.0000000000000000"/>
      <sparseX i="539" alpha="786.77921131293976" sparseCutoff="1.0000000000000000"/>
      <sparseX i="540" alpha="2551.4482041740876" sparseCutoff="1.0000000000000000"/>
      <sparseX i="541" alpha="-1526.0118764799088" sparseCutoff="1.0000000000000000"/>
      <sparseX i="542" alpha="-16.206078897154871" sparseCutoff="1.0000000000000000"/>
      <sparseX i="543" alpha="-1924.3087294397531" sparseCutoff="1.0000000000000000"/>
      <sparseX i="544" alpha="2910.1326568577979" sparseCutoff="1.0000000000000000"/>
      <sparseX i="545" alpha="-724.40989485816647" sparseCutoff="1.0000000000000000"/>
      <sparseX i="546" alpha="376.41999103937786" sparseCutoff="1.0000000000000000"/>
      <sparseX i="547" alpha="220.27463496403124" sparseCutoff="1.0000000000000000"/>
      <sparseX i="548" alpha="44.562539482453204" sparseCutoff="1.0000000000000000"/>
      <sparseX i="549" alpha="938.70712147671588" sparseCutoff="1.0000000000000000"/>
      <sparseX i="550" alpha="506.43026804583121" sparseCutoff="1.0000000000000000"/>
      <sparseX i="551" alpha="-1117.8335519283546" sparseCutoff="1.0000000000000000"/>
      <sparseX i="552" alpha="253.25000542285028" sparseCutoff="1.0000000000000000"/>
      <sparseX i="553" alpha="-94.943014914343991" sparseCutoff="1.0000000000000000"/>
      <sparseX i="554" alpha="-2905.2564675632743" sparseCutoff="1.0000000000000000"/>
      <sparseX i="555" alpha="372.92913041527771" sparseCutoff="1.0000000000000000"/>
      <sparseX i="556" alpha="-953.13069504957366" sparseCutoff="1.0000000000000000"/>
      <sparseX i="557" alpha="-240.89023396343418" sparseCutoff="1.0000000000000000"/>
      <sparseX i="558" alpha="3061.2768653221651" sparseCutoff="1.0000000000000000"/>
      <sparseX i="559" alpha="632.06529141565352" sparseCutoff="1.0000000000000000"/>
      <sparseX i="560" alpha="-3427.0945620974221" sparseCutoff="1.0000000000000000"/>
      <sparseX i="561" alpha="1133.6399245844991" sparseCutoff="1.0000000000000000"/>
      <sparseX i="562" alpha="550.43069668427324" sparseCutoff="1.0000000000000000"/>
      <sparseX i="563" alpha="468.41493985276816" sparseCutoff="1.0000000000000000"/>
      <sparseX i="564" alpha="-524.98508955532066" sparseCutoff="1.0000000000000000"/>
      <sparseX i="565" alpha="-1119.9262276201371" sparseCutoff="1.0000000000000000"/>
      <sparseX i="566" alpha="-1718.4922071157789" sparseCutoff="1.0000000000000000"/>
      <sparseX i="567" alpha="-188.52546492189109" sparseCutoff="1.0000000000000000"/>
      <sparseX i="568" alpha="600.26050819461113" sparseCutoff="1.0000000000000000"/>
      <sparseX i="569" alpha="-292.26109914015530" sparseCutoff="1.0000000000000000"/>
      <sparseX i="570" alpha="-297.62382409356616" sparseCutoff="1.0000000000000000"/>
      <sparseX i="571" alpha="885.72430952479567" sparseCutoff="1.0000000000000000"/>
      <sparseX i="572" alpha="-447.40633987209088" sparseCutoff="1.0000000000000000"/>
      <sparseX i="573" alpha="-793.67811304617999" sparseCutoff="1.0000000000000000"/>
      <sparseX i="574" alpha="-700.88394891387452" sparseCutoff="1.0000000000000000"/>
      <sparseX i="575" alpha="641.78947941010711" sparseCutoff="1.0000000000000000"/>
      <sparseX i="576" alpha="-2452.8046980231516" sparseCutoff="1.0000000000000000"/>
      <sparseX i="577" alpha="153.95711038643122" sparseCutoff="1.0000000000000000"/>
      <sparseX i="578" alpha="302.26925442222199" sparseCutoff="1.0000000000000000"/>
      <sparseX i="579" alpha="3317.2251653077915" sparseCutoff="1.0000000000000000"/>
      <sparseX i="580" alpha="-4328.2695653879482" sparseCutoff="1.0000000000000000"/>
      <sparseX i="581" alpha="-308.20008030605845" sparseCutoff="1.0000000000000000"/>
      <sparseX i="582" alpha="-22.017123596153063" sparseCutoff="1.0000000000000000"/>
      <sparseX i="583" alpha="1605.3345554828518" sparseCutoff="1.0000000000000000"/>
      <sparseX i="584" alpha="1837.8920769955682" sparseCutoff="1.0000000000000000"/>
      <sparseX i="585" alpha="-798.48349408087961" sparseCutoff="1.0000000000000000"/>
      <sparseX i="586" alpha="-371.74202047135537" sparseCutoff="1.0000000000000000"/>
      <sparseX i="587" alpha="79.764787778106921" sparseCutoff="1.0000000000000000"/>
      <sparseX i="588" alpha="610.46919501351113" sparseCutoff="1.0000000000000000"/>
      <sparseX i="589" alpha="311.10351026484454" sparseCutoff="1.0000000000000000"/>
      <sparseX i="590" alpha="68.587954744124019" sparseCutoff="1.0000000000000000"/>
      <sparseX i="591" alpha="494.10093031492829" sparseCutoff="1.0000000000000000"/>
      <sparseX i="592" alpha="-251.71574441228722" sparseCutoff="1.0000000000000000"/>
      <sparseX i="593" alpha="137.35666502373672" sparseCutoff="1.0000000000000000"/>
      <sparseX i="594" alpha="-1150.6963141742633" sparseCutoff="1.0000000000000000"/>
      <sparseX i="595" alpha="768.97128373534599" sparseCutoff="1.0000000000000000"/>
      <sparseX i="596" alpha="-140.77810408920755" sparseCutoff="1.0000000000000000"/>
      <sparseX i="597" alpha="767.63119489009159" sparseCutoff="1.0000000000000000"/>
      <sparseX i="598" alpha="-7.8180215279463328" sparseCutoff="1.0000000000000000"/>
      <sparseX i="599" alpha="1559.9528566824188" sparseCutoff="1.0000000000000000"/>
      <sparseX i="600" alpha="1110.8866597974445" sparseCutoff="1.0000000000000000"/>
      <sparseX i="601" alpha="-1607.4118944748529" sparseCutoff="1.0000000000000000"/>
      <sparseX i="602" alpha="-721.71014324034252" sparseCutoff="1.0000000000000000"/>
      <sparseX i="603" alpha="-1069.3542875922319" sparseCutoff="1.0000000000000000"/>
      <sparseX i="604" alpha="-91.079798275743784" sparseCutoff="1.0000000000000000"/>
      <sparseX i="605" alpha="-1997.2530984459142" sparseCutoff="1.0000000000000000"/>
      <sparseX i="606" alpha="3614.4176937161983" sparseCutoff="1.0000000000000000"/>
      <sparseX i="607" alpha="-75.987728103366166" sparseCutoff="1.0000000000000000"/>
      <sparseX i="608" alpha="-1602.7329590678562" sparseCutoff="1.0000000000000000"/>
      <sparseX i="609" alpha="-276.62815922628164" sparseCutoff="1.0000000000000000"/>
      <sparseX i="610" alpha="-2330.5747108938849" sparseCutoff="1.0000000000000000"/>
      <sparseX i="611" alpha="-4407.4203090661276" sparseCutoff="1.0000000000000000"/>
      <sparseX i="612" alpha="386.24859077500241" sparseCutoff="1.0000000000000000"/>
      <sparseX i="613" alpha="-1371.9134646926461" sparseCutoff="1.0000000000000000"/>
      <sparseX i="614" alpha="729.44865957390039" sparseCutoff="1.0000000000000000"/>
      <sparseX i="615" alpha="-2301.9311453172127" sparseCutoff="1.0000000000000000"/>
      <sparseX i="616" alpha="394.10090890149354" sparseCutoff="1.0000000000000000"/>
      <sparseX i="617" alpha="-981.06270149275895" sparseCutoff="1.0000000000000000"/>
      <sparseX i="618" alpha="71.530452959997973" sparseCutoff="1.0000000000000000"/>
      <sparseX i="619" alpha="-2394.6183537959423" sparseCutoff="1.0000000000000000"/>
      <sparseX i="620" alpha="-509.54711175575710" sparseCutoff="1.0000000000000000"/>
      <sparseX i="621" alpha="-19.345569608785862" sparseCutoff="1.0000000000000000"/>
      <sparseX i="622" alpha="389.63094471709456" sparseCutoff="1.0000000000000000"/>
      <sparseX i="623" alpha="721.66100563480200" sparseCutoff="1.0000000000000000"/>
      <sparseX i="624" alpha="4924.5855932507202" sparseCutoff="1.0000000000000000"/>
      <sparseX i="625" alpha="-1418.8796135111265" sparseCutoff="1.0000000000000000"/>
      <sparseX i="626" alpha="-115.24601031252237" sparseCutoff="1.0000000000000000"/>
      <sparseX i="627" alpha="1387.8014852423021" sparseCutoff="1.0000000000000000"/>
      <sparseX i="628" alpha="438.15445961705780" sparseCutoff="1.0000000000000000"/>
      <sparseX i="629" alpha="219.41678168533937" sparseCutoff="1.0000000000000000"/>
      <sparseX i="630" alpha="721.67944544644502" sparseCutoff="1.0000000000000000"/>
      <sparseX i="631" alpha="673.99804301426536" sparseCutoff="1.0000000000000000"/>
      <sparseX i="632" alpha="445.56365050424262" sparseCutoff="1.0000000000000000"/>
      <sparseX i="633" alpha="4362.7152497180059" sparseCutoff="1.0000000000000000"/>
      <sparseX i="634" alpha="2556.2798190582989" sparseCutoff="1.0000000000000000"/>
      <sparseX i="635" alpha="-1130.1791013219522" sparseCutoff="1.0000000000000000"/>
      <sparseX i="636" alpha="127.05440469600816" sparseCutoff="1.0000000000000000"/>
      <sparseX i="637" alpha="-766.44662572259574" sparseCutoff="1.0000000000000000"/>
      <sparseX i="638" alpha="-1680.0769501434770" sparseCutoff="1.0000000000000000"/>
      <sparseX i="639" alpha="-720.99160812669265" sparseCutoff="1.0000000000000000"/>
      <sparseX i="640" alpha="635.06645512046896" sparseCutoff="1.0000000000000000"/>
      <sparseX i="641" alpha="321.90104590167874" sparseCutoff="1.0000000000000000"/>
      <sparseX i="642" alpha="481.63304167821724" sparseCutoff="1.0000000000000000"/>
      <sparseX i="643" alpha="-537.38376407717180" sparseCutoff="1.0000000000000000"/>
      <sparseX i="644" alpha="-497.00663515253484" sparseCutoff="1.0000000000000000"/>
      <sparseX i="645" alpha="1253.6222200128730" sparseCutoff="1.0000000000000000"/>
      <sparseX i="646" alpha="3516.0012524919625" sparseCutoff="1.0000000000000000"/>
      <sparseX i="647" alpha="583.36928030377931" sparseCutoff="1.0000000000000000"/>
      <sparseX i="648" alpha="767.08101982492246" sparseCutoff="1.0000000000000000"/>
      <sparseX i="649" alpha="-2019.7527292902926" sparseCutoff="1.0000000000000000"/>
      <sparseX i="650" alpha="664.71820892662379" sparseCutoff="1.0000000000000000"/>
      <sparseX i="651" alpha="398.37919453980305" sparseCutoff="1.0000000000000000"/>
      <sparseX i="652" alpha="-252.17002622487649" sparseCutoff="1.0000000000000000"/>
      <sparseX i="653" alpha="507.54326940925745" sparseCutoff="1.0000000000000000"/>
      <sparseX i="654" alpha="229.10282203977135" sparseCutoff="1.0000000000000000"/>
      <sparseX i="655" alpha="-1598.5153304656399" sparseCutoff="1.0000000000000000"/>
      <sparseX i="656" alpha="-890.18384672997047" sparseCutoff="1.0000000000000000"/>
      <sparseX i="657" alpha="3758.7405108685994" sparseCutoff="1.0000000000000000"/>
      <sparseX i="658" alpha="-405.63653102795581" sparseCutoff="1.0000000000000000"/>
      <sparseX i="659" alpha="-140.76634308295249" sparseCutoff="1.0000000000000000"/>
      <sparseX i="660" alpha="1031.0193763954701" sparseCutoff="1.0000000000000000"/>
      <sparseX i="661" alpha="3230.8091495436879" sparseCutoff="1.0000000000000000"/>
      <sparseX i="662" alpha="-381.52375263592432" sparseCutoff="1.0000000000000000"/>
      <sparseX i="663" alpha="56.597590258665164" sparseCutoff="1.0000000000000000"/>
      <sparseX i="664" alpha="1597.6093660181280" sparseCutoff="1.0000000000000000"/>
      <sparseX i="665" alpha="24.300143879222098" sparseCutoff="1.0000000000000000"/>
      <sparseX i="666" alpha="-5594.5488030789356" sparseCutoff="1.0000000000000000"/>
      <sparseX i="667" alpha="637.93294319242159" sparseCutoff="1.0000000000000000"/>
      <sparseX i="668" alpha="1837.8923715737690" sparseCutoff="1.0000000000000000"/>
      <sparseX i="669" alpha="-1082.7111181314854" sparseCutoff="1.0000000000000000"/>
      <sparseX i="670" alpha="1414.5068971527060" sparseCutoff="1.0000000000000000"/>
      <sparseX i="671" alpha="-45.597280427110043" sparseCutoff="1.0000000000000000"/>
      <sparseX i="672" alpha="399.59363459888169" sparseCutoff="1.0000000000000000"/>
      <sparseX i="673" alpha="334.82892708943490" sparseCutoff="1.0000000000000000"/>
      <sparseX i="674" alpha="-118.03420835690324" sparseCutoff="1.0000000000000000"/>
      <sparseX i="675" alpha="-506.51639256221040" sparseCutoff="1.0000000000000000"/>
      <sparseX i="676" alpha="470.35135860388249" sparseCutoff="1.0000000000000000"/>
      <sparseX i="677" alpha="-18.872123930107936" sparseCutoff="1.0000000000000000"/>
      <sparseX i="678" alpha="-666.21051478735376" sparseCutoff="1.0000000000000000"/>
      <sparseX i="679" alpha="-479.24374455600821" sparseCutoff="1.0000000000000000"/>
      <sparseX i="680" alpha="2789.2518348080675" sparseCutoff="1.0000000000000000"/>
      <sparseX i="681" alpha="114.16910212895311" sparseCutoff="1.0000000000000000"/>
      <sparseX i="682" alpha="-1630.8779214301842" sparseCutoff="1.0000000000000000"/>
      <sparseX i="683" alpha="-293.28105113699485" sparseCutoff="1.0000000000000000"/>
      <sparseX i="684" alpha="238.01609560082986" sparseCutoff="1.0000000000000000"/>
      <sparseX i="685" alpha="-1614.8760839933627" sparseCutoff="1.0000000000000000"/>
      <sparseX i="686" alpha="-2781.1637050590534" sparseCutoff="1.0000000000000000"/>
      <sparseX i="687" alpha="-96.353366999247243" sparseCutoff="1.0000000000000000"/>
      <sparseX i="688" alpha="-645.74270815257694" sparseCutoff="1.0000000000000000"/>
      <sparseX i="689" alpha="-697.36300281674130" sparseCutoff="1.0000000000000000"/>
      <sparseX i="690" alpha="-1258.5957565440406" sparseCutoff="1.0000000000000000"/>
      <sparseX i="691" alpha="-5737.7923707447117" sparseCutoff="1.0000000000000000"/>
      <sparseX i="692" alpha="149.82176866890180" sparseCutoff="1.0000000000000000"/>
      <sparseX i="693" alpha="-532.30077751756176" sparseCutoff="1.0000000000000000"/>
      <sparseX i="694" alpha="-158.99143851493159" sparseCutoff="1.0000000000000000"/>
      <sparseX i="695" alpha="-178.04383553363834" sparseCutoff="1.0000000000000000"/>
      <sparseX i="696" alpha="350.85718100957672" sparseCutoff="1.0000000000000000"/>
      <sparseX i="697" alpha="-1297.6386134950030" sparseCutoff="1.0000000000000000"/>
      <sparseX i="698" alpha="-388.83354473973560" sparseCutoff="1.0000000000000000"/>
      <sparseX i="699" alpha="-500.12334728556777" sparseCutoff="1.0000000000000000"/>
      <sparseX i="700" alpha="246.05250524228128" sparseCutoff="1.0000000000000000"/>
      <sparseX i="701" alpha="-3240.4911744435581" sparseCutoff="1.0000000000000000"/>
      <sparseX i="702" alpha="427.91512071812969" sparseCutoff="1.0000000000000000"/>
      <sparseX i="703" alpha="-2034.1317307670788" sparseCutoff="1.0000000000000000"/>
      <sparseX i="704" alpha="-517.61456900673556" sparseCutoff="1.0000000000000000"/>
      <sparseX i="705" alpha="1909.6317649308010" sparseCutoff="1.0000000000000000"/>
      <sparseX i="706" alpha="507.54141665683750" sparseCutoff="1.0000000000000000"/>
      <sparseX i="707" alpha="-1151.6423114134775" sparseCutoff="1.0000000000000000"/>
      <sparseX i="708" alpha="2530.7455511077546" sparseCutoff="1.0000000000000000"/>
      <sparseX i="709" alpha="271.11200701560966" sparseCutoff="1.0000000000000000"/>
      <sparseX i="710" alpha="272.42028557911016" sparseCutoff="1.0000000000000000"/>
      <sparseX i="711" alpha="-1102.9106404120732" sparseCutoff="1.0000000000000000"/>
      <sparseX i="712" alpha="1002.2351990149596" sparseCutoff="1.0000000000000000"/>
      <sparseX i="713" alpha="-2.5708967887347152" sparseCutoff="1.0000000000000000"/>
      <sparseX i="714" alpha="1032.2176464978911" sparseCutoff="1.0000000000000000"/>
      <sparseX i="715" alpha="-2024.7243090719853" sparseCutoff="1.0000000000000000"/>
      <sparseX i="716" alpha="195.97299153026793" sparseCutoff="1.0000000000000000"/>
      <sparseX i="717" alpha="-3088.0178529602099" sparseCutoff="1.0000000000000000"/>
      <sparseX i="718" alpha="2035.1800203767966" sparseCutoff="1.0000000000000000"/>
      <sparseX i="719" alpha="2059.1067386438244" sparseCutoff="1.0000000000000000"/>
      <sparseX i="720" alpha="-1177.9629519704315" sparseCutoff="1.0000000000000000"/>
      <sparseX i="721" alpha="1815.6116475225635" sparseCutoff="1.0000000000000000"/>
      <sparseX i="722" alpha="-1407.2863034095403" sparseCutoff="1.0000000000000000"/>
      <sparseX i="723" alpha="1847.8882487931617" sparseCutoff="1.0000000000000000"/>
      <sparseX i="724" alpha="2066.8555287722229" sparseCutoff="1.0000000000000000"/>
      <sparseX i="725" alpha="277.93465315242429" sparseCutoff="1.0000000000000000"/>
      <sparseX i="726" alpha="-73.005388075711906" sparseCutoff="1.0000000000000000"/>
      <sparseX i="727" alpha="-777.57053319102795" sparseCutoff="1.0000000000000000"/>
      <sparseX i="728" alpha="-772.22231047646244" sparseCutoff="1.0000000000000000"/>
      <sparseX i="729" alpha="-273.41683078186463" sparseCutoff="1.0000000000000000"/>
      <sparseX i="730" alpha="146.66241427594275" sparseCutoff="1.0000000000000000"/>
      <sparseX i="731" alpha="313.40177851238667" sparseCutoff="1.0000000000000000"/>
      <sparseX i="732" alpha="-273.49235943197812" sparseCutoff="1.0000000000000000"/>
      <sparseX i="733" alpha="2136.3357848957130" sparseCutoff="1.0000000000000000"/>
      <sparseX i="734" alpha="606.78973039822210" sparseCutoff="1.0000000000000000"/>
      <sparseX i="735" alpha="-272.84818419120296" sparseCutoff="1.0000000000000000"/>
      <sparseX i="736" alpha="549.57509042060417" sparseCutoff="1.0000000000000000"/>
      <sparseX i="737" alpha="313.96288935079815" sparseCutoff="1.0000000000000000"/>
      <sparseX i="738" alpha="-165.61947572631530" sparseCutoff="1.0000000000000000"/>
      <sparseX i="739" alpha="298.22943171285453" sparseCutoff="1.0000000000000000"/>
      <sparseX i="740" alpha="699.34476589138410" sparseCutoff="1.0000000000000000"/>
      <sparseX i="741" alpha="2203.4917119427869" sparseCutoff="1.0000000000000000"/>
      <sparseX i="742" alpha="1861.6382749506786" sparseCutoff="1.0000000000000000"/>
      <sparseX i="743" alpha="-146.60211066926263" sparseCutoff="1.0000000000000000"/>
      <sparseX i="744" alpha="632.41244634852967" sparseCutoff="1.0000000000000000"/>
      <sparseX i="745" alpha="-3278.6149677307981" sparseCutoff="1.0000000000000000"/>
      <sparseX i="746" alpha="888.83929739550024" sparseCutoff="1.0000000000000000"/>
      <sparseX i="747" alpha="-1161.3014204579440" sparseCutoff="1.0000000000000000"/>
      <sparseX i="748" alpha="1155.0252034730072" sparseCutoff="1.0000000000000000"/>
      <sparseX i="749" alpha="6142.5835911746290" sparseCutoff="1.0000000000000000"/>
      <sparseX i="750" alpha="-113.99111128353844" sparseCutoff="1.0000000000000000"/>
      <sparseX i="751" alpha="160.92864792735554" sparseCutoff="1.0000000000000000"/>
      <sparseX i="752" alpha="-6279.2735103982932" sparseCutoff="1.0000000000000000"/>
      <sparseX i="753" alpha="442.76079216409016" sparseCutoff="1.0000000000000000"/>
      <sparseX i="754" alpha="312.90878029755606" sparseCutoff="1.0000000000000000"/>
      <sparseX i="755" alpha="-1511.9494890172723" sparseCutoff="1.0000000000000000"/>
      <sparseX i="756" alpha="-357.03956447745594" sparseCutoff="1.0000000000000000"/>
      <sparseX i="757" alpha="-779.67182558946183" sparseCutoff="1.0000000000000000"/>
      <sparseX i="758" alpha="5425.0693344602660" sparseCutoff="1.0000000000000000"/>
      <sparseX i="759" alpha="1111.9371242232342" sparseCutoff="1.0000000000000000"/>
      <sparseX i="760" alpha="-318.01992091289605" sparseCutoff="1.0000000000000000"/>
      <sparseX i="761" alpha="-1110.4135203732826" sparseCutoff="1.0000000000000000"/>
      <sparseX i="762" alpha="1833.6109824873488" sparseCutoff="1.0000000000000000"/>
      <sparseX i="763" alpha="2698.6657005317225" sparseCutoff="1.0000000000000000"/>
      <sparseX i="764" alpha="-996.28687455107683" sparseCutoff="1.0000000000000000"/>
      <sparseX i="765" alpha="2165.8418657595762" sparseCutoff="1.0000000000000000"/>
      <sparseX i="766" alpha="59.078751785618039" sparseCutoff="1.0000000000000000"/>
      <sparseX i="767" alpha="338.70402481485166" sparseCutoff="1.0000000000000000"/>
      <sparseX i="768" alpha="3381.6008195834111" sparseCutoff="1.0000000000000000"/>
      <sparseX i="769" alpha="100.23782726670331" sparseCutoff="1.0000000000000000"/>
      <sparseX i="770" alpha="-1391.3600904075422" sparseCutoff="1.0000000000000000"/>
      <sparseX i="771" alpha="1296.4807330537546" sparseCutoff="1.0000000000000000"/>
      <sparseX i="772" alpha="-1739.1166554814706" sparseCutoff="1.0000000000000000"/>
      <sparseX i="773" alpha="890.52082599223593" sparseCutoff="1.0000000000000000"/>
      <sparseX i="774" alpha="2022.4513109281950" sparseCutoff="1.0000000000000000"/>
      <sparseX i="775" alpha="-933.67725091003228" sparseCutoff="1.0000000000000000"/>
      <sparseX i="776" alpha="450.62682984438464" sparseCutoff="1.0000000000000000"/>
      <sparseX i="777" alpha="104.48992669461745" sparseCutoff="1.0000000000000000"/>
      <sparseX i="778" alpha="-602.21457680762433" sparseCutoff="1.0000000000000000"/>
      <sparseX i="779" alpha="-158.34675141245930" sparseCutoff="1.0000000000000000"/>
      <sparseX i="780" alpha="9030.7272665016571" sparseCutoff="1.0000000000000000"/>
      <sparseX i="781" alpha="1520.0560356808310" sparseCutoff="1.0000000000000000"/>
      <sparseX i="782" alpha="183.18475091237323" sparseCutoff="1.0000000000000000"/>
      <sparseX i="783" alpha="-423.53917956792804" sparseCutoff="1.0000000000000000"/>
      <sparseX i="784" alpha="3678.2391864124806" sparseCutoff="1.0000000000000000"/>
      <sparseX i="785" alpha="-2850.7299902523096" sparseCutoff="1.0000000000000000"/>
      <sparseX i="786" alpha="195.33494095055801" sparseCutoff="1.0000000000000000"/>
      <sparseX i="787" alpha="893.50380106581190" sparseCutoff="1.0000000000000000"/>
      <sparseX i="788" alpha="-101.22288127809668" sparseCutoff="1.0000000000000000"/>
      <sparseX i="789" alpha="-368.47296168588377" sparseCutoff="1.0000000000000000"/>
      <sparseX i="790" alpha="-1090.3187616906448" sparseCutoff="1.0000000000000000"/>
      <sparseX i="791" alpha="734.45513263856958" sparseCutoff="1.0000000000000000"/>
      <sparseX i="792" alpha="2129.9586020812894" sparseCutoff="1.0000000000000000"/>
      <sparseX i="793" alpha="-2799.4039719447351" sparseCutoff="1.0000000000000000"/>
      <sparseX i="794" alpha="-798.45269129981739" sparseCutoff="1.0000000000000000"/>
      <sparseX i="795" alpha="-81.940531453673387" sparseCutoff="1.0000000000000000"/>
      <sparseX i="796" alpha="-1614.1940167412504" sparseCutoff="1.0000000000000000"/>
      <sparseX i="797" alpha="1171.5735436412149" sparseCutoff="1.0000000000000000"/>
      <sparseX i="798" alpha="5961.8978513240645" sparseCutoff="1.0000000000000000"/>
      <sparseX i="799" alpha="-446.46593961736278" sparseCutoff="1.0000000000000000"/>
      <sparseX i="800" alpha="780.37947847474049" sparseCutoff="1.0000000000000000"/>
      <sparseX i="801" alpha="-576.59291174318582" sparseCutoff="1.0000000000000000"/>
      <sparseX i="802" alpha="2283.2406764997013" sparseCutoff="1.0000000000000000"/>
      <sparseX i="803" alpha="506.79240686626150" sparseCutoff="1.0000000000000000"/>
      <sparseX i="804" alpha="-3675.5320154021324" sparseCutoff="1.0000000000000000"/>
      <sparseX i="805" alpha="933.82832649832187" sparseCutoff="1.0000000000000000"/>
      <sparseX i="806" alpha="1213.5286917268218" sparseCutoff="1.0000000000000000"/>
      <sparseX i="807" alpha="5703.1501908534010" sparseCutoff="1.0000000000000000"/>
      <sparseX i="808" alpha="-2660.2290471522106" sparseCutoff="1.0000000000000000"/>
      <sparseX i="809" alpha="-.13563474737839046E-001" sparseCutoff="1.0000000000000000"/>
      <sparseX i="810" alpha="789.02187187335551" sparseCutoff="1.0000000000000000"/>
      <sparseX i="811" alpha="1907.3155585866011" sparseCutoff="1.0000000000000000"/>
      <sparseX i="812" alpha="-209.65136173409746" sparseCutoff="1.0000000000000000"/>
      <sparseX i="813" alpha="-2455.3625975094851" sparseCutoff="1.0000000000000000"/>
      <sparseX i="814" alpha="1085.0315900353753" sparseCutoff="1.0000000000000000"/>
      <sparseX i="815" alpha="62.621261578721764" sparseCutoff="1.0000000000000000"/>
      <sparseX i="816" alpha="-1184.9475042739059" sparseCutoff="1.0000000000000000"/>
      <sparseX i="817" alpha="-592.31814709980972" sparseCutoff="1.0000000000000000"/>
      <sparseX i="818" alpha="475.52805533061331" sparseCutoff="1.0000000000000000"/>
      <sparseX i="819" alpha="463.33842815037434" sparseCutoff="1.0000000000000000"/>
      <sparseX i="820" alpha="-1364.6602691710850" sparseCutoff="1.0000000000000000"/>
      <sparseX i="821" alpha="598.24382168545378" sparseCutoff="1.0000000000000000"/>
      <sparseX i="822" alpha="-2536.7312758663729" sparseCutoff="1.0000000000000000"/>
      <sparseX i="823" alpha="-1796.2040960000711" sparseCutoff="1.0000000000000000"/>
      <sparseX i="824" alpha="812.31433934953134" sparseCutoff="1.0000000000000000"/>
      <sparseX i="825" alpha="398.58409744192454" sparseCutoff="1.0000000000000000"/>
      <sparseX i="826" alpha="63.732612406978980" sparseCutoff="1.0000000000000000"/>
      <sparseX i="827" alpha="639.27861715821552" sparseCutoff="1.0000000000000000"/>
      <sparseX i="828" alpha="-2746.1790665700451" sparseCutoff="1.0000000000000000"/>
      <sparseX i="829" alpha="-363.52156468035878" sparseCutoff="1.0000000000000000"/>
      <sparseX i="830" alpha="-181.47168429239809" sparseCutoff="1.0000000000000000"/>
      <sparseX i="831" alpha="505.47302879242045" sparseCutoff="1.0000000000000000"/>
      <sparseX i="832" alpha="812.24844193752722" sparseCutoff="1.0000000000000000"/>
      <sparseX i="833" alpha="96.978669777233662" sparseCutoff="1.0000000000000000"/>
      <sparseX i="834" alpha="541.93078723387828" sparseCutoff="1.0000000000000000"/>
      <sparseX i="835" alpha="824.82707198455410" sparseCutoff="1.0000000000000000"/>
      <sparseX i="836" alpha="1599.3974331458317" sparseCutoff="1.0000000000000000"/>
      <sparseX i="837" alpha="-751.31169125646954" sparseCutoff="1.0000000000000000"/>
      <sparseX i="838" alpha="-731.97110259168517" sparseCutoff="1.0000000000000000"/>
      <sparseX i="839" alpha="647.38304849098120" sparseCutoff="1.0000000000000000"/>
      <sparseX i="840" alpha="-1143.2371875923418" sparseCutoff="1.0000000000000000"/>
      <sparseX i="841" alpha="-1403.0011543303858" sparseCutoff="1.0000000000000000"/>
      <sparseX i="842" alpha="4772.0341839873890" sparseCutoff="1.0000000000000000"/>
      <sparseX i="843" alpha="2464.2135218657995" sparseCutoff="1.0000000000000000"/>
      <sparseX i="844" alpha="751.95289597922022" sparseCutoff="1.0000000000000000"/>
      <sparseX i="845" alpha="1850.7786448394347" sparseCutoff="1.0000000000000000"/>
      <sparseX i="846" alpha="-687.19867640811924" sparseCutoff="1.0000000000000000"/>
      <sparseX i="847" alpha="-724.12041824205494" sparseCutoff="1.0000000000000000"/>
      <sparseX i="848" alpha="646.90277370766603" sparseCutoff="1.0000000000000000"/>
      <sparseX i="849" alpha="1593.9813710885333" sparseCutoff="1.0000000000000000"/>
      <sparseX i="850" alpha="-717.82406818315565" sparseCutoff="1.0000000000000000"/>
      <sparseX i="851" alpha="-347.98878489928450" sparseCutoff="1.0000000000000000"/>
      <sparseX i="852" alpha="-2159.5359929073547" sparseCutoff="1.0000000000000000"/>
      <sparseX i="853" alpha="337.16665531886287" sparseCutoff="1.0000000000000000"/>
      <sparseX i="854" alpha="728.06789366149542" sparseCutoff="1.0000000000000000"/>
      <sparseX i="855" alpha="736.88637402272775" sparseCutoff="1.0000000000000000"/>
      <sparseX i="856" alpha="1900.0202592913311" sparseCutoff="1.0000000000000000"/>
      <sparseX i="857" alpha="-827.31401244332039" sparseCutoff="1.0000000000000000"/>
      <sparseX i="858" alpha="-531.57494347037391" sparseCutoff="1.0000000000000000"/>
      <sparseX i="859" alpha="185.47443520219454" sparseCutoff="1.0000000000000000"/>
      <sparseX i="860" alpha="-1223.5711514986479" sparseCutoff="1.0000000000000000"/>
      <sparseX i="861" alpha="101.51396588904852" sparseCutoff="1.0000000000000000"/>
      <sparseX i="862" alpha="-4883.2345250829467" sparseCutoff="1.0000000000000000"/>
      <sparseX i="863" alpha="-825.33785224437122" sparseCutoff="1.0000000000000000"/>
      <sparseX i="864" alpha="347.60722009158275" sparseCutoff="1.0000000000000000"/>
      <sparseX i="865" alpha="2402.1797138976294" sparseCutoff="1.0000000000000000"/>
      <sparseX i="866" alpha="2916.4678171468058" sparseCutoff="1.0000000000000000"/>
      <sparseX i="867" alpha="-2150.9108966553099" sparseCutoff="1.0000000000000000"/>
      <sparseX i="868" alpha="1847.1276578118016" sparseCutoff="1.0000000000000000"/>
      <sparseX i="869" alpha="-163.65156624507486" sparseCutoff="1.0000000000000000"/>
      <sparseX i="870" alpha="-1521.8980698245159" sparseCutoff="1.0000000000000000"/>
      <sparseX i="871" alpha="-4839.2872200135344" sparseCutoff="1.0000000000000000"/>
      <sparseX i="872" alpha="-8740.9100781603411" sparseCutoff="1.0000000000000000"/>
      <sparseX i="873" alpha="2605.0469955509093" sparseCutoff="1.0000000000000000"/>
      <sparseX i="874" alpha="7380.8604915232245" sparseCutoff="1.0000000000000000"/>
      <sparseX i="875" alpha="3315.6536254901407" sparseCutoff="1.0000000000000000"/>
      <sparseX i="876" alpha="1015.6687085312416" sparseCutoff="1.0000000000000000"/>
      <sparseX i="877" alpha="1643.0635229469219" sparseCutoff="1.0000000000000000"/>
      <sparseX i="878" alpha="-7078.3813241221551" sparseCutoff="1.0000000000000000"/>
      <sparseX i="879" alpha="-4388.7264606863528" sparseCutoff="1.0000000000000000"/>
      <sparseX i="880" alpha="-142.65017837919140" sparseCutoff="1.0000000000000000"/>
      <sparseX i="881" alpha="-404.42218559550577" sparseCutoff="1.0000000000000000"/>
      <sparseX i="882" alpha="-508.55312741195092" sparseCutoff="1.0000000000000000"/>
      <sparseX i="883" alpha="746.95065140804559" sparseCutoff="1.0000000000000000"/>
      <sparseX i="884" alpha="537.81767216024036" sparseCutoff="1.0000000000000000"/>
      <sparseX i="885" alpha="-2356.9067756231680" sparseCutoff="1.0000000000000000"/>
      <sparseX i="886" alpha="361.72492928383213" sparseCutoff="1.0000000000000000"/>
      <sparseX i="887" alpha="-60.258584900359040" sparseCutoff="1.0000000000000000"/>
      <sparseX i="888" alpha="-1283.1553314070202" sparseCutoff="1.0000000000000000"/>
      <sparseX i="889" alpha="-2140.8602432132702" sparseCutoff="1.0000000000000000"/>
      <sparseX i="890" alpha="-1797.9051419290681" sparseCutoff="1.0000000000000000"/>
      <sparseX i="891" alpha="-430.96166739890970" sparseCutoff="1.0000000000000000"/>
      <sparseX i="892" alpha="-1726.2303234206768" sparseCutoff="1.0000000000000000"/>
      <sparseX i="893" alpha="2291.7571714049245" sparseCutoff="1.0000000000000000"/>
      <sparseX i="894" alpha="1859.4356029211770" sparseCutoff="1.0000000000000000"/>
      <sparseX i="895" alpha="-702.10448447399608" sparseCutoff="1.0000000000000000"/>
      <sparseX i="896" alpha="-1584.0856021970903" sparseCutoff="1.0000000000000000"/>
      <sparseX i="897" alpha="-1337.7754457838755" sparseCutoff="1.0000000000000000"/>
      <sparseX i="898" alpha="148.77839899759744" sparseCutoff="1.0000000000000000"/>
      <sparseX i="899" alpha="1489.2278012490069" sparseCutoff="1.0000000000000000"/>
      <sparseX i="900" alpha="2161.7682003333957" sparseCutoff="1.0000000000000000"/>
      <sparseX i="901" alpha="-78.636374534912335" sparseCutoff="1.0000000000000000"/>
      <sparseX i="902" alpha="97.316951108262629" sparseCutoff="1.0000000000000000"/>
      <sparseX i="903" alpha="-572.62247518108222" sparseCutoff="1.0000000000000000"/>
      <sparseX i="904" alpha="-181.46627573335672" sparseCutoff="1.0000000000000000"/>
      <sparseX i="905" alpha="353.56774537385741" sparseCutoff="1.0000000000000000"/>
      <sparseX i="906" alpha="-898.87240515933468" sparseCutoff="1.0000000000000000"/>
      <sparseX i="907" alpha="-1660.2237994482077" sparseCutoff="1.0000000000000000"/>
      <sparseX i="908" alpha="-888.94485931846089" sparseCutoff="1.0000000000000000"/>
      <sparseX i="909" alpha="197.37285192610915" sparseCutoff="1.0000000000000000"/>
      <sparseX i="910" alpha="-302.07349304762113" sparseCutoff="1.0000000000000000"/>
      <sparseX i="911" alpha="-460.02497821415784" sparseCutoff="1.0000000000000000"/>
      <sparseX i="912" alpha="-642.40426790973765" sparseCutoff="1.0000000000000000"/>
      <sparseX i="913" alpha="-400.83721837885605" sparseCutoff="1.0000000000000000"/>
      <sparseX i="914" alpha="-442.95041350120528" sparseCutoff="1.0000000000000000"/>
      <sparseX i="915" alpha="-1070.0920036505606" sparseCutoff="1.0000000000000000"/>
      <sparseX i="916" alpha="859.37465871341647" sparseCutoff="1.0000000000000000"/>
      <sparseX i="917" alpha="-245.66259131812058" sparseCutoff="1.0000000000000000"/>
      <sparseX i="918" alpha="441.08492134559299" sparseCutoff="1.0000000000000000"/>
      <sparseX i="919" alpha="702.72302261844050" sparseCutoff="1.0000000000000000"/>
      <sparseX i="920" alpha="671.62194654043094" sparseCutoff="1.0000000000000000"/>
      <sparseX i="921" alpha="798.92309530984539" sparseCutoff="1.0000000000000000"/>
      <sparseX i="922" alpha="-474.77202627417819" sparseCutoff="1.0000000000000000"/>
      <sparseX i="923" alpha="3036.8292145188047" sparseCutoff="1.0000000000000000"/>
      <sparseX i="924" alpha="3238.2001212294799" sparseCutoff="1.0000000000000000"/>
      <sparseX i="925" alpha="2244.0924626307597" sparseCutoff="1.0000000000000000"/>
      <sparseX i="926" alpha="-1560.9628420020695" sparseCutoff="1.0000000000000000"/>
      <sparseX i="927" alpha="-772.07149703725429" sparseCutoff="1.0000000000000000"/>
      <sparseX i="928" alpha="593.32037838124972" sparseCutoff="1.0000000000000000"/>
      <sparseX i="929" alpha="332.22446105868249" sparseCutoff="1.0000000000000000"/>
      <sparseX i="930" alpha="1099.3536223023905" sparseCutoff="1.0000000000000000"/>
      <sparseX i="931" alpha="977.35240806970614" sparseCutoff="1.0000000000000000"/>
      <sparseX i="932" alpha="-2975.3736958916315" sparseCutoff="1.0000000000000000"/>
      <sparseX i="933" alpha="-1473.9642826741122" sparseCutoff="1.0000000000000000"/>
      <sparseX i="934" alpha="-311.49465354682042" sparseCutoff="1.0000000000000000"/>
      <sparseX i="935" alpha="3093.4243153427205" sparseCutoff="1.0000000000000000"/>
      <sparseX i="936" alpha="2407.3643778904930" sparseCutoff="1.0000000000000000"/>
      <sparseX i="937" alpha="1062.2486621899911" sparseCutoff="1.0000000000000000"/>
      <sparseX i="938" alpha="1250.5256615663686" sparseCutoff="1.0000000000000000"/>
      <sparseX i="939" alpha="737.62952167924720" sparseCutoff="1.0000000000000000"/>
      <sparseX i="940" alpha="-1051.8676839137017" sparseCutoff="1.0000000000000000"/>
      <sparseX i="941" alpha="-570.15135168919028" sparseCutoff="1.0000000000000000"/>
      <sparseX i="942" alpha="920.48609185608814" sparseCutoff="1.0000000000000000"/>
      <sparseX i="943" alpha="-119.54433823192890" sparseCutoff="1.0000000000000000"/>
      <sparseX i="944" alpha="-2040.7628756545648" sparseCutoff="1.0000000000000000"/>
      <sparseX i="945" alpha="-1420.0134182471809" sparseCutoff="1.0000000000000000"/>
      <sparseX i="946" alpha="-1225.1972645129567" sparseCutoff="1.0000000000000000"/>
      <sparseX i="947" alpha="-350.78631489438249" sparseCutoff="1.0000000000000000"/>
      <sparseX i="948" alpha="-2421.6554820043893" sparseCutoff="1.0000000000000000"/>
      <sparseX i="949" alpha="125.20200220927292" sparseCutoff="1.0000000000000000"/>
      <sparseX i="950" alpha="581.99681647746502" sparseCutoff="1.0000000000000000"/>
      <sparseX i="951" alpha="2046.3145316218872" sparseCutoff="1.0000000000000000"/>
      <sparseX i="952" alpha="779.01812362662406" sparseCutoff="1.0000000000000000"/>
      <sparseX i="953" alpha="-3002.9897015479605" sparseCutoff="1.0000000000000000"/>
      <sparseX i="954" alpha="1922.6623424387260" sparseCutoff="1.0000000000000000"/>
      <sparseX i="955" alpha="-1371.0734883357018" sparseCutoff="1.0000000000000000"/>
      <sparseX i="956" alpha="-414.98248012120899" sparseCutoff="1.0000000000000000"/>
      <sparseX i="957" alpha="-838.45112767544322" sparseCutoff="1.0000000000000000"/>
      <sparseX i="958" alpha="222.51069620303437" sparseCutoff="1.0000000000000000"/>
      <sparseX i="959" alpha="493.54941433584105" sparseCutoff="1.0000000000000000"/>
      <sparseX i="960" alpha="678.25991287772922" sparseCutoff="1.0000000000000000"/>
      <sparseX i="961" alpha="-758.48664949207750" sparseCutoff="1.0000000000000000"/>
      <sparseX i="962" alpha="1033.4052487713882" sparseCutoff="1.0000000000000000"/>
      <sparseX i="963" alpha="-48.415941062984537" sparseCutoff="1.0000000000000000"/>
      <sparseX i="964" alpha="2089.4032563629280" sparseCutoff="1.0000000000000000"/>
      <sparseX i="965" alpha="2043.6459881974570" sparseCutoff="1.0000000000000000"/>
      <sparseX i="966" alpha="929.81700789948206" sparseCutoff="1.0000000000000000"/>
      <sparseX i="967" alpha="1583.3597819606064" sparseCutoff="1.0000000000000000"/>
      <sparseX i="968" alpha="120.96562073729864" sparseCutoff="1.0000000000000000"/>
      <sparseX i="969" alpha="-162.53583321244963" sparseCutoff="1.0000000000000000"/>
      <sparseX i="970" alpha="11.191866829370364" sparseCutoff="1.0000000000000000"/>
      <sparseX i="971" alpha="-1731.6931923679181" sparseCutoff="1.0000000000000000"/>
      <sparseX i="972" alpha="-3417.3439412993562" sparseCutoff="1.0000000000000000"/>
      <sparseX i="973" alpha="878.79894505648758" sparseCutoff="1.0000000000000000"/>
      <sparseX i="974" alpha="-79.386590832604767" sparseCutoff="1.0000000000000000"/>
      <sparseX i="975" alpha="-922.59026807865087" sparseCutoff="1.0000000000000000"/>
      <sparseX i="976" alpha="1203.4742564892831" sparseCutoff="1.0000000000000000"/>
      <sparseX i="977" alpha="9.3882198500218479" sparseCutoff="1.0000000000000000"/>
      <sparseX i="978" alpha="-206.32623793440138" sparseCutoff="1.0000000000000000"/>
      <sparseX i="979" alpha="174.24578761929564" sparseCutoff="1.0000000000000000"/>
      <sparseX i="980" alpha="-100.59283251872642" sparseCutoff="1.0000000000000000"/>
      <sparseX i="981" alpha="476.10968628775612" sparseCutoff="1.0000000000000000"/>
      <sparseX i="982" alpha="592.88892333611443" sparseCutoff="1.0000000000000000"/>
      <sparseX i="983" alpha="-6168.2246148677041" sparseCutoff="1.0000000000000000"/>
      <sparseX i="984" alpha="947.46968733357130" sparseCutoff="1.0000000000000000"/>
      <sparseX i="985" alpha="494.81799023822003" sparseCutoff="1.0000000000000000"/>
      <sparseX i="986" alpha="-572.75212639246263" sparseCutoff="1.0000000000000000"/>
      <sparseX i="987" alpha="200.46983733228100" sparseCutoff="1.0000000000000000"/>
      <sparseX i="988" alpha="-915.15320084862958" sparseCutoff="1.0000000000000000"/>
      <sparseX i="989" alpha="-702.44811569651995" sparseCutoff="1.0000000000000000"/>
      <sparseX i="990" alpha="404.51014485470802" sparseCutoff="1.0000000000000000"/>
      <sparseX i="991" alpha="805.54516687320734" sparseCutoff="1.0000000000000000"/>
      <sparseX i="992" alpha="-1080.3529360224295" sparseCutoff="1.0000000000000000"/>
      <sparseX i="993" alpha="1615.5972355837002" sparseCutoff="1.0000000000000000"/>
      <sparseX i="994" alpha="-306.66801176815943" sparseCutoff="1.0000000000000000"/>
      <sparseX i="995" alpha="773.19840836509047" sparseCutoff="1.0000000000000000"/>
