<GAP_2023_3_13_0_8_9_33_965>
<Potential label="GAP_2023_3_13_0_8_9_33_965" init_args="IP GAP label=GAP_2023_3_13_0_8_9_33_965"/>
<GAP_params label="GAP_2023_3_13_0_8_9_33_965" gap_version="1657795613">
  <GAP_data do_core="F">
    <e0 Z="1" value=".00000000000000000E+000"/>
    <e0 Z="2" value=".00000000000000000E+000"/>
    <e0 Z="3" value=".00000000000000000E+000"/>
    <e0 Z="4" value=".00000000000000000E+000"/>
    <e0 Z="5" value=".00000000000000000E+000"/>
    <e0 Z="6" value=".00000000000000000E+000"/>
    <e0 Z="7" value=".00000000000000000E+000"/>
    <e0 Z="8" value="-303.57034763605583"/>
    <e0 Z="9" value=".00000000000000000E+000"/>
    <e0 Z="10" value=".00000000000000000E+000"/>
    <e0 Z="11" value=".00000000000000000E+000"/>
    <e0 Z="12" value=".00000000000000000E+000"/>
    <e0 Z="13" value="-303.57034763605583"/>
    <e0 Z="14" value=".00000000000000000E+000"/>
    <e0 Z="15" value=".00000000000000000E+000"/>
    <e0 Z="16" value=".00000000000000000E+000"/>
    <e0 Z="17" value=".00000000000000000E+000"/>
    <e0 Z="18" value=".00000000000000000E+000"/>
    <e0 Z="19" value=".00000000000000000E+000"/>
    <e0 Z="20" value=".00000000000000000E+000"/>
    <e0 Z="21" value=".00000000000000000E+000"/>
    <e0 Z="22" value=".00000000000000000E+000"/>
    <e0 Z="23" value=".00000000000000000E+000"/>
    <e0 Z="24" value=".00000000000000000E+000"/>
    <e0 Z="25" value=".00000000000000000E+000"/>
    <e0 Z="26" value=".00000000000000000E+000"/>
    <e0 Z="27" value=".00000000000000000E+000"/>
    <e0 Z="28" value=".00000000000000000E+000"/>
    <e0 Z="29" value=".00000000000000000E+000"/>
    <e0 Z="30" value=".00000000000000000E+000"/>
    <e0 Z="31" value=".00000000000000000E+000"/>
    <e0 Z="32" value=".00000000000000000E+000"/>
    <e0 Z="33" value=".00000000000000000E+000"/>
    <e0 Z="34" value=".00000000000000000E+000"/>
    <e0 Z="35" value=".00000000000000000E+000"/>
    <e0 Z="36" value=".00000000000000000E+000"/>
    <e0 Z="37" value=".00000000000000000E+000"/>
    <e0 Z="38" value=".00000000000000000E+000"/>
    <e0 Z="39" value=".00000000000000000E+000"/>
    <e0 Z="40" value=".00000000000000000E+000"/>
    <e0 Z="41" value=".00000000000000000E+000"/>
    <e0 Z="42" value=".00000000000000000E+000"/>
    <e0 Z="43" value=".00000000000000000E+000"/>
    <e0 Z="44" value=".00000000000000000E+000"/>
    <e0 Z="45" value=".00000000000000000E+000"/>
    <e0 Z="46" value=".00000000000000000E+000"/>
    <e0 Z="47" value=".00000000000000000E+000"/>
    <e0 Z="48" value=".00000000000000000E+000"/>
    <e0 Z="49" value=".00000000000000000E+000"/>
    <e0 Z="50" value=".00000000000000000E+000"/>
    <e0 Z="51" value=".00000000000000000E+000"/>
    <e0 Z="52" value=".00000000000000000E+000"/>
    <e0 Z="53" value=".00000000000000000E+000"/>
    <e0 Z="54" value=".00000000000000000E+000"/>
    <e0 Z="55" value=".00000000000000000E+000"/>
    <e0 Z="56" value=".00000000000000000E+000"/>
    <e0 Z="57" value=".00000000000000000E+000"/>
    <e0 Z="58" value=".00000000000000000E+000"/>
    <e0 Z="59" value=".00000000000000000E+000"/>
    <e0 Z="60" value=".00000000000000000E+000"/>
    <e0 Z="61" value=".00000000000000000E+000"/>
    <e0 Z="62" value=".00000000000000000E+000"/>
    <e0 Z="63" value=".00000000000000000E+000"/>
    <e0 Z="64" value=".00000000000000000E+000"/>
    <e0 Z="65" value=".00000000000000000E+000"/>
    <e0 Z="66" value=".00000000000000000E+000"/>
    <e0 Z="67" value=".00000000000000000E+000"/>
    <e0 Z="68" value=".00000000000000000E+000"/>
    <e0 Z="69" value=".00000000000000000E+000"/>
    <e0 Z="70" value=".00000000000000000E+000"/>
    <e0 Z="71" value=".00000000000000000E+000"/>
    <e0 Z="72" value=".00000000000000000E+000"/>
    <e0 Z="73" value=".00000000000000000E+000"/>
    <e0 Z="74" value=".00000000000000000E+000"/>
    <e0 Z="75" value=".00000000000000000E+000"/>
    <e0 Z="76" value=".00000000000000000E+000"/>
    <e0 Z="77" value=".00000000000000000E+000"/>
    <e0 Z="78" value=".00000000000000000E+000"/>
    <e0 Z="79" value=".00000000000000000E+000"/>
    <e0 Z="80" value=".00000000000000000E+000"/>
    <e0 Z="81" value=".00000000000000000E+000"/>
    <e0 Z="82" value=".00000000000000000E+000"/>
    <e0 Z="83" value=".00000000000000000E+000"/>
    <e0 Z="84" value=".00000000000000000E+000"/>
    <e0 Z="85" value=".00000000000000000E+000"/>
    <e0 Z="86" value=".00000000000000000E+000"/>
    <e0 Z="87" value=".00000000000000000E+000"/>
    <e0 Z="88" value=".00000000000000000E+000"/>
    <e0 Z="89" value=".00000000000000000E+000"/>
    <e0 Z="90" value=".00000000000000000E+000"/>
    <e0 Z="91" value=".00000000000000000E+000"/>
    <e0 Z="92" value=".00000000000000000E+000"/>
    <e0 Z="93" value=".00000000000000000E+000"/>
    <e0 Z="94" value=".00000000000000000E+000"/>
    <e0 Z="95" value=".00000000000000000E+000"/>
    <e0 Z="96" value=".00000000000000000E+000"/>
    <e0 Z="97" value=".00000000000000000E+000"/>
    <e0 Z="98" value=".00000000000000000E+000"/>
    <e0 Z="99" value=".00000000000000000E+000"/>
    <e0 Z="100" value=".00000000000000000E+000"/>
    <e0 Z="101" value=".00000000000000000E+000"/>
    <e0 Z="102" value=".00000000000000000E+000"/>
    <e0 Z="103" value=".00000000000000000E+000"/>
    <e0 Z="104" value=".00000000000000000E+000"/>
    <e0 Z="105" value=".00000000000000000E+000"/>
    <e0 Z="106" value=".00000000000000000E+000"/>
    <e0 Z="107" value=".00000000000000000E+000"/>
    <e0 Z="108" value=".00000000000000000E+000"/>
    <e0 Z="109" value=".00000000000000000E+000"/>
    <e0 Z="110" value=".00000000000000000E+000"/>
    <e0 Z="111" value=".00000000000000000E+000"/>
    <e0 Z="112" value=".00000000000000000E+000"/>
    <e0 Z="113" value=".00000000000000000E+000"/>
    <e0 Z="114" value=".00000000000000000E+000"/>
    <e0 Z="115" value=".00000000000000000E+000"/>
    <e0 Z="116" value=".00000000000000000E+000"/>
    <e0 Z="117" value=".00000000000000000E+000"/>
    <e0 Z="118" value=".00000000000000000E+000"/>
  </GAP_data>
  <gpSparse label="GAP_2023_3_13_0_8_9_33_965" n_coordinate="5" fitted="T">
    <gpCoordinates label="GAP_2023_3_13_0_8_9_33_9651" dimensions="1" signal_variance="1.0000000000000000" signal_mean=".00000000000000000E+000" sparsified="T" n_permutations="2" covariance_type="1" n_sparseX="20" sparseX_filename="GAP.xml.sparseX.GAP_2023_3_13_0_8_9_33_9651" sparseX_md5sum="2adff144d6cb93aa36fac2ad2f632997">
      <theta>  0.10000000000000000E+001 </theta>
      <descriptor> distance_Nb order=2 n_sparse=20 cutoff=4.5 cutoff_transition_width=1.0 compact_clusters covariance_type=ard_se theta_uniform=1.0 sparse_method=uniform f0=0.0               delta=1.0 Z={8 8 }</descriptor>
      <permutation i="1">1  </permutation>
      <permutation i="2">1  </permutation>
      <sparseX i="1" alpha="-510.37663351442370" sparseCutoff=".87062231842281679"/>
      <sparseX i="2" alpha="6598.8920558227328" sparseCutoff="1.0000000000000000"/>
      <sparseX i="3" alpha="-4341.8257977396752" sparseCutoff="1.0000000000000000"/>
      <sparseX i="4" alpha="2319.9893420912808" sparseCutoff=".32660740912811570E-002"/>
      <sparseX i="5" alpha="5171.7400139716337" sparseCutoff=".93202631799927382E-002"/>
      <sparseX i="6" alpha="4324.0483655395901" sparseCutoff=".70330543826576419"/>
      <sparseX i="7" alpha="2825.8303413219728" sparseCutoff="1.0000000000000000"/>
      <sparseX i="8" alpha="-4638.5619503352509" sparseCutoff="1.0000000000000000"/>
      <sparseX i="9" alpha="-1911.1991546157574" sparseCutoff=".42861304834389946"/>
      <sparseX i="10" alpha="3161.2535110517842" sparseCutoff=".15895364976856741"/>
      <sparseX i="11" alpha="-7326.6014343624756" sparseCutoff="1.0000000000000000"/>
      <sparseX i="12" alpha="-3583.4253742334413" sparseCutoff=".32235381631308763"/>
      <sparseX i="13" alpha="4143.2850961001295" sparseCutoff="1.0000000000000000"/>
      <sparseX i="14" alpha="541.10148256773505" sparseCutoff=".84815147287853565"/>
      <sparseX i="15" alpha="-365.94481046556325" sparseCutoff="1.0000000000000000"/>
      <sparseX i="16" alpha="3272.2275483115245" sparseCutoff="1.0000000000000000"/>
      <sparseX i="17" alpha="8473.5168674492033" sparseCutoff="1.0000000000000000"/>
      <sparseX i="18" alpha="-3290.5101425842390" sparseCutoff=".99323237991574365"/>
      <sparseX i="19" alpha="-604.31907585099589" sparseCutoff="1.0000000000000000"/>
      <sparseX i="20" alpha="-6404.2324220552182" sparseCutoff="1.0000000000000000"/>
    </gpCoordinates>
    <gpCoordinates label="GAP_2023_3_13_0_8_9_33_9652" dimensions="1" signal_variance="1.0000000000000000" signal_mean=".00000000000000000E+000" sparsified="T" n_permutations="1" covariance_type="1" n_sparseX="20" sparseX_filename="GAP.xml.sparseX.GAP_2023_3_13_0_8_9_33_9652" sparseX_md5sum="d10f1ca332dd3db7f377161fc1a06721">
      <theta>  0.10000000000000000E+001 </theta>
      <descriptor> distance_Nb order=2 n_sparse=20 cutoff=4.5 cutoff_transition_width=1.0 compact_clusters covariance_type=ard_se theta_uniform=1.0 sparse_method=uniform f0=0.0               delta=1.0 Z={8 13 }</descriptor>
      <permutation i="1">1  </permutation>
      <sparseX i="1" alpha="1607.3505677088328" sparseCutoff="1.0000000000000000"/>
      <sparseX i="2" alpha="6610.2278805497817" sparseCutoff="1.0000000000000000"/>
      <sparseX i="3" alpha="-7637.5027492699719" sparseCutoff="1.0000000000000000"/>
      <sparseX i="4" alpha="409.35694203130424" sparseCutoff="1.0000000000000000"/>
      <sparseX i="5" alpha="14.564329772429554" sparseCutoff="1.0000000000000000"/>
      <sparseX i="6" alpha="-819.20044437978220" sparseCutoff=".93642329772744393E-001"/>
      <sparseX i="7" alpha="-616.39866801861479" sparseCutoff=".74419362547960022"/>
      <sparseX i="8" alpha="507.09103968989120" sparseCutoff=".98218030139135171"/>
      <sparseX i="9" alpha="938.50755130169307" sparseCutoff=".54751149653160169"/>
      <sparseX i="10" alpha="-143.78373251675504" sparseCutoff=".27028047407960387E-002"/>
      <sparseX i="11" alpha="591.72881001018482" sparseCutoff=".21276294837438126"/>
      <sparseX i="12" alpha="-36.621979415546043" sparseCutoff="1.0000000000000000"/>
      <sparseX i="13" alpha="-604.15370054809114" sparseCutoff=".89706882717968961"/>
      <sparseX i="14" alpha="-1001.7223950012283" sparseCutoff="1.0000000000000000"/>
      <sparseX i="15" alpha="125.80287972696354" sparseCutoff="1.0000000000000000"/>
      <sparseX i="16" alpha="-1030.8156708099455" sparseCutoff="1.0000000000000000"/>
      <sparseX i="17" alpha="4998.1572000497263" sparseCutoff="1.0000000000000000"/>
      <sparseX i="18" alpha="-951.73110059178964" sparseCutoff=".74440858073420213E-001"/>
      <sparseX i="19" alpha="-3753.4669661519347" sparseCutoff="1.0000000000000000"/>
      <sparseX i="20" alpha="-289.40720930154163" sparseCutoff="1.0000000000000000"/>
    </gpCoordinates>
    <gpCoordinates label="GAP_2023_3_13_0_8_9_33_9653" dimensions="1" signal_variance="1.0000000000000000" signal_mean=".00000000000000000E+000" sparsified="T" n_permutations="2" covariance_type="1" n_sparseX="20" sparseX_filename="GAP.xml.sparseX.GAP_2023_3_13_0_8_9_33_9653" sparseX_md5sum="628aa74067ad09a0a62bd8d05a141659">
      <theta>  0.10000000000000000E+001 </theta>
      <descriptor> distance_Nb order=2 n_sparse=20 cutoff=4.5 cutoff_transition_width=1.0 compact_clusters covariance_type=ard_se theta_uniform=1.0 sparse_method=uniform f0=0.0               delta=1.0 Z={13 13 }</descriptor>
      <permutation i="1">1  </permutation>
      <permutation i="2">1  </permutation>
      <sparseX i="1" alpha="-535.77586585990696" sparseCutoff="1.0000000000000000"/>
      <sparseX i="2" alpha="-2043.7799902494510" sparseCutoff="1.0000000000000000"/>
      <sparseX i="3" alpha="48.929739697908602" sparseCutoff=".66146466747517230"/>
      <sparseX i="4" alpha="739.53291939371434" sparseCutoff="1.0000000000000000"/>
      <sparseX i="5" alpha="89.297586495895160" sparseCutoff="1.0000000000000000"/>
      <sparseX i="6" alpha="381.70423305684403" sparseCutoff=".97769552081804600"/>
      <sparseX i="7" alpha="216.92986329472558" sparseCutoff=".96852714080984703"/>
      <sparseX i="8" alpha="1574.3341169724285" sparseCutoff="1.0000000000000000"/>
      <sparseX i="9" alpha="-564.25168572676739" sparseCutoff="1.0000000000000000"/>
      <sparseX i="10" alpha="-803.50332829113597" sparseCutoff=".85621546002613713"/>
      <sparseX i="11" alpha="1205.6833559454547" sparseCutoff="1.0000000000000000"/>
      <sparseX i="12" alpha="-383.63162549729560" sparseCutoff="1.0000000000000000"/>
      <sparseX i="13" alpha="-1732.7106762502387" sparseCutoff="1.0000000000000000"/>
      <sparseX i="14" alpha="-1520.6773327047995" sparseCutoff=".39977791423977949E-002"/>
      <sparseX i="15" alpha="528.91645316122288" sparseCutoff=".52084059315909637"/>
      <sparseX i="16" alpha="2061.6642756089745" sparseCutoff="1.0000000000000000"/>
      <sparseX i="17" alpha="-111.56370538034363" sparseCutoff=".43149796738191315"/>
      <sparseX i="18" alpha="-512.34972933004804" sparseCutoff="1.0000000000000000"/>
      <sparseX i="19" alpha="-2687.5561062653142" sparseCutoff=".79474184091311018E-002"/>
      <sparseX i="20" alpha="-51.382705443103653" sparseCutoff=".43625345481119154"/>
    </gpCoordinates>
    <gpCoordinates label="GAP_2023_3_13_0_8_9_33_9654" dimensions="681" signal_variance=".50000000000000000" signal_mean=".00000000000000000E+000" sparsified="T" n_permutations="1" covariance_type="2" zeta="4.0000000000000000" n_sparseX="355" sparseX_filename="GAP.xml.sparseX.GAP_2023_3_13_0_8_9_33_9654" sparseX_md5sum="b040d33002313b382ae7aafa9492b748">
      <descriptor> soap n_sparse=1000 n_max=8 l_max=4 cutoff=3.5 cutoff_transition_width=0.5 atom_sigma=0.4                  covariance_type=dot_product zeta=4 sparse_method=cur_points delta=0.5 n_species=2 Z=8 species_Z={8 13 }</descriptor>
      <permutation i="1">1  </permutation>
      <sparseX i="1" alpha="1516.8506700763423" sparseCutoff="1.0000000000000000"/>
      <sparseX i="2" alpha="-5224.7385563938997" sparseCutoff="1.0000000000000000"/>
      <sparseX i="3" alpha="-4637.1425985511478" sparseCutoff="1.0000000000000000"/>
      <sparseX i="4" alpha="7656.9171663704719" sparseCutoff="1.0000000000000000"/>
      <sparseX i="5" alpha="2707.7477514585357" sparseCutoff="1.0000000000000000"/>
      <sparseX i="6" alpha="13069.628568017655" sparseCutoff="1.0000000000000000"/>
      <sparseX i="7" alpha="-1440.9868290923353" sparseCutoff="1.0000000000000000"/>
      <sparseX i="8" alpha="8675.9223349052172" sparseCutoff="1.0000000000000000"/>
      <sparseX i="9" alpha="314.28305957491983" sparseCutoff="1.0000000000000000"/>
      <sparseX i="10" alpha="6017.8319554657919" sparseCutoff="1.0000000000000000"/>
      <sparseX i="11" alpha="1580.0621665206454" sparseCutoff="1.0000000000000000"/>
      <sparseX i="12" alpha="1511.1512791444643" sparseCutoff="1.0000000000000000"/>
      <sparseX i="13" alpha="1248.2264921005269" sparseCutoff="1.0000000000000000"/>
      <sparseX i="14" alpha="-6415.6737321051241" sparseCutoff="1.0000000000000000"/>
      <sparseX i="15" alpha="5970.7363111021414" sparseCutoff="1.0000000000000000"/>
      <sparseX i="16" alpha="-3604.3213146387893" sparseCutoff="1.0000000000000000"/>
      <sparseX i="17" alpha="-5996.5594840905587" sparseCutoff="1.0000000000000000"/>
      <sparseX i="18" alpha="-5414.9096346112592" sparseCutoff="1.0000000000000000"/>
      <sparseX i="19" alpha="1091.0824286069130" sparseCutoff="1.0000000000000000"/>
      <sparseX i="20" alpha="3597.8706797952382" sparseCutoff="1.0000000000000000"/>
      <sparseX i="21" alpha="10316.821219849679" sparseCutoff="1.0000000000000000"/>
      <sparseX i="22" alpha="2379.8114109209932" sparseCutoff="1.0000000000000000"/>
      <sparseX i="23" alpha="1107.0640597631211" sparseCutoff="1.0000000000000000"/>
      <sparseX i="24" alpha="5987.7059267243458" sparseCutoff="1.0000000000000000"/>
      <sparseX i="25" alpha="6245.7975440216569" sparseCutoff="1.0000000000000000"/>
      <sparseX i="26" alpha="-5091.9130057676030" sparseCutoff="1.0000000000000000"/>
      <sparseX i="27" alpha="-14947.305285636530" sparseCutoff="1.0000000000000000"/>
      <sparseX i="28" alpha="-7388.6389248476235" sparseCutoff="1.0000000000000000"/>
      <sparseX i="29" alpha="5948.8437557715906" sparseCutoff="1.0000000000000000"/>
      <sparseX i="30" alpha="-11614.721439801644" sparseCutoff="1.0000000000000000"/>
      <sparseX i="31" alpha="-4813.4033578100407" sparseCutoff="1.0000000000000000"/>
      <sparseX i="32" alpha="-4987.1715662472570" sparseCutoff="1.0000000000000000"/>
      <sparseX i="33" alpha="-1897.1636415937769" sparseCutoff="1.0000000000000000"/>
      <sparseX i="34" alpha="3118.4804681459600" sparseCutoff="1.0000000000000000"/>
      <sparseX i="35" alpha="-2868.3785694785215" sparseCutoff="1.0000000000000000"/>
      <sparseX i="36" alpha="5603.8588753238419" sparseCutoff="1.0000000000000000"/>
      <sparseX i="37" alpha="5510.8118081412313" sparseCutoff="1.0000000000000000"/>
      <sparseX i="38" alpha="-8187.6289810111639" sparseCutoff="1.0000000000000000"/>
      <sparseX i="39" alpha="13484.996661859488" sparseCutoff="1.0000000000000000"/>
      <sparseX i="40" alpha="-6499.0138501093379" sparseCutoff="1.0000000000000000"/>
      <sparseX i="41" alpha="-1555.4440349759439" sparseCutoff="1.0000000000000000"/>
      <sparseX i="42" alpha="-1446.1192933887312" sparseCutoff="1.0000000000000000"/>
      <sparseX i="43" alpha="7.4263838241594540" sparseCutoff="1.0000000000000000"/>
      <sparseX i="44" alpha="3408.0443691263886" sparseCutoff="1.0000000000000000"/>
      <sparseX i="45" alpha="-5704.2279621268690" sparseCutoff="1.0000000000000000"/>
      <sparseX i="46" alpha="1997.9324225228888" sparseCutoff="1.0000000000000000"/>
      <sparseX i="47" alpha="4073.8269113447723" sparseCutoff="1.0000000000000000"/>
      <sparseX i="48" alpha="-998.24673245109477" sparseCutoff="1.0000000000000000"/>
      <sparseX i="49" alpha="-11303.708136808911" sparseCutoff="1.0000000000000000"/>
      <sparseX i="50" alpha="3683.9742529101295" sparseCutoff="1.0000000000000000"/>
      <sparseX i="51" alpha="1396.7150022335932" sparseCutoff="1.0000000000000000"/>
      <sparseX i="52" alpha="10471.313296874941" sparseCutoff="1.0000000000000000"/>
      <sparseX i="53" alpha="-10347.458745893000" sparseCutoff="1.0000000000000000"/>
      <sparseX i="54" alpha="-3918.3506162085114" sparseCutoff="1.0000000000000000"/>
      <sparseX i="55" alpha="-9146.8902260593841" sparseCutoff="1.0000000000000000"/>
      <sparseX i="56" alpha="3995.3434696156482" sparseCutoff="1.0000000000000000"/>
      <sparseX i="57" alpha="-2779.8571125981425" sparseCutoff="1.0000000000000000"/>
      <sparseX i="58" alpha="-10947.413775611489" sparseCutoff="1.0000000000000000"/>
      <sparseX i="59" alpha="5826.8834395135264" sparseCutoff="1.0000000000000000"/>
      <sparseX i="60" alpha="4451.2769353226540" sparseCutoff="1.0000000000000000"/>
      <sparseX i="61" alpha="-209.90287675681978" sparseCutoff="1.0000000000000000"/>
      <sparseX i="62" alpha="7543.3906200185611" sparseCutoff="1.0000000000000000"/>
      <sparseX i="63" alpha="1134.8795664200470" sparseCutoff="1.0000000000000000"/>
      <sparseX i="64" alpha="4924.1141408632120" sparseCutoff="1.0000000000000000"/>
      <sparseX i="65" alpha="-19522.724268147642" sparseCutoff="1.0000000000000000"/>
      <sparseX i="66" alpha="184.73684379898535" sparseCutoff="1.0000000000000000"/>
      <sparseX i="67" alpha="-3708.1552835401239" sparseCutoff="1.0000000000000000"/>
      <sparseX i="68" alpha="-5432.3614440145020" sparseCutoff="1.0000000000000000"/>
      <sparseX i="69" alpha="42.529424229529610" sparseCutoff="1.0000000000000000"/>
      <sparseX i="70" alpha="2757.5260640126817" sparseCutoff="1.0000000000000000"/>
      <sparseX i="71" alpha="3945.7701030377907" sparseCutoff="1.0000000000000000"/>
      <sparseX i="72" alpha="1990.6735288722905" sparseCutoff="1.0000000000000000"/>
      <sparseX i="73" alpha="8144.7690083955522" sparseCutoff="1.0000000000000000"/>
      <sparseX i="74" alpha="1304.8838600828603" sparseCutoff="1.0000000000000000"/>
      <sparseX i="75" alpha="-18934.768650773705" sparseCutoff="1.0000000000000000"/>
      <sparseX i="76" alpha="-2592.1237239554689" sparseCutoff="1.0000000000000000"/>
      <sparseX i="77" alpha="-10314.249886913929" sparseCutoff="1.0000000000000000"/>
      <sparseX i="78" alpha="-4485.1937528428371" sparseCutoff="1.0000000000000000"/>
      <sparseX i="79" alpha="-13414.674633304656" sparseCutoff="1.0000000000000000"/>
      <sparseX i="80" alpha="57.485944511567169" sparseCutoff="1.0000000000000000"/>
      <sparseX i="81" alpha="-6159.9277866046168" sparseCutoff="1.0000000000000000"/>
      <sparseX i="82" alpha="-3078.0883629945961" sparseCutoff="1.0000000000000000"/>
      <sparseX i="83" alpha="6805.8082190580790" sparseCutoff="1.0000000000000000"/>
      <sparseX i="84" alpha="6039.9909254299837" sparseCutoff="1.0000000000000000"/>
      <sparseX i="85" alpha="10659.585374753227" sparseCutoff="1.0000000000000000"/>
      <sparseX i="86" alpha="-9384.0966569142038" sparseCutoff="1.0000000000000000"/>
      <sparseX i="87" alpha="7575.4158091533109" sparseCutoff="1.0000000000000000"/>
      <sparseX i="88" alpha="-2860.6125133504152" sparseCutoff="1.0000000000000000"/>
      <sparseX i="89" alpha="11422.491278922007" sparseCutoff="1.0000000000000000"/>
      <sparseX i="90" alpha="-1518.6435725948645" sparseCutoff="1.0000000000000000"/>
      <sparseX i="91" alpha="1904.2483191320819" sparseCutoff="1.0000000000000000"/>
      <sparseX i="92" alpha="-15561.756183463871" sparseCutoff="1.0000000000000000"/>
      <sparseX i="93" alpha="6811.0923197986149" sparseCutoff="1.0000000000000000"/>
      <sparseX i="94" alpha="-3165.8506307125922" sparseCutoff="1.0000000000000000"/>
      <sparseX i="95" alpha="-5574.7017336206700" sparseCutoff="1.0000000000000000"/>
      <sparseX i="96" alpha="-5485.6755795083409" sparseCutoff="1.0000000000000000"/>
      <sparseX i="97" alpha="-1382.0321032716986" sparseCutoff="1.0000000000000000"/>
      <sparseX i="98" alpha="4411.1293682172563" sparseCutoff="1.0000000000000000"/>
      <sparseX i="99" alpha="6515.2342795210161" sparseCutoff="1.0000000000000000"/>
      <sparseX i="100" alpha="-9411.0105332133844" sparseCutoff="1.0000000000000000"/>
      <sparseX i="101" alpha="6878.6073557062555" sparseCutoff="1.0000000000000000"/>
      <sparseX i="102" alpha="3969.7612100739652" sparseCutoff="1.0000000000000000"/>
      <sparseX i="103" alpha="2678.8407678392173" sparseCutoff="1.0000000000000000"/>
      <sparseX i="104" alpha="-1636.2965262048308" sparseCutoff="1.0000000000000000"/>
      <sparseX i="105" alpha="-477.48181839067701" sparseCutoff="1.0000000000000000"/>
      <sparseX i="106" alpha="5426.1936829395345" sparseCutoff="1.0000000000000000"/>
      <sparseX i="107" alpha="-1083.7291224712721" sparseCutoff="1.0000000000000000"/>
      <sparseX i="108" alpha="-6046.9597410062879" sparseCutoff="1.0000000000000000"/>
      <sparseX i="109" alpha="16728.903216973202" sparseCutoff="1.0000000000000000"/>
      <sparseX i="110" alpha="-3113.7721039729076" sparseCutoff="1.0000000000000000"/>
      <sparseX i="111" alpha="11701.836973557472" sparseCutoff="1.0000000000000000"/>
      <sparseX i="112" alpha="5767.1153593349873" sparseCutoff="1.0000000000000000"/>
      <sparseX i="113" alpha="-5580.6744696195346" sparseCutoff="1.0000000000000000"/>
      <sparseX i="114" alpha="1311.2406479693936" sparseCutoff="1.0000000000000000"/>
      <sparseX i="115" alpha="2786.8825245869252" sparseCutoff="1.0000000000000000"/>
      <sparseX i="116" alpha="862.71282880588842" sparseCutoff="1.0000000000000000"/>
      <sparseX i="117" alpha="6688.7354082478196" sparseCutoff="1.0000000000000000"/>
      <sparseX i="118" alpha="-425.25143561990302" sparseCutoff="1.0000000000000000"/>
      <sparseX i="119" alpha="3914.9685915455948" sparseCutoff="1.0000000000000000"/>
      <sparseX i="120" alpha="7876.4494673873760" sparseCutoff="1.0000000000000000"/>
      <sparseX i="121" alpha="-2471.4842780654444" sparseCutoff="1.0000000000000000"/>
      <sparseX i="122" alpha="-2260.4672691082487" sparseCutoff="1.0000000000000000"/>
      <sparseX i="123" alpha="-11706.236182922114" sparseCutoff="1.0000000000000000"/>
      <sparseX i="124" alpha="-8332.0454308860972" sparseCutoff="1.0000000000000000"/>
      <sparseX i="125" alpha="-3400.0739651583212" sparseCutoff="1.0000000000000000"/>
      <sparseX i="126" alpha="11248.970021601122" sparseCutoff="1.0000000000000000"/>
      <sparseX i="127" alpha="580.40144564388720" sparseCutoff="1.0000000000000000"/>
      <sparseX i="128" alpha="6899.7836593620805" sparseCutoff="1.0000000000000000"/>
      <sparseX i="129" alpha="14574.339859527079" sparseCutoff="1.0000000000000000"/>
      <sparseX i="130" alpha="7608.5163444837153" sparseCutoff="1.0000000000000000"/>
      <sparseX i="131" alpha="1543.8177112720305" sparseCutoff="1.0000000000000000"/>
      <sparseX i="132" alpha="231.20130502763124" sparseCutoff="1.0000000000000000"/>
      <sparseX i="133" alpha="-9887.7865388554892" sparseCutoff="1.0000000000000000"/>
      <sparseX i="134" alpha="-4719.4581081452561" sparseCutoff="1.0000000000000000"/>
      <sparseX i="135" alpha="-10618.958470216576" sparseCutoff="1.0000000000000000"/>
      <sparseX i="136" alpha="7378.2000917410833" sparseCutoff="1.0000000000000000"/>
      <sparseX i="137" alpha="-355.31851828523600" sparseCutoff="1.0000000000000000"/>
      <sparseX i="138" alpha="4723.0491898423861" sparseCutoff="1.0000000000000000"/>
      <sparseX i="139" alpha="5835.2941927002694" sparseCutoff="1.0000000000000000"/>
      <sparseX i="140" alpha="-387.66321035136320" sparseCutoff="1.0000000000000000"/>
      <sparseX i="141" alpha="-6387.1014894763302" sparseCutoff="1.0000000000000000"/>
      <sparseX i="142" alpha="2085.5772373750747" sparseCutoff="1.0000000000000000"/>
      <sparseX i="143" alpha="-16167.589864721218" sparseCutoff="1.0000000000000000"/>
      <sparseX i="144" alpha="3028.4756959070637" sparseCutoff="1.0000000000000000"/>
      <sparseX i="145" alpha="8797.3237794287725" sparseCutoff="1.0000000000000000"/>
      <sparseX i="146" alpha="-1645.5881878375556" sparseCutoff="1.0000000000000000"/>
      <sparseX i="147" alpha="-8351.9155021503193" sparseCutoff="1.0000000000000000"/>
      <sparseX i="148" alpha="-2928.9261458634537" sparseCutoff="1.0000000000000000"/>
      <sparseX i="149" alpha="9879.5219613813897" sparseCutoff="1.0000000000000000"/>
      <sparseX i="150" alpha="-204.98388374878616" sparseCutoff="1.0000000000000000"/>
      <sparseX i="151" alpha="-191.42022334675576" sparseCutoff="1.0000000000000000"/>
      <sparseX i="152" alpha="-1719.8306272656082" sparseCutoff="1.0000000000000000"/>
      <sparseX i="153" alpha="2178.1155441480646" sparseCutoff="1.0000000000000000"/>
      <sparseX i="154" alpha="-3974.3507872020778" sparseCutoff="1.0000000000000000"/>
      <sparseX i="155" alpha="-4345.0383331806379" sparseCutoff="1.0000000000000000"/>
      <sparseX i="156" alpha="3622.4013904619596" sparseCutoff="1.0000000000000000"/>
      <sparseX i="157" alpha="-2274.9119093607223" sparseCutoff="1.0000000000000000"/>
      <sparseX i="158" alpha="3609.0349830582350" sparseCutoff="1.0000000000000000"/>
      <sparseX i="159" alpha="14270.229299247405" sparseCutoff="1.0000000000000000"/>
      <sparseX i="160" alpha="-2520.4335730549151" sparseCutoff="1.0000000000000000"/>
      <sparseX i="161" alpha="781.45724233113219" sparseCutoff="1.0000000000000000"/>
      <sparseX i="162" alpha="-6475.6271632757926" sparseCutoff="1.0000000000000000"/>
      <sparseX i="163" alpha="-3097.6987461293393" sparseCutoff="1.0000000000000000"/>
      <sparseX i="164" alpha="-8819.9393412417703" sparseCutoff="1.0000000000000000"/>
      <sparseX i="165" alpha="441.41724408765708" sparseCutoff="1.0000000000000000"/>
      <sparseX i="166" alpha="58.743725415493017" sparseCutoff="1.0000000000000000"/>
      <sparseX i="167" alpha="-3873.7445256621240" sparseCutoff="1.0000000000000000"/>
      <sparseX i="168" alpha="5036.3088785400805" sparseCutoff="1.0000000000000000"/>
      <sparseX i="169" alpha="16380.100725331966" sparseCutoff="1.0000000000000000"/>
      <sparseX i="170" alpha="3412.5176527374983" sparseCutoff="1.0000000000000000"/>
      <sparseX i="171" alpha="1026.5827577268005" sparseCutoff="1.0000000000000000"/>
      <sparseX i="172" alpha="11785.599418925081" sparseCutoff="1.0000000000000000"/>
      <sparseX i="173" alpha="4847.1411514484071" sparseCutoff="1.0000000000000000"/>
      <sparseX i="174" alpha="1310.2112350866164" sparseCutoff="1.0000000000000000"/>
      <sparseX i="175" alpha="1104.1158632238137" sparseCutoff="1.0000000000000000"/>
      <sparseX i="176" alpha="-6272.5577116720415" sparseCutoff="1.0000000000000000"/>
      <sparseX i="177" alpha="3857.4963369744241" sparseCutoff="1.0000000000000000"/>
      <sparseX i="178" alpha="-7155.2598967866115" sparseCutoff="1.0000000000000000"/>
      <sparseX i="179" alpha="-3301.2408767969609" sparseCutoff="1.0000000000000000"/>
      <sparseX i="180" alpha="-2611.1583957416515" sparseCutoff="1.0000000000000000"/>
      <sparseX i="181" alpha="-6914.5918947372984" sparseCutoff="1.0000000000000000"/>
      <sparseX i="182" alpha="3187.4560005621397" sparseCutoff="1.0000000000000000"/>
      <sparseX i="183" alpha="1710.0519352295264" sparseCutoff="1.0000000000000000"/>
      <sparseX i="184" alpha="7153.2774192994566" sparseCutoff="1.0000000000000000"/>
      <sparseX i="185" alpha="-1784.5416213030724" sparseCutoff="1.0000000000000000"/>
      <sparseX i="186" alpha="-5457.4814370814975" sparseCutoff="1.0000000000000000"/>
      <sparseX i="187" alpha="2003.2888696017239" sparseCutoff="1.0000000000000000"/>
      <sparseX i="188" alpha="-7506.0308773834658" sparseCutoff="1.0000000000000000"/>
      <sparseX i="189" alpha="-5227.2862220705501" sparseCutoff="1.0000000000000000"/>
      <sparseX i="190" alpha="-2104.2701467552829" sparseCutoff="1.0000000000000000"/>
      <sparseX i="191" alpha="11463.308650191388" sparseCutoff="1.0000000000000000"/>
      <sparseX i="192" alpha="3015.3816869268080" sparseCutoff="1.0000000000000000"/>
      <sparseX i="193" alpha="938.88132309742957" sparseCutoff="1.0000000000000000"/>
      <sparseX i="194" alpha="-6343.4243146288891" sparseCutoff="1.0000000000000000"/>
      <sparseX i="195" alpha="16080.901352611008" sparseCutoff="1.0000000000000000"/>
      <sparseX i="196" alpha="-2893.2200813700083" sparseCutoff="1.0000000000000000"/>
      <sparseX i="197" alpha="243.32249294489841" sparseCutoff="1.0000000000000000"/>
      <sparseX i="198" alpha="-149.62331040930218" sparseCutoff="1.0000000000000000"/>
      <sparseX i="199" alpha="-4767.0824825471082" sparseCutoff="1.0000000000000000"/>
      <sparseX i="200" alpha="190.25842461938666" sparseCutoff="1.0000000000000000"/>
      <sparseX i="201" alpha="-6817.5916868406457" sparseCutoff="1.0000000000000000"/>
      <sparseX i="202" alpha="-5100.7547372442177" sparseCutoff="1.0000000000000000"/>
      <sparseX i="203" alpha="2183.5438679369099" sparseCutoff="1.0000000000000000"/>
      <sparseX i="204" alpha="1027.3200644455776" sparseCutoff="1.0000000000000000"/>
      <sparseX i="205" alpha="6510.8106546573181" sparseCutoff="1.0000000000000000"/>
      <sparseX i="206" alpha="-1474.5267009609413" sparseCutoff="1.0000000000000000"/>
      <sparseX i="207" alpha="12596.211777746812" sparseCutoff="1.0000000000000000"/>
      <sparseX i="208" alpha="-4786.2837426195938" sparseCutoff="1.0000000000000000"/>
      <sparseX i="209" alpha="9228.4800156062738" sparseCutoff="1.0000000000000000"/>
      <sparseX i="210" alpha="2548.6618426616110" sparseCutoff="1.0000000000000000"/>
      <sparseX i="211" alpha="2853.9463362534530" sparseCutoff="1.0000000000000000"/>
      <sparseX i="212" alpha="-2827.5837209329688" sparseCutoff="1.0000000000000000"/>
      <sparseX i="213" alpha="-3114.0622928644416" sparseCutoff="1.0000000000000000"/>
      <sparseX i="214" alpha="18885.864050064971" sparseCutoff="1.0000000000000000"/>
      <sparseX i="215" alpha="-8616.8917396608631" sparseCutoff="1.0000000000000000"/>
      <sparseX i="216" alpha="4359.2590973709657" sparseCutoff="1.0000000000000000"/>
      <sparseX i="217" alpha="25924.398341129236" sparseCutoff="1.0000000000000000"/>
      <sparseX i="218" alpha="8371.2666477472485" sparseCutoff="1.0000000000000000"/>
      <sparseX i="219" alpha="3276.2254481054038" sparseCutoff="1.0000000000000000"/>
      <sparseX i="220" alpha="601.48740745664725" sparseCutoff="1.0000000000000000"/>
      <sparseX i="221" alpha="5751.1406805212828" sparseCutoff="1.0000000000000000"/>
      <sparseX i="222" alpha="4712.3409999900368" sparseCutoff="1.0000000000000000"/>
      <sparseX i="223" alpha="-597.01883016131956" sparseCutoff="1.0000000000000000"/>
      <sparseX i="224" alpha="5148.0028816317863" sparseCutoff="1.0000000000000000"/>
      <sparseX i="225" alpha="-10290.419022024076" sparseCutoff="1.0000000000000000"/>
      <sparseX i="226" alpha="-886.17015081703244" sparseCutoff="1.0000000000000000"/>
      <sparseX i="227" alpha="-2081.2248234716121" sparseCutoff="1.0000000000000000"/>
      <sparseX i="228" alpha="7738.4597723925062" sparseCutoff="1.0000000000000000"/>
      <sparseX i="229" alpha="-13172.899659997112" sparseCutoff="1.0000000000000000"/>
      <sparseX i="230" alpha="5360.7561073144443" sparseCutoff="1.0000000000000000"/>
      <sparseX i="231" alpha="-8470.5376854071801" sparseCutoff="1.0000000000000000"/>
      <sparseX i="232" alpha="-1356.1330030155955" sparseCutoff="1.0000000000000000"/>
      <sparseX i="233" alpha="-6570.6638888894831" sparseCutoff="1.0000000000000000"/>
      <sparseX i="234" alpha="17877.412918684036" sparseCutoff="1.0000000000000000"/>
      <sparseX i="235" alpha="-5734.1931750399135" sparseCutoff="1.0000000000000000"/>
      <sparseX i="236" alpha="2639.5555802260483" sparseCutoff="1.0000000000000000"/>
      <sparseX i="237" alpha="1251.2188148890630" sparseCutoff="1.0000000000000000"/>
      <sparseX i="238" alpha="-3329.3893069992582" sparseCutoff="1.0000000000000000"/>
      <sparseX i="239" alpha="12941.173646519635" sparseCutoff="1.0000000000000000"/>
      <sparseX i="240" alpha="6544.1165963904668" sparseCutoff="1.0000000000000000"/>
      <sparseX i="241" alpha="-998.47229762867516" sparseCutoff="1.0000000000000000"/>
      <sparseX i="242" alpha="870.64565319025201" sparseCutoff="1.0000000000000000"/>
      <sparseX i="243" alpha="-2184.7922824365146" sparseCutoff="1.0000000000000000"/>
      <sparseX i="244" alpha="-10243.577361221913" sparseCutoff="1.0000000000000000"/>
      <sparseX i="245" alpha="914.12647478909150" sparseCutoff="1.0000000000000000"/>
      <sparseX i="246" alpha="2714.9289824365019" sparseCutoff="1.0000000000000000"/>
      <sparseX i="247" alpha="-1305.1464444149756" sparseCutoff="1.0000000000000000"/>
      <sparseX i="248" alpha="-10748.623015088120" sparseCutoff="1.0000000000000000"/>
      <sparseX i="249" alpha="-11195.026407712365" sparseCutoff="1.0000000000000000"/>
      <sparseX i="250" alpha="1833.7562434027466" sparseCutoff="1.0000000000000000"/>
      <sparseX i="251" alpha="-16277.818225029070" sparseCutoff="1.0000000000000000"/>
      <sparseX i="252" alpha="-9624.8720776764039" sparseCutoff="1.0000000000000000"/>
      <sparseX i="253" alpha="-4313.3768849981634" sparseCutoff="1.0000000000000000"/>
      <sparseX i="254" alpha="-10004.298774562463" sparseCutoff="1.0000000000000000"/>
      <sparseX i="255" alpha="8343.3244730366659" sparseCutoff="1.0000000000000000"/>
      <sparseX i="256" alpha="1423.7870675767010" sparseCutoff="1.0000000000000000"/>
      <sparseX i="257" alpha="-417.54224486918059" sparseCutoff="1.0000000000000000"/>
      <sparseX i="258" alpha="9525.5184673264666" sparseCutoff="1.0000000000000000"/>
      <sparseX i="259" alpha="-4555.0467377270052" sparseCutoff="1.0000000000000000"/>
      <sparseX i="260" alpha="-2082.9940498909468" sparseCutoff="1.0000000000000000"/>
      <sparseX i="261" alpha="-2541.9914314180560" sparseCutoff="1.0000000000000000"/>
      <sparseX i="262" alpha="-581.47739747941455" sparseCutoff="1.0000000000000000"/>
      <sparseX i="263" alpha="892.26776514994208" sparseCutoff="1.0000000000000000"/>
      <sparseX i="264" alpha="3090.2307411410065" sparseCutoff="1.0000000000000000"/>
      <sparseX i="265" alpha="8585.0492844488763" sparseCutoff="1.0000000000000000"/>
      <sparseX i="266" alpha="23553.135565708086" sparseCutoff="1.0000000000000000"/>
      <sparseX i="267" alpha="8761.1391808501048" sparseCutoff="1.0000000000000000"/>
      <sparseX i="268" alpha="-2369.1318165792368" sparseCutoff="1.0000000000000000"/>
      <sparseX i="269" alpha="-7154.5380778573935" sparseCutoff="1.0000000000000000"/>
      <sparseX i="270" alpha="-791.82100258128651" sparseCutoff="1.0000000000000000"/>
      <sparseX i="271" alpha="-137.30166861135376" sparseCutoff="1.0000000000000000"/>
      <sparseX i="272" alpha="-3940.0014752701136" sparseCutoff="1.0000000000000000"/>
      <sparseX i="273" alpha="-2258.7698906585738" sparseCutoff="1.0000000000000000"/>
      <sparseX i="274" alpha="1189.6551546070975" sparseCutoff="1.0000000000000000"/>
      <sparseX i="275" alpha="8303.0066991232634" sparseCutoff="1.0000000000000000"/>
      <sparseX i="276" alpha="-2032.2645655566764" sparseCutoff="1.0000000000000000"/>
      <sparseX i="277" alpha="13344.788860461360" sparseCutoff="1.0000000000000000"/>
      <sparseX i="278" alpha="4874.0795234729676" sparseCutoff="1.0000000000000000"/>
      <sparseX i="279" alpha="-6181.8570342240937" sparseCutoff="1.0000000000000000"/>
      <sparseX i="280" alpha="2079.5969756241898" sparseCutoff="1.0000000000000000"/>
      <sparseX i="281" alpha="-8385.9708009633123" sparseCutoff="1.0000000000000000"/>
      <sparseX i="282" alpha="5495.1928661068705" sparseCutoff="1.0000000000000000"/>
      <sparseX i="283" alpha="8632.8360257874338" sparseCutoff="1.0000000000000000"/>
      <sparseX i="284" alpha="-4110.4967008042322" sparseCutoff="1.0000000000000000"/>
      <sparseX i="285" alpha="-6021.1107742761851" sparseCutoff="1.0000000000000000"/>
      <sparseX i="286" alpha="2308.1535428994243" sparseCutoff="1.0000000000000000"/>
      <sparseX i="287" alpha="-9443.5579236775939" sparseCutoff="1.0000000000000000"/>
      <sparseX i="288" alpha="-12683.146318380161" sparseCutoff="1.0000000000000000"/>
      <sparseX i="289" alpha="-269.47890835441109" sparseCutoff="1.0000000000000000"/>
      <sparseX i="290" alpha="-1000.8976649039598" sparseCutoff="1.0000000000000000"/>
      <sparseX i="291" alpha="-4484.6776796748509" sparseCutoff="1.0000000000000000"/>
      <sparseX i="292" alpha="226.01150210848192" sparseCutoff="1.0000000000000000"/>
      <sparseX i="293" alpha="-8120.1454443042094" sparseCutoff="1.0000000000000000"/>
      <sparseX i="294" alpha="-726.38398657575692" sparseCutoff="1.0000000000000000"/>
      <sparseX i="295" alpha="-7091.4951864869372" sparseCutoff="1.0000000000000000"/>
      <sparseX i="296" alpha="6297.7670380322634" sparseCutoff="1.0000000000000000"/>
      <sparseX i="297" alpha="-1950.2777637209601" sparseCutoff="1.0000000000000000"/>
      <sparseX i="298" alpha="-5970.9551605077359" sparseCutoff="1.0000000000000000"/>
      <sparseX i="299" alpha="-1405.2224223160833" sparseCutoff="1.0000000000000000"/>
      <sparseX i="300" alpha="5175.6459573425745" sparseCutoff="1.0000000000000000"/>
      <sparseX i="301" alpha="-10382.640950733714" sparseCutoff="1.0000000000000000"/>
      <sparseX i="302" alpha="5654.2548786130446" sparseCutoff="1.0000000000000000"/>
      <sparseX i="303" alpha="-725.10485186676885" sparseCutoff="1.0000000000000000"/>
      <sparseX i="304" alpha="6451.2860988949833" sparseCutoff="1.0000000000000000"/>
      <sparseX i="305" alpha="-8638.8510306484604" sparseCutoff="1.0000000000000000"/>
      <sparseX i="306" alpha="5335.6301708492310" sparseCutoff="1.0000000000000000"/>
      <sparseX i="307" alpha="-430.84184382438463" sparseCutoff="1.0000000000000000"/>
      <sparseX i="308" alpha="-1740.3818915110594" sparseCutoff="1.0000000000000000"/>
      <sparseX i="309" alpha="7201.0909996712107" sparseCutoff="1.0000000000000000"/>
      <sparseX i="310" alpha="-9975.1952335388105" sparseCutoff="1.0000000000000000"/>
      <sparseX i="311" alpha="-14365.621858913279" sparseCutoff="1.0000000000000000"/>
      <sparseX i="312" alpha="-1224.6843462443883" sparseCutoff="1.0000000000000000"/>
      <sparseX i="313" alpha="1891.5951607794202" sparseCutoff="1.0000000000000000"/>
      <sparseX i="314" alpha="-4436.4554710628299" sparseCutoff="1.0000000000000000"/>
      <sparseX i="315" alpha="5426.6699293732345" sparseCutoff="1.0000000000000000"/>
      <sparseX i="316" alpha="-1331.9378109719971" sparseCutoff="1.0000000000000000"/>
      <sparseX i="317" alpha="-2443.6392371112984" sparseCutoff="1.0000000000000000"/>
      <sparseX i="318" alpha="5725.2144439516624" sparseCutoff="1.0000000000000000"/>
      <sparseX i="319" alpha="1927.5976892856877" sparseCutoff="1.0000000000000000"/>
      <sparseX i="320" alpha="11997.413473526169" sparseCutoff="1.0000000000000000"/>
      <sparseX i="321" alpha="211.75031669307788" sparseCutoff="1.0000000000000000"/>
      <sparseX i="322" alpha="9753.9034685690895" sparseCutoff="1.0000000000000000"/>
      <sparseX i="323" alpha="9249.8660497451765" sparseCutoff="1.0000000000000000"/>
      <sparseX i="324" alpha="-4432.6407562996201" sparseCutoff="1.0000000000000000"/>
      <sparseX i="325" alpha="4216.8482226214346" sparseCutoff="1.0000000000000000"/>
      <sparseX i="326" alpha="-7369.1305781098190" sparseCutoff="1.0000000000000000"/>
      <sparseX i="327" alpha="-896.11314450824364" sparseCutoff="1.0000000000000000"/>
      <sparseX i="328" alpha="1386.2629072462851" sparseCutoff="1.0000000000000000"/>
      <sparseX i="329" alpha="-7508.3707558474716" sparseCutoff="1.0000000000000000"/>
      <sparseX i="330" alpha="5464.4423986017682" sparseCutoff="1.0000000000000000"/>
      <sparseX i="331" alpha="1361.0291713010656" sparseCutoff="1.0000000000000000"/>
      <sparseX i="332" alpha="3052.0919283859125" sparseCutoff="1.0000000000000000"/>
      <sparseX i="333" alpha="-7976.4995683565758" sparseCutoff="1.0000000000000000"/>
      <sparseX i="334" alpha="-4975.5726258835502" sparseCutoff="1.0000000000000000"/>
      <sparseX i="335" alpha="-3257.6111516495057" sparseCutoff="1.0000000000000000"/>
      <sparseX i="336" alpha="-71.130477835557826" sparseCutoff="1.0000000000000000"/>
      <sparseX i="337" alpha="-24229.746798776279" sparseCutoff="1.0000000000000000"/>
      <sparseX i="338" alpha="1519.7926235804600" sparseCutoff="1.0000000000000000"/>
      <sparseX i="339" alpha="-1111.0734195752768" sparseCutoff="1.0000000000000000"/>
      <sparseX i="340" alpha="1306.8329353213444" sparseCutoff="1.0000000000000000"/>
      <sparseX i="341" alpha="1466.7643019052821" sparseCutoff="1.0000000000000000"/>
      <sparseX i="342" alpha="-4597.7450399361423" sparseCutoff="1.0000000000000000"/>
      <sparseX i="343" alpha="2559.0892419651282" sparseCutoff="1.0000000000000000"/>
      <sparseX i="344" alpha="2805.9165321132650" sparseCutoff="1.0000000000000000"/>
      <sparseX i="345" alpha="-2405.8012535489947" sparseCutoff="1.0000000000000000"/>
      <sparseX i="346" alpha="-5813.7711386985720" sparseCutoff="1.0000000000000000"/>
      <sparseX i="347" alpha="-944.65549917561930" sparseCutoff="1.0000000000000000"/>
      <sparseX i="348" alpha="-4562.7892146212916" sparseCutoff="1.0000000000000000"/>
      <sparseX i="349" alpha="-8285.5077551264494" sparseCutoff="1.0000000000000000"/>
      <sparseX i="350" alpha="12140.670931802679" sparseCutoff="1.0000000000000000"/>
      <sparseX i="351" alpha="-11206.062344620774" sparseCutoff="1.0000000000000000"/>
      <sparseX i="352" alpha="3504.2014389759206" sparseCutoff="1.0000000000000000"/>
      <sparseX i="353" alpha="-6128.7226276123920" sparseCutoff="1.0000000000000000"/>
      <sparseX i="354" alpha="-1234.8582112655388" sparseCutoff="1.0000000000000000"/>
      <sparseX i="355" alpha="3653.4094371891551" sparseCutoff="1.0000000000000000"/>
    </gpCoordinates>
    <gpCoordinates label="GAP_2023_3_13_0_8_9_33_9655" dimensions="681" signal_variance=".50000000000000000" signal_mean=".00000000000000000E+000" sparsified="T" n_permutations="1" covariance_type="2" zeta="4.0000000000000000" n_sparseX="235" sparseX_filename="GAP.xml.sparseX.GAP_2023_3_13_0_8_9_33_9655" sparseX_md5sum="4fcb67f3a937f858ec52e5f45d568622">
      <descriptor> soap n_sparse=1000 n_max=8 l_max=4 cutoff=3.5 cutoff_transition_width=0.5 atom_sigma=0.4                  covariance_type=dot_product zeta=4 sparse_method=cur_points delta=0.5 n_species=2 Z=13 species_Z={8 13 }</descriptor>
      <permutation i="1">1  </permutation>
      <sparseX i="1" alpha="-6497.4918590718125" sparseCutoff="1.0000000000000000"/>
      <sparseX i="2" alpha="-5828.8005062110069" sparseCutoff="1.0000000000000000"/>
      <sparseX i="3" alpha="5550.6118494615239" sparseCutoff="1.0000000000000000"/>
      <sparseX i="4" alpha="8832.4173513224250" sparseCutoff="1.0000000000000000"/>
      <sparseX i="5" alpha="2609.7757718190755" sparseCutoff="1.0000000000000000"/>
      <sparseX i="6" alpha="-5383.5205832339552" sparseCutoff="1.0000000000000000"/>
      <sparseX i="7" alpha="-47.679200679570215" sparseCutoff="1.0000000000000000"/>
      <sparseX i="8" alpha="-1187.3899091712078" sparseCutoff="1.0000000000000000"/>
      <sparseX i="9" alpha="-2216.7062993677696" sparseCutoff="1.0000000000000000"/>
      <sparseX i="10" alpha="719.06889783911220" sparseCutoff="1.0000000000000000"/>
      <sparseX i="11" alpha="4988.9223333671716" sparseCutoff="1.0000000000000000"/>
      <sparseX i="12" alpha="-1291.7660927462180" sparseCutoff="1.0000000000000000"/>
      <sparseX i="13" alpha="-4231.9635893467157" sparseCutoff="1.0000000000000000"/>
      <sparseX i="14" alpha="-1354.8423960719344" sparseCutoff="1.0000000000000000"/>
      <sparseX i="15" alpha="-9975.6046520221917" sparseCutoff="1.0000000000000000"/>
      <sparseX i="16" alpha="10424.481876205891" sparseCutoff="1.0000000000000000"/>
      <sparseX i="17" alpha="-2057.4781680480460" sparseCutoff="1.0000000000000000"/>
      <sparseX i="18" alpha="4851.7084099693875" sparseCutoff="1.0000000000000000"/>
      <sparseX i="19" alpha="405.28978249713668" sparseCutoff="1.0000000000000000"/>
      <sparseX i="20" alpha="-7083.2496983125175" sparseCutoff="1.0000000000000000"/>
      <sparseX i="21" alpha="-12645.166594625305" sparseCutoff="1.0000000000000000"/>
      <sparseX i="22" alpha="-2003.3708270747463" sparseCutoff="1.0000000000000000"/>
      <sparseX i="23" alpha="8008.9898235986129" sparseCutoff="1.0000000000000000"/>
      <sparseX i="24" alpha="-2335.3802940008895" sparseCutoff="1.0000000000000000"/>
      <sparseX i="25" alpha="-2198.8882523417451" sparseCutoff="1.0000000000000000"/>
      <sparseX i="26" alpha="1756.9921937090210" sparseCutoff="1.0000000000000000"/>
      <sparseX i="27" alpha="1130.4899081344945" sparseCutoff="1.0000000000000000"/>
      <sparseX i="28" alpha="-13945.222136139191" sparseCutoff="1.0000000000000000"/>
      <sparseX i="29" alpha="3694.5820500092968" sparseCutoff="1.0000000000000000"/>
      <sparseX i="30" alpha="-4245.1562379210964" sparseCutoff="1.0000000000000000"/>
      <sparseX i="31" alpha="5757.7092223384680" sparseCutoff="1.0000000000000000"/>
      <sparseX i="32" alpha="3585.1133381846844" sparseCutoff="1.0000000000000000"/>
      <sparseX i="33" alpha="11595.255236954399" sparseCutoff="1.0000000000000000"/>
      <sparseX i="34" alpha="752.02603540901112" sparseCutoff="1.0000000000000000"/>
      <sparseX i="35" alpha="370.94038357323262" sparseCutoff="1.0000000000000000"/>
      <sparseX i="36" alpha="-6611.6403951809662" sparseCutoff="1.0000000000000000"/>
      <sparseX i="37" alpha="7940.9412852555515" sparseCutoff="1.0000000000000000"/>
      <sparseX i="38" alpha="-9446.1357915654607" sparseCutoff="1.0000000000000000"/>
      <sparseX i="39" alpha="-929.73236329633994" sparseCutoff="1.0000000000000000"/>
      <sparseX i="40" alpha="3997.2436002701152" sparseCutoff="1.0000000000000000"/>
      <sparseX i="41" alpha="-718.48700464849298" sparseCutoff="1.0000000000000000"/>
      <sparseX i="42" alpha="1034.8400787800845" sparseCutoff="1.0000000000000000"/>
      <sparseX i="43" alpha="339.39386493100432" sparseCutoff="1.0000000000000000"/>
      <sparseX i="44" alpha="-5300.9212509218587" sparseCutoff="1.0000000000000000"/>
      <sparseX i="45" alpha="15615.409162843816" sparseCutoff="1.0000000000000000"/>
      <sparseX i="46" alpha="7779.9344698522900" sparseCutoff="1.0000000000000000"/>
      <sparseX i="47" alpha="-10153.494235448270" sparseCutoff="1.0000000000000000"/>
      <sparseX i="48" alpha="8320.2472479056796" sparseCutoff="1.0000000000000000"/>
      <sparseX i="49" alpha="1317.8934586762784" sparseCutoff="1.0000000000000000"/>
      <sparseX i="50" alpha="-1255.1505791771806" sparseCutoff="1.0000000000000000"/>
      <sparseX i="51" alpha="-14953.863578934404" sparseCutoff="1.0000000000000000"/>
      <sparseX i="52" alpha="-6669.5928181556446" sparseCutoff="1.0000000000000000"/>
      <sparseX i="53" alpha="-2630.0879817107589" sparseCutoff="1.0000000000000000"/>
      <sparseX i="54" alpha="2476.0482458533065" sparseCutoff="1.0000000000000000"/>
      <sparseX i="55" alpha="8167.2424331732855" sparseCutoff="1.0000000000000000"/>
      <sparseX i="56" alpha="-3790.2478486322893" sparseCutoff="1.0000000000000000"/>
      <sparseX i="57" alpha="3428.7026624953328" sparseCutoff="1.0000000000000000"/>
      <sparseX i="58" alpha="-6228.1443616408869" sparseCutoff="1.0000000000000000"/>
      <sparseX i="59" alpha="2582.5372790494703" sparseCutoff="1.0000000000000000"/>
      <sparseX i="60" alpha="9765.8601993514185" sparseCutoff="1.0000000000000000"/>
      <sparseX i="61" alpha="4691.8967541472084" sparseCutoff="1.0000000000000000"/>
      <sparseX i="62" alpha="16642.558522004278" sparseCutoff="1.0000000000000000"/>
      <sparseX i="63" alpha="-14830.062864395057" sparseCutoff="1.0000000000000000"/>
      <sparseX i="64" alpha="-7918.5712817678559" sparseCutoff="1.0000000000000000"/>
      <sparseX i="65" alpha="-4557.3191588849277" sparseCutoff="1.0000000000000000"/>
      <sparseX i="66" alpha="-693.43513973943459" sparseCutoff="1.0000000000000000"/>
      <sparseX i="67" alpha="9909.7634662922355" sparseCutoff="1.0000000000000000"/>
      <sparseX i="68" alpha="24026.834947910473" sparseCutoff="1.0000000000000000"/>
      <sparseX i="69" alpha="11257.189947305540" sparseCutoff="1.0000000000000000"/>
      <sparseX i="70" alpha="-17711.863023729849" sparseCutoff="1.0000000000000000"/>
      <sparseX i="71" alpha="6047.3910200172559" sparseCutoff="1.0000000000000000"/>
      <sparseX i="72" alpha="13591.127640922337" sparseCutoff="1.0000000000000000"/>
      <sparseX i="73" alpha="97.730503812976963" sparseCutoff="1.0000000000000000"/>
      <sparseX i="74" alpha="-7271.8375085197122" sparseCutoff="1.0000000000000000"/>
      <sparseX i="75" alpha="24125.279439388552" sparseCutoff="1.0000000000000000"/>
      <sparseX i="76" alpha="-6711.0779277810498" sparseCutoff="1.0000000000000000"/>
      <sparseX i="77" alpha="9930.8986210220610" sparseCutoff="1.0000000000000000"/>
      <sparseX i="78" alpha="-18756.761209169890" sparseCutoff="1.0000000000000000"/>
      <sparseX i="79" alpha="631.11089675575022" sparseCutoff="1.0000000000000000"/>
      <sparseX i="80" alpha="-20976.273850476675" sparseCutoff="1.0000000000000000"/>
      <sparseX i="81" alpha="3534.9831188498374" sparseCutoff="1.0000000000000000"/>
      <sparseX i="82" alpha="-12697.199273195038" sparseCutoff="1.0000000000000000"/>
      <sparseX i="83" alpha="20582.937767927084" sparseCutoff="1.0000000000000000"/>
      <sparseX i="84" alpha="-19016.873996085298" sparseCutoff="1.0000000000000000"/>
      <sparseX i="85" alpha="22377.514505523974" sparseCutoff="1.0000000000000000"/>
      <sparseX i="86" alpha="-4102.6550231575684" sparseCutoff="1.0000000000000000"/>
      <sparseX i="87" alpha="-8133.2479168841674" sparseCutoff="1.0000000000000000"/>
      <sparseX i="88" alpha="5119.9390483597872" sparseCutoff="1.0000000000000000"/>
      <sparseX i="89" alpha="-346.92369811819066" sparseCutoff="1.0000000000000000"/>
      <sparseX i="90" alpha="1240.4887633261787" sparseCutoff="1.0000000000000000"/>
      <sparseX i="91" alpha="8767.7928433801753" sparseCutoff="1.0000000000000000"/>
      <sparseX i="92" alpha="-13309.132790794163" sparseCutoff="1.0000000000000000"/>
      <sparseX i="93" alpha="-13201.912411120178" sparseCutoff="1.0000000000000000"/>
      <sparseX i="94" alpha="13163.129228366322" sparseCutoff="1.0000000000000000"/>
      <sparseX i="95" alpha="-681.71451017592801" sparseCutoff="1.0000000000000000"/>
      <sparseX i="96" alpha="2856.9371807679868" sparseCutoff="1.0000000000000000"/>
      <sparseX i="97" alpha="-7767.5160988248599" sparseCutoff="1.0000000000000000"/>
      <sparseX i="98" alpha="-5709.7990190290448" sparseCutoff="1.0000000000000000"/>
      <sparseX i="99" alpha="9599.0933440959816" sparseCutoff="1.0000000000000000"/>
      <sparseX i="100" alpha="16744.444632928378" sparseCutoff="1.0000000000000000"/>
      <sparseX i="101" alpha="1246.9481997663866" sparseCutoff="1.0000000000000000"/>
      <sparseX i="102" alpha="-10378.482767187859" sparseCutoff="1.0000000000000000"/>
      <sparseX i="103" alpha="9611.7101543116205" sparseCutoff="1.0000000000000000"/>
      <sparseX i="104" alpha="-9118.2524874915580" sparseCutoff="1.0000000000000000"/>
      <sparseX i="105" alpha="-11379.306002289875" sparseCutoff="1.0000000000000000"/>
      <sparseX i="106" alpha="-8026.3377719109831" sparseCutoff="1.0000000000000000"/>
      <sparseX i="107" alpha="-1847.8549890293002" sparseCutoff="1.0000000000000000"/>
      <sparseX i="108" alpha="-9251.2343686833174" sparseCutoff="1.0000000000000000"/>
      <sparseX i="109" alpha="-2027.4635156882189" sparseCutoff="1.0000000000000000"/>
      <sparseX i="110" alpha="-11835.959318373281" sparseCutoff="1.0000000000000000"/>
      <sparseX i="111" alpha="7265.3299348077435" sparseCutoff="1.0000000000000000"/>
      <sparseX i="112" alpha="1202.9552914299109" sparseCutoff="1.0000000000000000"/>
      <sparseX i="113" alpha="-2583.0068150124553" sparseCutoff="1.0000000000000000"/>
      <sparseX i="114" alpha="-4889.6396465877233" sparseCutoff="1.0000000000000000"/>
      <sparseX i="115" alpha="-4779.1625988856194" sparseCutoff="1.0000000000000000"/>
      <sparseX i="116" alpha="-18055.073843441074" sparseCutoff="1.0000000000000000"/>
      <sparseX i="117" alpha="3176.2835709907363" sparseCutoff="1.0000000000000000"/>
      <sparseX i="118" alpha="-13528.922351623625" sparseCutoff="1.0000000000000000"/>
      <sparseX i="119" alpha="-24057.323751193857" sparseCutoff="1.0000000000000000"/>
      <sparseX i="120" alpha="-2186.2590595602296" sparseCutoff="1.0000000000000000"/>
      <sparseX i="121" alpha="2513.1151054740176" sparseCutoff="1.0000000000000000"/>
      <sparseX i="122" alpha="1636.7947081906743" sparseCutoff="1.0000000000000000"/>
      <sparseX i="123" alpha="5277.5874700614340" sparseCutoff="1.0000000000000000"/>
      <sparseX i="124" alpha="-8801.0520174342182" sparseCutoff="1.0000000000000000"/>
      <sparseX i="125" alpha="15291.909392282563" sparseCutoff="1.0000000000000000"/>
      <sparseX i="126" alpha="6779.3417258311292" sparseCutoff="1.0000000000000000"/>
      <sparseX i="127" alpha="88.764272461036214" sparseCutoff="1.0000000000000000"/>
      <sparseX i="128" alpha="-6424.2982395340578" sparseCutoff="1.0000000000000000"/>
      <sparseX i="129" alpha="30578.366363002340" sparseCutoff="1.0000000000000000"/>
      <sparseX i="130" alpha="-19727.451381787436" sparseCutoff="1.0000000000000000"/>
      <sparseX i="131" alpha="18182.500173555592" sparseCutoff="1.0000000000000000"/>
      <sparseX i="132" alpha="-17876.930067992016" sparseCutoff="1.0000000000000000"/>
      <sparseX i="133" alpha="6616.4381264181720" sparseCutoff="1.0000000000000000"/>
      <sparseX i="134" alpha="13422.258528794533" sparseCutoff="1.0000000000000000"/>
      <sparseX i="135" alpha="487.07486547737659" sparseCutoff="1.0000000000000000"/>
      <sparseX i="136" alpha="-9386.4958209376346" sparseCutoff="1.0000000000000000"/>
      <sparseX i="137" alpha="3641.9741815291372" sparseCutoff="1.0000000000000000"/>
      <sparseX i="138" alpha="118.67150991079536" sparseCutoff="1.0000000000000000"/>
      <sparseX i="139" alpha="-21835.131574781928" sparseCutoff="1.0000000000000000"/>
      <sparseX i="140" alpha="3264.2625020423666" sparseCutoff="1.0000000000000000"/>
      <sparseX i="141" alpha="11327.120953610007" sparseCutoff="1.0000000000000000"/>
      <sparseX i="142" alpha="634.22810567430861" sparseCutoff="1.0000000000000000"/>
      <sparseX i="143" alpha="4734.5169728923956" sparseCutoff="1.0000000000000000"/>
      <sparseX i="144" alpha="-248.64382689198985" sparseCutoff="1.0000000000000000"/>
      <sparseX i="145" alpha="22559.445972863610" sparseCutoff="1.0000000000000000"/>
      <sparseX i="146" alpha="-8882.9654299670983" sparseCutoff="1.0000000000000000"/>
      <sparseX i="147" alpha="-7209.2739973295420" sparseCutoff="1.0000000000000000"/>
      <sparseX i="148" alpha="-4648.5706889613357" sparseCutoff="1.0000000000000000"/>
      <sparseX i="149" alpha="4736.8253155633838" sparseCutoff="1.0000000000000000"/>
      <sparseX i="150" alpha="-251.54340881191848" sparseCutoff="1.0000000000000000"/>
      <sparseX i="151" alpha="6486.3012553247918" sparseCutoff="1.0000000000000000"/>
      <sparseX i="152" alpha="22277.860943364969" sparseCutoff="1.0000000000000000"/>
      <sparseX i="153" alpha="4761.4097784394553" sparseCutoff="1.0000000000000000"/>
      <sparseX i="154" alpha="-9567.0939156611057" sparseCutoff="1.0000000000000000"/>
      <sparseX i="155" alpha="8526.5266860851352" sparseCutoff="1.0000000000000000"/>
      <sparseX i="156" alpha="-8776.9073246788885" sparseCutoff="1.0000000000000000"/>
      <sparseX i="157" alpha="30104.746056001790" sparseCutoff="1.0000000000000000"/>
      <sparseX i="158" alpha="15064.035792667948" sparseCutoff="1.0000000000000000"/>
      <sparseX i="159" alpha="-2644.9817031191074" sparseCutoff="1.0000000000000000"/>
      <sparseX i="160" alpha="7119.0473392437607" sparseCutoff="1.0000000000000000"/>
      <sparseX i="161" alpha="6260.1785956852018" sparseCutoff="1.0000000000000000"/>
      <sparseX i="162" alpha="-13269.952279896082" sparseCutoff="1.0000000000000000"/>
      <sparseX i="163" alpha="11570.926144783540" sparseCutoff="1.0000000000000000"/>
      <sparseX i="164" alpha="16222.057299139937" sparseCutoff="1.0000000000000000"/>
      <sparseX i="165" alpha="18250.304325218873" sparseCutoff="1.0000000000000000"/>
      <sparseX i="166" alpha="12779.839516448154" sparseCutoff="1.0000000000000000"/>
      <sparseX i="167" alpha="-4935.9777266667270" sparseCutoff="1.0000000000000000"/>
      <sparseX i="168" alpha="11382.632697225805" sparseCutoff="1.0000000000000000"/>
      <sparseX i="169" alpha="-20329.699953787538" sparseCutoff="1.0000000000000000"/>
      <sparseX i="170" alpha="-8907.2552794158728" sparseCutoff="1.0000000000000000"/>
      <sparseX i="171" alpha="2649.9685449609260" sparseCutoff="1.0000000000000000"/>
      <sparseX i="172" alpha="2128.4416186063067" sparseCutoff="1.0000000000000000"/>
      <sparseX i="173" alpha="-23819.163064716475" sparseCutoff="1.0000000000000000"/>
      <sparseX i="174" alpha="15885.218214057550" sparseCutoff="1.0000000000000000"/>
      <sparseX i="175" alpha="8148.2122940397503" sparseCutoff="1.0000000000000000"/>
      <sparseX i="176" alpha="-26042.623544005484" sparseCutoff="1.0000000000000000"/>
      <sparseX i="177" alpha="4409.0633662886266" sparseCutoff="1.0000000000000000"/>
      <sparseX i="178" alpha="-9585.4444101815207" sparseCutoff="1.0000000000000000"/>
      <sparseX i="179" alpha="9180.6272831790084" sparseCutoff="1.0000000000000000"/>
      <sparseX i="180" alpha="-699.73433314325246" sparseCutoff="1.0000000000000000"/>
      <sparseX i="181" alpha="-14210.374388198981" sparseCutoff="1.0000000000000000"/>
      <sparseX i="182" alpha="-12686.930005857595" sparseCutoff="1.0000000000000000"/>
      <sparseX i="183" alpha="15079.561864248490" sparseCutoff="1.0000000000000000"/>
      <sparseX i="184" alpha="-11816.168049231919" sparseCutoff="1.0000000000000000"/>
      <sparseX i="185" alpha="-1327.6843171050525" sparseCutoff="1.0000000000000000"/>
      <sparseX i="186" alpha="30321.072723531994" sparseCutoff="1.0000000000000000"/>
      <sparseX i="187" alpha="969.06278341161578" sparseCutoff="1.0000000000000000"/>
      <sparseX i="188" alpha="-21879.126729301450" sparseCutoff="1.0000000000000000"/>
      <sparseX i="189" alpha="-1825.8358106086939" sparseCutoff="1.0000000000000000"/>
      <sparseX i="190" alpha="-3590.6383348856275" sparseCutoff="1.0000000000000000"/>
      <sparseX i="191" alpha="3456.9815320977600" sparseCutoff="1.0000000000000000"/>
      <sparseX i="192" alpha="-9956.6944610526261" sparseCutoff="1.0000000000000000"/>
      <sparseX i="193" alpha="3616.6546389845525" sparseCutoff="1.0000000000000000"/>
      <sparseX i="194" alpha="-1656.0086950788414" sparseCutoff="1.0000000000000000"/>
      <sparseX i="195" alpha="2092.7206548338613" sparseCutoff="1.0000000000000000"/>
      <sparseX i="196" alpha="-642.00047073795440" sparseCutoff="1.0000000000000000"/>
      <sparseX i="197" alpha="-3846.3973778641071" sparseCutoff="1.0000000000000000"/>
      <sparseX i="198" alpha="-1499.4248173380317" sparseCutoff="1.0000000000000000"/>
      <sparseX i="199" alpha="-9294.6761973907451" sparseCutoff="1.0000000000000000"/>
      <sparseX i="200" alpha="1597.6045141148415" sparseCutoff="1.0000000000000000"/>
      <sparseX i="201" alpha="5504.5455092161210" sparseCutoff="1.0000000000000000"/>
      <sparseX i="202" alpha="-2697.2024524500230" sparseCutoff="1.0000000000000000"/>
      <sparseX i="203" alpha="3992.0669090832735" sparseCutoff="1.0000000000000000"/>
      <sparseX i="204" alpha="-12533.519006035367" sparseCutoff="1.0000000000000000"/>
      <sparseX i="205" alpha="-13384.954653981778" sparseCutoff="1.0000000000000000"/>
      <sparseX i="206" alpha="1235.0917539226957" sparseCutoff="1.0000000000000000"/>
      <sparseX i="207" alpha="-4158.7590784328859" sparseCutoff="1.0000000000000000"/>
      <sparseX i="208" alpha="-4779.0510284565908" sparseCutoff="1.0000000000000000"/>
      <sparseX i="209" alpha="7366.9248006370990" sparseCutoff="1.0000000000000000"/>
      <sparseX i="210" alpha="-2232.4169746529137" sparseCutoff="1.0000000000000000"/>
      <sparseX i="211" alpha="-10196.809494396803" sparseCutoff="1.0000000000000000"/>
      <sparseX i="212" alpha="-8802.2787583903573" sparseCutoff="1.0000000000000000"/>
      <sparseX i="213" alpha="-965.56051546346760" sparseCutoff="1.0000000000000000"/>
      <sparseX i="214" alpha="5595.9798045354346" sparseCutoff="1.0000000000000000"/>
      <sparseX i="215" alpha="-7945.8729974677608" sparseCutoff="1.0000000000000000"/>
      <sparseX i="216" alpha="9107.7771991893133" sparseCutoff="1.0000000000000000"/>
      <sparseX i="217" alpha="5089.9908184884580" sparseCutoff="1.0000000000000000"/>
      <sparseX i="218" alpha="919.92581657328128" sparseCutoff="1.0000000000000000"/>
      <sparseX i="219" alpha="-5621.2976940547605" sparseCutoff="1.0000000000000000"/>
      <sparseX i="220" alpha="13665.520902297412" sparseCutoff="1.0000000000000000"/>
      <sparseX i="221" alpha="-6791.2668019441926" sparseCutoff="1.0000000000000000"/>
      <sparseX i="222" alpha="-5478.9747046310549" sparseCutoff="1.0000000000000000"/>
      <sparseX i="223" alpha="7010.3128239395974" sparseCutoff="1.0000000000000000"/>
      <sparseX i="224" alpha="1617.8119182884277" sparseCutoff="1.0000000000000000"/>
      <sparseX i="225" alpha="2435.8498936975006" sparseCutoff="1.0000000000000000"/>
      <sparseX i="226" alpha="-4299.0835922835849" sparseCutoff="1.0000000000000000"/>
      <sparseX i="227" alpha="-1008.0651438678534" sparseCutoff="1.0000000000000000"/>
      <sparseX i="228" alpha="6498.1766136349042" sparseCutoff="1.0000000000000000"/>
      <sparseX i="229" alpha="7967.7029991213549" sparseCutoff="1.0000000000000000"/>
      <sparseX i="230" alpha="-6950.4216804180724" sparseCutoff="1.0000000000000000"/>
      <sparseX i="231" alpha="7177.7634352066607" sparseCutoff="1.0000000000000000"/>
      <sparseX i="232" alpha="-3088.6972706576580" sparseCutoff="1.0000000000000000"/>
      <sparseX i="233" alpha="-9733.3286767952595" sparseCutoff="1.0000000000000000"/>
      <sparseX i="234" alpha="954.83110466562766" sparseCutoff="1.0000000000000000"/>
      <sparseX i="235" alpha="6726.7868539127439" sparseCutoff="1.0000000000000000"/>
    </gpCoordinates>
  </gpSparse>
  <command_line><![CDATA[ at_file=train.xyz gp_file=GAP.xml energy_parameter_name=QM_energy force_parameter_name=QM_forces virial_parameter_name=QM_virial do_copy_at_file=F sparse_separate_file=T default_sigma={ 0.005 0.050 0.1 1.0 } e0_method=average gap={ distance_Nb order=2 n_sparse=20 cutoff=4.5 cutoff_transition_width=1.0 compact_clusters covariance_type=ard_se theta_uniform=1.0 sparse_method=uniform f0=0.0 add_species=T delta=1.0 : soap n_sparse=1000 n_max=8 l_max=4 cutoff=3.5 cutoff_transition_width=0.5 atom_sigma=0.4 add_species=True covariance_type=dot_product zeta=4 sparse_method=cur_points delta=0.5 } sparse_jitter=1.0e-8]]></command_line>
</GAP_params>
</GAP_2023_3_13_0_8_9_33_965>
