<GAP_2023_6_29_60_10_29_3_391>
<Potential label="GAP_2023_6_29_60_10_29_3_391" init_args="IP GAP label=GAP_2023_6_29_60_10_29_3_391"/>
<GAP_params label="GAP_2023_6_29_60_10_29_3_391" gap_version="1657795613">
  <GAP_data do_core="F">
    <e0 Z="1" value=".00000000000000000E+000"/>
    <e0 Z="2" value=".00000000000000000E+000"/>
    <e0 Z="3" value=".00000000000000000E+000"/>
    <e0 Z="4" value=".00000000000000000E+000"/>
    <e0 Z="5" value=".00000000000000000E+000"/>
    <e0 Z="6" value=".00000000000000000E+000"/>
    <e0 Z="7" value=".00000000000000000E+000"/>
    <e0 Z="8" value=".00000000000000000E+000"/>
    <e0 Z="9" value=".00000000000000000E+000"/>
    <e0 Z="10" value=".00000000000000000E+000"/>
    <e0 Z="11" value=".00000000000000000E+000"/>
    <e0 Z="12" value=".00000000000000000E+000"/>
    <e0 Z="13" value=".00000000000000000E+000"/>
    <e0 Z="14" value="-160.73263835370375"/>
    <e0 Z="15" value=".00000000000000000E+000"/>
    <e0 Z="16" value=".00000000000000000E+000"/>
    <e0 Z="17" value=".00000000000000000E+000"/>
    <e0 Z="18" value=".00000000000000000E+000"/>
    <e0 Z="19" value=".00000000000000000E+000"/>
    <e0 Z="20" value=".00000000000000000E+000"/>
    <e0 Z="21" value=".00000000000000000E+000"/>
    <e0 Z="22" value=".00000000000000000E+000"/>
    <e0 Z="23" value=".00000000000000000E+000"/>
    <e0 Z="24" value=".00000000000000000E+000"/>
    <e0 Z="25" value=".00000000000000000E+000"/>
    <e0 Z="26" value=".00000000000000000E+000"/>
    <e0 Z="27" value=".00000000000000000E+000"/>
    <e0 Z="28" value=".00000000000000000E+000"/>
    <e0 Z="29" value=".00000000000000000E+000"/>
    <e0 Z="30" value=".00000000000000000E+000"/>
    <e0 Z="31" value=".00000000000000000E+000"/>
    <e0 Z="32" value=".00000000000000000E+000"/>
    <e0 Z="33" value=".00000000000000000E+000"/>
    <e0 Z="34" value=".00000000000000000E+000"/>
    <e0 Z="35" value=".00000000000000000E+000"/>
    <e0 Z="36" value=".00000000000000000E+000"/>
    <e0 Z="37" value=".00000000000000000E+000"/>
    <e0 Z="38" value=".00000000000000000E+000"/>
    <e0 Z="39" value=".00000000000000000E+000"/>
    <e0 Z="40" value=".00000000000000000E+000"/>
    <e0 Z="41" value=".00000000000000000E+000"/>
    <e0 Z="42" value=".00000000000000000E+000"/>
    <e0 Z="43" value=".00000000000000000E+000"/>
    <e0 Z="44" value=".00000000000000000E+000"/>
    <e0 Z="45" value=".00000000000000000E+000"/>
    <e0 Z="46" value=".00000000000000000E+000"/>
    <e0 Z="47" value=".00000000000000000E+000"/>
    <e0 Z="48" value=".00000000000000000E+000"/>
    <e0 Z="49" value=".00000000000000000E+000"/>
    <e0 Z="50" value=".00000000000000000E+000"/>
    <e0 Z="51" value=".00000000000000000E+000"/>
    <e0 Z="52" value=".00000000000000000E+000"/>
    <e0 Z="53" value=".00000000000000000E+000"/>
    <e0 Z="54" value=".00000000000000000E+000"/>
    <e0 Z="55" value=".00000000000000000E+000"/>
    <e0 Z="56" value=".00000000000000000E+000"/>
    <e0 Z="57" value=".00000000000000000E+000"/>
    <e0 Z="58" value=".00000000000000000E+000"/>
    <e0 Z="59" value=".00000000000000000E+000"/>
    <e0 Z="60" value=".00000000000000000E+000"/>
    <e0 Z="61" value=".00000000000000000E+000"/>
    <e0 Z="62" value=".00000000000000000E+000"/>
    <e0 Z="63" value=".00000000000000000E+000"/>
    <e0 Z="64" value=".00000000000000000E+000"/>
    <e0 Z="65" value=".00000000000000000E+000"/>
    <e0 Z="66" value=".00000000000000000E+000"/>
    <e0 Z="67" value=".00000000000000000E+000"/>
    <e0 Z="68" value=".00000000000000000E+000"/>
    <e0 Z="69" value=".00000000000000000E+000"/>
    <e0 Z="70" value=".00000000000000000E+000"/>
    <e0 Z="71" value=".00000000000000000E+000"/>
    <e0 Z="72" value=".00000000000000000E+000"/>
    <e0 Z="73" value=".00000000000000000E+000"/>
    <e0 Z="74" value=".00000000000000000E+000"/>
    <e0 Z="75" value=".00000000000000000E+000"/>
    <e0 Z="76" value=".00000000000000000E+000"/>
    <e0 Z="77" value=".00000000000000000E+000"/>
    <e0 Z="78" value=".00000000000000000E+000"/>
    <e0 Z="79" value=".00000000000000000E+000"/>
    <e0 Z="80" value=".00000000000000000E+000"/>
    <e0 Z="81" value=".00000000000000000E+000"/>
    <e0 Z="82" value=".00000000000000000E+000"/>
    <e0 Z="83" value=".00000000000000000E+000"/>
    <e0 Z="84" value=".00000000000000000E+000"/>
    <e0 Z="85" value=".00000000000000000E+000"/>
    <e0 Z="86" value=".00000000000000000E+000"/>
    <e0 Z="87" value=".00000000000000000E+000"/>
    <e0 Z="88" value=".00000000000000000E+000"/>
    <e0 Z="89" value=".00000000000000000E+000"/>
    <e0 Z="90" value=".00000000000000000E+000"/>
    <e0 Z="91" value=".00000000000000000E+000"/>
    <e0 Z="92" value=".00000000000000000E+000"/>
    <e0 Z="93" value=".00000000000000000E+000"/>
    <e0 Z="94" value=".00000000000000000E+000"/>
    <e0 Z="95" value=".00000000000000000E+000"/>
    <e0 Z="96" value=".00000000000000000E+000"/>
    <e0 Z="97" value=".00000000000000000E+000"/>
    <e0 Z="98" value=".00000000000000000E+000"/>
    <e0 Z="99" value=".00000000000000000E+000"/>
    <e0 Z="100" value=".00000000000000000E+000"/>
    <e0 Z="101" value=".00000000000000000E+000"/>
    <e0 Z="102" value=".00000000000000000E+000"/>
    <e0 Z="103" value=".00000000000000000E+000"/>
    <e0 Z="104" value=".00000000000000000E+000"/>
    <e0 Z="105" value=".00000000000000000E+000"/>
    <e0 Z="106" value=".00000000000000000E+000"/>
    <e0 Z="107" value=".00000000000000000E+000"/>
    <e0 Z="108" value=".00000000000000000E+000"/>
    <e0 Z="109" value=".00000000000000000E+000"/>
    <e0 Z="110" value=".00000000000000000E+000"/>
    <e0 Z="111" value=".00000000000000000E+000"/>
    <e0 Z="112" value=".00000000000000000E+000"/>
    <e0 Z="113" value=".00000000000000000E+000"/>
    <e0 Z="114" value=".00000000000000000E+000"/>
    <e0 Z="115" value=".00000000000000000E+000"/>
    <e0 Z="116" value=".00000000000000000E+000"/>
    <e0 Z="117" value=".00000000000000000E+000"/>
    <e0 Z="118" value=".00000000000000000E+000"/>
  </GAP_data>
  <gpSparse label="GAP_2023_6_29_60_10_29_3_391" n_coordinate="2" fitted="T">
    <gpCoordinates label="GAP_2023_6_29_60_10_29_3_3911" dimensions="1" signal_variance="1.0000000000000000" signal_mean=".00000000000000000E+000" sparsified="T" n_permutations="2" covariance_type="1" n_sparseX="30" sparseX_filename="GAP.xml.sparseX.GAP_2023_6_29_60_10_29_3_3911" sparseX_md5sum="c98089726fc658ff29a7a56300184512">
      <theta>  0.50000000000000000E+000 </theta>
      <descriptor> distance_Nb order=2 cutoff=10.0 covariance_type=ARD_SE theta_uniform=0.5 n_sparse=30 delta=1.0 sparse_method=uniform compact_clusters=T Z={14 14 }</descriptor>
      <permutation i="1">1  </permutation>
      <permutation i="2">1  </permutation>
      <sparseX i="1" alpha="142.27569439247006" sparseCutoff="1.0000000000000000"/>
      <sparseX i="2" alpha="-255.14951234337880" sparseCutoff="1.0000000000000000"/>
      <sparseX i="3" alpha="129.49231414203680" sparseCutoff="1.0000000000000000"/>
      <sparseX i="4" alpha="29.063480619815010" sparseCutoff="1.0000000000000000"/>
      <sparseX i="5" alpha="-56.950856802493242" sparseCutoff=".17063740203357491E-001"/>
      <sparseX i="6" alpha="18.785048399937875" sparseCutoff="1.0000000000000000"/>
      <sparseX i="7" alpha="29.529187570370421" sparseCutoff="1.0000000000000000"/>
      <sparseX i="8" alpha="772.18094797741162" sparseCutoff="1.0000000000000000"/>
      <sparseX i="9" alpha="-24.807571334432275" sparseCutoff="1.0000000000000000"/>
      <sparseX i="10" alpha="-182.97407892425326" sparseCutoff="1.0000000000000000"/>
      <sparseX i="11" alpha="-19.815463054570014" sparseCutoff="1.0000000000000000"/>
      <sparseX i="12" alpha="-12.763139575087411" sparseCutoff="1.0000000000000000"/>
      <sparseX i="13" alpha="-1029.1871524924686" sparseCutoff="1.0000000000000000"/>
      <sparseX i="14" alpha="5.7553639800137910" sparseCutoff=".42645977335161045"/>
      <sparseX i="15" alpha="272.66935219181801" sparseCutoff="1.0000000000000000"/>
      <sparseX i="16" alpha="-83.546956501115531" sparseCutoff="1.0000000000000000"/>
      <sparseX i="17" alpha="-61.234254376714055" sparseCutoff="1.0000000000000000"/>
      <sparseX i="18" alpha="-25.904522384003350" sparseCutoff="1.0000000000000000"/>
      <sparseX i="19" alpha="693.22903151222101" sparseCutoff="1.0000000000000000"/>
      <sparseX i="20" alpha="-333.37144684877359" sparseCutoff="1.0000000000000000"/>
      <sparseX i="21" alpha="1047.5954450971251" sparseCutoff="1.0000000000000000"/>
      <sparseX i="22" alpha="24.687888001113496" sparseCutoff="1.0000000000000000"/>
      <sparseX i="23" alpha="-521.19599714286142" sparseCutoff="1.0000000000000000"/>
      <sparseX i="24" alpha="-187.54047247198258" sparseCutoff="1.0000000000000000"/>
      <sparseX i="25" alpha="-798.67687183703083" sparseCutoff="1.0000000000000000"/>
      <sparseX i="26" alpha="-316.31284865538419" sparseCutoff="1.0000000000000000"/>
      <sparseX i="27" alpha="151.33629534357050" sparseCutoff="1.0000000000000000"/>
      <sparseX i="28" alpha="226.57730008125381" sparseCutoff="1.0000000000000000"/>
      <sparseX i="29" alpha="290.61066162094636" sparseCutoff="1.0000000000000000"/>
      <sparseX i="30" alpha="23.584000906014538" sparseCutoff="1.0000000000000000"/>
    </gpCoordinates>
    <gpCoordinates label="GAP_2023_6_29_60_10_29_3_3912" dimensions="391" signal_variance=".10000000000000001E+000" signal_mean=".00000000000000000E+000" sparsified="T" n_permutations="1" covariance_type="2" zeta="4.0000000000000000" n_sparseX="500" sparseX_filename="GAP.xml.sparseX.GAP_2023_6_29_60_10_29_3_3912" sparseX_md5sum="50bde4afe2ddb958252e22db9aeec105">
      <descriptor> soap l_max=4 n_max=12 atom_sigma=0.5 zeta=4 cutoff=5.0 cutoff_transition_width=1.0 central_weight=1.0 n_sparse=500 delta=0.1 f0=0.0 covariance_type=dot_product sparse_method=cur_points n_species=1 Z=14 species_Z={14 }</descriptor>
      <permutation i="1">1  </permutation>
      <sparseX i="1" alpha="-302.83643270364848" sparseCutoff="1.0000000000000000"/>
      <sparseX i="2" alpha="1258.2110981479848" sparseCutoff="1.0000000000000000"/>
      <sparseX i="3" alpha="-6958.4258370457528" sparseCutoff="1.0000000000000000"/>
      <sparseX i="4" alpha="7436.5120707704391" sparseCutoff="1.0000000000000000"/>
      <sparseX i="5" alpha="10775.152246825881" sparseCutoff="1.0000000000000000"/>
      <sparseX i="6" alpha="259.21466192188012" sparseCutoff="1.0000000000000000"/>
      <sparseX i="7" alpha="-2229.9418034822575" sparseCutoff="1.0000000000000000"/>
      <sparseX i="8" alpha="4435.9755532469735" sparseCutoff="1.0000000000000000"/>
      <sparseX i="9" alpha="595.63728058606432" sparseCutoff="1.0000000000000000"/>
      <sparseX i="10" alpha="2093.5953547803679" sparseCutoff="1.0000000000000000"/>
      <sparseX i="11" alpha="-3013.3313790012257" sparseCutoff="1.0000000000000000"/>
      <sparseX i="12" alpha="10684.331500375054" sparseCutoff="1.0000000000000000"/>
      <sparseX i="13" alpha="-1069.3900438426263" sparseCutoff="1.0000000000000000"/>
      <sparseX i="14" alpha="1822.8522367120609" sparseCutoff="1.0000000000000000"/>
      <sparseX i="15" alpha="1017.2016353597918" sparseCutoff="1.0000000000000000"/>
      <sparseX i="16" alpha="159.78279222553795" sparseCutoff="1.0000000000000000"/>
      <sparseX i="17" alpha="-2926.6239601947591" sparseCutoff="1.0000000000000000"/>
      <sparseX i="18" alpha="-11830.087437165750" sparseCutoff="1.0000000000000000"/>
      <sparseX i="19" alpha="-1709.0008398973011" sparseCutoff="1.0000000000000000"/>
      <sparseX i="20" alpha="1331.0067054534477" sparseCutoff="1.0000000000000000"/>
      <sparseX i="21" alpha="-3969.6082140201243" sparseCutoff="1.0000000000000000"/>
      <sparseX i="22" alpha="9735.9207709124712" sparseCutoff="1.0000000000000000"/>
      <sparseX i="23" alpha="186.97163392624449" sparseCutoff="1.0000000000000000"/>
      <sparseX i="24" alpha="-1324.2566228208073" sparseCutoff="1.0000000000000000"/>
      <sparseX i="25" alpha="6594.6219397852474" sparseCutoff="1.0000000000000000"/>
      <sparseX i="26" alpha="1483.3930733741865" sparseCutoff="1.0000000000000000"/>
      <sparseX i="27" alpha="-2509.2206651549159" sparseCutoff="1.0000000000000000"/>
      <sparseX i="28" alpha="277.29543521008134" sparseCutoff="1.0000000000000000"/>
      <sparseX i="29" alpha="-1779.2257081619728" sparseCutoff="1.0000000000000000"/>
      <sparseX i="30" alpha="2779.6340851002760" sparseCutoff="1.0000000000000000"/>
      <sparseX i="31" alpha="3552.7142255487665" sparseCutoff="1.0000000000000000"/>
      <sparseX i="32" alpha="-179.58817358235103" sparseCutoff="1.0000000000000000"/>
      <sparseX i="33" alpha="-4597.3701768074279" sparseCutoff="1.0000000000000000"/>
      <sparseX i="34" alpha="-555.71192560716463" sparseCutoff="1.0000000000000000"/>
      <sparseX i="35" alpha="8148.3612413716746" sparseCutoff="1.0000000000000000"/>
      <sparseX i="36" alpha="-1730.9202630320497" sparseCutoff="1.0000000000000000"/>
      <sparseX i="37" alpha="-1068.8660356867852" sparseCutoff="1.0000000000000000"/>
      <sparseX i="38" alpha="-2963.2763687292691" sparseCutoff="1.0000000000000000"/>
      <sparseX i="39" alpha="-4764.0937882033313" sparseCutoff="1.0000000000000000"/>
      <sparseX i="40" alpha="-26206.910606609774" sparseCutoff="1.0000000000000000"/>
      <sparseX i="41" alpha="10145.299931777863" sparseCutoff="1.0000000000000000"/>
      <sparseX i="42" alpha="-6071.1847341230678" sparseCutoff="1.0000000000000000"/>
      <sparseX i="43" alpha="150.52348026256098" sparseCutoff="1.0000000000000000"/>
      <sparseX i="44" alpha="-279.83281468394216" sparseCutoff="1.0000000000000000"/>
      <sparseX i="45" alpha="-1058.4548352462919" sparseCutoff="1.0000000000000000"/>
      <sparseX i="46" alpha="-1353.2294913943877" sparseCutoff="1.0000000000000000"/>
      <sparseX i="47" alpha="2688.2227635401314" sparseCutoff="1.0000000000000000"/>
      <sparseX i="48" alpha="-13552.435441879790" sparseCutoff="1.0000000000000000"/>
      <sparseX i="49" alpha="-2618.5908520418379" sparseCutoff="1.0000000000000000"/>
      <sparseX i="50" alpha="-3026.6897322727273" sparseCutoff="1.0000000000000000"/>
      <sparseX i="51" alpha="-1575.8683428296590" sparseCutoff="1.0000000000000000"/>
      <sparseX i="52" alpha="-2411.0959144639705" sparseCutoff="1.0000000000000000"/>
      <sparseX i="53" alpha="-2614.1943626058969" sparseCutoff="1.0000000000000000"/>
      <sparseX i="54" alpha="3081.8091949566906" sparseCutoff="1.0000000000000000"/>
      <sparseX i="55" alpha="-1419.0141760447573" sparseCutoff="1.0000000000000000"/>
      <sparseX i="56" alpha="-12378.831154458147" sparseCutoff="1.0000000000000000"/>
      <sparseX i="57" alpha="71.616917220092574" sparseCutoff="1.0000000000000000"/>
      <sparseX i="58" alpha="-12534.941493527056" sparseCutoff="1.0000000000000000"/>
      <sparseX i="59" alpha="-8537.7243668536357" sparseCutoff="1.0000000000000000"/>
      <sparseX i="60" alpha="-11296.696732578535" sparseCutoff="1.0000000000000000"/>
      <sparseX i="61" alpha="27.324961360379643" sparseCutoff="1.0000000000000000"/>
      <sparseX i="62" alpha="-5944.4457674873511" sparseCutoff="1.0000000000000000"/>
      <sparseX i="63" alpha="-6826.9448508270552" sparseCutoff="1.0000000000000000"/>
      <sparseX i="64" alpha="122.22631592180858" sparseCutoff="1.0000000000000000"/>
      <sparseX i="65" alpha="-461.50215043945542" sparseCutoff="1.0000000000000000"/>
      <sparseX i="66" alpha="-742.43961574567447" sparseCutoff="1.0000000000000000"/>
      <sparseX i="67" alpha="-785.71343451756206" sparseCutoff="1.0000000000000000"/>
      <sparseX i="68" alpha="20760.193878815615" sparseCutoff="1.0000000000000000"/>
      <sparseX i="69" alpha="-587.80980022837980" sparseCutoff="1.0000000000000000"/>
      <sparseX i="70" alpha="-6518.8321424065425" sparseCutoff="1.0000000000000000"/>
      <sparseX i="71" alpha="-328.58960558247827" sparseCutoff="1.0000000000000000"/>
      <sparseX i="72" alpha="766.12167176742662" sparseCutoff="1.0000000000000000"/>
      <sparseX i="73" alpha="1949.1444516675672" sparseCutoff="1.0000000000000000"/>
      <sparseX i="74" alpha="-5056.7532723750464" sparseCutoff="1.0000000000000000"/>
      <sparseX i="75" alpha="-4810.1888733588248" sparseCutoff="1.0000000000000000"/>
      <sparseX i="76" alpha="-1466.8840365971935" sparseCutoff="1.0000000000000000"/>
      <sparseX i="77" alpha="-2871.0113958208294" sparseCutoff="1.0000000000000000"/>
      <sparseX i="78" alpha="6023.2432654855893" sparseCutoff="1.0000000000000000"/>
      <sparseX i="79" alpha="2416.4738983658808" sparseCutoff="1.0000000000000000"/>
      <sparseX i="80" alpha="-4071.2809988856138" sparseCutoff="1.0000000000000000"/>
      <sparseX i="81" alpha="-673.77599236762239" sparseCutoff="1.0000000000000000"/>
      <sparseX i="82" alpha="-17813.376544140359" sparseCutoff="1.0000000000000000"/>
      <sparseX i="83" alpha="-2348.5789049260211" sparseCutoff="1.0000000000000000"/>
      <sparseX i="84" alpha="21663.430909365470" sparseCutoff="1.0000000000000000"/>
      <sparseX i="85" alpha="4171.5982690305664" sparseCutoff="1.0000000000000000"/>
      <sparseX i="86" alpha="-326.65138186946467" sparseCutoff="1.0000000000000000"/>
      <sparseX i="87" alpha="-3430.6785046569744" sparseCutoff="1.0000000000000000"/>
      <sparseX i="88" alpha="-1599.4330150461515" sparseCutoff="1.0000000000000000"/>
      <sparseX i="89" alpha="-385.99054850430264" sparseCutoff="1.0000000000000000"/>
      <sparseX i="90" alpha="-14008.480212807272" sparseCutoff="1.0000000000000000"/>
      <sparseX i="91" alpha="-565.30290460424533" sparseCutoff="1.0000000000000000"/>
      <sparseX i="92" alpha="-15608.938181636740" sparseCutoff="1.0000000000000000"/>
      <sparseX i="93" alpha="3749.8204575826662" sparseCutoff="1.0000000000000000"/>
      <sparseX i="94" alpha="19784.279296188124" sparseCutoff="1.0000000000000000"/>
      <sparseX i="95" alpha="-770.32871477081562" sparseCutoff="1.0000000000000000"/>
      <sparseX i="96" alpha="-4931.3552230072237" sparseCutoff="1.0000000000000000"/>
      <sparseX i="97" alpha="-3553.2846580650821" sparseCutoff="1.0000000000000000"/>
      <sparseX i="98" alpha="210.39977720398235" sparseCutoff="1.0000000000000000"/>
      <sparseX i="99" alpha="-1103.4073272071566" sparseCutoff="1.0000000000000000"/>
      <sparseX i="100" alpha="1246.8435735005560" sparseCutoff="1.0000000000000000"/>
      <sparseX i="101" alpha="-6.2424326732528943" sparseCutoff="1.0000000000000000"/>
      <sparseX i="102" alpha="1820.8768440699926" sparseCutoff="1.0000000000000000"/>
      <sparseX i="103" alpha="2440.8646231194216" sparseCutoff="1.0000000000000000"/>
      <sparseX i="104" alpha="-18610.010745377553" sparseCutoff="1.0000000000000000"/>
      <sparseX i="105" alpha="-455.22235305819532" sparseCutoff="1.0000000000000000"/>
      <sparseX i="106" alpha="13847.212255512612" sparseCutoff="1.0000000000000000"/>
      <sparseX i="107" alpha="19517.354656383795" sparseCutoff="1.0000000000000000"/>
      <sparseX i="108" alpha="-2904.9792812518631" sparseCutoff="1.0000000000000000"/>
      <sparseX i="109" alpha="1645.7953916994063" sparseCutoff="1.0000000000000000"/>
      <sparseX i="110" alpha="-4986.2822021322063" sparseCutoff="1.0000000000000000"/>
      <sparseX i="111" alpha="-8550.9938316926691" sparseCutoff="1.0000000000000000"/>
      <sparseX i="112" alpha="-1403.8714124274366" sparseCutoff="1.0000000000000000"/>
      <sparseX i="113" alpha="-53.067974384740623" sparseCutoff="1.0000000000000000"/>
      <sparseX i="114" alpha="2924.1021145535424" sparseCutoff="1.0000000000000000"/>
      <sparseX i="115" alpha="-2714.1360652155658" sparseCutoff="1.0000000000000000"/>
      <sparseX i="116" alpha="-928.90378910223569" sparseCutoff="1.0000000000000000"/>
      <sparseX i="117" alpha="1599.3141871263183" sparseCutoff="1.0000000000000000"/>
      <sparseX i="118" alpha="-1857.8209771649667" sparseCutoff="1.0000000000000000"/>
      <sparseX i="119" alpha="379.79355868411119" sparseCutoff="1.0000000000000000"/>
      <sparseX i="120" alpha="1203.9473289943701" sparseCutoff="1.0000000000000000"/>
      <sparseX i="121" alpha="1397.2588920886174" sparseCutoff="1.0000000000000000"/>
      <sparseX i="122" alpha="7792.5465757792435" sparseCutoff="1.0000000000000000"/>
      <sparseX i="123" alpha="-184.96973988199463" sparseCutoff="1.0000000000000000"/>
      <sparseX i="124" alpha="-3774.3145456976790" sparseCutoff="1.0000000000000000"/>
      <sparseX i="125" alpha="846.04074278478015" sparseCutoff="1.0000000000000000"/>
      <sparseX i="126" alpha="4044.7981772826729" sparseCutoff="1.0000000000000000"/>
      <sparseX i="127" alpha="-1582.0677171190168" sparseCutoff="1.0000000000000000"/>
      <sparseX i="128" alpha="10682.961681697136" sparseCutoff="1.0000000000000000"/>
      <sparseX i="129" alpha="6555.6839798467881" sparseCutoff="1.0000000000000000"/>
      <sparseX i="130" alpha="-1353.4256451323140" sparseCutoff="1.0000000000000000"/>
      <sparseX i="131" alpha="3749.6660156352468" sparseCutoff="1.0000000000000000"/>
      <sparseX i="132" alpha="558.78856878256340" sparseCutoff="1.0000000000000000"/>
      <sparseX i="133" alpha="1240.8549178081960" sparseCutoff="1.0000000000000000"/>
      <sparseX i="134" alpha="3578.7545595818710" sparseCutoff="1.0000000000000000"/>
      <sparseX i="135" alpha="-1002.4265128323806" sparseCutoff="1.0000000000000000"/>
      <sparseX i="136" alpha="-2828.1108665790848" sparseCutoff="1.0000000000000000"/>
      <sparseX i="137" alpha="-2686.5650029861786" sparseCutoff="1.0000000000000000"/>
      <sparseX i="138" alpha="365.58309668323551" sparseCutoff="1.0000000000000000"/>
      <sparseX i="139" alpha="-7026.1255914900885" sparseCutoff="1.0000000000000000"/>
      <sparseX i="140" alpha="3330.7360486127136" sparseCutoff="1.0000000000000000"/>
      <sparseX i="141" alpha="9672.7253073418105" sparseCutoff="1.0000000000000000"/>
      <sparseX i="142" alpha="-7954.2462045338880" sparseCutoff="1.0000000000000000"/>
      <sparseX i="143" alpha="-593.43882713944447" sparseCutoff="1.0000000000000000"/>
      <sparseX i="144" alpha="1407.4387787934529" sparseCutoff="1.0000000000000000"/>
      <sparseX i="145" alpha="3708.1427689847797" sparseCutoff="1.0000000000000000"/>
      <sparseX i="146" alpha="-1381.2081191240525" sparseCutoff="1.0000000000000000"/>
      <sparseX i="147" alpha="4618.8611765332780" sparseCutoff="1.0000000000000000"/>
      <sparseX i="148" alpha="792.83042221145740" sparseCutoff="1.0000000000000000"/>
      <sparseX i="149" alpha="3280.7062452581222" sparseCutoff="1.0000000000000000"/>
      <sparseX i="150" alpha="-786.58662074198969" sparseCutoff="1.0000000000000000"/>
      <sparseX i="151" alpha="6380.2589085389272" sparseCutoff="1.0000000000000000"/>
      <sparseX i="152" alpha="-4039.7996779237501" sparseCutoff="1.0000000000000000"/>
      <sparseX i="153" alpha="1179.4046591732042" sparseCutoff="1.0000000000000000"/>
      <sparseX i="154" alpha="-109.09606245038115" sparseCutoff="1.0000000000000000"/>
      <sparseX i="155" alpha="2968.0070837795665" sparseCutoff="1.0000000000000000"/>
      <sparseX i="156" alpha="-287.39225717426092" sparseCutoff="1.0000000000000000"/>
      <sparseX i="157" alpha="203.44608518572909" sparseCutoff="1.0000000000000000"/>
      <sparseX i="158" alpha="539.92398641906971" sparseCutoff="1.0000000000000000"/>
      <sparseX i="159" alpha="-1963.8862021842172" sparseCutoff="1.0000000000000000"/>
      <sparseX i="160" alpha="4172.2777886051508" sparseCutoff="1.0000000000000000"/>
      <sparseX i="161" alpha="1313.4898227967508" sparseCutoff="1.0000000000000000"/>
      <sparseX i="162" alpha="1198.4813326559611" sparseCutoff="1.0000000000000000"/>
      <sparseX i="163" alpha="-1344.6209938525985" sparseCutoff="1.0000000000000000"/>
      <sparseX i="164" alpha="-1213.2493599369163" sparseCutoff="1.0000000000000000"/>
      <sparseX i="165" alpha="1477.9861706685358" sparseCutoff="1.0000000000000000"/>
      <sparseX i="166" alpha="-310.84629078864771" sparseCutoff="1.0000000000000000"/>
      <sparseX i="167" alpha="1793.4376439558453" sparseCutoff="1.0000000000000000"/>
      <sparseX i="168" alpha="3610.4464381062089" sparseCutoff="1.0000000000000000"/>
      <sparseX i="169" alpha="-1038.9927374544691" sparseCutoff="1.0000000000000000"/>
      <sparseX i="170" alpha="327.94603289128639" sparseCutoff="1.0000000000000000"/>
      <sparseX i="171" alpha="-3078.5758467991095" sparseCutoff="1.0000000000000000"/>
      <sparseX i="172" alpha="70.909182265858291" sparseCutoff="1.0000000000000000"/>
      <sparseX i="173" alpha="8.5375592217653029" sparseCutoff="1.0000000000000000"/>
      <sparseX i="174" alpha="1825.7428344388695" sparseCutoff="1.0000000000000000"/>
      <sparseX i="175" alpha="-3371.3848540073736" sparseCutoff="1.0000000000000000"/>
      <sparseX i="176" alpha="-1996.7024371884618" sparseCutoff="1.0000000000000000"/>
      <sparseX i="177" alpha="-1842.1480317682642" sparseCutoff="1.0000000000000000"/>
      <sparseX i="178" alpha="1070.3663561523158" sparseCutoff="1.0000000000000000"/>
      <sparseX i="179" alpha="1394.9855926156235" sparseCutoff="1.0000000000000000"/>
      <sparseX i="180" alpha="-1001.8074877715101" sparseCutoff="1.0000000000000000"/>
      <sparseX i="181" alpha="228.26616236340956" sparseCutoff="1.0000000000000000"/>
      <sparseX i="182" alpha="-349.93501434653365" sparseCutoff="1.0000000000000000"/>
      <sparseX i="183" alpha="3330.7734225164713" sparseCutoff="1.0000000000000000"/>
      <sparseX i="184" alpha="1617.3602730135137" sparseCutoff="1.0000000000000000"/>
      <sparseX i="185" alpha="1103.8767015286408" sparseCutoff="1.0000000000000000"/>
      <sparseX i="186" alpha="1084.3297198933203" sparseCutoff="1.0000000000000000"/>
      <sparseX i="187" alpha="-1093.1577588384660" sparseCutoff="1.0000000000000000"/>
      <sparseX i="188" alpha="994.59031211679553" sparseCutoff="1.0000000000000000"/>
      <sparseX i="189" alpha="-1968.1698124772752" sparseCutoff="1.0000000000000000"/>
      <sparseX i="190" alpha="662.82565461978288" sparseCutoff="1.0000000000000000"/>
      <sparseX i="191" alpha="-360.33810562870320" sparseCutoff="1.0000000000000000"/>
      <sparseX i="192" alpha="-2122.8483148954901" sparseCutoff="1.0000000000000000"/>
      <sparseX i="193" alpha="-1202.6976767136014" sparseCutoff="1.0000000000000000"/>
      <sparseX i="194" alpha="488.38555958241795" sparseCutoff="1.0000000000000000"/>
      <sparseX i="195" alpha="4441.5310287715838" sparseCutoff="1.0000000000000000"/>
      <sparseX i="196" alpha="6797.4137302194786" sparseCutoff="1.0000000000000000"/>
      <sparseX i="197" alpha="351.80759911216876" sparseCutoff="1.0000000000000000"/>
      <sparseX i="198" alpha="602.27482296569929" sparseCutoff="1.0000000000000000"/>
      <sparseX i="199" alpha="-3076.8558495688631" sparseCutoff="1.0000000000000000"/>
      <sparseX i="200" alpha="-2211.9769955983375" sparseCutoff="1.0000000000000000"/>
      <sparseX i="201" alpha="8474.9867948786250" sparseCutoff="1.0000000000000000"/>
      <sparseX i="202" alpha="6551.5590410762634" sparseCutoff="1.0000000000000000"/>
      <sparseX i="203" alpha="-2675.7948428180052" sparseCutoff="1.0000000000000000"/>
      <sparseX i="204" alpha="-41.639891772950996" sparseCutoff="1.0000000000000000"/>
      <sparseX i="205" alpha="823.54610848724838" sparseCutoff="1.0000000000000000"/>
      <sparseX i="206" alpha="-868.18403198770739" sparseCutoff="1.0000000000000000"/>
      <sparseX i="207" alpha="-1509.5449663598652" sparseCutoff="1.0000000000000000"/>
      <sparseX i="208" alpha="-8792.2237281978050" sparseCutoff="1.0000000000000000"/>
      <sparseX i="209" alpha="717.43975827853478" sparseCutoff="1.0000000000000000"/>
      <sparseX i="210" alpha="-1904.3958672194510" sparseCutoff="1.0000000000000000"/>
      <sparseX i="211" alpha="1857.9233882455831" sparseCutoff="1.0000000000000000"/>
      <sparseX i="212" alpha="-4127.0575621059088" sparseCutoff="1.0000000000000000"/>
      <sparseX i="213" alpha="991.21397864923006" sparseCutoff="1.0000000000000000"/>
      <sparseX i="214" alpha="5113.6688351517123" sparseCutoff="1.0000000000000000"/>
      <sparseX i="215" alpha="813.21832717108430" sparseCutoff="1.0000000000000000"/>
      <sparseX i="216" alpha="-1761.6746266049374" sparseCutoff="1.0000000000000000"/>
      <sparseX i="217" alpha="-1896.5326709870535" sparseCutoff="1.0000000000000000"/>
      <sparseX i="218" alpha="-336.01023704619729" sparseCutoff="1.0000000000000000"/>
      <sparseX i="219" alpha="-590.95842356158403" sparseCutoff="1.0000000000000000"/>
      <sparseX i="220" alpha="-3528.6040348690135" sparseCutoff="1.0000000000000000"/>
      <sparseX i="221" alpha="-3436.9724057622329" sparseCutoff="1.0000000000000000"/>
      <sparseX i="222" alpha="1057.3059900353769" sparseCutoff="1.0000000000000000"/>
      <sparseX i="223" alpha="1159.5069126850633" sparseCutoff="1.0000000000000000"/>
      <sparseX i="224" alpha="1184.4458254581994" sparseCutoff="1.0000000000000000"/>
      <sparseX i="225" alpha="-4122.7827363965771" sparseCutoff="1.0000000000000000"/>
      <sparseX i="226" alpha="1370.1515936388137" sparseCutoff="1.0000000000000000"/>
      <sparseX i="227" alpha="1651.6200706791926" sparseCutoff="1.0000000000000000"/>
      <sparseX i="228" alpha="2427.9934259712491" sparseCutoff="1.0000000000000000"/>
      <sparseX i="229" alpha="276.73235959101476" sparseCutoff="1.0000000000000000"/>
      <sparseX i="230" alpha="3034.1473191351356" sparseCutoff="1.0000000000000000"/>
      <sparseX i="231" alpha="1304.1566837322953" sparseCutoff="1.0000000000000000"/>
      <sparseX i="232" alpha="1547.3815561204131" sparseCutoff="1.0000000000000000"/>
      <sparseX i="233" alpha="260.23969410584567" sparseCutoff="1.0000000000000000"/>
      <sparseX i="234" alpha="-1553.8965895050894" sparseCutoff="1.0000000000000000"/>
      <sparseX i="235" alpha="2325.9629482812074" sparseCutoff="1.0000000000000000"/>
      <sparseX i="236" alpha="1223.6159179381370" sparseCutoff="1.0000000000000000"/>
      <sparseX i="237" alpha="2766.6914883928680" sparseCutoff="1.0000000000000000"/>
      <sparseX i="238" alpha="130.02606259042301" sparseCutoff="1.0000000000000000"/>
      <sparseX i="239" alpha="-3275.7878595062111" sparseCutoff="1.0000000000000000"/>
      <sparseX i="240" alpha="-4585.9514958997406" sparseCutoff="1.0000000000000000"/>
      <sparseX i="241" alpha="-909.44807458435241" sparseCutoff="1.0000000000000000"/>
      <sparseX i="242" alpha="2091.2896759877317" sparseCutoff="1.0000000000000000"/>
      <sparseX i="243" alpha="2995.9762475753587" sparseCutoff="1.0000000000000000"/>
      <sparseX i="244" alpha="-1783.7451416494807" sparseCutoff="1.0000000000000000"/>
      <sparseX i="245" alpha="1593.4577241803497" sparseCutoff="1.0000000000000000"/>
      <sparseX i="246" alpha="-1217.2347662582833" sparseCutoff="1.0000000000000000"/>
      <sparseX i="247" alpha="-1638.4649259245637" sparseCutoff="1.0000000000000000"/>
      <sparseX i="248" alpha="-2713.6639881857586" sparseCutoff="1.0000000000000000"/>
      <sparseX i="249" alpha="-4185.4822609663515" sparseCutoff="1.0000000000000000"/>
      <sparseX i="250" alpha="-3803.1662747223800" sparseCutoff="1.0000000000000000"/>
      <sparseX i="251" alpha="-1962.2647919422770" sparseCutoff="1.0000000000000000"/>
      <sparseX i="252" alpha="3141.6624113047442" sparseCutoff="1.0000000000000000"/>
      <sparseX i="253" alpha="-1487.3695384129742" sparseCutoff="1.0000000000000000"/>
      <sparseX i="254" alpha="2735.5517171670676" sparseCutoff="1.0000000000000000"/>
      <sparseX i="255" alpha="-730.24148153609724" sparseCutoff="1.0000000000000000"/>
      <sparseX i="256" alpha="1900.8565085154314" sparseCutoff="1.0000000000000000"/>
      <sparseX i="257" alpha="-1417.6381759926417" sparseCutoff="1.0000000000000000"/>
      <sparseX i="258" alpha="215.65144332086129" sparseCutoff="1.0000000000000000"/>
      <sparseX i="259" alpha="-1405.5159632635332" sparseCutoff="1.0000000000000000"/>
      <sparseX i="260" alpha="3101.0311509556641" sparseCutoff="1.0000000000000000"/>
      <sparseX i="261" alpha="-2576.7565054756251" sparseCutoff="1.0000000000000000"/>
      <sparseX i="262" alpha="2432.1876227241360" sparseCutoff="1.0000000000000000"/>
      <sparseX i="263" alpha="-1650.7983492094545" sparseCutoff="1.0000000000000000"/>
      <sparseX i="264" alpha="-334.11082330567700" sparseCutoff="1.0000000000000000"/>
      <sparseX i="265" alpha="1575.4976375142810" sparseCutoff="1.0000000000000000"/>
      <sparseX i="266" alpha="1989.2547116565370" sparseCutoff="1.0000000000000000"/>
      <sparseX i="267" alpha="-2385.1341040241587" sparseCutoff="1.0000000000000000"/>
      <sparseX i="268" alpha="2568.4981792417411" sparseCutoff="1.0000000000000000"/>
      <sparseX i="269" alpha="2703.7955481863851" sparseCutoff="1.0000000000000000"/>
      <sparseX i="270" alpha="-2208.7135897346925" sparseCutoff="1.0000000000000000"/>
      <sparseX i="271" alpha="2922.4006193709365" sparseCutoff="1.0000000000000000"/>
      <sparseX i="272" alpha="2104.4648282492640" sparseCutoff="1.0000000000000000"/>
      <sparseX i="273" alpha="-230.16354182079283" sparseCutoff="1.0000000000000000"/>
      <sparseX i="274" alpha="2231.0516696087338" sparseCutoff="1.0000000000000000"/>
      <sparseX i="275" alpha="-72.754701311871443" sparseCutoff="1.0000000000000000"/>
      <sparseX i="276" alpha="1028.5131779436852" sparseCutoff="1.0000000000000000"/>
      <sparseX i="277" alpha="198.67176254043096" sparseCutoff="1.0000000000000000"/>
      <sparseX i="278" alpha="1300.3982045812966" sparseCutoff="1.0000000000000000"/>
      <sparseX i="279" alpha="662.26539857951502" sparseCutoff="1.0000000000000000"/>
      <sparseX i="280" alpha="66.579456164485080" sparseCutoff="1.0000000000000000"/>
      <sparseX i="281" alpha="1753.4860094543567" sparseCutoff="1.0000000000000000"/>
      <sparseX i="282" alpha="1876.5084832423991" sparseCutoff="1.0000000000000000"/>
      <sparseX i="283" alpha="2829.1937251214881" sparseCutoff="1.0000000000000000"/>
      <sparseX i="284" alpha="3343.4580917925946" sparseCutoff="1.0000000000000000"/>
      <sparseX i="285" alpha="182.89586764079192" sparseCutoff="1.0000000000000000"/>
      <sparseX i="286" alpha="1402.6622409711904" sparseCutoff="1.0000000000000000"/>
      <sparseX i="287" alpha="124.69898640634968" sparseCutoff="1.0000000000000000"/>
      <sparseX i="288" alpha="3235.6367068560098" sparseCutoff="1.0000000000000000"/>
      <sparseX i="289" alpha="-4412.9192477381539" sparseCutoff="1.0000000000000000"/>
      <sparseX i="290" alpha="2000.4092428148299" sparseCutoff="1.0000000000000000"/>
      <sparseX i="291" alpha="2745.4818103462394" sparseCutoff="1.0000000000000000"/>
      <sparseX i="292" alpha="2682.6146243172134" sparseCutoff="1.0000000000000000"/>
      <sparseX i="293" alpha="-3518.7247509648059" sparseCutoff="1.0000000000000000"/>
      <sparseX i="294" alpha="2098.5368160335279" sparseCutoff="1.0000000000000000"/>
      <sparseX i="295" alpha="1092.4352623615355" sparseCutoff="1.0000000000000000"/>
      <sparseX i="296" alpha="3152.9923652302200" sparseCutoff="1.0000000000000000"/>
      <sparseX i="297" alpha="757.09030346900613" sparseCutoff="1.0000000000000000"/>
      <sparseX i="298" alpha="3390.2877758142563" sparseCutoff="1.0000000000000000"/>
      <sparseX i="299" alpha="6079.4897283838063" sparseCutoff="1.0000000000000000"/>
      <sparseX i="300" alpha="2417.0459788540315" sparseCutoff="1.0000000000000000"/>
      <sparseX i="301" alpha="-1555.0444951505685" sparseCutoff="1.0000000000000000"/>
      <sparseX i="302" alpha="2422.1208990226855" sparseCutoff="1.0000000000000000"/>
      <sparseX i="303" alpha="5813.7160129591221" sparseCutoff="1.0000000000000000"/>
      <sparseX i="304" alpha="-49.875742288524002" sparseCutoff="1.0000000000000000"/>
      <sparseX i="305" alpha="-1170.3414743071553" sparseCutoff="1.0000000000000000"/>
      <sparseX i="306" alpha="-1167.3873404224380" sparseCutoff="1.0000000000000000"/>
      <sparseX i="307" alpha="-1063.2916434954775" sparseCutoff="1.0000000000000000"/>
      <sparseX i="308" alpha="248.32593049355765" sparseCutoff="1.0000000000000000"/>
      <sparseX i="309" alpha="-5345.7294636953129" sparseCutoff="1.0000000000000000"/>
      <sparseX i="310" alpha="-387.29045610699467" sparseCutoff="1.0000000000000000"/>
      <sparseX i="311" alpha="1012.8883773511633" sparseCutoff="1.0000000000000000"/>
      <sparseX i="312" alpha="-4187.3929137813038" sparseCutoff="1.0000000000000000"/>
      <sparseX i="313" alpha="2301.3181600244288" sparseCutoff="1.0000000000000000"/>
      <sparseX i="314" alpha="-1116.3122318152596" sparseCutoff="1.0000000000000000"/>
      <sparseX i="315" alpha="-901.58218417973706" sparseCutoff="1.0000000000000000"/>
      <sparseX i="316" alpha="-332.77235513265850" sparseCutoff="1.0000000000000000"/>
      <sparseX i="317" alpha="-820.95734724178396" sparseCutoff="1.0000000000000000"/>
      <sparseX i="318" alpha="-8701.0942701048170" sparseCutoff="1.0000000000000000"/>
      <sparseX i="319" alpha="-994.99614548294267" sparseCutoff="1.0000000000000000"/>
      <sparseX i="320" alpha="-408.10907642856716" sparseCutoff="1.0000000000000000"/>
      <sparseX i="321" alpha="1809.7728175867746" sparseCutoff="1.0000000000000000"/>
      <sparseX i="322" alpha="6915.0878575055094" sparseCutoff="1.0000000000000000"/>
      <sparseX i="323" alpha="5328.7519780230841" sparseCutoff="1.0000000000000000"/>
      <sparseX i="324" alpha="102.99813118520230" sparseCutoff="1.0000000000000000"/>
      <sparseX i="325" alpha="-886.52112986062639" sparseCutoff="1.0000000000000000"/>
      <sparseX i="326" alpha="-1917.0123720815204" sparseCutoff="1.0000000000000000"/>
      <sparseX i="327" alpha="3889.6172078851660" sparseCutoff="1.0000000000000000"/>
      <sparseX i="328" alpha="4973.0289161261207" sparseCutoff="1.0000000000000000"/>
      <sparseX i="329" alpha="5843.3684811489611" sparseCutoff="1.0000000000000000"/>
      <sparseX i="330" alpha="190.53107625708586" sparseCutoff="1.0000000000000000"/>
      <sparseX i="331" alpha="-2196.0649229103196" sparseCutoff="1.0000000000000000"/>
      <sparseX i="332" alpha="2336.7183457495421" sparseCutoff="1.0000000000000000"/>
      <sparseX i="333" alpha="2654.3596895946739" sparseCutoff="1.0000000000000000"/>
      <sparseX i="334" alpha="-723.37239692484866" sparseCutoff="1.0000000000000000"/>
      <sparseX i="335" alpha="-4063.8530533452877" sparseCutoff="1.0000000000000000"/>
      <sparseX i="336" alpha="4725.6348999235470" sparseCutoff="1.0000000000000000"/>
      <sparseX i="337" alpha="4402.1465612771481" sparseCutoff="1.0000000000000000"/>
      <sparseX i="338" alpha="-997.62097351242937" sparseCutoff="1.0000000000000000"/>
      <sparseX i="339" alpha="638.36769668821569" sparseCutoff="1.0000000000000000"/>
      <sparseX i="340" alpha="4935.4805600801574" sparseCutoff="1.0000000000000000"/>
      <sparseX i="341" alpha="4465.6549544035870" sparseCutoff="1.0000000000000000"/>
      <sparseX i="342" alpha="-2241.4231338023978" sparseCutoff="1.0000000000000000"/>
      <sparseX i="343" alpha="-1199.7646787511203" sparseCutoff="1.0000000000000000"/>
      <sparseX i="344" alpha="-1072.0023397940265" sparseCutoff="1.0000000000000000"/>
      <sparseX i="345" alpha="-793.11520771313474" sparseCutoff="1.0000000000000000"/>
      <sparseX i="346" alpha="-4758.5230628734244" sparseCutoff="1.0000000000000000"/>
      <sparseX i="347" alpha="-3303.7059783853897" sparseCutoff="1.0000000000000000"/>
      <sparseX i="348" alpha="-2658.3497271566771" sparseCutoff="1.0000000000000000"/>
      <sparseX i="349" alpha="4942.4365686142655" sparseCutoff="1.0000000000000000"/>
      <sparseX i="350" alpha="2554.9429983553646" sparseCutoff="1.0000000000000000"/>
      <sparseX i="351" alpha="49.098770380181641" sparseCutoff="1.0000000000000000"/>
      <sparseX i="352" alpha="630.16558971982647" sparseCutoff="1.0000000000000000"/>
      <sparseX i="353" alpha="-1339.1550076736025" sparseCutoff="1.0000000000000000"/>
      <sparseX i="354" alpha="-1445.8789906571651" sparseCutoff="1.0000000000000000"/>
      <sparseX i="355" alpha="-3117.8471546498158" sparseCutoff="1.0000000000000000"/>
      <sparseX i="356" alpha="-518.97050216644323" sparseCutoff="1.0000000000000000"/>
      <sparseX i="357" alpha="-188.50834188921118" sparseCutoff="1.0000000000000000"/>
      <sparseX i="358" alpha="1384.5069497577135" sparseCutoff="1.0000000000000000"/>
      <sparseX i="359" alpha="742.97665404371105" sparseCutoff="1.0000000000000000"/>
      <sparseX i="360" alpha="3083.4353625130898" sparseCutoff="1.0000000000000000"/>
      <sparseX i="361" alpha="-212.57950134782303" sparseCutoff="1.0000000000000000"/>
      <sparseX i="362" alpha="763.54626187303313" sparseCutoff="1.0000000000000000"/>
      <sparseX i="363" alpha="-2514.0747856667540" sparseCutoff="1.0000000000000000"/>
      <sparseX i="364" alpha="104.68857446013612" sparseCutoff="1.0000000000000000"/>
      <sparseX i="365" alpha="4526.7872730667341" sparseCutoff="1.0000000000000000"/>
      <sparseX i="366" alpha="-12.910315630081246" sparseCutoff="1.0000000000000000"/>
      <sparseX i="367" alpha="-64.035689412853728" sparseCutoff="1.0000000000000000"/>
      <sparseX i="368" alpha="4255.5167369455621" sparseCutoff="1.0000000000000000"/>
      <sparseX i="369" alpha="-1199.4295468451221" sparseCutoff="1.0000000000000000"/>
      <sparseX i="370" alpha="-3701.5047099090266" sparseCutoff="1.0000000000000000"/>
      <sparseX i="371" alpha="1813.9618411212600" sparseCutoff="1.0000000000000000"/>
      <sparseX i="372" alpha="-570.87348228709459" sparseCutoff="1.0000000000000000"/>
      <sparseX i="373" alpha="522.21145926991414" sparseCutoff="1.0000000000000000"/>
      <sparseX i="374" alpha="-4346.6788964629477" sparseCutoff="1.0000000000000000"/>
      <sparseX i="375" alpha="-2099.9962447080875" sparseCutoff="1.0000000000000000"/>
      <sparseX i="376" alpha="196.54660523651521" sparseCutoff="1.0000000000000000"/>
      <sparseX i="377" alpha="1195.9075740872943" sparseCutoff="1.0000000000000000"/>
      <sparseX i="378" alpha="-1124.9209293414083" sparseCutoff="1.0000000000000000"/>
      <sparseX i="379" alpha="-2339.1990524708490" sparseCutoff="1.0000000000000000"/>
      <sparseX i="380" alpha="-4344.9767836349465" sparseCutoff="1.0000000000000000"/>
      <sparseX i="381" alpha="5550.7146537510534" sparseCutoff="1.0000000000000000"/>
      <sparseX i="382" alpha="-6457.7330058996286" sparseCutoff="1.0000000000000000"/>
      <sparseX i="383" alpha="-3061.5726536019079" sparseCutoff="1.0000000000000000"/>
      <sparseX i="384" alpha="2878.1962650893797" sparseCutoff="1.0000000000000000"/>
      <sparseX i="385" alpha="-626.82339178673249" sparseCutoff="1.0000000000000000"/>
      <sparseX i="386" alpha="-96.091250298022871" sparseCutoff="1.0000000000000000"/>
      <sparseX i="387" alpha="-5920.3940602644798" sparseCutoff="1.0000000000000000"/>
      <sparseX i="388" alpha="999.64011811692990" sparseCutoff="1.0000000000000000"/>
      <sparseX i="389" alpha="822.71171925996191" sparseCutoff="1.0000000000000000"/>
      <sparseX i="390" alpha="-2387.6964824071802" sparseCutoff="1.0000000000000000"/>
      <sparseX i="391" alpha="-216.39729737292973" sparseCutoff="1.0000000000000000"/>
      <sparseX i="392" alpha="2313.4550388729685" sparseCutoff="1.0000000000000000"/>
      <sparseX i="393" alpha="-600.20793630740843" sparseCutoff="1.0000000000000000"/>
      <sparseX i="394" alpha="1778.2782001614873" sparseCutoff="1.0000000000000000"/>
      <sparseX i="395" alpha="-4227.6177923443311" sparseCutoff="1.0000000000000000"/>
      <sparseX i="396" alpha="-2066.9511460549165" sparseCutoff="1.0000000000000000"/>
      <sparseX i="397" alpha="-10107.997083908267" sparseCutoff="1.0000000000000000"/>
      <sparseX i="398" alpha="-317.31972273515447" sparseCutoff="1.0000000000000000"/>
      <sparseX i="399" alpha="447.74131440995524" sparseCutoff="1.0000000000000000"/>
      <sparseX i="400" alpha="-507.39931854357036" sparseCutoff="1.0000000000000000"/>
      <sparseX i="401" alpha="-3568.0549711157983" sparseCutoff="1.0000000000000000"/>
      <sparseX i="402" alpha="274.54257766892613" sparseCutoff="1.0000000000000000"/>
      <sparseX i="403" alpha="-1440.1190752897153" sparseCutoff="1.0000000000000000"/>
      <sparseX i="404" alpha="-1457.0017948170018" sparseCutoff="1.0000000000000000"/>
      <sparseX i="405" alpha="3439.6004536139185" sparseCutoff="1.0000000000000000"/>
      <sparseX i="406" alpha="-2505.6353222115617" sparseCutoff="1.0000000000000000"/>
      <sparseX i="407" alpha="-493.21832843000021" sparseCutoff="1.0000000000000000"/>
      <sparseX i="408" alpha="631.54714489799346" sparseCutoff="1.0000000000000000"/>
      <sparseX i="409" alpha="-1645.0103820493350" sparseCutoff="1.0000000000000000"/>
      <sparseX i="410" alpha="-226.99237919244715" sparseCutoff="1.0000000000000000"/>
      <sparseX i="411" alpha="1648.7390209271734" sparseCutoff="1.0000000000000000"/>
      <sparseX i="412" alpha="-4133.0759465291949" sparseCutoff="1.0000000000000000"/>
      <sparseX i="413" alpha="-4720.4510052605383" sparseCutoff="1.0000000000000000"/>
      <sparseX i="414" alpha="-6759.2364337982617" sparseCutoff="1.0000000000000000"/>
      <sparseX i="415" alpha="-2666.1193813010614" sparseCutoff="1.0000000000000000"/>
      <sparseX i="416" alpha="-1526.5273467535483" sparseCutoff="1.0000000000000000"/>
      <sparseX i="417" alpha="-11.623991468745412" sparseCutoff="1.0000000000000000"/>
      <sparseX i="418" alpha="6629.7429068737902" sparseCutoff="1.0000000000000000"/>
      <sparseX i="419" alpha="-4705.2441597815778" sparseCutoff="1.0000000000000000"/>
      <sparseX i="420" alpha="765.86252201420700" sparseCutoff="1.0000000000000000"/>
      <sparseX i="421" alpha="1606.9463406822513" sparseCutoff="1.0000000000000000"/>
      <sparseX i="422" alpha="221.76943745629498" sparseCutoff="1.0000000000000000"/>
      <sparseX i="423" alpha="-2813.0193682080085" sparseCutoff="1.0000000000000000"/>
      <sparseX i="424" alpha="4717.9391302503191" sparseCutoff="1.0000000000000000"/>
      <sparseX i="425" alpha="-1861.8157468703541" sparseCutoff="1.0000000000000000"/>
      <sparseX i="426" alpha="3147.1866810336564" sparseCutoff="1.0000000000000000"/>
      <sparseX i="427" alpha="-378.96020729156334" sparseCutoff="1.0000000000000000"/>
      <sparseX i="428" alpha="396.63475201422801" sparseCutoff="1.0000000000000000"/>
      <sparseX i="429" alpha="-267.96543866687682" sparseCutoff="1.0000000000000000"/>
      <sparseX i="430" alpha="3306.1863824154693" sparseCutoff="1.0000000000000000"/>
      <sparseX i="431" alpha="-552.52908831094214" sparseCutoff="1.0000000000000000"/>
      <sparseX i="432" alpha="1259.9400544808368" sparseCutoff="1.0000000000000000"/>
      <sparseX i="433" alpha="443.25392626709231" sparseCutoff="1.0000000000000000"/>
      <sparseX i="434" alpha="6512.8636701946925" sparseCutoff="1.0000000000000000"/>
      <sparseX i="435" alpha="2075.0817081100790" sparseCutoff="1.0000000000000000"/>
      <sparseX i="436" alpha="-38.848806107409771" sparseCutoff="1.0000000000000000"/>
      <sparseX i="437" alpha="-1712.7630185961461" sparseCutoff="1.0000000000000000"/>
      <sparseX i="438" alpha="-841.46468774383527" sparseCutoff="1.0000000000000000"/>
      <sparseX i="439" alpha="4807.3359021630731" sparseCutoff="1.0000000000000000"/>
      <sparseX i="440" alpha="-2763.8815801957362" sparseCutoff="1.0000000000000000"/>
      <sparseX i="441" alpha="-638.56046111478088" sparseCutoff="1.0000000000000000"/>
      <sparseX i="442" alpha="1788.4624238839619" sparseCutoff="1.0000000000000000"/>
      <sparseX i="443" alpha="330.14906874305734" sparseCutoff="1.0000000000000000"/>
      <sparseX i="444" alpha="2392.8124469433997" sparseCutoff="1.0000000000000000"/>
      <sparseX i="445" alpha="-126.32846612142598" sparseCutoff="1.0000000000000000"/>
      <sparseX i="446" alpha="915.61213189165949" sparseCutoff="1.0000000000000000"/>
      <sparseX i="447" alpha="741.82277192067011" sparseCutoff="1.0000000000000000"/>
      <sparseX i="448" alpha="-133.81434014058394" sparseCutoff="1.0000000000000000"/>
      <sparseX i="449" alpha="-748.59794649604351" sparseCutoff="1.0000000000000000"/>
      <sparseX i="450" alpha="-935.72786679487626" sparseCutoff="1.0000000000000000"/>
      <sparseX i="451" alpha="953.27198537042398" sparseCutoff="1.0000000000000000"/>
      <sparseX i="452" alpha="-1390.7969353112924" sparseCutoff="1.0000000000000000"/>
      <sparseX i="453" alpha="8939.3942299950231" sparseCutoff="1.0000000000000000"/>
      <sparseX i="454" alpha="-2923.8422449099753" sparseCutoff="1.0000000000000000"/>
      <sparseX i="455" alpha="-3571.4350936647029" sparseCutoff="1.0000000000000000"/>
      <sparseX i="456" alpha="823.50945367039878" sparseCutoff="1.0000000000000000"/>
      <sparseX i="457" alpha="-1617.8052523458291" sparseCutoff="1.0000000000000000"/>
      <sparseX i="458" alpha="4356.1169382704011" sparseCutoff="1.0000000000000000"/>
      <sparseX i="459" alpha="4878.5035947941205" sparseCutoff="1.0000000000000000"/>
      <sparseX i="460" alpha="-231.08196710055415" sparseCutoff="1.0000000000000000"/>
      <sparseX i="461" alpha="1142.1231569529223" sparseCutoff="1.0000000000000000"/>
      <sparseX i="462" alpha="2583.5775791572769" sparseCutoff="1.0000000000000000"/>
      <sparseX i="463" alpha="-4387.8994533167252" sparseCutoff="1.0000000000000000"/>
      <sparseX i="464" alpha="996.37374826218866" sparseCutoff="1.0000000000000000"/>
      <sparseX i="465" alpha="-2743.9838558790698" sparseCutoff="1.0000000000000000"/>
      <sparseX i="466" alpha="982.88192961128539" sparseCutoff="1.0000000000000000"/>
      <sparseX i="467" alpha="-1486.0412439349425" sparseCutoff="1.0000000000000000"/>
      <sparseX i="468" alpha="-6303.7779781926547" sparseCutoff="1.0000000000000000"/>
      <sparseX i="469" alpha="7124.0691211393960" sparseCutoff="1.0000000000000000"/>
      <sparseX i="470" alpha="-791.95456899604949" sparseCutoff="1.0000000000000000"/>
      <sparseX i="471" alpha="216.60628245924627" sparseCutoff="1.0000000000000000"/>
      <sparseX i="472" alpha="-954.78288004563854" sparseCutoff="1.0000000000000000"/>
      <sparseX i="473" alpha="-288.71639959456462" sparseCutoff="1.0000000000000000"/>
      <sparseX i="474" alpha="583.19516971076666" sparseCutoff="1.0000000000000000"/>
      <sparseX i="475" alpha="-1148.7092635463796" sparseCutoff="1.0000000000000000"/>
      <sparseX i="476" alpha="4973.0641073665802" sparseCutoff="1.0000000000000000"/>
      <sparseX i="477" alpha="128.94786658623971" sparseCutoff="1.0000000000000000"/>
      <sparseX i="478" alpha="1025.3039252711626" sparseCutoff="1.0000000000000000"/>
      <sparseX i="479" alpha="-946.76849682542638" sparseCutoff="1.0000000000000000"/>
      <sparseX i="480" alpha="658.47496773705143" sparseCutoff="1.0000000000000000"/>
      <sparseX i="481" alpha="419.49695343802165" sparseCutoff="1.0000000000000000"/>
      <sparseX i="482" alpha="-1776.8387212680445" sparseCutoff="1.0000000000000000"/>
      <sparseX i="483" alpha="3666.7926783000512" sparseCutoff="1.0000000000000000"/>
      <sparseX i="484" alpha="-426.89089186952793" sparseCutoff="1.0000000000000000"/>
      <sparseX i="485" alpha="3278.8201313682225" sparseCutoff="1.0000000000000000"/>
      <sparseX i="486" alpha="-1587.5988798799367" sparseCutoff="1.0000000000000000"/>
      <sparseX i="487" alpha="-1703.5203374267903" sparseCutoff="1.0000000000000000"/>
      <sparseX i="488" alpha="2061.3770187564492" sparseCutoff="1.0000000000000000"/>
      <sparseX i="489" alpha="-288.93711813355003" sparseCutoff="1.0000000000000000"/>
      <sparseX i="490" alpha="300.88244924840933" sparseCutoff="1.0000000000000000"/>
      <sparseX i="491" alpha="-1603.7569325072161" sparseCutoff="1.0000000000000000"/>
      <sparseX i="492" alpha="-986.35319165772967" sparseCutoff="1.0000000000000000"/>
      <sparseX i="493" alpha="1770.3944157914520" sparseCutoff="1.0000000000000000"/>
      <sparseX i="494" alpha="-2930.4603869317752" sparseCutoff="1.0000000000000000"/>
      <sparseX i="495" alpha="1081.7303585408652" sparseCutoff="1.0000000000000000"/>
      <sparseX i="496" alpha="-1778.5909130901059" sparseCutoff="1.0000000000000000"/>
      <sparseX i="497" alpha="-491.41697020494678" sparseCutoff="1.0000000000000000"/>
      <sparseX i="498" alpha="887.45734613214552" sparseCutoff="1.0000000000000000"/>
      <sparseX i="499" alpha="1990.6220297803213" sparseCutoff="1.0000000000000000"/>
      <sparseX i="500" alpha="-351.93043988811047" sparseCutoff="1.0000000000000000"/>
    </gpCoordinates>
  </gpSparse>
  <command_line><![CDATA[ at_file=train.xyz gp_file=GAP.xml energy_parameter_name=QM_energy force_parameter_name=QM_forces virial_parameter_name=QM_virial do_copy_at_file=F sparse_separate_file=T default_sigma={ 0.001 0.1 0.05 0.0 } e0_method=average e0=Si:-160.73263835370375 gap={ distance_Nb order=2 cutoff=10.0 covariance_type=ARD_SE theta_uniform=0.5 n_sparse=30 delta=1.0 sparse_method=uniform compact_clusters=T : soap l_max=4 n_max=12 atom_sigma=0.5 zeta=4 cutoff=5.0 cutoff_transition_width=1.0 central_weight=1.0 n_sparse=500 delta=0.1 f0=0.0 covariance_type=dot_product sparse_method=cur_points } sparse_jitter = 1.0e-8]]></command_line>
</GAP_params>
</GAP_2023_6_29_60_10_29_3_391>
