<GAP_2023_3_13_0_10_38_24_225>
<Potential label="GAP_2023_3_13_0_10_38_24_225" init_args="IP GAP label=GAP_2023_3_13_0_10_38_24_225"/>
<GAP_params label="GAP_2023_3_13_0_10_38_24_225" gap_version="1657795613">
  <GAP_data do_core="F">
    <e0 Z="1" value=".00000000000000000E+000"/>
    <e0 Z="2" value=".00000000000000000E+000"/>
    <e0 Z="3" value=".00000000000000000E+000"/>
    <e0 Z="4" value=".00000000000000000E+000"/>
    <e0 Z="5" value=".00000000000000000E+000"/>
    <e0 Z="6" value=".00000000000000000E+000"/>
    <e0 Z="7" value=".00000000000000000E+000"/>
    <e0 Z="8" value="-303.49985552941513"/>
    <e0 Z="9" value=".00000000000000000E+000"/>
    <e0 Z="10" value=".00000000000000000E+000"/>
    <e0 Z="11" value=".00000000000000000E+000"/>
    <e0 Z="12" value=".00000000000000000E+000"/>
    <e0 Z="13" value="-303.49985552941513"/>
    <e0 Z="14" value=".00000000000000000E+000"/>
    <e0 Z="15" value=".00000000000000000E+000"/>
    <e0 Z="16" value=".00000000000000000E+000"/>
    <e0 Z="17" value=".00000000000000000E+000"/>
    <e0 Z="18" value=".00000000000000000E+000"/>
    <e0 Z="19" value=".00000000000000000E+000"/>
    <e0 Z="20" value=".00000000000000000E+000"/>
    <e0 Z="21" value=".00000000000000000E+000"/>
    <e0 Z="22" value=".00000000000000000E+000"/>
    <e0 Z="23" value=".00000000000000000E+000"/>
    <e0 Z="24" value=".00000000000000000E+000"/>
    <e0 Z="25" value=".00000000000000000E+000"/>
    <e0 Z="26" value=".00000000000000000E+000"/>
    <e0 Z="27" value=".00000000000000000E+000"/>
    <e0 Z="28" value=".00000000000000000E+000"/>
    <e0 Z="29" value=".00000000000000000E+000"/>
    <e0 Z="30" value=".00000000000000000E+000"/>
    <e0 Z="31" value=".00000000000000000E+000"/>
    <e0 Z="32" value=".00000000000000000E+000"/>
    <e0 Z="33" value=".00000000000000000E+000"/>
    <e0 Z="34" value=".00000000000000000E+000"/>
    <e0 Z="35" value=".00000000000000000E+000"/>
    <e0 Z="36" value=".00000000000000000E+000"/>
    <e0 Z="37" value=".00000000000000000E+000"/>
    <e0 Z="38" value=".00000000000000000E+000"/>
    <e0 Z="39" value=".00000000000000000E+000"/>
    <e0 Z="40" value=".00000000000000000E+000"/>
    <e0 Z="41" value=".00000000000000000E+000"/>
    <e0 Z="42" value=".00000000000000000E+000"/>
    <e0 Z="43" value=".00000000000000000E+000"/>
    <e0 Z="44" value=".00000000000000000E+000"/>
    <e0 Z="45" value=".00000000000000000E+000"/>
    <e0 Z="46" value=".00000000000000000E+000"/>
    <e0 Z="47" value=".00000000000000000E+000"/>
    <e0 Z="48" value=".00000000000000000E+000"/>
    <e0 Z="49" value=".00000000000000000E+000"/>
    <e0 Z="50" value=".00000000000000000E+000"/>
    <e0 Z="51" value=".00000000000000000E+000"/>
    <e0 Z="52" value=".00000000000000000E+000"/>
    <e0 Z="53" value=".00000000000000000E+000"/>
    <e0 Z="54" value=".00000000000000000E+000"/>
    <e0 Z="55" value=".00000000000000000E+000"/>
    <e0 Z="56" value=".00000000000000000E+000"/>
    <e0 Z="57" value=".00000000000000000E+000"/>
    <e0 Z="58" value=".00000000000000000E+000"/>
    <e0 Z="59" value=".00000000000000000E+000"/>
    <e0 Z="60" value=".00000000000000000E+000"/>
    <e0 Z="61" value=".00000000000000000E+000"/>
    <e0 Z="62" value=".00000000000000000E+000"/>
    <e0 Z="63" value=".00000000000000000E+000"/>
    <e0 Z="64" value=".00000000000000000E+000"/>
    <e0 Z="65" value=".00000000000000000E+000"/>
    <e0 Z="66" value=".00000000000000000E+000"/>
    <e0 Z="67" value=".00000000000000000E+000"/>
    <e0 Z="68" value=".00000000000000000E+000"/>
    <e0 Z="69" value=".00000000000000000E+000"/>
    <e0 Z="70" value=".00000000000000000E+000"/>
    <e0 Z="71" value=".00000000000000000E+000"/>
    <e0 Z="72" value=".00000000000000000E+000"/>
    <e0 Z="73" value=".00000000000000000E+000"/>
    <e0 Z="74" value=".00000000000000000E+000"/>
    <e0 Z="75" value=".00000000000000000E+000"/>
    <e0 Z="76" value=".00000000000000000E+000"/>
    <e0 Z="77" value=".00000000000000000E+000"/>
    <e0 Z="78" value=".00000000000000000E+000"/>
    <e0 Z="79" value=".00000000000000000E+000"/>
    <e0 Z="80" value=".00000000000000000E+000"/>
    <e0 Z="81" value=".00000000000000000E+000"/>
    <e0 Z="82" value=".00000000000000000E+000"/>
    <e0 Z="83" value=".00000000000000000E+000"/>
    <e0 Z="84" value=".00000000000000000E+000"/>
    <e0 Z="85" value=".00000000000000000E+000"/>
    <e0 Z="86" value=".00000000000000000E+000"/>
    <e0 Z="87" value=".00000000000000000E+000"/>
    <e0 Z="88" value=".00000000000000000E+000"/>
    <e0 Z="89" value=".00000000000000000E+000"/>
    <e0 Z="90" value=".00000000000000000E+000"/>
    <e0 Z="91" value=".00000000000000000E+000"/>
    <e0 Z="92" value=".00000000000000000E+000"/>
    <e0 Z="93" value=".00000000000000000E+000"/>
    <e0 Z="94" value=".00000000000000000E+000"/>
    <e0 Z="95" value=".00000000000000000E+000"/>
    <e0 Z="96" value=".00000000000000000E+000"/>
    <e0 Z="97" value=".00000000000000000E+000"/>
    <e0 Z="98" value=".00000000000000000E+000"/>
    <e0 Z="99" value=".00000000000000000E+000"/>
    <e0 Z="100" value=".00000000000000000E+000"/>
    <e0 Z="101" value=".00000000000000000E+000"/>
    <e0 Z="102" value=".00000000000000000E+000"/>
    <e0 Z="103" value=".00000000000000000E+000"/>
    <e0 Z="104" value=".00000000000000000E+000"/>
    <e0 Z="105" value=".00000000000000000E+000"/>
    <e0 Z="106" value=".00000000000000000E+000"/>
    <e0 Z="107" value=".00000000000000000E+000"/>
    <e0 Z="108" value=".00000000000000000E+000"/>
    <e0 Z="109" value=".00000000000000000E+000"/>
    <e0 Z="110" value=".00000000000000000E+000"/>
    <e0 Z="111" value=".00000000000000000E+000"/>
    <e0 Z="112" value=".00000000000000000E+000"/>
    <e0 Z="113" value=".00000000000000000E+000"/>
    <e0 Z="114" value=".00000000000000000E+000"/>
    <e0 Z="115" value=".00000000000000000E+000"/>
    <e0 Z="116" value=".00000000000000000E+000"/>
    <e0 Z="117" value=".00000000000000000E+000"/>
    <e0 Z="118" value=".00000000000000000E+000"/>
  </GAP_data>
  <gpSparse label="GAP_2023_3_13_0_10_38_24_225" n_coordinate="5" fitted="T">
    <gpCoordinates label="GAP_2023_3_13_0_10_38_24_2251" dimensions="1" signal_variance="1.0000000000000000" signal_mean=".00000000000000000E+000" sparsified="T" n_permutations="2" covariance_type="1" n_sparseX="20" sparseX_filename="GAP.xml.sparseX.GAP_2023_3_13_0_10_38_24_2251" sparseX_md5sum="7ff85bec97d9a4a0522074cddb3adb69">
      <theta>  0.10000000000000000E+001 </theta>
      <descriptor> distance_Nb order=2 n_sparse=20 cutoff=4.5 cutoff_transition_width=1.0 compact_clusters covariance_type=ard_se theta_uniform=1.0 sparse_method=uniform f0=0.0               delta=1.0 Z={8 8 }</descriptor>
      <permutation i="1">1  </permutation>
      <permutation i="2">1  </permutation>
      <sparseX i="1" alpha="10726.097947681095" sparseCutoff=".87062231842281679"/>
      <sparseX i="2" alpha="-4963.1621330234620" sparseCutoff="1.0000000000000000"/>
      <sparseX i="3" alpha="23694.124417503765" sparseCutoff="1.0000000000000000"/>
      <sparseX i="4" alpha="4456.1772832162842" sparseCutoff=".32660740912811570E-002"/>
      <sparseX i="5" alpha="14423.952323755542" sparseCutoff=".70330543826576419"/>
      <sparseX i="6" alpha="21122.259903726012" sparseCutoff=".51692201905339963E-001"/>
      <sparseX i="7" alpha="-1715.2718295541029" sparseCutoff="1.0000000000000000"/>
      <sparseX i="8" alpha="-10023.288662153282" sparseCutoff=".42861304834389946"/>
      <sparseX i="9" alpha="-1523.9734833997020" sparseCutoff="1.0000000000000000"/>
      <sparseX i="10" alpha="-17186.248533577498" sparseCutoff="1.0000000000000000"/>
      <sparseX i="11" alpha="4442.8798423510525" sparseCutoff=".15895364976856741"/>
      <sparseX i="12" alpha="-13203.163119371839" sparseCutoff=".32235381631308763"/>
      <sparseX i="13" alpha="7965.3813748546145" sparseCutoff="1.0000000000000000"/>
      <sparseX i="14" alpha="2976.9790522087569" sparseCutoff="1.0000000000000000"/>
      <sparseX i="15" alpha="11966.327494876847" sparseCutoff="1.0000000000000000"/>
      <sparseX i="16" alpha="-10961.615083436714" sparseCutoff=".99323237991574365"/>
      <sparseX i="17" alpha="-12195.458069160592" sparseCutoff=".99858787385667647"/>
      <sparseX i="18" alpha="12527.333252062079" sparseCutoff="1.0000000000000000"/>
      <sparseX i="19" alpha="2292.2792573039455" sparseCutoff="1.0000000000000000"/>
      <sparseX i="20" alpha="-25702.305260120647" sparseCutoff="1.0000000000000000"/>
    </gpCoordinates>
    <gpCoordinates label="GAP_2023_3_13_0_10_38_24_2252" dimensions="1" signal_variance="1.0000000000000000" signal_mean=".00000000000000000E+000" sparsified="T" n_permutations="1" covariance_type="1" n_sparseX="20" sparseX_filename="GAP.xml.sparseX.GAP_2023_3_13_0_10_38_24_2252" sparseX_md5sum="577237bc45f3c46b692b236bc58dd06c">
      <theta>  0.10000000000000000E+001 </theta>
      <descriptor> distance_Nb order=2 n_sparse=20 cutoff=4.5 cutoff_transition_width=1.0 compact_clusters covariance_type=ard_se theta_uniform=1.0 sparse_method=uniform f0=0.0               delta=1.0 Z={8 13 }</descriptor>
      <permutation i="1">1  </permutation>
      <sparseX i="1" alpha="2955.8228240318540" sparseCutoff="1.0000000000000000"/>
      <sparseX i="2" alpha="13814.894559985236" sparseCutoff="1.0000000000000000"/>
      <sparseX i="3" alpha="3479.8858108261461" sparseCutoff="1.0000000000000000"/>
      <sparseX i="4" alpha="1151.0755436687934" sparseCutoff=".93642329772744393E-001"/>
      <sparseX i="5" alpha="1712.4130055574424" sparseCutoff=".74419362547960022"/>
      <sparseX i="6" alpha="-2947.5767499841686" sparseCutoff=".98218030139135171"/>
      <sparseX i="7" alpha="-6164.6935672271020" sparseCutoff="1.0000000000000000"/>
      <sparseX i="8" alpha="3095.2105029113395" sparseCutoff="1.0000000000000000"/>
      <sparseX i="9" alpha="2692.9863933651809" sparseCutoff=".54751149653160169"/>
      <sparseX i="10" alpha="1254.2235593196274" sparseCutoff=".35061468317188482E-002"/>
      <sparseX i="11" alpha="-3318.3024961638907" sparseCutoff=".21276294837438126"/>
      <sparseX i="12" alpha="-13221.558162592601" sparseCutoff="1.0000000000000000"/>
      <sparseX i="13" alpha="-2736.1222901954202" sparseCutoff=".89706882717968961"/>
      <sparseX i="14" alpha="-2537.5150139318525" sparseCutoff="1.0000000000000000"/>
      <sparseX i="15" alpha="-6003.9361518565483" sparseCutoff="1.0000000000000000"/>
      <sparseX i="16" alpha="-4406.8750552463243" sparseCutoff="1.0000000000000000"/>
      <sparseX i="17" alpha="37.020047264070634" sparseCutoff="1.0000000000000000"/>
      <sparseX i="18" alpha="1964.6129797549979" sparseCutoff="1.0000000000000000"/>
      <sparseX i="19" alpha="3553.7083626365379" sparseCutoff="1.0000000000000000"/>
      <sparseX i="20" alpha="6635.1030126140868" sparseCutoff="1.0000000000000000"/>
    </gpCoordinates>
    <gpCoordinates label="GAP_2023_3_13_0_10_38_24_2253" dimensions="1" signal_variance="1.0000000000000000" signal_mean=".00000000000000000E+000" sparsified="T" n_permutations="2" covariance_type="1" n_sparseX="20" sparseX_filename="GAP.xml.sparseX.GAP_2023_3_13_0_10_38_24_2253" sparseX_md5sum="dc60f18ba5f41e1d2eb1b8029b3883a4">
      <theta>  0.10000000000000000E+001 </theta>
      <descriptor> distance_Nb order=2 n_sparse=20 cutoff=4.5 cutoff_transition_width=1.0 compact_clusters covariance_type=ard_se theta_uniform=1.0 sparse_method=uniform f0=0.0               delta=1.0 Z={13 13 }</descriptor>
      <permutation i="1">1  </permutation>
      <permutation i="2">1  </permutation>
      <sparseX i="1" alpha="-193.83264385319990" sparseCutoff=".66146466747517230"/>
      <sparseX i="2" alpha="627.98288067837984" sparseCutoff="1.0000000000000000"/>
      <sparseX i="3" alpha="645.28830719795826" sparseCutoff="1.0000000000000000"/>
      <sparseX i="4" alpha="-232.02481050917348" sparseCutoff="1.0000000000000000"/>
      <sparseX i="5" alpha="282.58110714956774" sparseCutoff=".97769552081804600"/>
      <sparseX i="6" alpha="-395.84307906602163" sparseCutoff=".91685172619074295"/>
      <sparseX i="7" alpha="-349.86633313793874" sparseCutoff="1.0000000000000000"/>
      <sparseX i="8" alpha="528.23046324446966" sparseCutoff="1.0000000000000000"/>
      <sparseX i="9" alpha="115.24218709849144" sparseCutoff="1.0000000000000000"/>
      <sparseX i="10" alpha="-237.59054743178629" sparseCutoff="1.0000000000000000"/>
      <sparseX i="11" alpha="328.92530382620691" sparseCutoff="1.0000000000000000"/>
      <sparseX i="12" alpha="-736.84317333891386" sparseCutoff="1.0000000000000000"/>
      <sparseX i="13" alpha="-561.92509218217810" sparseCutoff=".39977791423977949E-002"/>
      <sparseX i="14" alpha="-717.91754533311007" sparseCutoff=".75838045920293484"/>
      <sparseX i="15" alpha="878.22975146887757" sparseCutoff=".52084059315909637"/>
      <sparseX i="16" alpha="-1059.4532829179789" sparseCutoff=".90982661174979773E-002"/>
      <sparseX i="17" alpha="-1014.6253602399140" sparseCutoff=".15303632760632313"/>
      <sparseX i="18" alpha="-1135.0637510427998" sparseCutoff="1.0000000000000000"/>
      <sparseX i="19" alpha="688.69403679001346" sparseCutoff=".25737473464111482"/>
      <sparseX i="20" alpha="741.27107798720863" sparseCutoff="1.0000000000000000"/>
    </gpCoordinates>
    <gpCoordinates label="GAP_2023_3_13_0_10_38_24_2254" dimensions="681" signal_variance=".50000000000000000" signal_mean=".00000000000000000E+000" sparsified="T" n_permutations="1" covariance_type="2" zeta="4.0000000000000000" n_sparseX="923" sparseX_filename="GAP.xml.sparseX.GAP_2023_3_13_0_10_38_24_2254" sparseX_md5sum="5c25a80977656775fc841cdea2f09103">
      <descriptor> soap n_sparse=1000 n_max=8 l_max=4 cutoff=3.5 cutoff_transition_width=0.5 atom_sigma=0.4                  covariance_type=dot_product zeta=4 sparse_method=cur_points delta=0.5 n_species=2 Z=8 species_Z={8 13 }</descriptor>
      <permutation i="1">1  </permutation>
      <sparseX i="1" alpha="-6096.6725245547386" sparseCutoff="1.0000000000000000"/>
      <sparseX i="2" alpha="-5695.4723032277934" sparseCutoff="1.0000000000000000"/>
      <sparseX i="3" alpha="-997.73104819001321" sparseCutoff="1.0000000000000000"/>
      <sparseX i="4" alpha="7804.1615822705608" sparseCutoff="1.0000000000000000"/>
      <sparseX i="5" alpha="18141.340884680056" sparseCutoff="1.0000000000000000"/>
      <sparseX i="6" alpha="-5041.6944713602115" sparseCutoff="1.0000000000000000"/>
      <sparseX i="7" alpha="-3099.2280519927940" sparseCutoff="1.0000000000000000"/>
      <sparseX i="8" alpha="-9586.8562013612809" sparseCutoff="1.0000000000000000"/>
      <sparseX i="9" alpha="6838.5716951669028" sparseCutoff="1.0000000000000000"/>
      <sparseX i="10" alpha="-1148.0213236840234" sparseCutoff="1.0000000000000000"/>
      <sparseX i="11" alpha="-6955.0210131341591" sparseCutoff="1.0000000000000000"/>
      <sparseX i="12" alpha="-8681.6411910912393" sparseCutoff="1.0000000000000000"/>
      <sparseX i="13" alpha="-2229.4010789818294" sparseCutoff="1.0000000000000000"/>
      <sparseX i="14" alpha="1823.5640737614392" sparseCutoff="1.0000000000000000"/>
      <sparseX i="15" alpha="-16800.883381896463" sparseCutoff="1.0000000000000000"/>
      <sparseX i="16" alpha="4096.5733300713600" sparseCutoff="1.0000000000000000"/>
      <sparseX i="17" alpha="-9657.5331590121405" sparseCutoff="1.0000000000000000"/>
      <sparseX i="18" alpha="-2337.1003026888543" sparseCutoff="1.0000000000000000"/>
      <sparseX i="19" alpha="9640.3437937219533" sparseCutoff="1.0000000000000000"/>
      <sparseX i="20" alpha="2131.8657856801146" sparseCutoff="1.0000000000000000"/>
      <sparseX i="21" alpha="-616.47801867715839" sparseCutoff="1.0000000000000000"/>
      <sparseX i="22" alpha="8793.3999360757462" sparseCutoff="1.0000000000000000"/>
      <sparseX i="23" alpha="1243.7218144930587" sparseCutoff="1.0000000000000000"/>
      <sparseX i="24" alpha="-5517.0932989697230" sparseCutoff="1.0000000000000000"/>
      <sparseX i="25" alpha="1860.0249636453739" sparseCutoff="1.0000000000000000"/>
      <sparseX i="26" alpha="-15735.065972702176" sparseCutoff="1.0000000000000000"/>
      <sparseX i="27" alpha="-17885.071305914244" sparseCutoff="1.0000000000000000"/>
      <sparseX i="28" alpha="686.32076709153148" sparseCutoff="1.0000000000000000"/>
      <sparseX i="29" alpha="9718.2840024096367" sparseCutoff="1.0000000000000000"/>
      <sparseX i="30" alpha="-7402.2636860783414" sparseCutoff="1.0000000000000000"/>
      <sparseX i="31" alpha="-8143.6281384518461" sparseCutoff="1.0000000000000000"/>
      <sparseX i="32" alpha="505.67683423262110" sparseCutoff="1.0000000000000000"/>
      <sparseX i="33" alpha="15474.147281340453" sparseCutoff="1.0000000000000000"/>
      <sparseX i="34" alpha="-5702.1619649012991" sparseCutoff="1.0000000000000000"/>
      <sparseX i="35" alpha="10982.160363162109" sparseCutoff="1.0000000000000000"/>
      <sparseX i="36" alpha="-1248.0234958164685" sparseCutoff="1.0000000000000000"/>
      <sparseX i="37" alpha="10673.169029543771" sparseCutoff="1.0000000000000000"/>
      <sparseX i="38" alpha="-13105.617522817147" sparseCutoff="1.0000000000000000"/>
      <sparseX i="39" alpha="627.53025276729079" sparseCutoff="1.0000000000000000"/>
      <sparseX i="40" alpha="-8751.9243324710533" sparseCutoff="1.0000000000000000"/>
      <sparseX i="41" alpha="4355.8397281364223" sparseCutoff="1.0000000000000000"/>
      <sparseX i="42" alpha="-2064.3540946581329" sparseCutoff="1.0000000000000000"/>
      <sparseX i="43" alpha="-2519.3689763940092" sparseCutoff="1.0000000000000000"/>
      <sparseX i="44" alpha="6211.7555453870145" sparseCutoff="1.0000000000000000"/>
      <sparseX i="45" alpha="-13128.841448934840" sparseCutoff="1.0000000000000000"/>
      <sparseX i="46" alpha="1193.6397065024348" sparseCutoff="1.0000000000000000"/>
      <sparseX i="47" alpha="6072.7747021528676" sparseCutoff="1.0000000000000000"/>
      <sparseX i="48" alpha="4820.3396337722597" sparseCutoff="1.0000000000000000"/>
      <sparseX i="49" alpha="-2520.3568507506570" sparseCutoff="1.0000000000000000"/>
      <sparseX i="50" alpha="-4260.5560027178262" sparseCutoff="1.0000000000000000"/>
      <sparseX i="51" alpha="-208.75598402199847" sparseCutoff="1.0000000000000000"/>
      <sparseX i="52" alpha="905.80018379848468" sparseCutoff="1.0000000000000000"/>
      <sparseX i="53" alpha="-7392.5978466421575" sparseCutoff="1.0000000000000000"/>
      <sparseX i="54" alpha="7101.6737228374150" sparseCutoff="1.0000000000000000"/>
      <sparseX i="55" alpha="-1003.4013312759008" sparseCutoff="1.0000000000000000"/>
      <sparseX i="56" alpha="5700.8592600870707" sparseCutoff="1.0000000000000000"/>
      <sparseX i="57" alpha="-7229.3743491046735" sparseCutoff="1.0000000000000000"/>
      <sparseX i="58" alpha="-1646.3560429666923" sparseCutoff="1.0000000000000000"/>
      <sparseX i="59" alpha="-728.23358052152082" sparseCutoff="1.0000000000000000"/>
      <sparseX i="60" alpha="-11761.334390922235" sparseCutoff="1.0000000000000000"/>
      <sparseX i="61" alpha="-16426.594435301984" sparseCutoff="1.0000000000000000"/>
      <sparseX i="62" alpha="-2596.4063258545893" sparseCutoff="1.0000000000000000"/>
      <sparseX i="63" alpha="2126.9732455352118" sparseCutoff="1.0000000000000000"/>
      <sparseX i="64" alpha="-12303.866320522047" sparseCutoff="1.0000000000000000"/>
      <sparseX i="65" alpha="-3916.2405121715960" sparseCutoff="1.0000000000000000"/>
      <sparseX i="66" alpha="-10557.326516399360" sparseCutoff="1.0000000000000000"/>
      <sparseX i="67" alpha="2969.6918216279228" sparseCutoff="1.0000000000000000"/>
      <sparseX i="68" alpha="-2914.3182549271537" sparseCutoff="1.0000000000000000"/>
      <sparseX i="69" alpha="-8049.2783910548742" sparseCutoff="1.0000000000000000"/>
      <sparseX i="70" alpha="-8527.6753138101121" sparseCutoff="1.0000000000000000"/>
      <sparseX i="71" alpha="12150.871231518493" sparseCutoff="1.0000000000000000"/>
      <sparseX i="72" alpha="11061.814331448191" sparseCutoff="1.0000000000000000"/>
      <sparseX i="73" alpha="5897.3016314620781" sparseCutoff="1.0000000000000000"/>
      <sparseX i="74" alpha="-7003.0749513109877" sparseCutoff="1.0000000000000000"/>
      <sparseX i="75" alpha="-5877.5656928694216" sparseCutoff="1.0000000000000000"/>
      <sparseX i="76" alpha="-14459.947973643182" sparseCutoff="1.0000000000000000"/>
      <sparseX i="77" alpha="3482.1689572384221" sparseCutoff="1.0000000000000000"/>
      <sparseX i="78" alpha="3606.3599512092496" sparseCutoff="1.0000000000000000"/>
      <sparseX i="79" alpha="148.12966923212102" sparseCutoff="1.0000000000000000"/>
      <sparseX i="80" alpha="424.67343535649934" sparseCutoff="1.0000000000000000"/>
      <sparseX i="81" alpha="-3202.9777766972602" sparseCutoff="1.0000000000000000"/>
      <sparseX i="82" alpha="1512.5038301725458" sparseCutoff="1.0000000000000000"/>
      <sparseX i="83" alpha="3332.7198089480144" sparseCutoff="1.0000000000000000"/>
      <sparseX i="84" alpha="5717.4267452738613" sparseCutoff="1.0000000000000000"/>
      <sparseX i="85" alpha="3894.5464531783832" sparseCutoff="1.0000000000000000"/>
      <sparseX i="86" alpha="5079.1423702484417" sparseCutoff="1.0000000000000000"/>
      <sparseX i="87" alpha="1253.5091581413853" sparseCutoff="1.0000000000000000"/>
      <sparseX i="88" alpha="-231.69588542193151" sparseCutoff="1.0000000000000000"/>
      <sparseX i="89" alpha="-3650.3428658694456" sparseCutoff="1.0000000000000000"/>
      <sparseX i="90" alpha="870.72433499505439" sparseCutoff="1.0000000000000000"/>
      <sparseX i="91" alpha="3093.2139921841681" sparseCutoff="1.0000000000000000"/>
      <sparseX i="92" alpha="-232.76021917396551" sparseCutoff="1.0000000000000000"/>
      <sparseX i="93" alpha="2914.4876036203054" sparseCutoff="1.0000000000000000"/>
      <sparseX i="94" alpha="4302.9002977499131" sparseCutoff="1.0000000000000000"/>
      <sparseX i="95" alpha="2747.2250679683289" sparseCutoff="1.0000000000000000"/>
      <sparseX i="96" alpha="364.85225517578851" sparseCutoff="1.0000000000000000"/>
      <sparseX i="97" alpha="4748.1794844953874" sparseCutoff="1.0000000000000000"/>
      <sparseX i="98" alpha="13184.228240726001" sparseCutoff="1.0000000000000000"/>
      <sparseX i="99" alpha="846.45087569736393" sparseCutoff="1.0000000000000000"/>
      <sparseX i="100" alpha="-612.82518993275914" sparseCutoff="1.0000000000000000"/>
      <sparseX i="101" alpha="2888.0639158242739" sparseCutoff="1.0000000000000000"/>
      <sparseX i="102" alpha="-3897.4908469400793" sparseCutoff="1.0000000000000000"/>
      <sparseX i="103" alpha="3012.9235234504390" sparseCutoff="1.0000000000000000"/>
      <sparseX i="104" alpha="-4269.3276662790358" sparseCutoff="1.0000000000000000"/>
      <sparseX i="105" alpha="-2600.2339595770691" sparseCutoff="1.0000000000000000"/>
      <sparseX i="106" alpha="-4068.7592285173923" sparseCutoff="1.0000000000000000"/>
      <sparseX i="107" alpha="3263.5583344090451" sparseCutoff="1.0000000000000000"/>
      <sparseX i="108" alpha="1429.6661170384089" sparseCutoff="1.0000000000000000"/>
      <sparseX i="109" alpha="27123.056579195534" sparseCutoff="1.0000000000000000"/>
      <sparseX i="110" alpha="5981.9622898789767" sparseCutoff="1.0000000000000000"/>
      <sparseX i="111" alpha="9724.4165136566535" sparseCutoff="1.0000000000000000"/>
      <sparseX i="112" alpha="5604.2130597099322" sparseCutoff="1.0000000000000000"/>
      <sparseX i="113" alpha="-401.32363773486088" sparseCutoff="1.0000000000000000"/>
      <sparseX i="114" alpha="1473.0305481430992" sparseCutoff="1.0000000000000000"/>
      <sparseX i="115" alpha="1938.6500750122898" sparseCutoff="1.0000000000000000"/>
      <sparseX i="116" alpha="-2057.2527196975411" sparseCutoff="1.0000000000000000"/>
      <sparseX i="117" alpha="-974.27819659000920" sparseCutoff="1.0000000000000000"/>
      <sparseX i="118" alpha="-721.09231364053335" sparseCutoff="1.0000000000000000"/>
      <sparseX i="119" alpha="-920.92228171593683" sparseCutoff="1.0000000000000000"/>
      <sparseX i="120" alpha="5209.0439292132114" sparseCutoff="1.0000000000000000"/>
      <sparseX i="121" alpha="-853.49104785804013" sparseCutoff="1.0000000000000000"/>
      <sparseX i="122" alpha="2451.8836363591618" sparseCutoff="1.0000000000000000"/>
      <sparseX i="123" alpha="-3174.5117020821076" sparseCutoff="1.0000000000000000"/>
      <sparseX i="124" alpha="11444.420482680816" sparseCutoff="1.0000000000000000"/>
      <sparseX i="125" alpha="-1362.1657749352944" sparseCutoff="1.0000000000000000"/>
      <sparseX i="126" alpha="-238.69665105297469" sparseCutoff="1.0000000000000000"/>
      <sparseX i="127" alpha="3934.0803087241879" sparseCutoff="1.0000000000000000"/>
      <sparseX i="128" alpha="3223.5964103344313" sparseCutoff="1.0000000000000000"/>
      <sparseX i="129" alpha="1843.7627093716953" sparseCutoff="1.0000000000000000"/>
      <sparseX i="130" alpha="1665.8216768976399" sparseCutoff="1.0000000000000000"/>
      <sparseX i="131" alpha="-1426.7979818379329" sparseCutoff="1.0000000000000000"/>
      <sparseX i="132" alpha="2226.4450080008214" sparseCutoff="1.0000000000000000"/>
      <sparseX i="133" alpha="-4412.7427484745431" sparseCutoff="1.0000000000000000"/>
      <sparseX i="134" alpha="2684.7218481937111" sparseCutoff="1.0000000000000000"/>
      <sparseX i="135" alpha="2485.0929250951845" sparseCutoff="1.0000000000000000"/>
      <sparseX i="136" alpha="5073.5616858183639" sparseCutoff="1.0000000000000000"/>
      <sparseX i="137" alpha="4814.9870970329457" sparseCutoff="1.0000000000000000"/>
      <sparseX i="138" alpha="1220.2253196233648" sparseCutoff="1.0000000000000000"/>
      <sparseX i="139" alpha="-4256.5913874065982" sparseCutoff="1.0000000000000000"/>
      <sparseX i="140" alpha="1839.5030630329402" sparseCutoff="1.0000000000000000"/>
      <sparseX i="141" alpha="800.51792777252410" sparseCutoff="1.0000000000000000"/>
      <sparseX i="142" alpha="-10280.122720636384" sparseCutoff="1.0000000000000000"/>
      <sparseX i="143" alpha="-3465.9036887478737" sparseCutoff="1.0000000000000000"/>
      <sparseX i="144" alpha="-269.24726116464251" sparseCutoff="1.0000000000000000"/>
      <sparseX i="145" alpha="12573.203081936008" sparseCutoff="1.0000000000000000"/>
      <sparseX i="146" alpha="-11021.421454297810" sparseCutoff="1.0000000000000000"/>
      <sparseX i="147" alpha="-16078.980585694528" sparseCutoff="1.0000000000000000"/>
      <sparseX i="148" alpha="2159.6048286557780" sparseCutoff="1.0000000000000000"/>
      <sparseX i="149" alpha="1481.1688857278191" sparseCutoff="1.0000000000000000"/>
      <sparseX i="150" alpha="7281.1521017009782" sparseCutoff="1.0000000000000000"/>
      <sparseX i="151" alpha="-4948.5868834992280" sparseCutoff="1.0000000000000000"/>
      <sparseX i="152" alpha="2563.7258824934670" sparseCutoff="1.0000000000000000"/>
      <sparseX i="153" alpha="-160.85677948803934" sparseCutoff="1.0000000000000000"/>
      <sparseX i="154" alpha="2435.4141179615312" sparseCutoff="1.0000000000000000"/>
      <sparseX i="155" alpha="1880.4768061273435" sparseCutoff="1.0000000000000000"/>
      <sparseX i="156" alpha="-1822.4628621485274" sparseCutoff="1.0000000000000000"/>
      <sparseX i="157" alpha="6226.8087940389987" sparseCutoff="1.0000000000000000"/>
      <sparseX i="158" alpha="-641.84879098658598" sparseCutoff="1.0000000000000000"/>
      <sparseX i="159" alpha="7021.3990112143010" sparseCutoff="1.0000000000000000"/>
      <sparseX i="160" alpha="-7450.2700303996298" sparseCutoff="1.0000000000000000"/>
      <sparseX i="161" alpha="-5887.2195854394458" sparseCutoff="1.0000000000000000"/>
      <sparseX i="162" alpha="-2752.2260482614697" sparseCutoff="1.0000000000000000"/>
      <sparseX i="163" alpha="2115.2641805933849" sparseCutoff="1.0000000000000000"/>
      <sparseX i="164" alpha="-9885.1001779071012" sparseCutoff="1.0000000000000000"/>
      <sparseX i="165" alpha="-160.48438891742938" sparseCutoff="1.0000000000000000"/>
      <sparseX i="166" alpha="9037.0141545923670" sparseCutoff="1.0000000000000000"/>
      <sparseX i="167" alpha="-3790.5789111933432" sparseCutoff="1.0000000000000000"/>
      <sparseX i="168" alpha="12095.522593947469" sparseCutoff="1.0000000000000000"/>
      <sparseX i="169" alpha="22010.722167507593" sparseCutoff="1.0000000000000000"/>
      <sparseX i="170" alpha="-2314.5804556187904" sparseCutoff="1.0000000000000000"/>
      <sparseX i="171" alpha="-9931.0309313136386" sparseCutoff="1.0000000000000000"/>
      <sparseX i="172" alpha="6386.7146973548406" sparseCutoff="1.0000000000000000"/>
      <sparseX i="173" alpha="2133.8865024521492" sparseCutoff="1.0000000000000000"/>
      <sparseX i="174" alpha="-1911.2331237677797" sparseCutoff="1.0000000000000000"/>
      <sparseX i="175" alpha="-6367.4946486844919" sparseCutoff="1.0000000000000000"/>
      <sparseX i="176" alpha="-2170.3268151915522" sparseCutoff="1.0000000000000000"/>
      <sparseX i="177" alpha="-12418.688241589263" sparseCutoff="1.0000000000000000"/>
      <sparseX i="178" alpha="3984.5303010086395" sparseCutoff="1.0000000000000000"/>
      <sparseX i="179" alpha="-5205.0345908720392" sparseCutoff="1.0000000000000000"/>
      <sparseX i="180" alpha="265.42531033750851" sparseCutoff="1.0000000000000000"/>
      <sparseX i="181" alpha="3748.3070979461058" sparseCutoff="1.0000000000000000"/>
      <sparseX i="182" alpha="8437.8836345638156" sparseCutoff="1.0000000000000000"/>
      <sparseX i="183" alpha="1315.6960389764106" sparseCutoff="1.0000000000000000"/>
      <sparseX i="184" alpha="2133.8360818485326" sparseCutoff="1.0000000000000000"/>
      <sparseX i="185" alpha="2391.7134531430133" sparseCutoff="1.0000000000000000"/>
      <sparseX i="186" alpha="-3901.7256580882599" sparseCutoff="1.0000000000000000"/>
      <sparseX i="187" alpha="5643.6138317326913" sparseCutoff="1.0000000000000000"/>
      <sparseX i="188" alpha="611.25505342465294" sparseCutoff="1.0000000000000000"/>
      <sparseX i="189" alpha="-9397.1661901937387" sparseCutoff="1.0000000000000000"/>
      <sparseX i="190" alpha="-3737.8202315406656" sparseCutoff="1.0000000000000000"/>
      <sparseX i="191" alpha="4966.8771766817408" sparseCutoff="1.0000000000000000"/>
      <sparseX i="192" alpha="-754.59997935106981" sparseCutoff="1.0000000000000000"/>
      <sparseX i="193" alpha="5781.1517944410953" sparseCutoff="1.0000000000000000"/>
      <sparseX i="194" alpha="-4095.5875156764914" sparseCutoff="1.0000000000000000"/>
      <sparseX i="195" alpha="9691.4343942109572" sparseCutoff="1.0000000000000000"/>
      <sparseX i="196" alpha="-5019.2905407099952" sparseCutoff="1.0000000000000000"/>
      <sparseX i="197" alpha="2727.5105519889757" sparseCutoff="1.0000000000000000"/>
      <sparseX i="198" alpha="-2536.9707531762842" sparseCutoff="1.0000000000000000"/>
      <sparseX i="199" alpha="7078.4237999726365" sparseCutoff="1.0000000000000000"/>
      <sparseX i="200" alpha="-1571.7429709578960" sparseCutoff="1.0000000000000000"/>
      <sparseX i="201" alpha="2777.6230479770134" sparseCutoff="1.0000000000000000"/>
      <sparseX i="202" alpha="3174.9135921506804" sparseCutoff="1.0000000000000000"/>
      <sparseX i="203" alpha="11048.986203059741" sparseCutoff="1.0000000000000000"/>
      <sparseX i="204" alpha="766.93320301743461" sparseCutoff="1.0000000000000000"/>
      <sparseX i="205" alpha="4374.9394984144674" sparseCutoff="1.0000000000000000"/>
      <sparseX i="206" alpha="18034.310378882405" sparseCutoff="1.0000000000000000"/>
      <sparseX i="207" alpha="9929.5487298956741" sparseCutoff="1.0000000000000000"/>
      <sparseX i="208" alpha="5051.4795390178242" sparseCutoff="1.0000000000000000"/>
      <sparseX i="209" alpha="4136.7280453007634" sparseCutoff="1.0000000000000000"/>
      <sparseX i="210" alpha="5074.3682287950833" sparseCutoff="1.0000000000000000"/>
      <sparseX i="211" alpha="6630.6447875002787" sparseCutoff="1.0000000000000000"/>
      <sparseX i="212" alpha="171.85064463270132" sparseCutoff="1.0000000000000000"/>
      <sparseX i="213" alpha="-16317.677560274860" sparseCutoff="1.0000000000000000"/>
      <sparseX i="214" alpha="2503.0292157637778" sparseCutoff="1.0000000000000000"/>
      <sparseX i="215" alpha="5161.2490874808436" sparseCutoff="1.0000000000000000"/>
      <sparseX i="216" alpha="7042.5483252768508" sparseCutoff="1.0000000000000000"/>
      <sparseX i="217" alpha="7877.6495886689318" sparseCutoff="1.0000000000000000"/>
      <sparseX i="218" alpha="4017.5776037118721" sparseCutoff="1.0000000000000000"/>
      <sparseX i="219" alpha="-2207.5720137881017" sparseCutoff="1.0000000000000000"/>
      <sparseX i="220" alpha="-2940.4468430755205" sparseCutoff="1.0000000000000000"/>
      <sparseX i="221" alpha="4916.2101956028637" sparseCutoff="1.0000000000000000"/>
      <sparseX i="222" alpha="-4051.6702256359481" sparseCutoff="1.0000000000000000"/>
      <sparseX i="223" alpha="1424.4623975835334" sparseCutoff="1.0000000000000000"/>
      <sparseX i="224" alpha="-785.32675601108917" sparseCutoff="1.0000000000000000"/>
      <sparseX i="225" alpha="-2350.5612274665345" sparseCutoff="1.0000000000000000"/>
      <sparseX i="226" alpha="-1555.5459946969520" sparseCutoff="1.0000000000000000"/>
      <sparseX i="227" alpha="-5627.3942533026129" sparseCutoff="1.0000000000000000"/>
      <sparseX i="228" alpha="-188.44954463922616" sparseCutoff="1.0000000000000000"/>
      <sparseX i="229" alpha="-2242.1679373313304" sparseCutoff="1.0000000000000000"/>
      <sparseX i="230" alpha="5945.4785367773175" sparseCutoff="1.0000000000000000"/>
      <sparseX i="231" alpha="-1765.8853572396849" sparseCutoff="1.0000000000000000"/>
      <sparseX i="232" alpha="-4253.5248820985671" sparseCutoff="1.0000000000000000"/>
      <sparseX i="233" alpha="1525.6570402291457" sparseCutoff="1.0000000000000000"/>
      <sparseX i="234" alpha="157.87721361890999" sparseCutoff="1.0000000000000000"/>
      <sparseX i="235" alpha="-8091.0467335890062" sparseCutoff="1.0000000000000000"/>
      <sparseX i="236" alpha="-4474.3528746155607" sparseCutoff="1.0000000000000000"/>
      <sparseX i="237" alpha="3398.9306360248784" sparseCutoff="1.0000000000000000"/>
      <sparseX i="238" alpha="-6111.8159755538545" sparseCutoff="1.0000000000000000"/>
      <sparseX i="239" alpha="6735.3097502233086" sparseCutoff="1.0000000000000000"/>
      <sparseX i="240" alpha="3182.0845486345529" sparseCutoff="1.0000000000000000"/>
      <sparseX i="241" alpha="630.63936078614631" sparseCutoff="1.0000000000000000"/>
      <sparseX i="242" alpha="-9411.3486929886803" sparseCutoff="1.0000000000000000"/>
      <sparseX i="243" alpha="2108.1621004935723" sparseCutoff="1.0000000000000000"/>
      <sparseX i="244" alpha="3087.6470188896187" sparseCutoff="1.0000000000000000"/>
      <sparseX i="245" alpha="289.19270442222989" sparseCutoff="1.0000000000000000"/>
      <sparseX i="246" alpha="-4689.0070055652905" sparseCutoff="1.0000000000000000"/>
      <sparseX i="247" alpha="1029.0641981606793" sparseCutoff="1.0000000000000000"/>
      <sparseX i="248" alpha="-2983.3317485881144" sparseCutoff="1.0000000000000000"/>
      <sparseX i="249" alpha="-3226.0698444398117" sparseCutoff="1.0000000000000000"/>
      <sparseX i="250" alpha="-2179.5396791274579" sparseCutoff="1.0000000000000000"/>
      <sparseX i="251" alpha="-18899.604075967440" sparseCutoff="1.0000000000000000"/>
      <sparseX i="252" alpha="1472.9218384993599" sparseCutoff="1.0000000000000000"/>
      <sparseX i="253" alpha="-2160.6082643209988" sparseCutoff="1.0000000000000000"/>
      <sparseX i="254" alpha="955.16984631887226" sparseCutoff="1.0000000000000000"/>
      <sparseX i="255" alpha="2818.3490676571546" sparseCutoff="1.0000000000000000"/>
      <sparseX i="256" alpha="3456.7653186310176" sparseCutoff="1.0000000000000000"/>
      <sparseX i="257" alpha="-4093.9014005987437" sparseCutoff="1.0000000000000000"/>
      <sparseX i="258" alpha="7388.5633511144961" sparseCutoff="1.0000000000000000"/>
      <sparseX i="259" alpha="-4221.6506417271321" sparseCutoff="1.0000000000000000"/>
      <sparseX i="260" alpha="-443.46502105590190" sparseCutoff="1.0000000000000000"/>
      <sparseX i="261" alpha="-2751.5117537705523" sparseCutoff="1.0000000000000000"/>
      <sparseX i="262" alpha="-834.72002155549012" sparseCutoff="1.0000000000000000"/>
      <sparseX i="263" alpha="229.15178325722363" sparseCutoff="1.0000000000000000"/>
      <sparseX i="264" alpha="2536.3002134647363" sparseCutoff="1.0000000000000000"/>
      <sparseX i="265" alpha="1327.7340344476384" sparseCutoff="1.0000000000000000"/>
      <sparseX i="266" alpha="-4352.3864197102776" sparseCutoff="1.0000000000000000"/>
      <sparseX i="267" alpha="-2583.7130690130448" sparseCutoff="1.0000000000000000"/>
      <sparseX i="268" alpha="716.89596310135005" sparseCutoff="1.0000000000000000"/>
      <sparseX i="269" alpha="-4974.5363461991992" sparseCutoff="1.0000000000000000"/>
      <sparseX i="270" alpha="-3792.6921540382723" sparseCutoff="1.0000000000000000"/>
      <sparseX i="271" alpha="-2149.6456613473651" sparseCutoff="1.0000000000000000"/>
      <sparseX i="272" alpha="2662.6869263452904" sparseCutoff="1.0000000000000000"/>
      <sparseX i="273" alpha="6212.3704101184067" sparseCutoff="1.0000000000000000"/>
      <sparseX i="274" alpha="5203.0049378881740" sparseCutoff="1.0000000000000000"/>
      <sparseX i="275" alpha="6476.4582570025814" sparseCutoff="1.0000000000000000"/>
      <sparseX i="276" alpha="612.05836486300382" sparseCutoff="1.0000000000000000"/>
      <sparseX i="277" alpha="9107.9519232016864" sparseCutoff="1.0000000000000000"/>
      <sparseX i="278" alpha="638.26516121503266" sparseCutoff="1.0000000000000000"/>
      <sparseX i="279" alpha="1775.7489902646116" sparseCutoff="1.0000000000000000"/>
      <sparseX i="280" alpha="2292.2651355406902" sparseCutoff="1.0000000000000000"/>
      <sparseX i="281" alpha="6069.1696957112326" sparseCutoff="1.0000000000000000"/>
      <sparseX i="282" alpha="4084.1942640531865" sparseCutoff="1.0000000000000000"/>
      <sparseX i="283" alpha="2176.6226367730856" sparseCutoff="1.0000000000000000"/>
      <sparseX i="284" alpha="-2202.3667826635597" sparseCutoff="1.0000000000000000"/>
      <sparseX i="285" alpha="-5320.4573273659062" sparseCutoff="1.0000000000000000"/>
      <sparseX i="286" alpha="-6365.0846027296384" sparseCutoff="1.0000000000000000"/>
      <sparseX i="287" alpha="-11162.541292258022" sparseCutoff="1.0000000000000000"/>
      <sparseX i="288" alpha="2114.0518505369378" sparseCutoff="1.0000000000000000"/>
      <sparseX i="289" alpha="7159.3283337386401" sparseCutoff="1.0000000000000000"/>
      <sparseX i="290" alpha="-1714.2073778950387" sparseCutoff="1.0000000000000000"/>
      <sparseX i="291" alpha="339.71707684618713" sparseCutoff="1.0000000000000000"/>
      <sparseX i="292" alpha="-1209.5849849737654" sparseCutoff="1.0000000000000000"/>
      <sparseX i="293" alpha="6701.3378518190129" sparseCutoff="1.0000000000000000"/>
      <sparseX i="294" alpha="-4857.4084894951247" sparseCutoff="1.0000000000000000"/>
      <sparseX i="295" alpha="3786.8837900760104" sparseCutoff="1.0000000000000000"/>
      <sparseX i="296" alpha="-818.23182969942354" sparseCutoff="1.0000000000000000"/>
      <sparseX i="297" alpha="-4927.8030695149864" sparseCutoff="1.0000000000000000"/>
      <sparseX i="298" alpha="-2424.4222938361208" sparseCutoff="1.0000000000000000"/>
      <sparseX i="299" alpha="-2480.8510222500954" sparseCutoff="1.0000000000000000"/>
      <sparseX i="300" alpha="1178.6990491279505" sparseCutoff="1.0000000000000000"/>
      <sparseX i="301" alpha="-4772.6561242957250" sparseCutoff="1.0000000000000000"/>
      <sparseX i="302" alpha="16594.514672486435" sparseCutoff="1.0000000000000000"/>
      <sparseX i="303" alpha="5801.1499324510169" sparseCutoff="1.0000000000000000"/>
      <sparseX i="304" alpha="-7046.4852211278367" sparseCutoff="1.0000000000000000"/>
      <sparseX i="305" alpha="-727.09449909145837" sparseCutoff="1.0000000000000000"/>
      <sparseX i="306" alpha="11555.208843969260" sparseCutoff="1.0000000000000000"/>
      <sparseX i="307" alpha="-1736.6717640151826" sparseCutoff="1.0000000000000000"/>
      <sparseX i="308" alpha="-2319.4709164168307" sparseCutoff="1.0000000000000000"/>
      <sparseX i="309" alpha="4277.7788138428268" sparseCutoff="1.0000000000000000"/>
      <sparseX i="310" alpha="-3587.6263486621297" sparseCutoff="1.0000000000000000"/>
      <sparseX i="311" alpha="-21706.010629057182" sparseCutoff="1.0000000000000000"/>
      <sparseX i="312" alpha="1095.5450892683875" sparseCutoff="1.0000000000000000"/>
      <sparseX i="313" alpha="14232.580511171038" sparseCutoff="1.0000000000000000"/>
      <sparseX i="314" alpha="-2884.1307000420161" sparseCutoff="1.0000000000000000"/>
      <sparseX i="315" alpha="85.066878782175593" sparseCutoff="1.0000000000000000"/>
      <sparseX i="316" alpha="-728.73805961244943" sparseCutoff="1.0000000000000000"/>
      <sparseX i="317" alpha="1162.7548196776554" sparseCutoff="1.0000000000000000"/>
      <sparseX i="318" alpha="6376.7555381198072" sparseCutoff="1.0000000000000000"/>
      <sparseX i="319" alpha="7098.3399931558988" sparseCutoff="1.0000000000000000"/>
      <sparseX i="320" alpha="-4095.5017819523709" sparseCutoff="1.0000000000000000"/>
      <sparseX i="321" alpha="1758.9241128026426" sparseCutoff="1.0000000000000000"/>
      <sparseX i="322" alpha="4772.6195042510763" sparseCutoff="1.0000000000000000"/>
      <sparseX i="323" alpha="-5765.3217392688794" sparseCutoff="1.0000000000000000"/>
      <sparseX i="324" alpha="-5799.8698549773180" sparseCutoff="1.0000000000000000"/>
      <sparseX i="325" alpha="-13075.964560207332" sparseCutoff="1.0000000000000000"/>
      <sparseX i="326" alpha="5806.7818559897187" sparseCutoff="1.0000000000000000"/>
      <sparseX i="327" alpha="-2046.7768070904165" sparseCutoff="1.0000000000000000"/>
      <sparseX i="328" alpha="5174.4894136184876" sparseCutoff="1.0000000000000000"/>
      <sparseX i="329" alpha="-5068.4089168263581" sparseCutoff="1.0000000000000000"/>
      <sparseX i="330" alpha="3187.6356245288457" sparseCutoff="1.0000000000000000"/>
      <sparseX i="331" alpha="2125.3000302596465" sparseCutoff="1.0000000000000000"/>
      <sparseX i="332" alpha="3371.1117229541137" sparseCutoff="1.0000000000000000"/>
      <sparseX i="333" alpha="-4931.9754437404063" sparseCutoff="1.0000000000000000"/>
      <sparseX i="334" alpha="943.84949889378743" sparseCutoff="1.0000000000000000"/>
      <sparseX i="335" alpha="-10041.967479267560" sparseCutoff="1.0000000000000000"/>
      <sparseX i="336" alpha="5185.9136174969990" sparseCutoff="1.0000000000000000"/>
      <sparseX i="337" alpha="-16642.991919990058" sparseCutoff="1.0000000000000000"/>
      <sparseX i="338" alpha="-1426.7923273718536" sparseCutoff="1.0000000000000000"/>
      <sparseX i="339" alpha="-3275.2172410291028" sparseCutoff="1.0000000000000000"/>
      <sparseX i="340" alpha="5221.5530287706633" sparseCutoff="1.0000000000000000"/>
      <sparseX i="341" alpha="113.35719974449987" sparseCutoff="1.0000000000000000"/>
      <sparseX i="342" alpha="3679.7947030902214" sparseCutoff="1.0000000000000000"/>
      <sparseX i="343" alpha="-6805.9384377464849" sparseCutoff="1.0000000000000000"/>
      <sparseX i="344" alpha="6714.6261905800293" sparseCutoff="1.0000000000000000"/>
      <sparseX i="345" alpha="-7999.7871081494814" sparseCutoff="1.0000000000000000"/>
      <sparseX i="346" alpha="-1682.3101914418612" sparseCutoff="1.0000000000000000"/>
      <sparseX i="347" alpha="-10165.497586587921" sparseCutoff="1.0000000000000000"/>
      <sparseX i="348" alpha="-17223.356856789011" sparseCutoff="1.0000000000000000"/>
      <sparseX i="349" alpha="-2357.1119197172293" sparseCutoff="1.0000000000000000"/>
      <sparseX i="350" alpha="-2345.7654301462444" sparseCutoff="1.0000000000000000"/>
      <sparseX i="351" alpha="-8703.7076694540465" sparseCutoff="1.0000000000000000"/>
      <sparseX i="352" alpha="-2866.6870221089907" sparseCutoff="1.0000000000000000"/>
      <sparseX i="353" alpha="-7309.6886433554509" sparseCutoff="1.0000000000000000"/>
      <sparseX i="354" alpha="-1763.1472929763179" sparseCutoff="1.0000000000000000"/>
      <sparseX i="355" alpha="17035.367244445111" sparseCutoff="1.0000000000000000"/>
      <sparseX i="356" alpha="1863.1119641497908" sparseCutoff="1.0000000000000000"/>
      <sparseX i="357" alpha="2582.0678375958969" sparseCutoff="1.0000000000000000"/>
      <sparseX i="358" alpha="10.070096260860735" sparseCutoff="1.0000000000000000"/>
      <sparseX i="359" alpha="-2015.9920582005616" sparseCutoff="1.0000000000000000"/>
      <sparseX i="360" alpha="444.52695454924759" sparseCutoff="1.0000000000000000"/>
      <sparseX i="361" alpha="-304.66151928249377" sparseCutoff="1.0000000000000000"/>
      <sparseX i="362" alpha="256.79061900990666" sparseCutoff="1.0000000000000000"/>
      <sparseX i="363" alpha="-332.61397100076641" sparseCutoff="1.0000000000000000"/>
      <sparseX i="364" alpha="2180.6870320788594" sparseCutoff="1.0000000000000000"/>
      <sparseX i="365" alpha="-215.49453603919841" sparseCutoff="1.0000000000000000"/>
      <sparseX i="366" alpha="-1536.7296584930816" sparseCutoff="1.0000000000000000"/>
      <sparseX i="367" alpha="763.95440128551718" sparseCutoff="1.0000000000000000"/>
      <sparseX i="368" alpha="1904.5820948081989" sparseCutoff="1.0000000000000000"/>
      <sparseX i="369" alpha="796.11517466234716" sparseCutoff="1.0000000000000000"/>
      <sparseX i="370" alpha="826.81537366496025" sparseCutoff="1.0000000000000000"/>
      <sparseX i="371" alpha="609.83034163181310" sparseCutoff="1.0000000000000000"/>
      <sparseX i="372" alpha="-346.08105705218213" sparseCutoff="1.0000000000000000"/>
      <sparseX i="373" alpha="-3845.0482352544459" sparseCutoff="1.0000000000000000"/>
      <sparseX i="374" alpha="896.26278513773036" sparseCutoff="1.0000000000000000"/>
      <sparseX i="375" alpha="-779.51866475277893" sparseCutoff="1.0000000000000000"/>
      <sparseX i="376" alpha="629.59379255277929" sparseCutoff="1.0000000000000000"/>
      <sparseX i="377" alpha="4503.2019876266095" sparseCutoff="1.0000000000000000"/>
      <sparseX i="378" alpha="-4903.8858081029557" sparseCutoff="1.0000000000000000"/>
      <sparseX i="379" alpha="-1546.9468172431029" sparseCutoff="1.0000000000000000"/>
      <sparseX i="380" alpha="1754.1524870040887" sparseCutoff="1.0000000000000000"/>
      <sparseX i="381" alpha="-428.49819743085038" sparseCutoff="1.0000000000000000"/>
      <sparseX i="382" alpha="846.54165825364350" sparseCutoff="1.0000000000000000"/>
      <sparseX i="383" alpha="-1139.7766035576672" sparseCutoff="1.0000000000000000"/>
      <sparseX i="384" alpha="-1000.0391643064488" sparseCutoff="1.0000000000000000"/>
      <sparseX i="385" alpha="-688.52954604159527" sparseCutoff="1.0000000000000000"/>
      <sparseX i="386" alpha="1058.0045982725876" sparseCutoff="1.0000000000000000"/>
      <sparseX i="387" alpha="-665.42476371569580" sparseCutoff="1.0000000000000000"/>
      <sparseX i="388" alpha="-6325.1037411162579" sparseCutoff="1.0000000000000000"/>
      <sparseX i="389" alpha="-252.89306643671438" sparseCutoff="1.0000000000000000"/>
      <sparseX i="390" alpha="729.55336854190591" sparseCutoff="1.0000000000000000"/>
      <sparseX i="391" alpha="411.51492997876932" sparseCutoff="1.0000000000000000"/>
      <sparseX i="392" alpha="1630.8481835146783" sparseCutoff="1.0000000000000000"/>
      <sparseX i="393" alpha="259.82950456739718" sparseCutoff="1.0000000000000000"/>
      <sparseX i="394" alpha="311.22459468271978" sparseCutoff="1.0000000000000000"/>
      <sparseX i="395" alpha="950.08923243281356" sparseCutoff="1.0000000000000000"/>
      <sparseX i="396" alpha="1438.5579761793060" sparseCutoff="1.0000000000000000"/>
      <sparseX i="397" alpha="968.41510067623676" sparseCutoff="1.0000000000000000"/>
      <sparseX i="398" alpha="-637.71344525880045" sparseCutoff="1.0000000000000000"/>
      <sparseX i="399" alpha="-416.33901716171380" sparseCutoff="1.0000000000000000"/>
      <sparseX i="400" alpha="-739.03446052530785" sparseCutoff="1.0000000000000000"/>
      <sparseX i="401" alpha="132.95535582680068" sparseCutoff="1.0000000000000000"/>
      <sparseX i="402" alpha="457.87113355111484" sparseCutoff="1.0000000000000000"/>
      <sparseX i="403" alpha="-914.71370271646879" sparseCutoff="1.0000000000000000"/>
      <sparseX i="404" alpha="-16.751065036324103" sparseCutoff="1.0000000000000000"/>
      <sparseX i="405" alpha="157.09795558304199" sparseCutoff="1.0000000000000000"/>
      <sparseX i="406" alpha="-141.44031413141096" sparseCutoff="1.0000000000000000"/>
      <sparseX i="407" alpha="1056.7161634134573" sparseCutoff="1.0000000000000000"/>
      <sparseX i="408" alpha="3868.1391090395505" sparseCutoff="1.0000000000000000"/>
      <sparseX i="409" alpha="99.478265626715697" sparseCutoff="1.0000000000000000"/>
      <sparseX i="410" alpha="-1126.5988500616556" sparseCutoff="1.0000000000000000"/>
      <sparseX i="411" alpha="-386.11796057334982" sparseCutoff="1.0000000000000000"/>
      <sparseX i="412" alpha="146.09343060373601" sparseCutoff="1.0000000000000000"/>
      <sparseX i="413" alpha="-920.01699542403901" sparseCutoff="1.0000000000000000"/>
      <sparseX i="414" alpha="-471.01264188395834" sparseCutoff="1.0000000000000000"/>
      <sparseX i="415" alpha="-2820.2414605073436" sparseCutoff="1.0000000000000000"/>
      <sparseX i="416" alpha="481.32342486418918" sparseCutoff="1.0000000000000000"/>
      <sparseX i="417" alpha="-4876.3195117472915" sparseCutoff="1.0000000000000000"/>
      <sparseX i="418" alpha="73.037188187132898" sparseCutoff="1.0000000000000000"/>
      <sparseX i="419" alpha="668.82357379750488" sparseCutoff="1.0000000000000000"/>
      <sparseX i="420" alpha="-736.96023161768471" sparseCutoff="1.0000000000000000"/>
      <sparseX i="421" alpha="2660.8950420593369" sparseCutoff="1.0000000000000000"/>
      <sparseX i="422" alpha="1143.2476901238367" sparseCutoff="1.0000000000000000"/>
      <sparseX i="423" alpha="-1333.1012702879927" sparseCutoff="1.0000000000000000"/>
      <sparseX i="424" alpha="4058.8518984216535" sparseCutoff="1.0000000000000000"/>
      <sparseX i="425" alpha="-2730.0261504637433" sparseCutoff="1.0000000000000000"/>
      <sparseX i="426" alpha="-4012.9728046222954" sparseCutoff="1.0000000000000000"/>
      <sparseX i="427" alpha="-71.628954497789337" sparseCutoff="1.0000000000000000"/>
      <sparseX i="428" alpha="-390.66543793956157" sparseCutoff="1.0000000000000000"/>
      <sparseX i="429" alpha="-1047.9150223809120" sparseCutoff="1.0000000000000000"/>
      <sparseX i="430" alpha="1614.3693612630495" sparseCutoff="1.0000000000000000"/>
      <sparseX i="431" alpha="-311.55711014300368" sparseCutoff="1.0000000000000000"/>
      <sparseX i="432" alpha="-617.54642967940276" sparseCutoff="1.0000000000000000"/>
      <sparseX i="433" alpha="77.411932852722330" sparseCutoff="1.0000000000000000"/>
      <sparseX i="434" alpha="-225.35181140814473" sparseCutoff="1.0000000000000000"/>
      <sparseX i="435" alpha="-2628.7872249875263" sparseCutoff="1.0000000000000000"/>
      <sparseX i="436" alpha="-1155.2327266514226" sparseCutoff="1.0000000000000000"/>
      <sparseX i="437" alpha="452.44277190513480" sparseCutoff="1.0000000000000000"/>
      <sparseX i="438" alpha="-2398.3056609696632" sparseCutoff="1.0000000000000000"/>
      <sparseX i="439" alpha="751.60536403569495" sparseCutoff="1.0000000000000000"/>
      <sparseX i="440" alpha="2190.4603628909376" sparseCutoff="1.0000000000000000"/>
      <sparseX i="441" alpha="-1.9463850508154139" sparseCutoff="1.0000000000000000"/>
      <sparseX i="442" alpha="-866.32684376162570" sparseCutoff="1.0000000000000000"/>
      <sparseX i="443" alpha="665.34766768944019" sparseCutoff="1.0000000000000000"/>
      <sparseX i="444" alpha="2369.0181867512706" sparseCutoff="1.0000000000000000"/>
      <sparseX i="445" alpha="-11.170064148189576" sparseCutoff="1.0000000000000000"/>
      <sparseX i="446" alpha="544.24963786708497" sparseCutoff="1.0000000000000000"/>
      <sparseX i="447" alpha="338.99040228242694" sparseCutoff="1.0000000000000000"/>
      <sparseX i="448" alpha="2650.0679009617984" sparseCutoff="1.0000000000000000"/>
      <sparseX i="449" alpha="2150.5153840722837" sparseCutoff="1.0000000000000000"/>
      <sparseX i="450" alpha="1826.4607813209241" sparseCutoff="1.0000000000000000"/>
      <sparseX i="451" alpha="-2873.3387067975082" sparseCutoff="1.0000000000000000"/>
      <sparseX i="452" alpha="-1932.4267230655360" sparseCutoff="1.0000000000000000"/>
      <sparseX i="453" alpha="1130.2047431047210" sparseCutoff="1.0000000000000000"/>
      <sparseX i="454" alpha="247.92622235131981" sparseCutoff="1.0000000000000000"/>
      <sparseX i="455" alpha="-225.68906649248879" sparseCutoff="1.0000000000000000"/>
      <sparseX i="456" alpha="-1035.5469084042436" sparseCutoff="1.0000000000000000"/>
      <sparseX i="457" alpha="-524.67336624849111" sparseCutoff="1.0000000000000000"/>
      <sparseX i="458" alpha="-1525.1308970828688" sparseCutoff="1.0000000000000000"/>
      <sparseX i="459" alpha="4292.7603800248917" sparseCutoff="1.0000000000000000"/>
      <sparseX i="460" alpha="1885.3355883998922" sparseCutoff="1.0000000000000000"/>
      <sparseX i="461" alpha="-642.20667830787966" sparseCutoff="1.0000000000000000"/>
      <sparseX i="462" alpha="18.421907529848820" sparseCutoff="1.0000000000000000"/>
      <sparseX i="463" alpha="162.90947769442622" sparseCutoff="1.0000000000000000"/>
      <sparseX i="464" alpha="555.05137779996983" sparseCutoff="1.0000000000000000"/>
      <sparseX i="465" alpha="1504.7289842511173" sparseCutoff="1.0000000000000000"/>
      <sparseX i="466" alpha="2425.4004168727884" sparseCutoff="1.0000000000000000"/>
      <sparseX i="467" alpha="2221.7355982605973" sparseCutoff="1.0000000000000000"/>
      <sparseX i="468" alpha="-2625.2908369173019" sparseCutoff="1.0000000000000000"/>
      <sparseX i="469" alpha="3428.9241271215733" sparseCutoff="1.0000000000000000"/>
      <sparseX i="470" alpha="49.935110964851091" sparseCutoff="1.0000000000000000"/>
      <sparseX i="471" alpha="1680.5869740676280" sparseCutoff="1.0000000000000000"/>
      <sparseX i="472" alpha="2658.7363771827918" sparseCutoff="1.0000000000000000"/>
      <sparseX i="473" alpha="-187.39680859552607" sparseCutoff="1.0000000000000000"/>
      <sparseX i="474" alpha="-2333.3054673105967" sparseCutoff="1.0000000000000000"/>
      <sparseX i="475" alpha="-320.97890287422166" sparseCutoff="1.0000000000000000"/>
      <sparseX i="476" alpha="-2167.5076518081546" sparseCutoff="1.0000000000000000"/>
      <sparseX i="477" alpha="962.54512655841052" sparseCutoff="1.0000000000000000"/>
      <sparseX i="478" alpha="-515.61553718183995" sparseCutoff="1.0000000000000000"/>
      <sparseX i="479" alpha="-2497.4342939070884" sparseCutoff="1.0000000000000000"/>
      <sparseX i="480" alpha="-1641.8467631688338" sparseCutoff="1.0000000000000000"/>
      <sparseX i="481" alpha="545.23527450099414" sparseCutoff="1.0000000000000000"/>
      <sparseX i="482" alpha="344.05039913461428" sparseCutoff="1.0000000000000000"/>
      <sparseX i="483" alpha="176.93339101601674" sparseCutoff="1.0000000000000000"/>
      <sparseX i="484" alpha="849.29376258017976" sparseCutoff="1.0000000000000000"/>
      <sparseX i="485" alpha="369.17660719184255" sparseCutoff="1.0000000000000000"/>
      <sparseX i="486" alpha="2641.5034855683652" sparseCutoff="1.0000000000000000"/>
      <sparseX i="487" alpha="-2038.0770000164755" sparseCutoff="1.0000000000000000"/>
      <sparseX i="488" alpha="6098.2834225475008" sparseCutoff="1.0000000000000000"/>
      <sparseX i="489" alpha="549.58877119033173" sparseCutoff="1.0000000000000000"/>
      <sparseX i="490" alpha="439.48025640784925" sparseCutoff="1.0000000000000000"/>
      <sparseX i="491" alpha="-580.09530573937582" sparseCutoff="1.0000000000000000"/>
      <sparseX i="492" alpha="569.92091334073734" sparseCutoff="1.0000000000000000"/>
      <sparseX i="493" alpha="-1384.8163533377347" sparseCutoff="1.0000000000000000"/>
      <sparseX i="494" alpha="-929.29026809231573" sparseCutoff="1.0000000000000000"/>
      <sparseX i="495" alpha="265.92470820654916" sparseCutoff="1.0000000000000000"/>
      <sparseX i="496" alpha="-544.08633244087707" sparseCutoff="1.0000000000000000"/>
      <sparseX i="497" alpha="1775.8326239078729" sparseCutoff="1.0000000000000000"/>
      <sparseX i="498" alpha="90.101366694732022" sparseCutoff="1.0000000000000000"/>
      <sparseX i="499" alpha="788.76799142589493" sparseCutoff="1.0000000000000000"/>
      <sparseX i="500" alpha="658.58839375087996" sparseCutoff="1.0000000000000000"/>
      <sparseX i="501" alpha="-49.083637593046895" sparseCutoff="1.0000000000000000"/>
      <sparseX i="502" alpha="-24.808716098044727" sparseCutoff="1.0000000000000000"/>
      <sparseX i="503" alpha="-1610.7231676089789" sparseCutoff="1.0000000000000000"/>
      <sparseX i="504" alpha="291.45672729049869" sparseCutoff="1.0000000000000000"/>
      <sparseX i="505" alpha="-609.94086665521024" sparseCutoff="1.0000000000000000"/>
      <sparseX i="506" alpha="-3608.6191490920874" sparseCutoff="1.0000000000000000"/>
      <sparseX i="507" alpha="642.93304999624092" sparseCutoff="1.0000000000000000"/>
      <sparseX i="508" alpha="-398.22028144537188" sparseCutoff="1.0000000000000000"/>
      <sparseX i="509" alpha="893.63383401766089" sparseCutoff="1.0000000000000000"/>
      <sparseX i="510" alpha="891.48211418183644" sparseCutoff="1.0000000000000000"/>
      <sparseX i="511" alpha="-1599.6089527203430" sparseCutoff="1.0000000000000000"/>
      <sparseX i="512" alpha="1335.4064469288119" sparseCutoff="1.0000000000000000"/>
      <sparseX i="513" alpha="785.52357170624498" sparseCutoff="1.0000000000000000"/>
      <sparseX i="514" alpha="-476.87483317750969" sparseCutoff="1.0000000000000000"/>
      <sparseX i="515" alpha="1886.2316401879352" sparseCutoff="1.0000000000000000"/>
      <sparseX i="516" alpha="-1991.2954442846019" sparseCutoff="1.0000000000000000"/>
      <sparseX i="517" alpha="2147.9894795913256" sparseCutoff="1.0000000000000000"/>
      <sparseX i="518" alpha="-1527.4305405591479" sparseCutoff="1.0000000000000000"/>
      <sparseX i="519" alpha="-1038.7535154710490" sparseCutoff="1.0000000000000000"/>
      <sparseX i="520" alpha="295.45988304284145" sparseCutoff="1.0000000000000000"/>
      <sparseX i="521" alpha="-111.22753021860862" sparseCutoff="1.0000000000000000"/>
      <sparseX i="522" alpha="-697.36655609951652" sparseCutoff="1.0000000000000000"/>
      <sparseX i="523" alpha="679.49858429000994" sparseCutoff="1.0000000000000000"/>
      <sparseX i="524" alpha="-606.33321647162302" sparseCutoff="1.0000000000000000"/>
      <sparseX i="525" alpha="1124.1595668994382" sparseCutoff="1.0000000000000000"/>
      <sparseX i="526" alpha="822.23121555284922" sparseCutoff="1.0000000000000000"/>
      <sparseX i="527" alpha="207.08637458884274" sparseCutoff="1.0000000000000000"/>
      <sparseX i="528" alpha="-875.53290061162659" sparseCutoff="1.0000000000000000"/>
      <sparseX i="529" alpha="1099.3335206340087" sparseCutoff="1.0000000000000000"/>
      <sparseX i="530" alpha="-2173.0859391716594" sparseCutoff="1.0000000000000000"/>
      <sparseX i="531" alpha="2782.0715913791614" sparseCutoff="1.0000000000000000"/>
      <sparseX i="532" alpha="2994.8408641025776" sparseCutoff="1.0000000000000000"/>
      <sparseX i="533" alpha="748.29348376838277" sparseCutoff="1.0000000000000000"/>
      <sparseX i="534" alpha="-637.64959980367962" sparseCutoff="1.0000000000000000"/>
      <sparseX i="535" alpha="-103.67250492697798" sparseCutoff="1.0000000000000000"/>
      <sparseX i="536" alpha="1195.3559619193668" sparseCutoff="1.0000000000000000"/>
      <sparseX i="537" alpha="-865.50409134846154" sparseCutoff="1.0000000000000000"/>
      <sparseX i="538" alpha="-1586.6686231458170" sparseCutoff="1.0000000000000000"/>
      <sparseX i="539" alpha="-683.84136149462324" sparseCutoff="1.0000000000000000"/>
      <sparseX i="540" alpha="-6239.8791478412313" sparseCutoff="1.0000000000000000"/>
      <sparseX i="541" alpha="-395.30433392680061" sparseCutoff="1.0000000000000000"/>
      <sparseX i="542" alpha="488.36111404166479" sparseCutoff="1.0000000000000000"/>
      <sparseX i="543" alpha="4166.8108333134642" sparseCutoff="1.0000000000000000"/>
      <sparseX i="544" alpha="-2480.7029453610567" sparseCutoff="1.0000000000000000"/>
      <sparseX i="545" alpha="-269.82386943991111" sparseCutoff="1.0000000000000000"/>
      <sparseX i="546" alpha="799.24359541191325" sparseCutoff="1.0000000000000000"/>
      <sparseX i="547" alpha="1764.2449780316877" sparseCutoff="1.0000000000000000"/>
      <sparseX i="548" alpha="-538.44372293040249" sparseCutoff="1.0000000000000000"/>
      <sparseX i="549" alpha="949.34999485201661" sparseCutoff="1.0000000000000000"/>
      <sparseX i="550" alpha="1392.3695081914129" sparseCutoff="1.0000000000000000"/>
      <sparseX i="551" alpha="302.72283688906788" sparseCutoff="1.0000000000000000"/>
      <sparseX i="552" alpha="-1007.1790757361136" sparseCutoff="1.0000000000000000"/>
      <sparseX i="553" alpha="940.84491653261500" sparseCutoff="1.0000000000000000"/>
      <sparseX i="554" alpha="171.89058548260368" sparseCutoff="1.0000000000000000"/>
      <sparseX i="555" alpha="1177.4622415892502" sparseCutoff="1.0000000000000000"/>
      <sparseX i="556" alpha="1391.2931774863841" sparseCutoff="1.0000000000000000"/>
      <sparseX i="557" alpha="1772.4734167215872" sparseCutoff="1.0000000000000000"/>
      <sparseX i="558" alpha="1107.0698716624788" sparseCutoff="1.0000000000000000"/>
      <sparseX i="559" alpha="69.084589915440930" sparseCutoff="1.0000000000000000"/>
      <sparseX i="560" alpha="-1430.0233601754087" sparseCutoff="1.0000000000000000"/>
      <sparseX i="561" alpha="767.94682638322411" sparseCutoff="1.0000000000000000"/>
      <sparseX i="562" alpha="-1745.2994884694758" sparseCutoff="1.0000000000000000"/>
      <sparseX i="563" alpha="898.33107821150691" sparseCutoff="1.0000000000000000"/>
      <sparseX i="564" alpha="-450.36689524862544" sparseCutoff="1.0000000000000000"/>
      <sparseX i="565" alpha="-1134.5914721810573" sparseCutoff="1.0000000000000000"/>
      <sparseX i="566" alpha="-2588.2245636952175" sparseCutoff="1.0000000000000000"/>
      <sparseX i="567" alpha="433.08196640151573" sparseCutoff="1.0000000000000000"/>
      <sparseX i="568" alpha="-605.84260971579306" sparseCutoff="1.0000000000000000"/>
      <sparseX i="569" alpha="-23.643822586213940" sparseCutoff="1.0000000000000000"/>
      <sparseX i="570" alpha="180.40934883620164" sparseCutoff="1.0000000000000000"/>
      <sparseX i="571" alpha="-1019.2320067309608" sparseCutoff="1.0000000000000000"/>
      <sparseX i="572" alpha="-744.96645938877555" sparseCutoff="1.0000000000000000"/>
      <sparseX i="573" alpha="-9.0112876910105477" sparseCutoff="1.0000000000000000"/>
      <sparseX i="574" alpha="-471.91310198598723" sparseCutoff="1.0000000000000000"/>
      <sparseX i="575" alpha="-808.27536365308299" sparseCutoff="1.0000000000000000"/>
      <sparseX i="576" alpha="4234.6223272070374" sparseCutoff="1.0000000000000000"/>
      <sparseX i="577" alpha="-1503.5496825243715" sparseCutoff="1.0000000000000000"/>
      <sparseX i="578" alpha="-1602.5501681065134" sparseCutoff="1.0000000000000000"/>
      <sparseX i="579" alpha="888.59199867477457" sparseCutoff="1.0000000000000000"/>
      <sparseX i="580" alpha="-3432.1591373772917" sparseCutoff="1.0000000000000000"/>
      <sparseX i="581" alpha="278.28072789683341" sparseCutoff="1.0000000000000000"/>
      <sparseX i="582" alpha="298.08917436122618" sparseCutoff="1.0000000000000000"/>
      <sparseX i="583" alpha="-606.46565169104520" sparseCutoff="1.0000000000000000"/>
      <sparseX i="584" alpha="687.45658458961100" sparseCutoff="1.0000000000000000"/>
      <sparseX i="585" alpha="-704.54805901418740" sparseCutoff="1.0000000000000000"/>
      <sparseX i="586" alpha="625.10842086710056" sparseCutoff="1.0000000000000000"/>
      <sparseX i="587" alpha="269.61768650177783" sparseCutoff="1.0000000000000000"/>
      <sparseX i="588" alpha="-1265.7516949785959" sparseCutoff="1.0000000000000000"/>
      <sparseX i="589" alpha="1539.9979182992822" sparseCutoff="1.0000000000000000"/>
      <sparseX i="590" alpha="160.68939330220581" sparseCutoff="1.0000000000000000"/>
      <sparseX i="591" alpha="268.87627786862924" sparseCutoff="1.0000000000000000"/>
      <sparseX i="592" alpha="-551.22042706567470" sparseCutoff="1.0000000000000000"/>
      <sparseX i="593" alpha="1748.8014433791877" sparseCutoff="1.0000000000000000"/>
      <sparseX i="594" alpha="33.540493135151479" sparseCutoff="1.0000000000000000"/>
      <sparseX i="595" alpha="85.748337257693862" sparseCutoff="1.0000000000000000"/>
      <sparseX i="596" alpha="-1164.8881334282728" sparseCutoff="1.0000000000000000"/>
      <sparseX i="597" alpha="781.08105870463419" sparseCutoff="1.0000000000000000"/>
      <sparseX i="598" alpha="-2713.2086477660437" sparseCutoff="1.0000000000000000"/>
      <sparseX i="599" alpha="2907.5550356668159" sparseCutoff="1.0000000000000000"/>
      <sparseX i="600" alpha="-1831.2930714957643" sparseCutoff="1.0000000000000000"/>
      <sparseX i="601" alpha="-240.16473445906405" sparseCutoff="1.0000000000000000"/>
      <sparseX i="602" alpha="-2179.3944003272591" sparseCutoff="1.0000000000000000"/>
      <sparseX i="603" alpha="-2398.3637099255643" sparseCutoff="1.0000000000000000"/>
      <sparseX i="604" alpha="-1287.0527537594467" sparseCutoff="1.0000000000000000"/>
      <sparseX i="605" alpha="-246.12063750793720" sparseCutoff="1.0000000000000000"/>
      <sparseX i="606" alpha="594.29000796524588" sparseCutoff="1.0000000000000000"/>
      <sparseX i="607" alpha="9.1737130106633984" sparseCutoff="1.0000000000000000"/>
      <sparseX i="608" alpha="262.61479162280182" sparseCutoff="1.0000000000000000"/>
      <sparseX i="609" alpha="1292.9364913873203" sparseCutoff="1.0000000000000000"/>
      <sparseX i="610" alpha="2517.5216439334940" sparseCutoff="1.0000000000000000"/>
      <sparseX i="611" alpha="3642.6574699188091" sparseCutoff="1.0000000000000000"/>
      <sparseX i="612" alpha="1820.7534104781355" sparseCutoff="1.0000000000000000"/>
      <sparseX i="613" alpha="-2330.9114362179989" sparseCutoff="1.0000000000000000"/>
      <sparseX i="614" alpha="-92.385182812245930" sparseCutoff="1.0000000000000000"/>
      <sparseX i="615" alpha="-3930.2578442361269" sparseCutoff="1.0000000000000000"/>
      <sparseX i="616" alpha="1562.1106579277555" sparseCutoff="1.0000000000000000"/>
      <sparseX i="617" alpha="-478.97572635987439" sparseCutoff="1.0000000000000000"/>
      <sparseX i="618" alpha="81.055692172261701" sparseCutoff="1.0000000000000000"/>
      <sparseX i="619" alpha="377.24797514196393" sparseCutoff="1.0000000000000000"/>
      <sparseX i="620" alpha="96.763664141746915" sparseCutoff="1.0000000000000000"/>
      <sparseX i="621" alpha="-383.01550037708375" sparseCutoff="1.0000000000000000"/>
      <sparseX i="622" alpha="379.59070915533721" sparseCutoff="1.0000000000000000"/>
      <sparseX i="623" alpha="155.48936362211091" sparseCutoff="1.0000000000000000"/>
      <sparseX i="624" alpha="456.97583632851087" sparseCutoff="1.0000000000000000"/>
      <sparseX i="625" alpha="-19.012007646822735" sparseCutoff="1.0000000000000000"/>
      <sparseX i="626" alpha="-451.84725292804922" sparseCutoff="1.0000000000000000"/>
      <sparseX i="627" alpha="-922.30717862066149" sparseCutoff="1.0000000000000000"/>
      <sparseX i="628" alpha="1056.0970886946780" sparseCutoff="1.0000000000000000"/>
      <sparseX i="629" alpha="458.75391317311590" sparseCutoff="1.0000000000000000"/>
      <sparseX i="630" alpha="3403.1762235727274" sparseCutoff="1.0000000000000000"/>
      <sparseX i="631" alpha="-33.986771218846052" sparseCutoff="1.0000000000000000"/>
      <sparseX i="632" alpha="342.16466976087332" sparseCutoff="1.0000000000000000"/>
      <sparseX i="633" alpha="-1166.5519505293489" sparseCutoff="1.0000000000000000"/>
      <sparseX i="634" alpha="914.40219678794790" sparseCutoff="1.0000000000000000"/>
      <sparseX i="635" alpha="1733.2327991360958" sparseCutoff="1.0000000000000000"/>
      <sparseX i="636" alpha="1510.7734280154825" sparseCutoff="1.0000000000000000"/>
      <sparseX i="637" alpha="865.15173125188937" sparseCutoff="1.0000000000000000"/>
      <sparseX i="638" alpha="-463.01997435744556" sparseCutoff="1.0000000000000000"/>
      <sparseX i="639" alpha="204.90199109281269" sparseCutoff="1.0000000000000000"/>
      <sparseX i="640" alpha="-188.16351025802675" sparseCutoff="1.0000000000000000"/>
      <sparseX i="641" alpha="-158.17501065429377" sparseCutoff="1.0000000000000000"/>
      <sparseX i="642" alpha="434.13246523730203" sparseCutoff="1.0000000000000000"/>
      <sparseX i="643" alpha="-655.04628565944279" sparseCutoff="1.0000000000000000"/>
      <sparseX i="644" alpha="1412.3795146019527" sparseCutoff="1.0000000000000000"/>
      <sparseX i="645" alpha="-169.98049072997088" sparseCutoff="1.0000000000000000"/>
      <sparseX i="646" alpha="-107.98344586998172" sparseCutoff="1.0000000000000000"/>
      <sparseX i="647" alpha="2231.7457842054610" sparseCutoff="1.0000000000000000"/>
      <sparseX i="648" alpha="2040.5250417816974" sparseCutoff="1.0000000000000000"/>
      <sparseX i="649" alpha="-279.63028226362854" sparseCutoff="1.0000000000000000"/>
      <sparseX i="650" alpha="-399.36402402902695" sparseCutoff="1.0000000000000000"/>
      <sparseX i="651" alpha="1896.3074797583388" sparseCutoff="1.0000000000000000"/>
      <sparseX i="652" alpha="318.88353359118906" sparseCutoff="1.0000000000000000"/>
      <sparseX i="653" alpha="260.47064435991450" sparseCutoff="1.0000000000000000"/>
      <sparseX i="654" alpha="746.26739317136355" sparseCutoff="1.0000000000000000"/>
      <sparseX i="655" alpha="786.31822140226495" sparseCutoff="1.0000000000000000"/>
      <sparseX i="656" alpha="-570.99557933471897" sparseCutoff="1.0000000000000000"/>
      <sparseX i="657" alpha="-749.86746458984021" sparseCutoff="1.0000000000000000"/>
      <sparseX i="658" alpha="-152.21067135912921" sparseCutoff="1.0000000000000000"/>
      <sparseX i="659" alpha="911.04696313307352" sparseCutoff="1.0000000000000000"/>
      <sparseX i="660" alpha="-1463.8125524239692" sparseCutoff="1.0000000000000000"/>
      <sparseX i="661" alpha="-431.29111326508121" sparseCutoff="1.0000000000000000"/>
      <sparseX i="662" alpha="-35.559024438103293" sparseCutoff="1.0000000000000000"/>
      <sparseX i="663" alpha="-468.06438187894332" sparseCutoff="1.0000000000000000"/>
      <sparseX i="664" alpha="103.39424987439122" sparseCutoff="1.0000000000000000"/>
      <sparseX i="665" alpha="-143.74380225707981" sparseCutoff="1.0000000000000000"/>
      <sparseX i="666" alpha="-146.71999431848786" sparseCutoff="1.0000000000000000"/>
      <sparseX i="667" alpha="286.60392339537714" sparseCutoff="1.0000000000000000"/>
      <sparseX i="668" alpha="-1145.9351312661672" sparseCutoff="1.0000000000000000"/>
      <sparseX i="669" alpha="-725.85710092224963" sparseCutoff="1.0000000000000000"/>
      <sparseX i="670" alpha="-1999.1292140578530" sparseCutoff="1.0000000000000000"/>
      <sparseX i="671" alpha="368.04038325246279" sparseCutoff="1.0000000000000000"/>
      <sparseX i="672" alpha="188.52719020600620" sparseCutoff="1.0000000000000000"/>
      <sparseX i="673" alpha="-371.08439709555125" sparseCutoff="1.0000000000000000"/>
      <sparseX i="674" alpha="1009.7823292501820" sparseCutoff="1.0000000000000000"/>
      <sparseX i="675" alpha="-1152.2984933743983" sparseCutoff="1.0000000000000000"/>
      <sparseX i="676" alpha="798.38836833626999" sparseCutoff="1.0000000000000000"/>
      <sparseX i="677" alpha="436.98119722278551" sparseCutoff="1.0000000000000000"/>
      <sparseX i="678" alpha="-2329.1384111104985" sparseCutoff="1.0000000000000000"/>
      <sparseX i="679" alpha="-596.18521320929756" sparseCutoff="1.0000000000000000"/>
      <sparseX i="680" alpha="-75.621187094291557" sparseCutoff="1.0000000000000000"/>
      <sparseX i="681" alpha="461.32004701460590" sparseCutoff="1.0000000000000000"/>
      <sparseX i="682" alpha="38.357426363310303" sparseCutoff="1.0000000000000000"/>
      <sparseX i="683" alpha="-854.38420494260481" sparseCutoff="1.0000000000000000"/>
      <sparseX i="684" alpha="1115.3898701315022" sparseCutoff="1.0000000000000000"/>
      <sparseX i="685" alpha="1057.4643909726863" sparseCutoff="1.0000000000000000"/>
      <sparseX i="686" alpha="2778.0535375291101" sparseCutoff="1.0000000000000000"/>
      <sparseX i="687" alpha="766.45564705963966" sparseCutoff="1.0000000000000000"/>
      <sparseX i="688" alpha="-776.11891599970738" sparseCutoff="1.0000000000000000"/>
      <sparseX i="689" alpha="1268.7487865759390" sparseCutoff="1.0000000000000000"/>
      <sparseX i="690" alpha="894.26350296775752" sparseCutoff="1.0000000000000000"/>
      <sparseX i="691" alpha="-1487.2674250092668" sparseCutoff="1.0000000000000000"/>
      <sparseX i="692" alpha="3766.2531113994614" sparseCutoff="1.0000000000000000"/>
      <sparseX i="693" alpha="743.56728351083223" sparseCutoff="1.0000000000000000"/>
      <sparseX i="694" alpha="-1293.6808594652816" sparseCutoff="1.0000000000000000"/>
      <sparseX i="695" alpha="746.47361254676991" sparseCutoff="1.0000000000000000"/>
      <sparseX i="696" alpha="-249.63090435393701" sparseCutoff="1.0000000000000000"/>
      <sparseX i="697" alpha="-1672.0337020210557" sparseCutoff="1.0000000000000000"/>
      <sparseX i="698" alpha="-3012.9781412960697" sparseCutoff="1.0000000000000000"/>
      <sparseX i="699" alpha="909.31763452109703" sparseCutoff="1.0000000000000000"/>
      <sparseX i="700" alpha="1708.9695888313242" sparseCutoff="1.0000000000000000"/>
      <sparseX i="701" alpha="-651.91259400902129" sparseCutoff="1.0000000000000000"/>
      <sparseX i="702" alpha="-2816.6955005614195" sparseCutoff="1.0000000000000000"/>
      <sparseX i="703" alpha="32.417567200604829" sparseCutoff="1.0000000000000000"/>
      <sparseX i="704" alpha="-1052.3087570411365" sparseCutoff="1.0000000000000000"/>
      <sparseX i="705" alpha="339.77663374429494" sparseCutoff="1.0000000000000000"/>
      <sparseX i="706" alpha="1175.9279077268111" sparseCutoff="1.0000000000000000"/>
      <sparseX i="707" alpha="-52.639888649753857" sparseCutoff="1.0000000000000000"/>
      <sparseX i="708" alpha="-420.41312229892225" sparseCutoff="1.0000000000000000"/>
      <sparseX i="709" alpha="183.92762017395950" sparseCutoff="1.0000000000000000"/>
      <sparseX i="710" alpha="3020.2933903634857" sparseCutoff="1.0000000000000000"/>
      <sparseX i="711" alpha="-85.835142279550936" sparseCutoff="1.0000000000000000"/>
      <sparseX i="712" alpha="113.37001025236397" sparseCutoff="1.0000000000000000"/>
      <sparseX i="713" alpha="-142.58727826091896" sparseCutoff="1.0000000000000000"/>
      <sparseX i="714" alpha="-418.45493535048638" sparseCutoff="1.0000000000000000"/>
      <sparseX i="715" alpha="-763.30637186326021" sparseCutoff="1.0000000000000000"/>
      <sparseX i="716" alpha="-1851.6827229169960" sparseCutoff="1.0000000000000000"/>
      <sparseX i="717" alpha="1005.8835854576889" sparseCutoff="1.0000000000000000"/>
      <sparseX i="718" alpha="-867.16397358178392" sparseCutoff="1.0000000000000000"/>
      <sparseX i="719" alpha="1146.9832311766650" sparseCutoff="1.0000000000000000"/>
      <sparseX i="720" alpha="1910.7056066111677" sparseCutoff="1.0000000000000000"/>
      <sparseX i="721" alpha="760.64353859128630" sparseCutoff="1.0000000000000000"/>
      <sparseX i="722" alpha="-1004.5244933717609" sparseCutoff="1.0000000000000000"/>
      <sparseX i="723" alpha="-632.89238015552269" sparseCutoff="1.0000000000000000"/>
      <sparseX i="724" alpha="-250.23961511061711" sparseCutoff="1.0000000000000000"/>
      <sparseX i="725" alpha="410.73524303844050" sparseCutoff="1.0000000000000000"/>
      <sparseX i="726" alpha="-867.32830180965345" sparseCutoff="1.0000000000000000"/>
      <sparseX i="727" alpha="-437.50642796357300" sparseCutoff="1.0000000000000000"/>
      <sparseX i="728" alpha="458.12690744031744" sparseCutoff="1.0000000000000000"/>
      <sparseX i="729" alpha="431.74437344280557" sparseCutoff="1.0000000000000000"/>
      <sparseX i="730" alpha="4.4367848371326923" sparseCutoff="1.0000000000000000"/>
      <sparseX i="731" alpha="418.44056824183139" sparseCutoff="1.0000000000000000"/>
      <sparseX i="732" alpha="168.66498550835439" sparseCutoff="1.0000000000000000"/>
      <sparseX i="733" alpha="1544.8257080720482" sparseCutoff="1.0000000000000000"/>
      <sparseX i="734" alpha="-1546.0804544956438" sparseCutoff="1.0000000000000000"/>
      <sparseX i="735" alpha="1496.4773356957214" sparseCutoff="1.0000000000000000"/>
      <sparseX i="736" alpha="-3423.1098717401555" sparseCutoff="1.0000000000000000"/>
      <sparseX i="737" alpha="-33.231748744271911" sparseCutoff="1.0000000000000000"/>
      <sparseX i="738" alpha="-842.47814240976072" sparseCutoff="1.0000000000000000"/>
      <sparseX i="739" alpha="-606.16513538249922" sparseCutoff="1.0000000000000000"/>
      <sparseX i="740" alpha="1280.3682709030209" sparseCutoff="1.0000000000000000"/>
      <sparseX i="741" alpha="-747.73382677994232" sparseCutoff="1.0000000000000000"/>
      <sparseX i="742" alpha="167.45574192682582" sparseCutoff="1.0000000000000000"/>
      <sparseX i="743" alpha="-334.26348852572892" sparseCutoff="1.0000000000000000"/>
      <sparseX i="744" alpha="975.69963053202480" sparseCutoff="1.0000000000000000"/>
      <sparseX i="745" alpha="1592.8389876589667" sparseCutoff="1.0000000000000000"/>
      <sparseX i="746" alpha="4867.1753434595621" sparseCutoff="1.0000000000000000"/>
      <sparseX i="747" alpha="45.333190958961595" sparseCutoff="1.0000000000000000"/>
      <sparseX i="748" alpha="542.31735069711783" sparseCutoff="1.0000000000000000"/>
      <sparseX i="749" alpha="-149.08986113048613" sparseCutoff="1.0000000000000000"/>
      <sparseX i="750" alpha="43.353986937857286" sparseCutoff="1.0000000000000000"/>
      <sparseX i="751" alpha="-1458.4860034581118" sparseCutoff="1.0000000000000000"/>
      <sparseX i="752" alpha="1792.0845568204631" sparseCutoff="1.0000000000000000"/>
      <sparseX i="753" alpha="-1957.7078837052331" sparseCutoff="1.0000000000000000"/>
      <sparseX i="754" alpha="266.46062854730746" sparseCutoff="1.0000000000000000"/>
      <sparseX i="755" alpha="-4115.5637827946266" sparseCutoff="1.0000000000000000"/>
      <sparseX i="756" alpha="1273.9420057486550" sparseCutoff="1.0000000000000000"/>
      <sparseX i="757" alpha="-1341.6162761750938" sparseCutoff="1.0000000000000000"/>
      <sparseX i="758" alpha="680.24796391955340" sparseCutoff="1.0000000000000000"/>
      <sparseX i="759" alpha="-405.81152816926726" sparseCutoff="1.0000000000000000"/>
      <sparseX i="760" alpha="-1125.1842864086068" sparseCutoff="1.0000000000000000"/>
      <sparseX i="761" alpha="1676.0269044392135" sparseCutoff="1.0000000000000000"/>
      <sparseX i="762" alpha="750.44869457517245" sparseCutoff="1.0000000000000000"/>
      <sparseX i="763" alpha="-382.22026194170087" sparseCutoff="1.0000000000000000"/>
      <sparseX i="764" alpha="-675.31639955213109" sparseCutoff="1.0000000000000000"/>
      <sparseX i="765" alpha="-2823.0987649766244" sparseCutoff="1.0000000000000000"/>
      <sparseX i="766" alpha="-740.28404589706952" sparseCutoff="1.0000000000000000"/>
      <sparseX i="767" alpha="605.99990773407910" sparseCutoff="1.0000000000000000"/>
      <sparseX i="768" alpha="537.49323215222853" sparseCutoff="1.0000000000000000"/>
      <sparseX i="769" alpha="3602.2952901578365" sparseCutoff="1.0000000000000000"/>
      <sparseX i="770" alpha="-1852.9453255793803" sparseCutoff="1.0000000000000000"/>
      <sparseX i="771" alpha="-1983.8800004275645" sparseCutoff="1.0000000000000000"/>
      <sparseX i="772" alpha="-3063.6447519245539" sparseCutoff="1.0000000000000000"/>
      <sparseX i="773" alpha="1279.3139136946565" sparseCutoff="1.0000000000000000"/>
      <sparseX i="774" alpha="-493.77314822781165" sparseCutoff="1.0000000000000000"/>
      <sparseX i="775" alpha="-2902.6019573458552" sparseCutoff="1.0000000000000000"/>
      <sparseX i="776" alpha="-521.07092498838244" sparseCutoff="1.0000000000000000"/>
      <sparseX i="777" alpha="2.0271200542573986" sparseCutoff="1.0000000000000000"/>
      <sparseX i="778" alpha="-369.42375417239259" sparseCutoff="1.0000000000000000"/>
      <sparseX i="779" alpha="2166.0239519541519" sparseCutoff="1.0000000000000000"/>
      <sparseX i="780" alpha="-184.32100277561321" sparseCutoff="1.0000000000000000"/>
      <sparseX i="781" alpha="-1511.5711800664360" sparseCutoff="1.0000000000000000"/>
      <sparseX i="782" alpha="-549.35006471336681" sparseCutoff="1.0000000000000000"/>
      <sparseX i="783" alpha="-925.84409881883732" sparseCutoff="1.0000000000000000"/>
      <sparseX i="784" alpha="10.019243244721560" sparseCutoff="1.0000000000000000"/>
      <sparseX i="785" alpha="976.47240002363401" sparseCutoff="1.0000000000000000"/>
      <sparseX i="786" alpha="-364.02653283760549" sparseCutoff="1.0000000000000000"/>
      <sparseX i="787" alpha="2065.0307506423637" sparseCutoff="1.0000000000000000"/>
      <sparseX i="788" alpha="50.878230040115611" sparseCutoff="1.0000000000000000"/>
      <sparseX i="789" alpha="321.89649019335747" sparseCutoff="1.0000000000000000"/>
      <sparseX i="790" alpha="-529.89439044295045" sparseCutoff="1.0000000000000000"/>
      <sparseX i="791" alpha="-128.43775824876229" sparseCutoff="1.0000000000000000"/>
      <sparseX i="792" alpha="-1866.5436593780305" sparseCutoff="1.0000000000000000"/>
      <sparseX i="793" alpha="1776.7763297779309" sparseCutoff="1.0000000000000000"/>
      <sparseX i="794" alpha="392.43525197722772" sparseCutoff="1.0000000000000000"/>
      <sparseX i="795" alpha="-1001.8886440151691" sparseCutoff="1.0000000000000000"/>
      <sparseX i="796" alpha="-499.29568990145947" sparseCutoff="1.0000000000000000"/>
      <sparseX i="797" alpha="-1787.2225821982975" sparseCutoff="1.0000000000000000"/>
      <sparseX i="798" alpha="4516.5282275793415" sparseCutoff="1.0000000000000000"/>
      <sparseX i="799" alpha=".27973177225464996" sparseCutoff="1.0000000000000000"/>
      <sparseX i="800" alpha="3881.9240259218132" sparseCutoff="1.0000000000000000"/>
      <sparseX i="801" alpha="-427.83080334706483" sparseCutoff="1.0000000000000000"/>
      <sparseX i="802" alpha="378.94975859524612" sparseCutoff="1.0000000000000000"/>
      <sparseX i="803" alpha="-1338.8199642044847" sparseCutoff="1.0000000000000000"/>
      <sparseX i="804" alpha="16.097960840843950" sparseCutoff="1.0000000000000000"/>
      <sparseX i="805" alpha="-1421.8071498704637" sparseCutoff="1.0000000000000000"/>
      <sparseX i="806" alpha="-542.59489088274540" sparseCutoff="1.0000000000000000"/>
      <sparseX i="807" alpha="-387.72871060785729" sparseCutoff="1.0000000000000000"/>
      <sparseX i="808" alpha="-756.98534769165451" sparseCutoff="1.0000000000000000"/>
      <sparseX i="809" alpha="-30.750890564376402" sparseCutoff="1.0000000000000000"/>
      <sparseX i="810" alpha="-170.45985857716599" sparseCutoff="1.0000000000000000"/>
      <sparseX i="811" alpha="-2486.2767945850323" sparseCutoff="1.0000000000000000"/>
      <sparseX i="812" alpha="-49.120005461437849" sparseCutoff="1.0000000000000000"/>
      <sparseX i="813" alpha="-409.81045268473332" sparseCutoff="1.0000000000000000"/>
      <sparseX i="814" alpha="3182.5974775095442" sparseCutoff="1.0000000000000000"/>
      <sparseX i="815" alpha="-2340.1020899918863" sparseCutoff="1.0000000000000000"/>
      <sparseX i="816" alpha="-672.42985707619312" sparseCutoff="1.0000000000000000"/>
      <sparseX i="817" alpha="2218.7722783870522" sparseCutoff="1.0000000000000000"/>
      <sparseX i="818" alpha="1281.8539959280433" sparseCutoff="1.0000000000000000"/>
      <sparseX i="819" alpha="-870.18091872962327" sparseCutoff="1.0000000000000000"/>
      <sparseX i="820" alpha="-899.90193836868207" sparseCutoff="1.0000000000000000"/>
      <sparseX i="821" alpha="-567.97995008479609" sparseCutoff="1.0000000000000000"/>
      <sparseX i="822" alpha="-1387.8394647593609" sparseCutoff="1.0000000000000000"/>
      <sparseX i="823" alpha="3402.6942934050167" sparseCutoff="1.0000000000000000"/>
      <sparseX i="824" alpha="1496.8724850226790" sparseCutoff="1.0000000000000000"/>
      <sparseX i="825" alpha="1391.1883887343013" sparseCutoff="1.0000000000000000"/>
      <sparseX i="826" alpha="-139.86253880171012" sparseCutoff="1.0000000000000000"/>
      <sparseX i="827" alpha="-1823.2787063261076" sparseCutoff="1.0000000000000000"/>
      <sparseX i="828" alpha="2732.6503966051550" sparseCutoff="1.0000000000000000"/>
      <sparseX i="829" alpha="-78.395427397121352" sparseCutoff="1.0000000000000000"/>
      <sparseX i="830" alpha="-6653.1116345068986" sparseCutoff="1.0000000000000000"/>
      <sparseX i="831" alpha="1031.1932295091315" sparseCutoff="1.0000000000000000"/>
      <sparseX i="832" alpha="3017.3650214463119" sparseCutoff="1.0000000000000000"/>
      <sparseX i="833" alpha="1215.6411701928746" sparseCutoff="1.0000000000000000"/>
      <sparseX i="834" alpha="-262.80417622796244" sparseCutoff="1.0000000000000000"/>
      <sparseX i="835" alpha="-4.1375349785546387" sparseCutoff="1.0000000000000000"/>
      <sparseX i="836" alpha="42.130497731867919" sparseCutoff="1.0000000000000000"/>
      <sparseX i="837" alpha="1263.5920009540523" sparseCutoff="1.0000000000000000"/>
      <sparseX i="838" alpha="1529.4047939509660" sparseCutoff="1.0000000000000000"/>
      <sparseX i="839" alpha="1005.7810626718921" sparseCutoff="1.0000000000000000"/>
      <sparseX i="840" alpha="-655.06008990758471" sparseCutoff="1.0000000000000000"/>
      <sparseX i="841" alpha="-1579.8225706794178" sparseCutoff="1.0000000000000000"/>
      <sparseX i="842" alpha="-1170.1961968221112" sparseCutoff="1.0000000000000000"/>
      <sparseX i="843" alpha="-1710.3450082364452" sparseCutoff="1.0000000000000000"/>
      <sparseX i="844" alpha="-778.42404737253742" sparseCutoff="1.0000000000000000"/>
      <sparseX i="845" alpha="-795.16338994069440" sparseCutoff="1.0000000000000000"/>
      <sparseX i="846" alpha="-185.86382576090412" sparseCutoff="1.0000000000000000"/>
      <sparseX i="847" alpha="1076.6403839415091" sparseCutoff="1.0000000000000000"/>
      <sparseX i="848" alpha="-615.65855169609699" sparseCutoff="1.0000000000000000"/>
      <sparseX i="849" alpha="-250.43636947657700" sparseCutoff="1.0000000000000000"/>
      <sparseX i="850" alpha="867.35766246130640" sparseCutoff="1.0000000000000000"/>
      <sparseX i="851" alpha="164.20833635219509" sparseCutoff="1.0000000000000000"/>
      <sparseX i="852" alpha="1423.7521293752809" sparseCutoff="1.0000000000000000"/>
      <sparseX i="853" alpha="188.22206163008087" sparseCutoff="1.0000000000000000"/>
      <sparseX i="854" alpha="-414.38700083571956" sparseCutoff="1.0000000000000000"/>
      <sparseX i="855" alpha="-26.411345375989139" sparseCutoff="1.0000000000000000"/>
      <sparseX i="856" alpha="340.00314848434402" sparseCutoff="1.0000000000000000"/>
      <sparseX i="857" alpha="-107.42561636309924" sparseCutoff="1.0000000000000000"/>
      <sparseX i="858" alpha="350.61604646632230" sparseCutoff="1.0000000000000000"/>
      <sparseX i="859" alpha="17.775758536607320" sparseCutoff="1.0000000000000000"/>
      <sparseX i="860" alpha="-90.697982059185264" sparseCutoff="1.0000000000000000"/>
      <sparseX i="861" alpha="245.82239052474890" sparseCutoff="1.0000000000000000"/>
      <sparseX i="862" alpha="-405.57497888921279" sparseCutoff="1.0000000000000000"/>
      <sparseX i="863" alpha="-1262.9499261694682" sparseCutoff="1.0000000000000000"/>
      <sparseX i="864" alpha="-82.764458166572879" sparseCutoff="1.0000000000000000"/>
      <sparseX i="865" alpha="2505.4328048243065" sparseCutoff="1.0000000000000000"/>
      <sparseX i="866" alpha="-235.27897455765785" sparseCutoff="1.0000000000000000"/>
      <sparseX i="867" alpha="-655.10093162122632" sparseCutoff="1.0000000000000000"/>
      <sparseX i="868" alpha="2921.8598812437067" sparseCutoff="1.0000000000000000"/>
      <sparseX i="869" alpha="82.583789535523010" sparseCutoff="1.0000000000000000"/>
      <sparseX i="870" alpha="-695.34715335199610" sparseCutoff="1.0000000000000000"/>
      <sparseX i="871" alpha="233.00098433180162" sparseCutoff="1.0000000000000000"/>
      <sparseX i="872" alpha="18.039735261961297" sparseCutoff="1.0000000000000000"/>
      <sparseX i="873" alpha="-1778.1915510403444" sparseCutoff="1.0000000000000000"/>
      <sparseX i="874" alpha="-1218.7713380996577" sparseCutoff="1.0000000000000000"/>
      <sparseX i="875" alpha="3161.6280919997921" sparseCutoff="1.0000000000000000"/>
      <sparseX i="876" alpha="-1477.1978231626049" sparseCutoff="1.0000000000000000"/>
      <sparseX i="877" alpha="-2114.4781350857907" sparseCutoff="1.0000000000000000"/>
      <sparseX i="878" alpha="418.05980758690208" sparseCutoff="1.0000000000000000"/>
      <sparseX i="879" alpha="-251.97765413877852" sparseCutoff="1.0000000000000000"/>
      <sparseX i="880" alpha="-103.43821152426412" sparseCutoff="1.0000000000000000"/>
      <sparseX i="881" alpha="-354.07536815539845" sparseCutoff="1.0000000000000000"/>
      <sparseX i="882" alpha="-212.36264533415780" sparseCutoff="1.0000000000000000"/>
      <sparseX i="883" alpha="-407.76957321082648" sparseCutoff="1.0000000000000000"/>
      <sparseX i="884" alpha="-1225.0813300530451" sparseCutoff="1.0000000000000000"/>
      <sparseX i="885" alpha="-1245.3051269748501" sparseCutoff="1.0000000000000000"/>
      <sparseX i="886" alpha="-72.259772632797237" sparseCutoff="1.0000000000000000"/>
      <sparseX i="887" alpha="512.21393221557889" sparseCutoff="1.0000000000000000"/>
      <sparseX i="888" alpha="-294.34742266463718" sparseCutoff="1.0000000000000000"/>
      <sparseX i="889" alpha="-488.85858601858234" sparseCutoff="1.0000000000000000"/>
      <sparseX i="890" alpha="159.95585026115674" sparseCutoff="1.0000000000000000"/>
      <sparseX i="891" alpha="-816.60673562620138" sparseCutoff="1.0000000000000000"/>
      <sparseX i="892" alpha="-377.44207851961608" sparseCutoff="1.0000000000000000"/>
      <sparseX i="893" alpha="-268.78885217840929" sparseCutoff="1.0000000000000000"/>
      <sparseX i="894" alpha="-13.189871538904207" sparseCutoff="1.0000000000000000"/>
      <sparseX i="895" alpha="-709.92114845587344" sparseCutoff="1.0000000000000000"/>
      <sparseX i="896" alpha="-948.11943073188422" sparseCutoff="1.0000000000000000"/>
      <sparseX i="897" alpha="-207.22319866638026" sparseCutoff="1.0000000000000000"/>
      <sparseX i="898" alpha="537.53514937892282" sparseCutoff="1.0000000000000000"/>
      <sparseX i="899" alpha="-289.56795187183701" sparseCutoff="1.0000000000000000"/>
      <sparseX i="900" alpha="1198.4650180280360" sparseCutoff="1.0000000000000000"/>
      <sparseX i="901" alpha="-1651.2705035042650" sparseCutoff="1.0000000000000000"/>
      <sparseX i="902" alpha="786.50520713348192" sparseCutoff="1.0000000000000000"/>
      <sparseX i="903" alpha="-2330.8218313425527" sparseCutoff="1.0000000000000000"/>
      <sparseX i="904" alpha="189.00533756385934" sparseCutoff="1.0000000000000000"/>
      <sparseX i="905" alpha="-271.82332260221330" sparseCutoff="1.0000000000000000"/>
      <sparseX i="906" alpha="289.75704239015244" sparseCutoff="1.0000000000000000"/>
      <sparseX i="907" alpha="-66.047771715756653" sparseCutoff="1.0000000000000000"/>
      <sparseX i="908" alpha="-283.07050108888205" sparseCutoff="1.0000000000000000"/>
      <sparseX i="909" alpha="-1554.9029257750692" sparseCutoff="1.0000000000000000"/>
      <sparseX i="910" alpha="682.54218117743312" sparseCutoff="1.0000000000000000"/>
      <sparseX i="911" alpha="-438.62031712026419" sparseCutoff="1.0000000000000000"/>
      <sparseX i="912" alpha="-3017.7820680666364" sparseCutoff="1.0000000000000000"/>
      <sparseX i="913" alpha="-891.54739223503987" sparseCutoff="1.0000000000000000"/>
      <sparseX i="914" alpha="-1726.4899114257535" sparseCutoff="1.0000000000000000"/>
      <sparseX i="915" alpha="-3230.2068251059845" sparseCutoff="1.0000000000000000"/>
      <sparseX i="916" alpha="-1434.5667035745789" sparseCutoff="1.0000000000000000"/>
      <sparseX i="917" alpha="104.08781570895809" sparseCutoff="1.0000000000000000"/>
      <sparseX i="918" alpha="1282.6054747132794" sparseCutoff="1.0000000000000000"/>
      <sparseX i="919" alpha="215.15814280574941" sparseCutoff="1.0000000000000000"/>
      <sparseX i="920" alpha="1923.9217187972829" sparseCutoff="1.0000000000000000"/>
      <sparseX i="921" alpha="1412.8475502836425" sparseCutoff="1.0000000000000000"/>
      <sparseX i="922" alpha="364.74063949780998" sparseCutoff="1.0000000000000000"/>
      <sparseX i="923" alpha="243.33488640764151" sparseCutoff="1.0000000000000000"/>
    </gpCoordinates>
    <gpCoordinates label="GAP_2023_3_13_0_10_38_24_2255" dimensions="681" signal_variance=".50000000000000000" signal_mean=".00000000000000000E+000" sparsified="T" n_permutations="1" covariance_type="2" zeta="4.0000000000000000" n_sparseX="611" sparseX_filename="GAP.xml.sparseX.GAP_2023_3_13_0_10_38_24_2255" sparseX_md5sum="4454bac0858bad17eab557565d81d107">
      <descriptor> soap n_sparse=1000 n_max=8 l_max=4 cutoff=3.5 cutoff_transition_width=0.5 atom_sigma=0.4                  covariance_type=dot_product zeta=4 sparse_method=cur_points delta=0.5 n_species=2 Z=13 species_Z={8 13 }</descriptor>
      <permutation i="1">1  </permutation>
      <sparseX i="1" alpha="-4882.2919116865560" sparseCutoff="1.0000000000000000"/>
      <sparseX i="2" alpha="2247.9852063644453" sparseCutoff="1.0000000000000000"/>
      <sparseX i="3" alpha="-1187.1117816427745" sparseCutoff="1.0000000000000000"/>
      <sparseX i="4" alpha="1993.3926055497152" sparseCutoff="1.0000000000000000"/>
      <sparseX i="5" alpha="6632.7954613463116" sparseCutoff="1.0000000000000000"/>
      <sparseX i="6" alpha="-6894.0276790734670" sparseCutoff="1.0000000000000000"/>
      <sparseX i="7" alpha="-13046.685341989010" sparseCutoff="1.0000000000000000"/>
      <sparseX i="8" alpha="4321.2451046781571" sparseCutoff="1.0000000000000000"/>
      <sparseX i="9" alpha="-3858.3388405099413" sparseCutoff="1.0000000000000000"/>
      <sparseX i="10" alpha="-4054.1634584457875" sparseCutoff="1.0000000000000000"/>
      <sparseX i="11" alpha="-3403.2511019164390" sparseCutoff="1.0000000000000000"/>
      <sparseX i="12" alpha="-8206.4952577026525" sparseCutoff="1.0000000000000000"/>
      <sparseX i="13" alpha="-1467.0474782549795" sparseCutoff="1.0000000000000000"/>
      <sparseX i="14" alpha="-9263.1699456972437" sparseCutoff="1.0000000000000000"/>
      <sparseX i="15" alpha="-13367.390333262203" sparseCutoff="1.0000000000000000"/>
      <sparseX i="16" alpha="-8891.0981014825902" sparseCutoff="1.0000000000000000"/>
      <sparseX i="17" alpha="-758.68843516346601" sparseCutoff="1.0000000000000000"/>
      <sparseX i="18" alpha="4782.8952007663156" sparseCutoff="1.0000000000000000"/>
      <sparseX i="19" alpha="-7239.2589493022087" sparseCutoff="1.0000000000000000"/>
      <sparseX i="20" alpha="5062.0393023452589" sparseCutoff="1.0000000000000000"/>
      <sparseX i="21" alpha="-4477.4109722939138" sparseCutoff="1.0000000000000000"/>
      <sparseX i="22" alpha="-7936.1186863450857" sparseCutoff="1.0000000000000000"/>
      <sparseX i="23" alpha="-11465.624698070545" sparseCutoff="1.0000000000000000"/>
      <sparseX i="24" alpha="9711.6875225791719" sparseCutoff="1.0000000000000000"/>
      <sparseX i="25" alpha="6550.8538068889229" sparseCutoff="1.0000000000000000"/>
      <sparseX i="26" alpha="12749.356366965192" sparseCutoff="1.0000000000000000"/>
      <sparseX i="27" alpha="-8349.3984949355799" sparseCutoff="1.0000000000000000"/>
      <sparseX i="28" alpha="-977.98424869531777" sparseCutoff="1.0000000000000000"/>
      <sparseX i="29" alpha="-8236.7479520360484" sparseCutoff="1.0000000000000000"/>
      <sparseX i="30" alpha="-2400.4848258375778" sparseCutoff="1.0000000000000000"/>
      <sparseX i="31" alpha="5187.8441122035310" sparseCutoff="1.0000000000000000"/>
      <sparseX i="32" alpha="4931.1927111838768" sparseCutoff="1.0000000000000000"/>
      <sparseX i="33" alpha="494.55633527599201" sparseCutoff="1.0000000000000000"/>
      <sparseX i="34" alpha="-4293.7112424724828" sparseCutoff="1.0000000000000000"/>
      <sparseX i="35" alpha="-9325.3896429034903" sparseCutoff="1.0000000000000000"/>
      <sparseX i="36" alpha="-1183.8281631174095" sparseCutoff="1.0000000000000000"/>
      <sparseX i="37" alpha="7850.1636962584234" sparseCutoff="1.0000000000000000"/>
      <sparseX i="38" alpha="-99.387933668062345" sparseCutoff="1.0000000000000000"/>
      <sparseX i="39" alpha="8832.9075768819021" sparseCutoff="1.0000000000000000"/>
      <sparseX i="40" alpha="-4567.5092615831836" sparseCutoff="1.0000000000000000"/>
      <sparseX i="41" alpha="3810.1210524019220" sparseCutoff="1.0000000000000000"/>
      <sparseX i="42" alpha="-11935.621944322791" sparseCutoff="1.0000000000000000"/>
      <sparseX i="43" alpha="8755.9075026702085" sparseCutoff="1.0000000000000000"/>
      <sparseX i="44" alpha="4032.6709085916896" sparseCutoff="1.0000000000000000"/>
      <sparseX i="45" alpha="11430.498785824531" sparseCutoff="1.0000000000000000"/>
      <sparseX i="46" alpha="-4714.5715540264082" sparseCutoff="1.0000000000000000"/>
      <sparseX i="47" alpha="-554.96749357457850" sparseCutoff="1.0000000000000000"/>
      <sparseX i="48" alpha="4480.1900233546157" sparseCutoff="1.0000000000000000"/>
      <sparseX i="49" alpha="3274.5031878035002" sparseCutoff="1.0000000000000000"/>
      <sparseX i="50" alpha="-3684.8805479723264" sparseCutoff="1.0000000000000000"/>
      <sparseX i="51" alpha="-5273.4371442010088" sparseCutoff="1.0000000000000000"/>
      <sparseX i="52" alpha="-8644.4625695766936" sparseCutoff="1.0000000000000000"/>
      <sparseX i="53" alpha="3870.8822622936800" sparseCutoff="1.0000000000000000"/>
      <sparseX i="54" alpha="10884.402977503478" sparseCutoff="1.0000000000000000"/>
      <sparseX i="55" alpha="-3994.9759239278537" sparseCutoff="1.0000000000000000"/>
      <sparseX i="56" alpha="-2020.7874565071177" sparseCutoff="1.0000000000000000"/>
      <sparseX i="57" alpha="8761.4665923511038" sparseCutoff="1.0000000000000000"/>
      <sparseX i="58" alpha="-114.99228667229542" sparseCutoff="1.0000000000000000"/>
      <sparseX i="59" alpha="-782.70871782652421" sparseCutoff="1.0000000000000000"/>
      <sparseX i="60" alpha="-2897.9214755682333" sparseCutoff="1.0000000000000000"/>
      <sparseX i="61" alpha="20878.598409479517" sparseCutoff="1.0000000000000000"/>
      <sparseX i="62" alpha="9758.9127288368345" sparseCutoff="1.0000000000000000"/>
      <sparseX i="63" alpha="3482.9266465106871" sparseCutoff="1.0000000000000000"/>
      <sparseX i="64" alpha="10711.752087125795" sparseCutoff="1.0000000000000000"/>
      <sparseX i="65" alpha="-7265.3121561964645" sparseCutoff="1.0000000000000000"/>
